{"sizes":[77,38,10],"layers":[{"0":{},"1":{},"2":{},"3":{},"4":{},"5":{},"6":{},"7":{},"8":{},"9":{},"10":{},"11":{},"12":{},"13":{},"14":{},"15":{},"16":{},"17":{},"18":{},"19":{},"20":{},"21":{},"22":{},"23":{},"24":{},"25":{},"26":{},"27":{},"28":{},"29":{},"30":{},"31":{},"32":{},"33":{},"34":{},"35":{},"36":{},"37":{},"38":{},"39":{},"40":{},"41":{},"42":{},"43":{},"44":{},"45":{},"46":{},"47":{},"48":{},"49":{},"50":{},"51":{},"52":{},"53":{},"54":{},"55":{},"56":{},"57":{},"58":{},"59":{},"60":{},"61":{},"62":{},"63":{},"64":{},"65":{},"66":{},"67":{},"68":{},"69":{},"70":{},"71":{},"72":{},"73":{},"74":{},"75":{},"76":{}},{"0":{"bias":-0.27681615948677063,"weights":{"0":0.019982263445854187,"1":-0.4940015971660614,"2":0.1743564009666443,"3":-0.019383713603019714,"4":-0.03146713972091675,"5":-0.0011003129184246063,"6":0.3015831708908081,"7":0.0378490574657917,"8":0.08160452544689178,"9":0.18695849180221558,"10":0.124639593064785,"11":0.3153221607208252,"12":-0.021014735102653503,"13":0.11592359840869904,"14":0.08873961120843887,"15":-0.4508737623691559,"16":0.2808622717857361,"17":0.26751959323883057,"18":0.013252080418169498,"19":0.1306321918964386,"20":-0.2274504452943802,"21":0.2274056226015091,"22":0.19472794234752655,"23":0.226532444357872,"24":0.08404813706874847,"25":0.2893456220626831,"26":0.1779727041721344,"27":0.07180743664503098,"28":0.15734612941741943,"29":0.18912173807621002,"30":0.034808333963155746,"31":0.18293337523937225,"32":0.1729898303747177,"33":-0.5629079937934875,"34":0.10394493490457535,"35":-0.19063249230384827,"36":0.056141484528779984,"37":0.19418412446975708,"38":0.36465421319007874,"39":0.14929890632629395,"40":0.038064345717430115,"41":0.04280039295554161,"42":0.27874186635017395,"43":0.08553753048181534,"44":0.20204328000545502,"45":0.13304831087589264,"46":0.3301967978477478,"47":0.04942382127046585,"48":0.2852601408958435,"49":0.17780368030071259,"50":-0.03538588806986809,"51":0.2152554988861084,"52":0.40196719765663147,"53":0.37138688564300537,"54":0.24637004733085632,"55":0.011049041524529457,"56":0.2470095157623291,"57":0.06988783180713654,"58":0.1998724788427353,"59":0.020397208631038666,"60":0.3298894166946411,"61":0.08731504529714584,"62":0.22688297927379608,"63":0.061735183000564575,"64":0.42185187339782715,"65":0.10593615472316742,"66":0.36394819617271423,"67":-0.19533252716064453,"68":0.10964741557836533,"69":0.05830048397183418,"70":0.063939668238163,"71":0.07201826572418213,"72":0.25317421555519104,"73":-0.01643981970846653,"74":-0.03371613472700119,"75":0.2753234803676605,"76":-0.09590939432382584}},"1":{"bias":-0.19134259223937988,"weights":{"0":0.3425716459751129,"1":0.19100211560726166,"2":-0.1918921172618866,"3":-0.2537410259246826,"4":0.19337965548038483,"5":0.20070943236351013,"6":-0.21127435564994812,"7":-0.16984298825263977,"8":0.01181716937571764,"9":-0.03636539727449417,"10":0.08102162182331085,"11":0.057182855904102325,"12":0.301146000623703,"13":0.0784345269203186,"14":0.04107815772294998,"15":0.11350646615028381,"16":0.13831056654453278,"17":0.15413632988929749,"18":0.1504165083169937,"19":0.14810672402381897,"20":0.3011930286884308,"21":-0.303160160779953,"22":0.2221868634223938,"23":0.12137613445520401,"24":0.27691417932510376,"25":0.14902150630950928,"26":-0.09028100967407227,"27":-0.06935066729784012,"28":-0.18028537929058075,"29":0.05560910701751709,"30":-0.2912639081478119,"31":-0.07205147296190262,"32":0.08813852816820145,"33":-0.2995515465736389,"34":-0.06770413368940353,"35":0.023913074284791946,"36":-0.07813294976949692,"37":-0.07652360945940018,"38":0.3420099914073944,"39":0.17028777301311493,"40":0.047377314418554306,"41":-0.08664099127054214,"42":0.253583163022995,"43":-0.051548801362514496,"44":-0.06904838979244232,"45":0.26882073283195496,"46":-0.09174839407205582,"47":0.21765704452991486,"48":0.16101834177970886,"49":0.22252157330513,"50":0.2797963321208954,"51":0.2687540352344513,"52":-0.1758747696876526,"53":-0.11707273125648499,"54":0.0257915910333395,"55":-0.037250056862831116,"56":0.06671484559774399,"57":-0.0387037917971611,"58":-0.037184938788414,"59":-0.00575999217107892,"60":-0.214617520570755,"61":0.07307766377925873,"62":0.2191336750984192,"63":-0.08090545237064362,"64":-0.21353524923324585,"65":0.13695979118347168,"66":-0.06431590765714645,"67":-0.01684592291712761,"68":0.16981013119220734,"69":0.015549564734101295,"70":-0.01514145452529192,"71":-0.329992413520813,"72":0.05981208756566048,"73":0.4342840909957886,"74":0.10104627907276154,"75":-0.3121388852596283,"76":-0.013979572802782059}},"2":{"bias":0.0031831148080527782,"weights":{"0":0.03955049440264702,"1":0.15729866921901703,"2":0.18335144221782684,"3":-0.30091986060142517,"4":0.027099307626485825,"5":-0.2879430055618286,"6":0.2214544266462326,"7":-0.1988930106163025,"8":-0.18657125532627106,"9":-0.13726858794689178,"10":-0.11944340914487839,"11":-0.3266811966896057,"12":-0.3013027310371399,"13":-0.15362592041492462,"14":-0.31832653284072876,"15":0.20304270088672638,"16":0.10505256056785583,"17":-0.10680386424064636,"18":-0.11017091572284698,"19":-0.2274044007062912,"20":-0.0020165059249848127,"21":0.10382293909788132,"22":0.020209478214383125,"23":-0.1851349025964737,"24":-0.15941494703292847,"25":-0.24622879922389984,"26":0.002771521219983697,"27":-0.14549203217029572,"28":0.08180639147758484,"29":-0.19108863174915314,"30":-0.30160292983055115,"31":-0.029238782823085785,"32":-0.03271293267607689,"33":-0.07901062071323395,"34":-0.26000526547431946,"35":-0.10140945762395859,"36":-0.12431439757347107,"37":-0.08857639878988266,"38":0.06413456052541733,"39":0.18682461977005005,"40":-0.2433009147644043,"41":-0.16896499693393707,"42":-0.23886626958847046,"43":0.0971287190914154,"44":0.0861448124051094,"45":0.11879923194646835,"46":-0.08463448286056519,"47":0.031502798199653625,"48":-0.15253926813602448,"49":0.09147617965936661,"50":-0.1556650549173355,"51":-0.05723907798528671,"52":-0.3352855443954468,"53":-0.36394208669662476,"54":0.04666457325220108,"55":-0.2302183210849762,"56":-0.013140389695763588,"57":-0.20390333235263824,"58":-0.20467668771743774,"59":0.1946340948343277,"60":-0.12104995548725128,"61":0.001362327835522592,"62":-0.16243526339530945,"63":0.061992011964321136,"64":-0.37451374530792236,"65":0.05815594643354416,"66":-0.07783590257167816,"67":-0.21552591025829315,"68":0.3294711410999298,"69":0.29585644602775574,"70":0.38340649008750916,"71":0.39497390389442444,"72":-0.313791960477829,"73":-0.21863692998886108,"74":0.15067902207374573,"75":-0.3759196996688843,"76":-0.016492264345288277}},"3":{"bias":-0.07619915902614594,"weights":{"0":0.08989577740430832,"1":-0.16624490916728973,"2":0.058255165815353394,"3":-0.24323530495166779,"4":0.45410361886024475,"5":0.4256570637226105,"6":-0.003889006795361638,"7":-0.22322838008403778,"8":-0.449227511882782,"9":-0.0028709627222269773,"10":-0.063665471971035,"11":-0.3604778051376343,"12":-0.23761031031608582,"13":0.15714558959007263,"14":-0.23784105479717255,"15":-0.4735848009586334,"16":0.12889797985553741,"17":-0.0442102774977684,"18":0.14331397414207458,"19":0.21851515769958496,"20":0.41917189955711365,"21":-0.08714932948350906,"22":0.035952646285295486,"23":-0.25522610545158386,"24":0.04180053994059563,"25":-0.10241702944040298,"26":-0.3493015170097351,"27":-0.24143916368484497,"28":-0.19368061423301697,"29":-0.08303555846214294,"30":-0.1809786856174469,"31":-0.13631179928779602,"32":-0.02107533998787403,"33":0.46286770701408386,"34":-0.2726823687553406,"35":-0.14560040831565857,"36":-0.03740962594747543,"37":-0.005882634315639734,"38":-0.22075633704662323,"39":0.11351678520441055,"40":0.0363365076482296,"41":-0.24395844340324402,"42":-0.1513792872428894,"43":-0.05914274975657463,"44":-0.1775623857975006,"45":-0.25871390104293823,"46":-0.20357170701026917,"47":-0.2020438313484192,"48":-0.20267707109451294,"49":0.0736425444483757,"50":-0.011305347084999084,"51":-0.115261510014534,"52":0.03685050085186958,"53":-0.10321871191263199,"54":0.22392572462558746,"55":-0.01527571864426136,"56":0.17346766591072083,"57":-0.14969627559185028,"58":0.14057059586048126,"59":-0.08088921755552292,"60":-0.035813383758068085,"61":0.1586773693561554,"62":-0.02375681884586811,"63":0.1692970246076584,"64":-0.2203335016965866,"65":0.185505673289299,"66":-0.016590842977166176,"67":0.37931960821151733,"68":0.2201140969991684,"69":-0.2005745768547058,"70":-0.02993614412844181,"71":0.09223011881113052,"72":-0.21061742305755615,"73":0.1900964081287384,"74":0.49268683791160583,"75":-0.11649752408266068,"76":-0.16988898813724518}},"4":{"bias":-0.13043195009231567,"weights":{"0":-0.20745578408241272,"1":-0.3317827880382538,"2":-0.08449531346559525,"3":0.4127476215362549,"4":0.033323924988508224,"5":-0.1100473627448082,"6":-0.08643683046102524,"7":0.12159212678670883,"8":-0.1880582571029663,"9":-0.14236335456371307,"10":-0.291472464799881,"11":0.4069306254386902,"12":-0.16476382315158844,"13":0.07764643430709839,"14":0.357038676738739,"15":0.04711617901921272,"16":0.30643412470817566,"17":0.2550581693649292,"18":0.19988057017326355,"19":0.03527795523405075,"20":0.0039025512523949146,"21":-0.10771718621253967,"22":0.2545090317726135,"23":0.2528257668018341,"24":0.025779787451028824,"25":0.12793786823749542,"26":-0.2946142554283142,"27":0.12200985848903656,"28":0.13776454329490662,"29":0.07867741584777832,"30":0.3194258511066437,"31":0.137884721159935,"32":0.16887879371643066,"33":0.7009875178337097,"34":0.41512784361839294,"35":-0.1716621369123459,"36":0.03416306897997856,"37":-0.025286249816417694,"38":-0.1307750791311264,"39":0.0861278772354126,"40":0.24188920855522156,"41":-0.2978382110595703,"42":-0.08620553463697433,"43":0.3015100657939911,"44":0.22479115426540375,"45":0.16949322819709778,"46":0.2010253369808197,"47":0.10009181499481201,"48":-0.08603716641664505,"49":0.18110059201717377,"50":0.07315616309642792,"51":0.05934049189090729,"52":-0.16783712804317474,"53":-0.3573257625102997,"54":0.04160311818122864,"55":0.2687796950340271,"56":-0.03139651566743851,"57":-0.07929585874080658,"58":0.32933661341667175,"59":-0.026644326746463776,"60":-0.0378229133784771,"61":0.21739131212234497,"62":0.05808543413877487,"63":-0.028611788526177406,"64":-0.05331855267286301,"65":0.19279305636882782,"66":-0.20940887928009033,"67":0.1333153396844864,"68":-0.24926985800266266,"69":-0.4447796046733856,"70":-0.34351682662963867,"71":-0.19298255443572998,"72":0.2967700660228729,"73":-0.06137385591864586,"74":-0.3535781800746918,"75":-0.0464463047683239,"76":0.036940548568964005}},"5":{"bias":-0.13322755694389343,"weights":{"0":0.19034673273563385,"1":-0.25164198875427246,"2":0.12169097363948822,"3":-0.08919405192136765,"4":-0.33877262473106384,"5":0.06982068717479706,"6":-0.4664326608181,"7":0.5098749399185181,"8":0.29911088943481445,"9":0.06544281542301178,"10":0.04591266065835953,"11":0.4012090861797333,"12":0.6059688925743103,"13":-0.03065050020813942,"14":0.04048796370625496,"15":-0.5407852530479431,"16":-0.09394869208335876,"17":-0.19593843817710876,"18":-0.20836621522903442,"19":-0.1473950743675232,"20":-0.18894416093826294,"21":0.08693849295377731,"22":-0.0946560725569725,"23":0.11492061614990234,"24":-0.035763006657361984,"25":0.07097385823726654,"26":0.2459544986486435,"27":0.25279855728149414,"28":0.1485021710395813,"29":-0.11685395240783691,"30":0.05978794023394585,"31":0.14881934225559235,"32":-0.19021615386009216,"33":-0.08032865077257156,"34":0.03131352365016937,"35":0.0031469191890209913,"36":-0.05342461168766022,"37":-0.12498936802148819,"38":0.08701012283563614,"39":-0.09391669183969498,"40":0.06254041939973831,"41":0.4624260663986206,"42":-0.012448969297111034,"43":0.20151826739311218,"44":0.08368866890668869,"45":0.15279020369052887,"46":0.1412467062473297,"47":0.15302053093910217,"48":-0.12232046574354172,"49":-0.14944615960121155,"50":-0.1208249181509018,"51":0.1687743067741394,"52":0.38276803493499756,"53":0.3115772306919098,"54":-0.1900712549686432,"55":-0.06769503653049469,"56":0.1696721315383911,"57":0.28503870964050293,"58":-0.21434901654720306,"59":-0.1724739521741867,"60":0.21629229187965393,"61":-0.062124691903591156,"62":-0.10914279520511627,"63":-0.1323646903038025,"64":0.19262348115444183,"65":-0.2767820954322815,"66":0.11719847470521927,"67":0.01604960300028324,"68":-0.15266406536102295,"69":-0.16231246292591095,"70":-0.35769742727279663,"71":-0.16655181348323822,"72":-0.17663580179214478,"73":-0.14871983230113983,"74":-0.46202540397644043,"75":0.1755755990743637,"76":-0.020034344866871834}},"6":{"bias":0.10894396901130676,"weights":{"0":-0.05707891285419464,"1":-0.1720392256975174,"2":0.13425393402576447,"3":-0.044242825359106064,"4":-0.3670945167541504,"5":0.01144903339445591,"6":-0.039610669016838074,"7":0.3375856578350067,"8":0.17856073379516602,"9":0.32236814498901367,"10":-0.285957396030426,"11":0.07695802301168442,"12":-0.06914195418357849,"13":0.026551200076937675,"14":0.42771559953689575,"15":-0.3195565342903137,"16":-0.07262789458036423,"17":-0.22777928411960602,"18":-0.21818450093269348,"19":-0.11454084515571594,"20":-0.3949260711669922,"21":0.32522910833358765,"22":-0.06624669581651688,"23":0.0596725195646286,"24":-0.09047400206327438,"25":0.0812593400478363,"26":-0.07380607724189758,"27":0.2314555048942566,"28":0.18368180096149445,"29":-0.13295911252498627,"30":0.2502390146255493,"31":0.12391367554664612,"32":-0.047211263328790665,"33":0.3842325508594513,"34":0.06430062651634216,"35":-0.16598396003246307,"36":-0.001696387305855751,"37":0.02588038332760334,"38":-0.06257268041372299,"39":-0.16311326622962952,"40":0.34924593567848206,"41":-0.0035818677861243486,"42":-0.2963358461856842,"43":-0.2840537428855896,"44":0.057745561003685,"45":0.06868520379066467,"46":-0.041202984750270844,"47":-0.2766369879245758,"48":0.0657954141497612,"49":-0.14395959675312042,"50":-0.267843097448349,"51":-0.12067421525716782,"52":-0.24325954914093018,"53":0.042250338941812515,"54":-0.21440841257572174,"55":-0.22312456369400024,"56":-0.06321737915277481,"57":-0.10890444368124008,"58":-0.23048779368400574,"59":0.08210861682891846,"60":-0.026994647458195686,"61":-0.1418764889240265,"62":0.058009229600429535,"63":-0.03283500298857689,"64":-0.2063436061143875,"65":0.059830598533153534,"66":-0.24717484414577484,"67":-0.2587326467037201,"68":0.07993949949741364,"69":0.23312874138355255,"70":-0.00902607012540102,"71":0.19630105793476105,"72":-0.1850251406431198,"73":-0.3616137206554413,"74":-0.060263242572546005,"75":0.02907027117908001,"76":0.10054200887680054}},"7":{"bias":0.0650058388710022,"weights":{"0":0.09347574412822723,"1":0.050685085356235504,"2":-0.13114033639431,"3":0.019340496510267258,"4":0.06938887387514114,"5":0.13645899295806885,"6":-0.2951537072658539,"7":0.12690208852291107,"8":0.2793140411376953,"9":0.013149866834282875,"10":0.08944930881261826,"11":-0.0709402784705162,"12":0.34199008345603943,"13":0.05335433408617973,"14":0.018025290220975876,"15":0.28938451409339905,"16":-0.13886190950870514,"17":-0.06222712621092796,"18":0.021222684532403946,"19":-0.29922419786453247,"20":-0.004058843944221735,"21":-0.13441072404384613,"22":-0.27242162823677063,"23":-0.20242099463939667,"24":0.01589330844581127,"25":-0.1580793708562851,"26":0.15824991464614868,"27":0.19394174218177795,"28":0.11228129267692566,"29":-0.2262764275074005,"30":-0.16850966215133667,"31":-0.13562306761741638,"32":-0.020788798108696938,"33":-0.08718760311603546,"34":-0.018819203600287437,"35":-0.17332319915294647,"36":-0.08777336776256561,"37":-0.13105309009552002,"38":0.18028222024440765,"39":-0.08232131600379944,"40":-0.19162096083164215,"41":0.3537769615650177,"42":0.025136956945061684,"43":-0.06399594247341156,"44":-0.21650144457817078,"45":-0.21098527312278748,"46":-0.26844096183776855,"47":-0.21335254609584808,"48":-0.29583626985549927,"49":-0.1807723492383957,"50":-0.026808198541402817,"51":-0.10611873865127563,"52":-0.16253674030303955,"53":-0.02774588204920292,"54":-0.14485503733158112,"55":-0.018416238948702812,"56":0.06659986823797226,"57":-0.24863553047180176,"58":0.03550434112548828,"59":-0.08211939036846161,"60":-0.21583157777786255,"61":-0.16855990886688232,"62":-0.1382094770669937,"63":-0.23021665215492249,"64":-0.07944129407405853,"65":-0.29886701703071594,"66":-0.2408107966184616,"67":0.19250482320785522,"68":-0.011809701099991798,"69":-0.2521526515483856,"70":-0.17702153325080872,"71":0.023150913417339325,"72":-0.26996278762817383,"73":0.2847847640514374,"74":0.0032107948791235685,"75":-0.030393753200769424,"76":0.10871008038520813}},"8":{"bias":0.1919013112783432,"weights":{"0":-0.3253772258758545,"1":-0.7308639883995056,"2":0.023740040138363838,"3":-0.056057222187519073,"4":-0.32372891902923584,"5":-0.4203338921070099,"6":0.34378308057785034,"7":-0.09545876085758209,"8":-0.31306472420692444,"9":0.036993276327848434,"10":-0.15504270792007446,"11":-0.43848320841789246,"12":-0.20971959829330444,"13":-0.13250532746315002,"14":-0.23090104758739471,"15":-0.46813109517097473,"16":-0.032787032425403595,"17":-0.18014298379421234,"18":-0.11604689061641693,"19":-0.11924192309379578,"20":-0.009046835824847221,"21":-0.03717489168047905,"22":-0.0787338837981224,"23":-0.06783994287252426,"24":-0.23259231448173523,"25":-0.06912074238061905,"26":-0.1682203859090805,"27":0.07671281695365906,"28":-0.06763259321451187,"29":-0.22663575410842896,"30":-0.00276111694984138,"31":0.1376362442970276,"32":0.1946057826280594,"33":0.4113449454307556,"34":-0.17151618003845215,"35":-0.017255987972021103,"36":-0.12290672957897186,"37":0.0009745488641783595,"38":-0.01286089327186346,"39":0.03602942079305649,"40":-0.30385488271713257,"41":-0.035591594874858856,"42":-0.24196653068065643,"43":-0.08178096264600754,"44":-0.08355893194675446,"45":0.023235030472278595,"46":-0.20225360989570618,"47":0.022660939022898674,"48":-0.28751614689826965,"49":0.10240787267684937,"50":-0.22802212834358215,"51":-0.09416425973176956,"52":0.4407941401004791,"53":0.27519431710243225,"54":-0.23422066867351532,"55":-0.18930020928382874,"56":-0.09064242988824844,"57":-0.15360240638256073,"58":0.09467075020074844,"59":-0.026660939678549767,"60":-0.08295902609825134,"61":-0.05325356125831604,"62":0.017790116369724274,"63":-0.13387122750282288,"64":0.045197781175374985,"65":0.017607783898711205,"66":0.38415372371673584,"67":-0.39786845445632935,"68":-0.07746368646621704,"69":0.3163709342479706,"70":0.24871081113815308,"71":0.06380333751440048,"72":-0.02738155610859394,"73":-0.062348414212465286,"74":0.09106507897377014,"75":0.370176762342453,"76":-0.17981566488742828}},"9":{"bias":0.13215763866901398,"weights":{"0":0.25963473320007324,"1":0.13529813289642334,"2":-0.10476572066545486,"3":-0.3311193585395813,"4":0.08120696246623993,"5":0.0760127529501915,"6":-0.07774406671524048,"7":-0.3982938826084137,"8":-0.1811830699443817,"9":-0.09617220610380173,"10":0.27372652292251587,"11":-0.20090511441230774,"12":0.2183687388896942,"13":0.14290234446525574,"14":-0.23866257071495056,"15":-0.08413349092006683,"16":0.03717157244682312,"17":0.02793845720589161,"18":-0.18443365395069122,"19":-0.05686260014772415,"20":0.10550865530967712,"21":-0.04495104029774666,"22":0.0217699334025383,"23":-0.03340642899274826,"24":-0.14248472452163696,"25":0.038496147841215134,"26":0.17401465773582458,"27":-0.13236214220523834,"28":-0.008551675826311111,"29":-0.017954600974917412,"30":-0.3400675058364868,"31":-0.06903262436389923,"32":-0.10949710011482239,"33":-0.4375055432319641,"34":-0.029503939673304558,"35":-0.13542397320270538,"36":-0.059708189219236374,"37":-0.07446564733982086,"38":0.13217703998088837,"39":0.09628530591726303,"40":-0.3949258327484131,"41":0.10282169282436371,"42":0.018770374357700348,"43":-0.07871470600366592,"44":-0.206661194562912,"45":-0.12357169389724731,"46":-0.06715010851621628,"47":0.10158614069223404,"48":0.10158415138721466,"49":-0.2081415057182312,"50":0.032140880823135376,"51":-0.08615792542695999,"52":0.14838331937789917,"53":0.38902348279953003,"54":-0.056366682052612305,"55":-0.06565412878990173,"56":-0.35582906007766724,"57":-0.3297838568687439,"58":-0.0025465008802711964,"59":0.030577905476093292,"60":-0.15212863683700562,"61":-0.14138539135456085,"62":0.12096903473138809,"63":-0.11655361950397491,"64":0.3038341999053955,"65":0.05157129094004631,"66":0.10943508893251419,"67":-0.0778048187494278,"68":0.135495126247406,"69":0.07916564494371414,"70":0.10196027159690857,"71":0.08431628346443176,"72":-0.06062958016991615,"73":0.1490568071603775,"74":-0.016639824956655502,"75":0.21782639622688293,"76":-0.15278507769107819}},"10":{"bias":-0.10201261192560196,"weights":{"0":0.16272689402103424,"1":-0.018734509125351906,"2":0.23750795423984528,"3":0.21072863042354584,"4":0.015034704469144344,"5":0.4040237367153168,"6":-0.05626972019672394,"7":0.27716532349586487,"8":-0.01692931167781353,"9":0.25487610697746277,"10":0.4296686053276062,"11":-0.024730119854211807,"12":0.46819236874580383,"13":0.0535394549369812,"14":-0.024188600480556488,"15":-0.39110615849494934,"16":0.08112107962369919,"17":-0.043115854263305664,"18":-0.0538572333753109,"19":0.08069054037332535,"20":0.01265555340796709,"21":0.21333685517311096,"22":-0.06458192318677902,"23":0.10423363000154495,"24":0.07309672981500626,"25":-0.04641924425959587,"26":0.15790534019470215,"27":-0.0963178426027298,"28":-0.10951586067676544,"29":-0.225916787981987,"30":0.04851045086979866,"31":-0.16021980345249176,"32":-0.08560006320476532,"33":0.3305097222328186,"34":-0.13449224829673767,"35":-0.11864252388477325,"36":-0.17464055120944977,"37":-0.11131829768419266,"38":-0.1754196286201477,"39":0.12951844930648804,"40":0.046549540013074875,"41":0.2242518961429596,"42":0.14487244188785553,"43":-0.17210836708545685,"44":0.13272406160831451,"45":-0.10444041341543198,"46":-0.009156580083072186,"47":-0.0005583596066571772,"48":-0.13293103873729706,"49":-0.1849205046892166,"50":0.14654719829559326,"51":-0.021343644708395004,"52":-0.03050302155315876,"53":-0.2564927935600281,"54":-0.050388749688863754,"55":-0.08521288633346558,"56":0.19787782430648804,"57":-0.0553995780646801,"58":-0.2511681914329529,"59":-0.02551688253879547,"60":-0.13367785513401031,"61":-0.20922356843948364,"62":-0.26242101192474365,"63":0.12264412641525269,"64":-0.35284045338630676,"65":-0.0961141362786293,"66":-0.25785741209983826,"67":0.10581064969301224,"68":0.3680315315723419,"69":0.15755444765090942,"70":0.07039646804332733,"71":-0.18755586445331573,"72":-0.20601049065589905,"73":0.1782502830028534,"74":0.10566433519124985,"75":-0.18926571309566498,"76":-0.0725216493010521}},"11":{"bias":0.13984763622283936,"weights":{"0":-0.09161782264709473,"1":0.6114245653152466,"2":-0.1089979037642479,"3":0.18941767513751984,"4":-0.013651907444000244,"5":-0.13531732559204102,"6":0.009705952368676662,"7":0.11662939935922623,"8":0.02211497724056244,"9":0.023692365735769272,"10":-0.2472432553768158,"11":-0.23255601525306702,"12":-0.3763851523399353,"13":-0.03006899729371071,"14":0.0659874901175499,"15":0.7054383754730225,"16":0.1889800876379013,"17":0.09699350595474243,"18":-0.1673411875963211,"19":0.13052542507648468,"20":-0.22990094125270844,"21":0.24538558721542358,"22":-0.256766140460968,"23":-0.31932365894317627,"24":-0.13747848570346832,"25":-0.1842878758907318,"26":-0.08333306014537811,"27":-0.12359348684549332,"28":0.007111967075616121,"29":0.0735245943069458,"30":0.0732850506901741,"31":0.1069246158003807,"32":0.13879570364952087,"33":-0.7148443460464478,"34":-0.14928096532821655,"35":-0.07905705273151398,"36":0.1582304835319519,"37":-0.07233810424804688,"38":0.0196974016726017,"39":-0.0050974502228200436,"40":0.19202439486980438,"41":-0.09580928087234497,"42":-0.21283769607543945,"43":-0.05626232177019119,"44":-0.1937795728445053,"45":0.05197633057832718,"46":-0.008894194848835468,"47":-0.03499342128634453,"48":-0.3117087483406067,"49":-0.23968544602394104,"50":-0.035890791565179825,"51":-0.3272090256214142,"52":0.17730288207530975,"53":0.23948942124843597,"54":0.19102635979652405,"55":-0.003047819947823882,"56":0.12979649007320404,"57":0.11951948702335358,"58":-0.07190516591072083,"59":-0.07311179488897324,"60":0.22630207240581512,"61":0.1810743361711502,"62":-0.11438484489917755,"63":0.13023965060710907,"64":0.06799015402793884,"65":0.09603630006313324,"66":0.17469696700572968,"67":-0.3073214590549469,"68":-0.18939074873924255,"69":-0.13546669483184814,"70":-0.17394688725471497,"71":-0.04068288207054138,"72":-0.22629642486572266,"73":-0.090041883289814,"74":-0.2239304780960083,"75":0.2814086675643921,"76":-0.002161182928830385}},"12":{"bias":-0.0741446241736412,"weights":{"0":0.1436738818883896,"1":-0.29854270815849304,"2":0.30522599816322327,"3":0.14356723427772522,"4":0.17802758514881134,"5":0.2609653174877167,"6":-0.04395680129528046,"7":0.2580898404121399,"8":0.1044280007481575,"9":0.2944961488246918,"10":0.17271381616592407,"11":-0.027232691645622253,"12":0.02439875900745392,"13":0.13849544525146484,"14":0.47780030965805054,"15":-0.462958425283432,"16":0.23384395241737366,"17":-0.049250368028879166,"18":0.2213243544101715,"19":0.1297963410615921,"20":-0.08448724448680878,"21":0.23097847402095795,"22":-0.28519803285598755,"23":0.000023551019694423303,"24":-0.24055297672748566,"25":-0.2518560290336609,"26":-0.03075454942882061,"27":0.14125663042068481,"28":0.03814667835831642,"29":0.026653671637177467,"30":0.17265105247497559,"31":-0.026139458641409874,"32":0.03665271773934364,"33":-0.35141515731811523,"34":-0.1446390151977539,"35":-0.07484440505504608,"36":-0.05855236202478409,"37":-0.1903849095106125,"38":0.12788835167884827,"39":-0.061318084597587585,"40":0.0826466828584671,"41":-0.18300265073776245,"42":-0.33304068446159363,"43":-0.25669384002685547,"44":-0.12679272890090942,"45":-0.007015772629529238,"46":0.01661805436015129,"47":-0.23485304415225983,"48":-0.019732099026441574,"49":-0.08228263258934021,"50":-0.34645187854766846,"51":-0.216841459274292,"52":0.4530566334724426,"53":0.24632248282432556,"54":0.06319962441921234,"55":-0.027578772976994514,"56":0.34522271156311035,"57":0.0686379075050354,"58":0.12855252623558044,"59":-0.0861092135310173,"60":0.23052829504013062,"61":0.16599851846694946,"62":-0.12492465227842331,"63":0.22961550951004028,"64":0.11946269869804382,"65":0.022999262437224388,"66":0.436576247215271,"67":0.0006229545688256621,"68":-0.09092384576797485,"69":-0.05283880606293678,"70":0.048398733139038086,"71":0.11623048037290573,"72":-0.025828301906585693,"73":-0.07593603432178497,"74":0.13858984410762787,"75":0.4768778383731842,"76":0.11740760505199432}},"13":{"bias":0.20542508363723755,"weights":{"0":-0.17470741271972656,"1":0.41292616724967957,"2":0.060576748102903366,"3":-0.31879690289497375,"4":-0.10376287251710892,"5":-0.40611353516578674,"6":-0.27133211493492126,"7":-0.2619720995426178,"8":-0.14200574159622192,"9":-0.26847898960113525,"10":0.12202751636505127,"11":0.14303931593894958,"12":-0.13205987215042114,"13":0.040168244391679764,"14":-0.37973400950431824,"15":0.38024699687957764,"16":0.15076203644275665,"17":-0.12635569274425507,"18":0.09380492568016052,"19":-0.03806128725409508,"20":0.21713928878307343,"21":0.0426054522395134,"22":-0.10347003489732742,"23":0.11490529030561447,"24":0.21769985556602478,"25":0.07866998761892319,"26":0.18277771770954132,"27":-0.0007120603695511818,"28":-0.05345972999930382,"29":0.0807061716914177,"30":-0.1750304251909256,"31":-0.015412348322570324,"32":0.09554360806941986,"33":-0.4063880443572998,"34":-0.19111444056034088,"35":-0.17574098706245422,"36":0.09544023871421814,"37":-0.15946079790592194,"38":-0.015565851703286171,"39":0.153050035238266,"40":-0.03276185691356659,"41":0.1752694696187973,"42":-0.09780389815568924,"43":0.23788243532180786,"44":-0.0557045079767704,"45":0.026857638731598854,"46":-0.09319043904542923,"47":-0.1380293220281601,"48":0.12170429527759552,"49":-0.12983065843582153,"50":0.20865723490715027,"51":-0.09412781149148941,"52":-0.016156764701008797,"53":0.22933658957481384,"54":0.08352427184581757,"55":-0.20717641711235046,"56":-0.021945318207144737,"57":-0.294387549161911,"58":-0.0366058312356472,"59":0.15944679081439972,"60":-0.007163239177316427,"61":0.18165360391139984,"62":0.11073716729879379,"63":-0.060213666409254074,"64":0.15514309704303741,"65":0.16806763410568237,"66":0.1110895499587059,"67":0.01261198427528143,"68":-0.45417550206184387,"69":0.0007532000890932977,"70":-0.38285037875175476,"71":-0.19212552905082703,"72":0.21648269891738892,"73":0.02476554363965988,"74":-0.3011082410812378,"75":0.23869571089744568,"76":0.04742419719696045}},"14":{"bias":0.3151000440120697,"weights":{"0":-0.35123908519744873,"1":-0.14147962629795074,"2":-0.33507686853408813,"3":0.22827503085136414,"4":-0.10507093369960785,"5":0.05117358639836311,"6":0.1639798879623413,"7":-0.11087359488010406,"8":0.07045337557792664,"9":-0.31648579239845276,"10":-0.4053950309753418,"11":-0.39864712953567505,"12":-0.42269936203956604,"13":-0.13613757491111755,"14":-0.15502233803272247,"15":0.18476712703704834,"16":-0.061633963137865067,"17":-0.17274828255176544,"18":0.1862751692533493,"19":-0.09927072376012802,"20":-0.1617763787508011,"21":-0.2948457598686218,"22":0.11376584321260452,"23":0.042823243886232376,"24":-0.15516601502895355,"25":0.04759325087070465,"26":-0.109224833548069,"27":0.18178878724575043,"28":0.1474866271018982,"29":-0.000803777773398906,"30":0.09854994714260101,"31":0.0008234234992414713,"32":-0.11532817780971527,"33":0.5327726006507874,"34":0.22155416011810303,"35":-0.11542787402868271,"36":-0.038126107305288315,"37":-0.1528252512216568,"38":-0.3318069875240326,"39":0.09476451575756073,"40":0.17850938439369202,"41":-0.423075795173645,"42":-0.023399844765663147,"43":-0.2209571748971939,"44":0.04186971113085747,"45":-0.24576665461063385,"46":0.042173855006694794,"47":0.06593843549489975,"48":-0.11227469146251678,"49":-0.030889037996530533,"50":-0.24898527562618256,"51":-0.028532318770885468,"52":0.08022742718458176,"53":-0.09677209705114365,"54":0.06803381443023682,"55":0.12648548185825348,"56":-0.13492999970912933,"57":-0.28797298669815063,"58":-0.14395679533481598,"59":-0.10774826258420944,"60":-0.22865837812423706,"61":-0.08949330449104309,"62":0.1513182371854782,"63":0.12758629024028778,"64":-0.1928868293762207,"65":-0.19229590892791748,"66":-0.034465242177248,"67":0.017715808004140854,"68":0.2683049440383911,"69":0.16815923154354095,"70":0.06793755292892456,"71":0.14456108212471008,"72":0.0014597696717828512,"73":0.18889771401882172,"74":0.20234031975269318,"75":0.1624799519777298,"76":0.19519104063510895}},"15":{"bias":-0.3567185699939728,"weights":{"0":0.40333595871925354,"1":0.5117667317390442,"2":-0.127501979470253,"3":0.07087960839271545,"4":0.17566095292568207,"5":0.40249142050743103,"6":-0.30016636848449707,"7":0.2636246383190155,"8":-0.224754199385643,"9":-0.14568282663822174,"10":0.2571869492530823,"11":-0.337394654750824,"12":0.30487826466560364,"13":0.039897508919239044,"14":0.27115389704704285,"15":0.007357161492109299,"16":-0.1468697488307953,"17":-0.012051551602780819,"18":0.09436117857694626,"19":-0.22616158425807953,"20":0.384736031293869,"21":-0.1094713881611824,"22":0.18713784217834473,"23":-0.10453478991985321,"24":-0.13791842758655548,"25":0.22988228499889374,"26":-0.27328768372535706,"27":0.3010810911655426,"28":0.01660146377980709,"29":-0.1350419670343399,"30":0.20787732303142548,"31":-0.08227064460515976,"32":0.0624953955411911,"33":0.234823077917099,"34":0.3046129643917084,"35":0.019956136122345924,"36":0.17018721997737885,"37":0.11536058038473129,"38":-0.4815482199192047,"39":0.058412179350852966,"40":0.22119614481925964,"41":-0.3131978511810303,"42":0.18820925056934357,"43":0.020876212045550346,"44":0.11073635518550873,"45":0.12232571095228195,"46":0.08042201399803162,"47":0.18373346328735352,"48":0.21488222479820251,"49":0.012911428697407246,"50":0.1901029795408249,"51":0.09145015478134155,"52":-0.09782081097364426,"53":-0.14911140501499176,"54":-0.024272801354527473,"55":-0.2944353222846985,"56":-0.11067356169223785,"57":-0.1614331603050232,"58":-0.19685086607933044,"59":-0.0010103464592248201,"60":-0.11179305613040924,"61":-0.07605339586734772,"62":-0.1546017825603485,"63":-0.14238278567790985,"64":0.05329444259405136,"65":-0.2643810212612152,"66":-0.19423481822013855,"67":0.4467657506465912,"68":0.11605579406023026,"69":-0.29004034399986267,"70":-0.39876219630241394,"71":-0.38653478026390076,"72":0.1285695731639862,"73":0.012151225470006466,"74":-0.04849943518638611,"75":-0.14899630844593048,"76":0.055550675839185715}},"16":{"bias":0.33427050709724426,"weights":{"0":-0.18304085731506348,"1":-0.08671669661998749,"2":-0.32312631607055664,"3":-0.0967894196510315,"4":-0.017905933782458305,"5":-0.4984675347805023,"6":0.03637733310461044,"7":-0.27161043882369995,"8":-0.10593389719724655,"9":-0.2416730672121048,"10":0.008884072303771973,"11":-0.15895451605319977,"12":-0.14588357508182526,"13":-0.16329015791416168,"14":-0.5685464143753052,"15":0.042906735092401505,"16":-0.18257877230644226,"17":-0.23731167614459991,"18":-0.13766247034072876,"19":-0.2257879227399826,"20":-0.14366082847118378,"21":-0.2254396229982376,"22":-0.05110234394669533,"23":0.13558648526668549,"24":0.22414888441562653,"25":0.236703559756279,"26":0.22508186101913452,"27":-0.31171563267707825,"28":-0.04222236946225166,"29":0.036934249103069305,"30":-0.14836829900741577,"31":-0.1557064801454544,"32":0.11199261248111725,"33":0.22282595932483673,"34":-0.021502850577235222,"35":0.06854847818613052,"36":0.08995427191257477,"37":-0.1726129949092865,"38":0.04443618282675743,"39":0.17011602222919464,"40":-0.04466492682695389,"41":-0.017530707642436028,"42":0.07922814041376114,"43":-0.02382291667163372,"44":0.01804409734904766,"45":0.02768876776099205,"46":0.17715397477149963,"47":0.23713289201259613,"48":0.21309301257133484,"49":0.20950722694396973,"50":0.11720383912324905,"51":0.13833223283290863,"52":0.057609282433986664,"53":-0.1635732352733612,"54":-0.07445026189088821,"55":-0.0810316801071167,"56":-0.06915555894374847,"57":-0.2967405915260315,"58":-0.24082930386066437,"59":-0.15036213397979736,"60":-0.3120582699775696,"61":-0.024887163192033768,"62":0.014021230861544609,"63":-0.2681666314601898,"64":0.1604509949684143,"65":-0.25206562876701355,"66":0.16002583503723145,"67":-0.24622948467731476,"68":0.009840996004641056,"69":0.049263205379247665,"70":-0.009065401740372181,"71":0.28797706961631775,"72":0.21110093593597412,"73":-0.07731188833713531,"74":0.16414330899715424,"75":-0.17777162790298462,"76":-0.1733059585094452}},"17":{"bias":-0.15310752391815186,"weights":{"0":-0.023866038769483566,"1":-0.03400610014796257,"2":-0.3541950583457947,"3":0.046196773648262024,"4":0.13498015701770782,"5":-0.008532210253179073,"6":0.2922865152359009,"7":-0.05340415984392166,"8":0.34244853258132935,"9":-0.18987469375133514,"10":-0.15422266721725464,"11":0.23952314257621765,"12":0.3459499776363373,"13":-0.07725627720355988,"14":0.01406965870410204,"15":-0.06304706633090973,"16":0.10432305932044983,"17":-0.16430844366550446,"18":0.06365309655666351,"19":-0.17376385629177094,"20":0.11695956438779831,"21":-0.14263127744197845,"22":0.22284330427646637,"23":0.05415848642587662,"24":0.08206898719072342,"25":-0.09534963220357895,"26":0.05274173244833946,"27":0.33162814378738403,"28":0.003968149423599243,"29":-0.17522074282169342,"30":0.17378294467926025,"31":-0.05056633800268173,"32":0.10907764732837677,"33":-0.47395992279052734,"34":0.21562650799751282,"35":-0.07863342016935349,"36":-0.09463902562856674,"37":-0.11059778928756714,"38":-0.09047822654247284,"39":-0.006208303850144148,"40":0.12261061370372772,"41":0.24208736419677734,"42":-0.12384103238582611,"43":0.01665692776441574,"44":0.05102190375328064,"45":0.03056061826646328,"46":-0.13288794457912445,"47":0.2555054724216461,"48":0.15473392605781555,"49":0.019980084151029587,"50":0.2322300374507904,"51":-0.12369506806135178,"52":0.09088138490915298,"53":-0.14462384581565857,"54":-0.012372314929962158,"55":-0.07539648562669754,"56":-0.32702314853668213,"57":-0.20710717141628265,"58":-0.0883423238992691,"59":-0.19546809792518616,"60":-0.26178255677223206,"61":-0.03668398782610893,"62":-0.25429120659828186,"63":-0.24316978454589844,"64":0.19963328540325165,"65":0.04690498858690262,"66":-0.11174771934747696,"67":0.3738240897655487,"68":0.581912636756897,"69":0.014455623924732208,"70":0.32997438311576843,"71":0.2632710635662079,"72":0.012442706152796745,"73":0.24554571509361267,"74":0.36132296919822693,"75":0.18834972381591797,"76":-0.1047879159450531}},"18":{"bias":-0.08664777874946594,"weights":{"0":0.1743755340576172,"1":0.19482040405273438,"2":-0.06560664623975754,"3":0.12616261839866638,"4":0.049657318741083145,"5":-0.053092241287231445,"6":0.03663189709186554,"7":-0.355000376701355,"8":-0.3253099024295807,"9":-0.2333386391401291,"10":-0.13724477589130402,"11":0.16329340636730194,"12":-0.2625502347946167,"13":-0.07313992083072662,"14":-0.3450658321380615,"15":0.4736117422580719,"16":0.152243971824646,"17":0.22667300701141357,"18":0.22250664234161377,"19":-0.08923336863517761,"20":0.003928548656404018,"21":-0.09128107130527496,"22":0.23695404827594757,"23":0.2767318785190582,"24":0.020177461206912994,"25":0.05681167542934418,"26":-0.3061809837818146,"27":-0.11798001825809479,"28":0.003248494351282716,"29":0.0679561123251915,"30":-0.14546525478363037,"31":-0.08190560340881348,"32":-0.1445261836051941,"33":0.10728061944246292,"34":-0.13362832367420197,"35":0.03770289570093155,"36":-0.03409406170248985,"37":0.0015891289804130793,"38":-0.03159267082810402,"39":-0.04312317818403244,"40":-0.22908060252666473,"41":-0.3206554055213928,"42":0.29369625449180603,"43":0.06626874208450317,"44":0.20748819410800934,"45":0.2867940664291382,"46":0.014147072099149227,"47":0.21106812357902527,"48":-0.054965607821941376,"49":0.2571377158164978,"50":0.12339318543672562,"51":0.0625619888305664,"52":-0.3176044821739197,"53":-0.06661291420459747,"54":0.25643476843833923,"55":0.16613055765628815,"56":-0.14242608845233917,"57":-0.2630947530269623,"58":-0.032216764986515045,"59":-0.0011920774122700095,"60":-0.20445679128170013,"61":0.22610172629356384,"62":0.24406926333904266,"63":0.1313076764345169,"64":-0.008942225016653538,"65":-0.022934338077902794,"66":-0.2328195571899414,"67":0.22488342225551605,"68":0.021392380818724632,"69":-0.09583375602960587,"70":-0.02739241160452366,"71":-0.14899064600467682,"72":0.316285103559494,"73":0.125066339969635,"74":0.24970228970050812,"75":-0.24528928101062775,"76":-0.06964746862649918}},"19":{"bias":-0.16520552337169647,"weights":{"0":-0.19800829887390137,"1":-0.03324320912361145,"2":0.13695284724235535,"3":0.09414558112621307,"4":-0.011655441485345364,"5":-0.11096156388521194,"6":0.4103270471096039,"7":-0.21320174634456635,"8":0.2981068789958954,"9":-0.11204260587692261,"10":0.010969720780849457,"11":0.24332894384860992,"12":-0.053609155118465424,"13":0.13047999143600464,"14":-0.014697465114295483,"15":-0.2373601198196411,"16":-0.005286602769047022,"17":0.07345640659332275,"18":0.14981073141098022,"19":-0.06448279321193695,"20":-0.26607850193977356,"21":-0.007580916862934828,"22":0.1285315901041031,"23":0.04766663908958435,"24":-0.08146511018276215,"25":0.1646750569343567,"26":0.25733619928359985,"27":0.13656683266162872,"28":0.16158084571361542,"29":0.18092219531536102,"30":-0.023329073563218117,"31":-0.18820656836032867,"32":-0.16621968150138855,"33":-0.6597651243209839,"34":0.08963125944137573,"35":-0.15901847183704376,"36":-0.15611706674098969,"37":0.09930466115474701,"38":0.3707851469516754,"39":-0.09512094408273697,"40":0.1368207335472107,"41":0.30842554569244385,"42":0.29852667450904846,"43":0.14436334371566772,"44":0.17760008573532104,"45":0.2169789969921112,"46":0.05659382417798042,"47":-0.05505044013261795,"48":0.3074475824832916,"49":0.13872461020946503,"50":0.11766481399536133,"51":0.009358876384794712,"52":-0.0046396818943321705,"53":0.194978266954422,"54":0.04897001385688782,"55":0.05871539190411568,"56":0.04736202582716942,"57":0.1482555866241455,"58":-0.0222651194781065,"59":0.012570432387292385,"60":-0.031380899250507355,"61":0.24304737150669098,"62":0.24543969333171844,"63":0.17039230465888977,"64":0.0009264560649171472,"65":0.2888573408126831,"66":-0.16197043657302856,"67":-0.3633214831352234,"68":0.059777919203042984,"69":0.2881401479244232,"70":0.505379855632782,"71":0.3286534249782562,"72":0.3856556713581085,"73":-0.2573082745075226,"74":0.09223752468824387,"75":-0.009804923087358475,"76":-0.1274711936712265}},"20":{"bias":-0.11087041348218918,"weights":{"0":0.41071200370788574,"1":-0.04422140121459961,"2":0.17986994981765747,"3":0.08362983912229538,"4":-0.04707926884293556,"5":-0.05679788812994957,"6":0.2893022298812866,"7":0.21600981056690216,"8":-0.5191142559051514,"9":0.30700820684432983,"10":0.33965983986854553,"11":-0.42686980962753296,"12":-0.14387564361095428,"13":-0.1346561312675476,"14":0.2603233754634857,"15":-0.06665223836898804,"16":0.004948833957314491,"17":-0.04432757571339607,"18":0.0004609355528373271,"19":-0.16919410228729248,"20":0.15629036724567413,"21":0.12582843005657196,"22":0.08081613481044769,"23":0.1973472535610199,"24":0.1926073580980301,"25":0.28455621004104614,"26":-0.18308408558368683,"27":-0.17741365730762482,"28":-0.10522400587797165,"29":-0.0932684987783432,"30":-0.030797353014349937,"31":0.03194284811615944,"32":-0.10558051615953445,"33":-0.13308458030223846,"34":-0.012664738111197948,"35":-0.12672564387321472,"36":0.16668923199176788,"37":0.13111534714698792,"38":-0.4359096884727478,"39":0.045539822429418564,"40":0.0747760683298111,"41":-0.4169810116291046,"42":0.19543494284152985,"43":0.29066354036331177,"44":0.3120608925819397,"45":0.044147901237010956,"46":-0.035561174154281616,"47":0.3041180372238159,"48":0.030610213056206703,"49":0.13268043100833893,"50":0.08610769361257553,"51":0.2432282567024231,"52":-0.0044478485360741615,"53":-0.10940579324960709,"54":-0.13456086814403534,"55":0.1440591812133789,"56":0.2457726150751114,"57":0.14807620644569397,"58":0.13503971695899963,"59":0.08943086117506027,"60":0.327718585729599,"61":-0.14130236208438873,"62":-0.18532952666282654,"63":0.014544231817126274,"64":0.08313026279211044,"65":0.14126208424568176,"66":0.16332997381687164,"67":0.02999400533735752,"68":0.1488324999809265,"69":0.09152015298604965,"70":0.13427980244159698,"71":0.22577643394470215,"72":0.11794940382242203,"73":0.010005536489188671,"74":0.2924709618091583,"75":-0.1539730429649353,"76":-0.043483980000019073}},"21":{"bias":0.1259504109621048,"weights":{"0":-0.3966907858848572,"1":-0.2985480725765228,"2":-0.16850508749485016,"3":-0.026071684435009956,"4":-0.054970744997262955,"5":-0.08321722596883774,"6":0.08795653283596039,"7":0.04578268900513649,"8":0.022886857390403748,"9":-0.18056677281856537,"10":-0.39509642124176025,"11":-0.21588903665542603,"12":-0.4059792160987854,"13":0.014934864826500416,"14":-0.18327297270298004,"15":0.07712952047586441,"16":-0.22864197194576263,"17":-0.014132744632661343,"18":0.01165546104311943,"19":-0.25437870621681213,"20":-0.24100227653980255,"21":0.10031042993068695,"22":-0.19280117750167847,"23":-0.14243318140506744,"24":-0.19997069239616394,"25":0.09830719232559204,"26":-0.006639233324676752,"27":0.31596997380256653,"28":-0.11056827753782272,"29":-0.25679540634155273,"30":0.1423766165971756,"31":-0.028841642662882805,"32":-0.1790989488363266,"33":0.42377182841300964,"34":0.2886960804462433,"35":0.03602095693349838,"36":0.018092676997184753,"37":-0.19305996596813202,"38":-0.29258468747138977,"39":0.17813661694526672,"40":0.30510997772216797,"41":-0.21211005747318268,"42":0.0968599021434784,"43":0.06927479058504105,"44":0.03325532749295235,"45":-0.11939408630132675,"46":0.09344378113746643,"47":-0.04022696986794472,"48":-0.13675445318222046,"49":0.03137824311852455,"50":0.07173468917608261,"51":0.03213400021195412,"52":-0.09231214970350266,"53":0.1159396693110466,"54":-0.06384167075157166,"55":-0.1292177140712738,"56":-0.33279433846473694,"57":-0.31519845128059387,"58":-0.24313999712467194,"59":0.14621871709823608,"60":-0.1641029268503189,"61":-0.24584324657917023,"62":0.12430987507104874,"63":0.058322928845882416,"64":0.09948426485061646,"65":0.11932176351547241,"66":-0.10791990906000137,"67":0.05948098748922348,"68":0.11557648330926895,"69":-0.024921583011746407,"70":0.11240244656801224,"71":0.16765375435352325,"72":0.036684807389974594,"73":-0.25166526436805725,"74":-0.025083698332309723,"75":-0.11941772699356079,"76":-0.11596675217151642}},"22":{"bias":0.14459754526615143,"weights":{"0":0.21193146705627441,"1":-0.03898255527019501,"2":0.06442645192146301,"3":-0.03888323903083801,"4":-0.059148259460926056,"5":-0.1978520154953003,"6":-0.15032710134983063,"7":0.33160367608070374,"8":-0.4247031807899475,"9":0.11809573322534561,"10":0.07918588072061539,"11":-0.33512985706329346,"12":-0.03483210876584053,"13":0.01414351537823677,"14":0.14943622052669525,"15":-0.3007742762565613,"16":0.13584718108177185,"17":-0.12392214685678482,"18":-0.03414221107959747,"19":-0.04928671941161156,"20":-0.18222379684448242,"21":0.2961621582508087,"22":0.026921018958091736,"23":-0.06138107180595398,"24":0.18773233890533447,"25":0.16505663096904755,"26":-0.475822776556015,"27":-0.1780260056257248,"28":-0.054055627435445786,"29":-0.2086036205291748,"30":-0.21082323789596558,"31":0.15987125039100647,"32":-0.03803865984082222,"33":0.42190122604370117,"34":-0.07843636721372604,"35":0.15185333788394928,"36":-0.17188645899295807,"37":0.08554831892251968,"38":-0.47631925344467163,"39":0.0879039391875267,"40":0.13950054347515106,"41":-0.24777357280254364,"42":-0.11335060000419617,"43":-0.043317873030900955,"44":0.20388729870319366,"45":0.16868479549884796,"46":0.1836746782064438,"47":-0.007727272808551788,"48":-0.10267303138971329,"49":0.003046157071366906,"50":0.073844313621521,"51":0.13468649983406067,"52":0.11949451267719269,"53":0.2028643786907196,"54":-0.12625984847545624,"55":-0.06918178498744965,"56":0.10743337869644165,"57":0.12628225982189178,"58":-0.24221359193325043,"59":-0.16647660732269287,"60":0.208455890417099,"61":-0.24549978971481323,"62":-0.19436678290367126,"63":-0.09577550739049911,"64":0.11354059725999832,"65":-0.2469017207622528,"66":0.2296711951494217,"67":-0.3314068615436554,"68":-0.0775015726685524,"69":-0.17298762500286102,"70":-0.06904423981904984,"71":-0.16817273199558258,"72":0.21358749270439148,"73":-0.3357200622558594,"74":-0.49220824241638184,"75":0.04304153099656105,"76":0.03191675618290901}},"23":{"bias":-0.0576445609331131,"weights":{"0":-0.0848630890250206,"1":0.040972210466861725,"2":-0.15347379446029663,"3":0.019678326323628426,"4":-0.15886256098747253,"5":-0.2931174337863922,"6":0.06478191167116165,"7":-0.04119454696774483,"8":0.23652854561805725,"9":-0.151921808719635,"10":-0.28279319405555725,"11":0.528850257396698,"12":0.17252512276172638,"13":0.08192141354084015,"14":0.08951685577630997,"15":0.2842630445957184,"16":-0.010807119309902191,"17":0.16578775644302368,"18":-0.10200510919094086,"19":-0.03705255687236786,"20":-0.16083462536334991,"21":-0.15243281424045563,"22":0.08045339584350586,"23":0.20206262171268463,"24":0.2788980007171631,"25":-0.027642181143164635,"26":0.4291105568408966,"27":-0.11898110061883926,"28":-0.11688423156738281,"29":0.08966267108917236,"30":0.1780691146850586,"31":0.13035400211811066,"32":-0.19630040228366852,"33":0.2065376192331314,"34":0.06400720030069351,"35":0.16623324155807495,"36":0.06874193251132965,"37":0.07172727584838867,"38":0.35169732570648193,"39":0.16394346952438354,"40":-0.014385951682925224,"41":0.2509351372718811,"42":0.2877967953681946,"43":0.099109947681427,"44":-0.040918026119470596,"45":0.14685875177383423,"46":0.08400693535804749,"47":0.0077470438554883,"48":-0.05626092106103897,"49":-0.07999449968338013,"50":-0.025656629353761673,"51":0.09698687493801117,"52":-0.3245224356651306,"53":-0.4002376198768616,"54":-0.1058674231171608,"55":0.17027661204338074,"56":-0.0691644698381424,"57":-0.11650777608156204,"58":0.009902944788336754,"59":-0.0723254531621933,"60":-0.1091952696442604,"61":0.22145849466323853,"62":-0.017681552097201347,"63":-0.12715411186218262,"64":-0.3903416097164154,"65":-0.12320177257061005,"66":-0.4478725492954254,"67":-0.11654049158096313,"68":-0.2262897938489914,"69":-0.16788654029369354,"70":-0.2806161046028137,"71":-0.1471889615058899,"72":0.08245550841093063,"73":-0.3516603410243988,"74":-0.14417169988155365,"75":-0.457549512386322,"76":-0.10801050066947937}},"24":{"bias":0.054412517696619034,"weights":{"0":0.2114148586988449,"1":-0.047905102372169495,"2":0.018584391102194786,"3":0.24696452915668488,"4":-0.10157404839992523,"5":0.4178411662578583,"6":-0.23269334435462952,"7":0.03816022351384163,"8":-0.3443067669868469,"9":-0.16594277322292328,"10":0.2786087989807129,"11":-0.14295034110546112,"12":0.03825750574469566,"13":0.1530439555644989,"14":0.22552891075611115,"15":-0.10259212553501129,"16":-0.140966534614563,"17":0.21410256624221802,"18":0.2193056046962738,"19":-0.13972583413124084,"20":0.1523565798997879,"21":0.04937765374779701,"22":0.0491471067070961,"23":0.25467726588249207,"24":0.22489650547504425,"25":-0.08885981142520905,"26":-0.323889821767807,"27":0.16090886294841766,"28":0.15549102425575256,"29":0.019092755392193794,"30":0.21022376418113708,"31":0.09490251541137695,"32":0.15373528003692627,"33":-0.13670776784420013,"34":-0.004239952191710472,"35":0.02427029423415661,"36":0.12556950747966766,"37":0.00862836092710495,"38":-0.1623847633600235,"39":-0.1526012271642685,"40":0.1438838690519333,"41":-0.2964431941509247,"42":0.23718026280403137,"43":-0.013937125913798809,"44":0.21523569524288177,"45":0.17470334470272064,"46":0.06782618910074234,"47":0.23478713631629944,"48":0.014239705167710781,"49":0.044120412319898605,"50":0.06524132937192917,"51":0.23581485450267792,"52":0.38506782054901123,"53":0.279514342546463,"54":-0.12387461215257645,"55":0.11160463094711304,"56":-0.0021160824690014124,"57":0.03216012939810753,"58":-0.14013013243675232,"59":-0.0001759470469551161,"60":0.19541268050670624,"61":-0.1583358645439148,"62":0.08683200180530548,"63":-0.11999098211526871,"64":0.31985339522361755,"65":0.1995413899421692,"66":0.42941969633102417,"67":0.3105066120624542,"68":-0.18852493166923523,"69":-0.3203747272491455,"70":-0.14373117685317993,"71":-0.31480610370635986,"72":0.06811080127954483,"73":0.0018892514053732157,"74":-0.24488842487335205,"75":0.39818310737609863,"76":-0.19709250330924988}},"25":{"bias":-0.19015297293663025,"weights":{"0":-0.251239538192749,"1":-0.09582509100437164,"2":-0.14180980622768402,"3":0.21057508885860443,"4":0.19293087720870972,"5":0.26623430848121643,"6":0.3020276129245758,"7":0.10841438919305801,"8":-0.09003952890634537,"9":-0.24772672355175018,"10":-0.06378168612718582,"11":-0.08217860758304596,"12":-0.3085421621799469,"13":0.14306990802288055,"14":-0.1420198380947113,"15":0.040870536118745804,"16":-0.06151033937931061,"17":-0.1631242036819458,"18":0.14555878937244415,"19":-0.07054135948419571,"20":0.24862955510616302,"21":-0.0012724694097414613,"22":0.04170577973127365,"23":0.06819244474172592,"24":0.08549872785806656,"25":-0.26585468649864197,"26":-0.18007364869117737,"27":0.01284688152372837,"28":0.15043815970420837,"29":0.21854254603385925,"30":0.2868528664112091,"31":0.10898031294345856,"32":0.13793615996837616,"33":-0.4582267701625824,"34":0.01825571432709694,"35":0.18882593512535095,"36":0.09061668068170547,"37":-0.19248464703559875,"38":-0.2747759222984314,"39":-0.03243311122059822,"40":-0.03398841619491577,"41":-0.18591681122779846,"42":-0.18059450387954712,"43":-0.07453113794326782,"44":-0.2313869595527649,"45":-0.07417592406272888,"46":-0.04508746787905693,"47":-0.22719652950763702,"48":-0.02774381823837757,"49":0.09056280553340912,"50":0.06880107522010803,"51":0.10389856994152069,"52":0.3057425916194916,"53":0.41381946206092834,"54":-0.052199333906173706,"55":0.05139412730932236,"56":-0.07494877278804779,"57":0.05383428558707237,"58":0.19681859016418457,"59":-0.08843635022640228,"60":-0.05053780972957611,"61":-0.05344058573246002,"62":0.010636297054588795,"63":-0.01909288950264454,"64":0.4648813307285309,"65":0.2166924774646759,"66":0.16226238012313843,"67":0.21544237434864044,"68":0.5882571935653687,"69":0.24345511198043823,"70":0.11373912543058395,"71":0.3524904251098633,"72":-0.09636291861534119,"73":0.14393781125545502,"74":0.4976962208747864,"75":0.3245299756526947,"76":0.007772103417664766}},"26":{"bias":-0.019022636115550995,"weights":{"0":-0.0015294741606339812,"1":-0.44782397150993347,"2":0.025000402703881264,"3":-0.17687682807445526,"4":0.11642943322658539,"5":-0.055281735956668854,"6":0.036513399332761765,"7":-0.3163944482803345,"8":-0.17461827397346497,"9":-0.09517919272184372,"10":-0.21070976555347443,"11":-0.11328531056642532,"12":-0.3266945481300354,"13":0.016651712357997894,"14":-0.017297256737947464,"15":-0.425820916891098,"16":-0.006023708265274763,"17":0.012312814593315125,"18":0.2760603427886963,"19":0.20151333510875702,"20":0.042338088154792786,"21":-0.04789797216653824,"22":0.019656876102089882,"23":0.12359806150197983,"24":0.1665022373199463,"25":-0.10187779366970062,"26":0.12906447052955627,"27":-0.07291757315397263,"28":-0.08047955483198166,"29":0.26203975081443787,"30":-0.2261810600757599,"31":-0.09964681416749954,"32":-0.021695785224437714,"33":0.5658137202262878,"34":-0.22318799793720245,"35":0.06410151720046997,"36":-0.05039354786276817,"37":-0.16966520249843597,"38":0.07934043556451797,"39":-0.1676260381937027,"40":-0.0455160066485405,"41":0.12863042950630188,"42":0.10372819751501083,"43":0.0912511795759201,"44":0.05155711621046066,"45":-0.11562406271696091,"46":0.04435315728187561,"47":-0.03442288935184479,"48":0.028483416885137558,"49":-0.12453863769769669,"50":0.027609849348664284,"51":0.07236974686384201,"52":0.049092672765254974,"53":0.2343948483467102,"54":0.21150906383991241,"55":0.11252889037132263,"56":0.027173733338713646,"57":-0.07954090088605881,"58":0.08094444870948792,"59":-0.050395336002111435,"60":-0.04575378820300102,"61":-0.015523508191108704,"62":0.016484955325722694,"63":0.1261330246925354,"64":0.14572620391845703,"65":0.3394705057144165,"66":0.0023485056590288877,"67":-0.2926751375198364,"68":-0.5272706151008606,"69":-0.20099715888500214,"70":-0.2674660086631775,"71":-0.3740522861480713,"72":-0.0007219032268039882,"73":0.08954877406358719,"74":-0.01796639896929264,"75":0.10583512485027313,"76":0.0774056613445282}},"27":{"bias":-0.07821035385131836,"weights":{"0":0.257814884185791,"1":0.3599053919315338,"2":0.011876853182911873,"3":0.02677847631275654,"4":0.16895124316215515,"5":0.2619055509567261,"6":-0.06642275303602219,"7":0.0502864308655262,"8":-0.3464943766593933,"9":0.19008582830429077,"10":0.27948448061943054,"11":-0.10032177716493607,"12":-0.21859677135944366,"13":0.12198644876480103,"14":0.16073432564735413,"15":0.13353893160820007,"16":0.07827163487672806,"17":-0.020559262484312057,"18":0.22919265925884247,"19":-0.015066628344357014,"20":0.09327913075685501,"21":0.19942311942577362,"22":-0.3007974326610565,"23":0.01545909233391285,"24":-0.052644457668066025,"25":0.011996550485491753,"26":-0.20002129673957825,"27":-0.32631629705429077,"28":0.071397565305233,"29":-0.11089809238910675,"30":-0.3258143663406372,"31":-0.023021962493658066,"32":-0.16693709790706635,"33":0.07593543827533722,"34":-0.1558421403169632,"35":-0.11857452988624573,"36":-0.12564080953598022,"37":0.13501395285129547,"38":0.21431736648082733,"39":-0.12390121817588806,"40":-0.23370547592639923,"41":-0.17106524109840393,"42":-0.1003345251083374,"43":-0.29874148964881897,"44":-0.16815617680549622,"45":-0.1995636522769928,"46":-0.0002996784169226885,"47":-0.276380717754364,"48":-0.03942756727337837,"49":-0.3387799859046936,"50":-0.03548488765954971,"51":-0.26814591884613037,"52":-0.2659800350666046,"53":-0.3581799268722534,"54":0.22002935409545898,"55":0.19192907214164734,"56":0.22151494026184082,"57":0.20616117119789124,"58":0.2743094861507416,"59":0.07390903681516647,"60":0.3828660249710083,"61":0.2319229543209076,"62":0.10139113664627075,"63":-0.046230241656303406,"64":-0.23094527423381805,"65":-0.03566689416766167,"66":-0.046868614852428436,"67":0.06933286041021347,"68":-0.10849988460540771,"69":-0.0725313201546669,"70":-0.37009233236312866,"71":-0.4160389304161072,"72":-0.18992403149604797,"73":0.24311940371990204,"74":0.1508168876171112,"75":-0.07930852472782135,"76":-0.10592377930879593}},"28":{"bias":-0.12723873555660248,"weights":{"0":0.044481370598077774,"1":-0.40475785732269287,"2":-0.2677909731864929,"3":0.3306328356266022,"4":0.11652204394340515,"5":0.0998431146144867,"6":-0.17886070907115936,"7":0.22513315081596375,"8":0.33686336874961853,"9":-0.3451189398765564,"10":-0.30311349034309387,"11":0.12829357385635376,"12":0.26248887181282043,"13":-0.1009787768125534,"14":-0.16955754160881042,"15":0.05317108705639839,"16":0.09222447872161865,"17":-0.08378808200359344,"18":-0.03113487735390663,"19":-0.13718730211257935,"20":-0.11126858741044998,"21":-0.20605602860450745,"22":-0.19189779460430145,"23":0.04563511908054352,"24":-0.046948328614234924,"25":0.03747308626770973,"26":0.14698421955108643,"27":0.06810018420219421,"28":-0.03470678627490997,"29":-0.11063443124294281,"30":0.2780430018901825,"31":0.15995965898036957,"32":-0.10494191944599152,"33":0.41825076937675476,"34":0.31740331649780273,"35":0.10556314885616302,"36":0.1474667489528656,"37":0.19136318564414978,"38":0.16432204842567444,"39":-0.11153163015842438,"40":0.1391349732875824,"41":0.09215360879898071,"42":-0.22032560408115387,"43":-0.06377849727869034,"44":-0.05744994804263115,"45":0.11364317685365677,"46":0.1607542335987091,"47":-0.1518813967704773,"48":-0.06336977332830429,"49":0.10480188578367233,"50":0.16200874745845795,"51":-0.10035025328397751,"52":-0.11574174463748932,"53":0.14183968305587769,"54":-0.04072554036974907,"55":-0.008474206551909447,"56":-0.15348394215106964,"57":-0.04128692299127579,"58":-0.18831482529640198,"59":-0.1748397946357727,"60":-0.4305296540260315,"61":-0.21594727039337158,"62":-0.13016490638256073,"63":-0.11907796561717987,"64":-0.11502488702535629,"65":-0.17405812442302704,"66":0.11544538289308548,"67":0.3892518877983093,"68":-0.12219493091106415,"69":-0.02591032162308693,"70":-0.27823254466056824,"71":-0.2591724693775177,"72":-0.02979709394276142,"73":0.16660821437835693,"74":-0.2583385407924652,"75":0.1305985450744629,"76":0.04937901720404625}},"29":{"bias":-0.04041635990142822,"weights":{"0":0.40164342522621155,"1":-0.14954182505607605,"2":0.035608839243650436,"3":0.021404577419161797,"4":-0.016634564846754074,"5":0.20083209872245789,"6":0.07323723286390305,"7":-0.1149991974234581,"8":0.22611933946609497,"9":0.20521344244480133,"10":0.42054858803749084,"11":0.18331629037857056,"12":0.6022494435310364,"13":-0.19996537268161774,"14":-0.15740035474300385,"15":-0.46626079082489014,"16":-0.12227296084165573,"17":0.006423701532185078,"18":-0.14104285836219788,"19":-0.184186652302742,"20":0.33094021677970886,"21":-0.056199878454208374,"22":0.15567053854465485,"23":0.20294728875160217,"24":0.08209003508090973,"25":0.11234055459499359,"26":0.2192549705505371,"27":-0.13990657031536102,"28":0.12163764238357544,"29":-0.1923377364873886,"30":-0.17433904111385345,"31":-0.18436850607395172,"32":0.04417794942855835,"33":-0.6050461530685425,"34":-0.18306832015514374,"35":0.1546887308359146,"36":0.18574868142604828,"37":0.1622912883758545,"38":0.1578158587217331,"39":-0.014387504197657108,"40":-0.1241883710026741,"41":0.07273302227258682,"42":0.17374837398529053,"43":0.09969867765903473,"44":-0.08903953433036804,"45":-0.01878717914223671,"46":0.165147066116333,"47":0.13914340734481812,"48":-0.15070036053657532,"49":-0.051036857068538666,"50":0.08085471391677856,"51":0.2370237410068512,"52":0.21388578414916992,"53":0.12148143351078033,"54":-0.06426336616277695,"55":-0.07424940168857574,"56":0.1339123696088791,"57":0.010932891629636288,"58":0.04190101847052574,"59":0.07634282857179642,"60":-0.10436351597309113,"61":0.02754705585539341,"62":0.09099417179822922,"63":-0.1973722130060196,"64":0.14277595281600952,"65":-0.09764651954174042,"66":0.04148469120264053,"67":0.01885276846587658,"68":0.3568514287471771,"69":0.2981714904308319,"70":0.08264928311109543,"71":0.2567692995071411,"72":0.0922846570611,"73":0.1910000741481781,"74":0.04719489440321922,"75":-0.009287689812481403,"76":-0.002953187096863985}},"30":{"bias":0.08359190821647644,"weights":{"0":-0.37836989760398865,"1":-0.4125247597694397,"2":0.33731505274772644,"3":0.18381422758102417,"4":-0.2193273901939392,"5":0.19821280241012573,"6":0.36196577548980713,"7":0.07662508636713028,"8":0.2873022258281708,"9":0.34147921204566956,"10":-0.03812038153409958,"11":0.36777010560035706,"12":0.050002165138721466,"13":-0.08718947321176529,"14":0.17613857984542847,"15":-0.2935636639595032,"16":-0.07834826409816742,"17":0.1281576305627823,"18":0.12046696245670319,"19":0.19781269133090973,"20":-0.42104554176330566,"21":0.19591842591762543,"22":-0.015677303075790405,"23":0.03210902214050293,"24":-0.126670703291893,"25":-0.13696011900901794,"26":0.27414920926094055,"27":0.27864211797714233,"28":-0.15420502424240112,"29":0.04370277747511864,"30":0.17526543140411377,"31":0.11085253208875656,"32":0.025200698524713516,"33":0.2225377857685089,"34":0.07805785536766052,"35":0.16544899344444275,"36":0.03347282484173775,"37":0.15040051937103271,"38":0.33509984612464905,"39":0.11766652762889862,"40":-0.08481332659721375,"41":0.36867326498031616,"42":-0.16102758049964905,"43":-0.2926514744758606,"44":-0.10695956647396088,"45":-0.21986331045627594,"46":-0.008343897759914398,"47":-0.25044530630111694,"48":-0.25148072838783264,"49":-0.27582141757011414,"50":-0.1531265676021576,"51":0.04456119239330292,"52":-0.4592437744140625,"53":-0.40569689869880676,"54":0.24230799078941345,"55":-0.06566192209720612,"56":0.3133028447628021,"57":0.2955095171928406,"58":0.21783509850502014,"59":0.08869189769029617,"60":0.23488792777061462,"61":-0.13625271618366241,"62":0.09676505625247955,"63":0.08563176542520523,"64":-0.339535117149353,"65":0.06493532657623291,"66":-0.4140109419822693,"67":-0.2194112241268158,"68":0.18772456049919128,"69":0.16728262603282928,"70":0.23563221096992493,"71":0.305841863155365,"72":-0.2433800846338272,"73":-0.09319998323917389,"74":-0.03827325254678726,"75":-0.3203934133052826,"76":0.02144433930516243}},"31":{"bias":-0.12487255781888962,"weights":{"0":0.030792418867349625,"1":0.6166734099388123,"2":-0.2157524675130844,"3":0.10292087495326996,"4":0.10811907798051834,"5":0.35527753829956055,"6":0.47533249855041504,"7":0.1801477074623108,"8":0.023762252181768417,"9":-0.010701930150389671,"10":0.13533718883991241,"11":-0.05158583074808121,"12":-0.06258409470319748,"13":0.034551456570625305,"14":0.07321766763925552,"15":0.3730045557022095,"16":-0.10691956430673599,"17":-0.09730174392461777,"18":-0.07413806021213531,"19":0.19811277091503143,"20":-0.10888394713401794,"21":0.09034392237663269,"22":0.15415556728839874,"23":-0.1406073421239853,"24":0.045988693833351135,"25":0.019412541761994362,"26":-0.002814276609569788,"27":0.09924472123384476,"28":-0.14616157114505768,"29":-0.12602989375591278,"30":0.28208503127098083,"31":0.020982619374990463,"32":-0.15497949719429016,"33":-0.7845391631126404,"34":0.14213038980960846,"35":-0.05683821812272072,"36":-0.13830170035362244,"37":0.07340835779905319,"38":-0.13868513703346252,"39":-0.19765903055667877,"40":0.15290161967277527,"41":0.04909395053982735,"42":0.020385228097438812,"43":-0.0656714141368866,"44":-0.016681911423802376,"45":0.10947784036397934,"46":0.18913346529006958,"47":0.2313755750656128,"48":0.010632737539708614,"49":-0.08947844803333282,"50":0.010275530628859997,"51":0.017950989305973053,"52":-0.0684504434466362,"53":-0.4103997051715851,"54":0.12796960771083832,"55":0.14416438341140747,"56":-0.14210329949855804,"57":0.019091974943876266,"58":0.028917642310261726,"59":0.14557161927223206,"60":0.05823805183172226,"61":0.13072359561920166,"62":0.16171737015247345,"63":-0.10963524132966995,"64":-0.341034859418869,"65":-0.0647229552268982,"66":-0.2672714591026306,"67":0.1694161295890808,"68":0.6582520604133606,"69":0.3528045117855072,"70":0.34246790409088135,"71":0.46593013405799866,"72":-0.066334567964077,"73":0.19539937376976013,"74":0.24311359226703644,"75":-0.19557379186153412,"76":-0.17396050691604614}},"32":{"bias":-0.05677219107747078,"weights":{"0":-0.06650497019290924,"1":0.23046252131462097,"2":-0.00451315613463521,"3":-0.1222788542509079,"4":0.05702199414372444,"5":-0.02038094960153103,"6":0.022599129006266594,"7":0.06406915187835693,"8":0.002680411096662283,"9":0.22339200973510742,"10":-0.09605058282613754,"11":0.07024545222520828,"12":0.09548721462488174,"13":-0.09224731475114822,"14":0.27913230657577515,"15":0.6197130084037781,"16":0.1806693822145462,"17":0.2057213932275772,"18":-0.004317219834774733,"19":-0.11436523497104645,"20":0.11188525706529617,"21":-0.14077819883823395,"22":-0.23165717720985413,"23":-0.029955483973026276,"24":-0.10807964205741882,"25":-0.1146983951330185,"26":-0.051965948194265366,"27":0.20074325799942017,"28":0.12253209203481674,"29":0.027169987559318542,"30":0.16515852510929108,"31":0.06453423947095871,"32":0.050998058170080185,"33":0.11349878460168839,"34":0.20258495211601257,"35":0.09786771237850189,"36":-0.0006456315750256181,"37":0.04338166117668152,"38":0.17729149758815765,"39":-0.19731144607067108,"40":0.110560841858387,"41":0.24080397188663483,"42":-0.08984128385782242,"43":-0.15597568452358246,"44":-0.1808006912469864,"45":0.103349968791008,"46":-0.16146548092365265,"47":-0.19711728394031525,"48":-0.03271246701478958,"49":-0.1380426436662674,"50":-0.12631487846374512,"51":-0.15932875871658325,"52":-0.22318340837955475,"53":-0.17644155025482178,"54":0.07876904308795929,"55":0.06227878853678703,"56":0.1696401983499527,"57":0.26426026225090027,"58":0.008988531306385994,"59":0.17322684824466705,"60":-0.1047232449054718,"61":0.14430828392505646,"62":-0.1488841325044632,"63":-0.09782461076974869,"64":-0.16585485637187958,"65":-0.12705765664577484,"66":-0.1629774123430252,"67":-0.061076901853084564,"68":-0.17462433874607086,"69":-0.14894351363182068,"70":-0.16438360512256622,"71":-0.3157598078250885,"72":-0.1650816649198532,"73":0.07146007567644119,"74":-0.23414205014705658,"75":-0.3960351049900055,"76":-0.19789259135723114}},"33":{"bias":-0.006137219723314047,"weights":{"0":0.19129157066345215,"1":-0.10263942182064056,"2":0.2689962387084961,"3":-0.0760543942451477,"4":-0.05583809316158295,"5":-0.15540215373039246,"6":0.062258027493953705,"7":0.21334952116012573,"8":-0.2598382532596588,"9":0.05641653388738632,"10":0.1907152682542801,"11":0.15092477202415466,"12":-0.1755877286195755,"13":-0.01550412829965353,"14":0.14422842860221863,"15":-0.10445825010538101,"16":0.3075793385505676,"17":0.30957484245300293,"18":0.2950390875339508,"19":0.0380249097943306,"20":-0.2578085660934448,"21":0.3420676290988922,"22":-0.04596228525042534,"23":0.2891518175601959,"24":-0.07165439426898956,"25":0.13338109850883484,"26":0.168507918715477,"27":-0.16924333572387695,"28":0.16303139925003052,"29":0.04447779059410095,"30":-0.2712676525115967,"31":0.02219828963279724,"32":0.14668171107769012,"33":-0.00021952945098746568,"34":-0.21688024699687958,"35":-0.17486758530139923,"36":-0.1938222199678421,"37":0.0667017325758934,"38":0.094713494181633,"39":-0.06360422819852829,"40":-0.0302713755518198,"41":-0.16276295483112335,"42":0.08396537601947784,"43":-0.07977031171321869,"44":-0.08115402609109879,"45":0.10287394374608994,"46":0.19789335131645203,"47":0.07662168145179749,"48":0.14613451063632965,"49":0.25428885221481323,"50":0.03835289552807808,"51":0.25325635075569153,"52":-0.1665991097688675,"53":-0.2247425764799118,"54":0.30875346064567566,"55":0.08838249742984772,"56":0.22701311111450195,"57":0.3677254617214203,"58":0.22255288064479828,"59":0.023851100355386734,"60":0.38890576362609863,"61":-0.07298948615789413,"62":0.1493266224861145,"63":0.3037731349468231,"64":-0.19769302010536194,"65":0.2453344613313675,"66":0.05676257237792015,"67":-0.18571560084819794,"68":-0.6625782251358032,"69":-0.002684334060177207,"70":-0.21852606534957886,"71":-0.1905982792377472,"72":0.07543785125017166,"73":-0.26964208483695984,"74":-0.4187351167201996,"75":-0.2596305310726166,"76":-0.06570190191268921}},"34":{"bias":0.14626510441303253,"weights":{"0":-0.4084837734699249,"1":-0.28558483719825745,"2":-0.3267309367656708,"3":0.16379714012145996,"4":-0.09251134842634201,"5":-0.11500590294599533,"6":0.008824377320706844,"7":0.02793646603822708,"8":-0.3046894371509552,"9":-0.1764076203107834,"10":-0.3106783330440521,"11":-0.24446992576122284,"12":-0.47179505228996277,"13":0.03923572599887848,"14":0.1506572961807251,"15":-0.21734949946403503,"16":0.2161462903022766,"17":0.3113688826560974,"18":0.02377273701131344,"19":0.28163373470306396,"20":0.07753299921751022,"21":-0.30807816982269287,"22":-0.06612343341112137,"23":-0.23471064865589142,"24":0.12633170187473297,"25":-0.09661613404750824,"26":-0.3781329095363617,"27":0.27253273129463196,"28":-0.0297240000218153,"29":0.08613333106040955,"30":0.21304728090763092,"31":0.16448870301246643,"32":-0.19716638326644897,"33":0.4708307981491089,"34":0.00907245185226202,"35":0.15849222242832184,"36":0.05544278398156166,"37":0.12776868045330048,"38":-0.046727437525987625,"39":-0.1473604440689087,"40":0.05335207283496857,"41":-0.212908074259758,"42":-0.08161000162363052,"43":0.09652642905712128,"44":-0.18225973844528198,"45":0.09911657869815826,"46":0.03441830724477768,"47":-0.004144098609685898,"48":-0.0052088345400989056,"49":0.1566823422908783,"50":0.12119758874177933,"51":-0.029995929449796677,"52":0.17435167729854584,"53":0.08347761631011963,"54":0.14014095067977905,"55":0.2882770895957947,"56":-0.20642498135566711,"57":0.07753395289182663,"58":-0.018469830974936485,"59":-0.15715280175209045,"60":0.09373532980680466,"61":0.1156877651810646,"62":0.12519028782844543,"63":0.2995736598968506,"64":0.30936187505722046,"65":0.14546971023082733,"66":0.2017315775156021,"67":0.06034683808684349,"68":-0.02517838217318058,"69":0.14060020446777344,"70":-0.051539838314056396,"71":-0.10427766293287277,"72":0.1858855038881302,"73":-0.07630590349435806,"74":0.19791057705879211,"75":0.23038780689239502,"76":0.05983075499534607}},"35":{"bias":0.2396487593650818,"weights":{"0":-0.1497170776128769,"1":0.5058475732803345,"2":-0.0008993353112600744,"3":-0.03850812837481499,"4":-0.38816913962364197,"5":-0.39320266246795654,"6":-0.3235158622264862,"7":-0.23625284433364868,"8":0.12030697613954544,"9":0.1924562007188797,"10":0.14316904544830322,"11":-0.09963280707597733,"12":-0.03164132684469223,"13":-0.1493627429008484,"14":-0.14237691462039948,"15":0.44924312829971313,"16":-0.24666331708431244,"17":0.0007042427896521986,"18":-0.16657383739948273,"19":0.00030218108440749347,"20":-0.05934916436672211,"21":0.1665511131286621,"22":-0.06309790164232254,"23":0.1791379153728485,"24":0.23143340647220612,"25":0.27695441246032715,"26":0.12117928266525269,"27":-0.23406854271888733,"28":-0.05949235334992409,"29":-0.007107824087142944,"30":-0.26059672236442566,"31":0.13704268634319305,"32":0.04661552235484123,"33":-0.1751731038093567,"34":-0.2779944837093353,"35":-0.14946489036083221,"36":0.003167710965499282,"37":-0.10510952025651932,"38":0.15212857723236084,"39":-0.016588851809501648,"40":-0.1924344152212143,"41":0.22692343592643738,"42":0.1960339993238449,"43":0.1434592306613922,"44":-0.10540502518415451,"45":0.18114019930362701,"46":0.08844831585884094,"47":-0.02610291726887226,"48":-0.10254363715648651,"49":0.1665588617324829,"50":0.22300240397453308,"51":0.16598641872406006,"52":0.20781570672988892,"53":0.3175782859325409,"54":-0.2281433343887329,"55":-0.04773074388504028,"56":-0.12544070184230804,"57":-0.1120053306221962,"58":-0.0919405072927475,"59":-0.05273132026195526,"60":-0.20023199915885925,"61":-0.16052915155887604,"62":-0.15817342698574066,"63":-0.2682442367076874,"64":0.15707366168498993,"65":-0.06880299001932144,"66":0.3793095052242279,"67":-0.15712390840053558,"68":-0.6462097764015198,"69":-0.2684846520423889,"70":-0.4241805076599121,"71":-0.20161154866218567,"72":0.19786019623279572,"73":-0.028395844623446465,"74":-0.39684194326400757,"75":0.2621471881866455,"76":0.06765635311603546}},"36":{"bias":0.13262902200222015,"weights":{"0":0.19933046400547028,"1":0.20112356543540955,"2":0.25609344244003296,"3":-0.3217722177505493,"4":-0.25320395827293396,"5":-0.3365626037120819,"6":-0.16510681807994843,"7":-0.15735045075416565,"8":-0.1830359548330307,"9":0.13649781048297882,"10":-0.012891477905213833,"11":-0.3347145617008209,"12":-0.3409580588340759,"13":-0.06036210060119629,"14":-0.06451848149299622,"15":-0.028601132333278656,"16":-0.11842045187950134,"17":0.013740613125264645,"18":-0.00451609818264842,"19":-0.20735718309879303,"20":-0.24954429268836975,"21":0.34184253215789795,"22":-0.15593473613262177,"23":0.1571946144104004,"24":0.02560054138302803,"25":0.15533702075481415,"26":-0.13682875037193298,"27":0.030513904988765717,"28":-0.18641096353530884,"29":-0.08769973367452621,"30":-0.3316749036312103,"31":0.1106993556022644,"32":-0.0389561802148819,"33":0.24448543787002563,"34":0.02185939997434616,"35":-0.07670396566390991,"36":-0.06818609684705734,"37":0.1204104796051979,"38":-0.3163846731185913,"39":-0.056253693997859955,"40":-0.20938152074813843,"41":-0.13957224786281586,"42":0.034326791763305664,"43":0.20490919053554535,"44":0.23116111755371094,"45":0.11295296996831894,"46":0.054253000766038895,"47":-0.06757737696170807,"48":0.09963928163051605,"49":0.05880539119243622,"50":-0.09210173785686493,"51":0.2169979065656662,"52":-0.1879550963640213,"53":0.0015282079111784697,"54":-0.1987852305173874,"55":-0.1841941624879837,"56":-0.1001611277461052,"57":0.2773699164390564,"58":-0.2177610993385315,"59":-0.11481204628944397,"60":0.21549418568611145,"61":-0.24673853814601898,"62":0.06033841148018837,"63":-0.2687006890773773,"64":-0.318772554397583,"65":-0.23590560257434845,"66":-0.2698202431201935,"67":-0.3413562774658203,"68":-0.20399272441864014,"69":0.032236866652965546,"70":0.20432265102863312,"71":0.012714558281004429,"72":-0.05408783629536629,"73":-0.21466130018234253,"74":-0.03601061552762985,"75":-0.07388005405664444,"76":-0.08397363126277924}},"37":{"bias":-0.20815454423427582,"weights":{"0":-0.18639497458934784,"1":-0.7150018215179443,"2":-0.08726207166910172,"3":0.08277272433042526,"4":-0.15158532559871674,"5":-0.34714245796203613,"6":0.2212706357240677,"7":-0.30816563963890076,"8":0.4008369743824005,"9":0.10568822175264359,"10":-0.2461845725774765,"11":0.3233700394630432,"12":0.2075936496257782,"13":-0.14733503758907318,"14":-0.10976783186197281,"15":-0.22945427894592285,"16":-0.02522561326622963,"17":-0.006007332354784012,"18":0.0358915813267231,"19":-0.1473311483860016,"20":0.05059772729873657,"21":-0.13150157034397125,"22":0.0801653265953064,"23":-0.02769293263554573,"24":-0.12268014252185822,"25":-0.21222949028015137,"26":0.2650763988494873,"27":-0.2118029147386551,"28":0.1522669643163681,"29":0.14778317511081696,"30":-0.14915087819099426,"31":-0.07926231622695923,"32":0.1582653522491455,"33":-0.07475459575653076,"34":-0.005604540929198265,"35":0.05633624270558357,"36":-0.030324483290314674,"37":0.06500169634819031,"38":0.5464538335800171,"39":0.19040268659591675,"40":-0.22812339663505554,"41":0.4584345817565918,"42":-0.05754294991493225,"43":0.08868931233882904,"44":0.05872953683137894,"45":-0.1520715206861496,"46":-0.02483367547392845,"47":-0.16940385103225708,"48":-0.024581803008913994,"49":-0.06121744215488434,"50":-0.2141924351453781,"51":0.05052385851740837,"52":0.2577185332775116,"53":0.055655740201473236,"54":0.029068224132061005,"55":0.19313818216323853,"56":0.05561456456780434,"57":-0.08653141558170319,"58":-0.14402811229228973,"59":-0.0969085544347763,"60":-0.1741485446691513,"61":0.05612005665898323,"62":-0.061364151537418365,"63":-0.1726676970720291,"64":0.040058791637420654,"65":-0.07289965450763702,"66":0.28498029708862305,"67":-0.12201809138059616,"68":-0.20855143666267395,"69":0.2739734351634979,"70":0.03890564292669296,"71":0.15668822824954987,"72":-0.20545491576194763,"73":0.07446042448282242,"74":-0.1654355525970459,"75":0.21365205943584442,"76":0.07660070061683655}}},{"Poor dietary choices":{"bias":-0.3826305568218231,"weights":{"0":-0.8783895969390869,"1":-0.47272056341171265,"2":0.2546631991863251,"3":0.49331098794937134,"4":0.4971562623977661,"5":-0.29389864206314087,"6":0.3472924530506134,"7":-0.04864313825964928,"8":0.7640390992164612,"9":-0.3351829946041107,"10":-0.025432279333472252,"11":-0.7104601860046387,"12":-0.6166247725486755,"13":-0.13608908653259277,"14":0.5071356892585754,"15":-0.11804542690515518,"16":0.47438058257102966,"17":-0.9092183113098145,"18":0.05962486192584038,"19":-0.8742591142654419,"20":-0.24438554048538208,"21":0.5548173189163208,"22":0.583010733127594,"23":0.20904970169067383,"24":-0.3741423189640045,"25":-0.7849355936050415,"26":0.8402103781700134,"27":0.1403452306985855,"28":0.2665249705314636,"29":-0.9112993478775024,"30":0.11324462294578552,"31":-1.2808680534362793,"32":-0.07434239983558655,"33":0.13932885229587555,"34":0.37711867690086365,"35":-0.04619298502802849,"36":0.6628204584121704,"37":-0.007615736685693264}},"Intestinal Permeability / Leaky Gut Syndrome 5":{"bias":-0.36762291193008423,"weights":{"0":-0.8419767022132874,"1":0.6487588882446289,"2":0.043099984526634216,"3":1.0341486930847168,"4":-0.742692232131958,"5":-0.5957053303718567,"6":-0.8996323347091675,"7":0.5302722454071045,"8":-0.6276057362556458,"9":0.5375548005104065,"10":0.42789188027381897,"11":-0.5334802269935608,"12":-0.24606265127658844,"13":-0.08161040395498276,"14":-0.18522518873214722,"15":0.8972046971321106,"16":-0.24420027434825897,"17":0.2848386764526367,"18":0.08870625495910645,"19":-0.8783951997756958,"20":-0.013904145918786526,"21":-0.5793982744216919,"22":-0.48789462447166443,"23":-0.687264084815979,"24":-0.10217303037643433,"25":0.2649213969707489,"26":-0.366328626871109,"27":0.5155350565910339,"28":-0.049734119325876236,"29":0.3963891267776489,"30":-0.8037189245223999,"31":0.20868994295597076,"32":-0.26839640736579895,"33":-0.9844087362289429,"34":-0.5521198511123657,"35":-0.48598992824554443,"36":-0.36212560534477234,"37":-0.5011227130889893}},"Impaired Gut Function":{"bias":-0.284244567155838,"weights":{"0":-0.15957891941070557,"1":-0.5684293508529663,"2":1.0555803775787354,"3":-0.008012870326638222,"4":-1.0149105787277222,"5":-1.008053183555603,"6":0.21337197721004486,"7":-0.328403115272522,"8":0.7715018391609192,"9":-0.018129155039787292,"10":-0.2702603042125702,"11":-0.29569000005722046,"12":-0.3325657844543457,"13":-0.6290819644927979,"14":0.515375018119812,"15":-0.9391267895698547,"16":0.46053674817085266,"17":0.3451549708843231,"18":-0.18200764060020447,"19":0.46662113070487976,"20":0.25052371621131897,"21":0.33150726556777954,"22":-0.31348827481269836,"23":-0.4482761025428772,"24":-0.9610591530799866,"25":0.6105499267578125,"26":-0.5646499991416931,"27":-0.6173511147499084,"28":-0.631003737449646,"29":-0.03994622081518173,"30":0.3841087222099304,"31":0.7872286438941956,"32":-0.667789101600647,"33":-0.7276353240013123,"34":-0.07860889285802841,"35":-0.9177863001823425,"36":0.34581029415130615,"37":0.19177889823913574}},"Low stomach acid 5":{"bias":-0.16535601019859314,"weights":{"0":-0.5175275802612305,"1":-0.48441389203071594,"2":-0.795226514339447,"3":-0.47687485814094543,"4":0.8377736210823059,"5":0.26418235898017883,"6":0.6063421964645386,"7":0.21355292201042175,"8":-0.547795295715332,"9":-0.9928130507469177,"10":0.0854921042919159,"11":-0.3240007758140564,"12":-0.07328134775161743,"13":-0.8256849050521851,"14":0.40704673528671265,"15":0.7630392909049988,"16":-0.6881927251815796,"17":0.4214560091495514,"18":-0.4900640845298767,"19":-0.47649386525154114,"20":-0.6071200966835022,"21":0.39445656538009644,"22":-0.2184789776802063,"23":0.14350609481334686,"24":-0.05421211197972298,"25":0.016555408015847206,"26":-0.8196505308151245,"27":-0.5604410767555237,"28":0.8449265360832214,"29":-0.5443456768989563,"30":0.36042389273643494,"31":0.13139241933822632,"32":0.09161164611577988,"33":-0.8565415740013123,"34":-0.016097726300358772,"35":-0.8240997791290283,"36":-0.6449925899505615,"37":-0.21409288048744202}},"Inflamed Gut 1":{"bias":-0.22260552644729614,"weights":{"0":-1.10806405544281,"1":-0.14732934534549713,"2":0.6230271458625793,"3":-0.45700395107269287,"4":-0.2058611959218979,"5":-0.8340286612510681,"6":-0.20839571952819824,"7":0.3179128170013428,"8":-0.4052746295928955,"9":-0.004819388967007399,"10":-0.6916955709457397,"11":1.1985101699829102,"12":-0.7502057552337646,"13":0.7439650893211365,"14":0.36444342136383057,"15":0.06260007619857788,"16":0.20375964045524597,"17":-0.378706693649292,"18":0.41061025857925415,"19":-0.43936970829963684,"20":-0.3742040693759918,"21":0.21119320392608643,"22":-0.10081775486469269,"23":0.2382718026638031,"24":-0.3710915148258209,"25":-0.16143369674682617,"26":-0.3917967677116394,"27":0.23401904106140137,"28":-0.22969867289066315,"29":-0.9401828050613403,"30":-0.49096885323524475,"31":0.32249942421913147,"32":0.5810136795043945,"33":-0.20563489198684692,"34":-0.24795489013195038,"35":0.7958937287330627,"36":0.46675390005111694,"37":-0.5614866614341736}},"Bacterial Imbalance 7":{"bias":-0.1955738067626953,"weights":{"0":0.585625410079956,"1":0.053603366017341614,"2":-0.35230547189712524,"3":0.25865495204925537,"4":0.6061841249465942,"5":-0.9940754771232605,"6":-0.6388569474220276,"7":-0.6240644454956055,"8":-0.4710654318332672,"9":-0.5066794157028198,"10":-0.6863592267036438,"11":0.10190074145793915,"12":0.3429551422595978,"13":-0.1435828059911728,"14":-0.21996521949768066,"15":-0.7471707463264465,"16":-0.7612969279289246,"17":-0.626869261264801,"18":0.21768562495708466,"19":0.3732909858226776,"20":-0.22180256247520447,"21":-0.6102982759475708,"22":-0.5295315384864807,"23":0.038104839622974396,"24":-0.31201380491256714,"25":0.00340487202629447,"26":0.40134769678115845,"27":0.5798403024673462,"28":-0.5698094964027405,"29":-0.6926382184028625,"30":0.3967767357826233,"31":-0.11129441112279892,"32":0.005632610060274601,"33":0.7495624423027039,"34":0.4760313034057617,"35":-0.8063120245933533,"36":-0.5989906191825867,"37":-0.10645892471075058}},"Gut Infection -5":{"bias":-0.05534451827406883,"weights":{"0":-0.025489119812846184,"1":-0.0514255128800869,"2":-0.09059204161167145,"3":-0.8897898197174072,"4":-0.5882362127304077,"5":0.649169385433197,"6":-0.017427070066332817,"7":0.6286593675613403,"8":-0.18206055462360382,"9":0.13003335893154144,"10":-0.15294381976127625,"11":-0.1914316713809967,"12":-0.3201281726360321,"13":0.24475623667240143,"14":-0.6565101146697998,"15":-0.9995904564857483,"16":0.17152750492095947,"17":0.10024289786815643,"18":-0.5400781631469727,"19":0.3251609206199646,"20":-1.3129663467407227,"21":-0.40327778458595276,"22":-0.9194580912590027,"23":0.8486241698265076,"24":-0.9428550004959106,"25":-0.7033665776252747,"26":-0.01879209280014038,"27":-0.347450852394104,"28":0.3083389401435852,"29":0.1991046667098999,"30":0.5859879851341248,"31":-0.46559762954711914,"32":0.06839249283075333,"33":-0.1905646026134491,"34":-0.9187169075012207,"35":0.34299567341804504,"36":-0.277950644493103,"37":1.201892614364624}},"Small Intestine Bacterial Overgrowth (SIBO)6":{"bias":-0.32046666741371155,"weights":{"0":-0.13711079955101013,"1":-0.3591935634613037,"2":-0.11084628850221634,"3":-0.2423938810825348,"4":-0.6630304455757141,"5":0.5881971120834351,"6":0.3185586929321289,"7":0.065376877784729,"8":-0.29851943254470825,"9":-0.35749098658561707,"10":0.42581310868263245,"11":0.1211927980184555,"12":0.68524569272995,"13":-0.431524395942688,"14":-1.1434203386306763,"15":0.15882697701454163,"16":-1.0220013856887817,"17":-0.9906210899353027,"18":-1.0064507722854614,"19":-0.47587668895721436,"20":0.5348931550979614,"21":-0.7614874839782715,"22":0.6711123585700989,"23":-0.4871286451816559,"24":-0.05753703787922859,"25":-0.630404531955719,"26":-0.5035603642463684,"27":0.6491951942443848,"28":-0.726028561592102,"29":0.015725530683994293,"30":0.44038647413253784,"31":-0.23210616409778595,"32":0.012874302454292774,"33":0.5996606945991516,"34":-0.927219808101654,"35":-0.05694964528083801,"36":0.5283395648002625,"37":-0.41961660981178284}},"Mal-absorption":{"bias":-0.3542962968349457,"weights":{"0":0.39479419589042664,"1":0.5483085513114929,"2":-0.31884607672691345,"3":-0.9109655022621155,"4":0.20890896022319794,"5":-0.01728500984609127,"6":-0.6162170171737671,"7":-0.6772140860557556,"8":-0.7192766070365906,"9":-0.19282187521457672,"10":-0.357006311416626,"11":-1.015021562576294,"12":-1.0787724256515503,"13":0.21355178952217102,"14":-0.5984140038490295,"15":0.35476720333099365,"16":0.4688286781311035,"17":-0.1721249669790268,"18":0.5277949571609497,"19":0.1911821812391281,"20":0.5172361731529236,"21":-0.4403557777404785,"22":0.2582398056983948,"23":0.275674045085907,"24":0.23417873680591583,"25":-0.6270992755889893,"26":-0.2423899918794632,"27":-0.7315225005149841,"28":-0.3214193284511566,"29":0.1614496409893036,"30":-0.9778704047203064,"31":-0.16456247866153717,"32":-0.6355062127113342,"33":0.17797134816646576,"34":-0.526395320892334,"35":0.551374614238739,"36":0.38237252831459045,"37":-0.3728957176208496}},"No problem":{"bias":-0.41186901926994324,"weights":{"0":0.5044797658920288,"1":-0.7702179551124573,"2":-0.55382239818573,"3":-0.295748770236969,"4":-0.5837201476097107,"5":0.2987654507160187,"6":-0.2887326776981354,"7":-0.2169380784034729,"8":0.9560438394546509,"9":0.46671953797340393,"10":-0.8836001753807068,"11":0.2998383641242981,"12":0.5808933973312378,"13":0.3118884563446045,"14":0.06261478364467621,"15":-0.4927670955657959,"16":0.16484136879444122,"17":-0.3151026666164398,"18":-0.5727548003196716,"19":-0.3747462034225464,"20":-0.3045175075531006,"21":0.07944355905056,"22":0.3902042806148529,"23":-1.1330525875091553,"24":0.6548067927360535,"25":0.5701074600219727,"26":0.34416112303733826,"27":-0.5736888647079468,"28":-0.018245533108711243,"29":-0.31856220960617065,"30":-1.1871949434280396,"31":-1.0551280975341797,"32":-0.7315018177032471,"33":-0.5092676877975464,"34":0.3606336712837219,"35":0.6458750367164612,"36":-0.11881856620311737,"37":0.38189396262168884}}}],"outputLookup":true,"inputLookup":false,"activation":"sigmoid","trainOpts":{"iterations":20000,"errorThresh":0.005,"log":false,"logPeriod":10,"learningRate":0.3,"momentum":0.1,"callbackPeriod":10,"beta1":0.9,"beta2":0.999,"epsilon":1e-8}}