{"sizes":[77,38,10],"layers":[{"0":{},"1":{},"2":{},"3":{},"4":{},"5":{},"6":{},"7":{},"8":{},"9":{},"10":{},"11":{},"12":{},"13":{},"14":{},"15":{},"16":{},"17":{},"18":{},"19":{},"20":{},"21":{},"22":{},"23":{},"24":{},"25":{},"26":{},"27":{},"28":{},"29":{},"30":{},"31":{},"32":{},"33":{},"34":{},"35":{},"36":{},"37":{},"38":{},"39":{},"40":{},"41":{},"42":{},"43":{},"44":{},"45":{},"46":{},"47":{},"48":{},"49":{},"50":{},"51":{},"52":{},"53":{},"54":{},"55":{},"56":{},"57":{},"58":{},"59":{},"60":{},"61":{},"62":{},"63":{},"64":{},"65":{},"66":{},"67":{},"68":{},"69":{},"70":{},"71":{},"72":{},"73":{},"74":{},"75":{},"76":{}},{"0":{"bias":0.14604900777339935,"weights":{"0":-0.14116442203521729,"1":-0.02000209502875805,"2":-0.1701982319355011,"3":0.08538123220205307,"4":0.27781176567077637,"5":-0.05703476816415787,"6":0.32342028617858887,"7":-0.008661704137921333,"8":0.13741637766361237,"9":-0.012247318401932716,"10":-0.30166539549827576,"11":-0.19922363758087158,"12":0.00996414665132761,"13":-0.16804473102092743,"14":-0.365362286567688,"15":0.25633612275123596,"16":-0.20290763676166534,"17":-0.17790362238883972,"18":0.13507050275802612,"19":-0.17865733802318573,"20":-0.019936248660087585,"21":-0.1093115285038948,"22":-0.2558666467666626,"23":-0.1085672676563263,"24":0.06691053509712219,"25":-0.10966160148382187,"26":-0.25669732689857483,"27":0.10865755379199982,"28":-0.07565627247095108,"29":-0.16504286229610443,"30":0.08358896523714066,"31":0.17719627916812897,"32":-0.06671084463596344,"33":-0.04805543273687363,"34":0.03332673758268356,"35":-0.15935678780078888,"36":-0.08968695998191833,"37":-0.16069748997688293,"38":0.003586044069379568,"39":0.02537933737039566,"40":0.07056091725826263,"41":-0.11576884239912033,"42":-0.146454855799675,"43":-0.1549430936574936,"44":-0.2514339089393616,"45":-0.21067474782466888,"46":-0.0668167844414711,"47":0.0010238917311653495,"48":0.02490868605673313,"49":-0.08928849548101425,"50":0.08198537677526474,"51":-0.16682472825050354,"52":0.20933620631694794,"53":0.006133876740932465,"54":0.09540826082229614,"55":-0.1895504593849182,"56":-0.2720130681991577,"57":-0.3850356638431549,"58":-0.1037411317229271,"59":0.008134745061397552,"60":-0.40566378831863403,"61":-0.2385200709104538,"62":-0.25265029072761536,"63":-0.18497790396213531,"64":0.10756414383649826,"65":0.013739470392465591,"66":0.0006986205116845667,"67":0.1334197074174881,"68":0.420650452375412,"69":0.32787078619003296,"70":0.28144100308418274,"71":0.03855736181139946,"72":-0.1584821492433548,"73":0.17447561025619507,"74":0.3965735137462616,"75":-0.06227295845746994,"76":-0.1765698939561844}},"1":{"bias":0.2365020364522934,"weights":{"0":-0.19093851745128632,"1":0.34792500734329224,"2":0.10398794710636139,"3":-0.27312254905700684,"4":-0.08859548717737198,"5":-0.3102651834487915,"6":-0.3626255393028259,"7":-0.05956180766224861,"8":-0.015900617465376854,"9":-0.0016739811981096864,"10":-0.2137405425310135,"11":-0.4236099123954773,"12":-0.19570142030715942,"13":0.03224162757396698,"14":0.10970842838287354,"15":0.48878443241119385,"16":-0.14830683171749115,"17":0.047055598348379135,"18":-0.2038945108652115,"19":0.05864589288830757,"20":-0.10405534505844116,"21":0.07759726792573929,"22":-0.11786492168903351,"23":0.06500327587127686,"24":-0.09986194223165512,"25":-0.2112443745136261,"26":-0.02209092676639557,"27":-0.028921451419591904,"28":-0.18140216171741486,"29":-0.049755703657865524,"30":-0.0728774294257164,"31":0.18397797644138336,"32":0.01305751409381628,"33":0.25764206051826477,"34":-0.228818878531456,"35":0.16776442527770996,"36":-0.15414538979530334,"37":0.14260698854923248,"38":-0.12923544645309448,"39":-0.059200406074523926,"40":-0.20811358094215393,"41":-0.15216416120529175,"42":0.06700894981622696,"43":-0.1137748584151268,"44":-0.011890401132404804,"45":-0.1812189519405365,"46":-0.29030531644821167,"47":-0.14077728986740112,"48":-0.2649247348308563,"49":0.06850478798151016,"50":-0.19190269708633423,"51":-0.1854478418827057,"52":-0.362027108669281,"53":-0.26570287346839905,"54":-0.02502431347966194,"55":-0.20319169759750366,"56":0.08855733275413513,"57":0.0174761563539505,"58":-0.22613213956356049,"59":-0.17643868923187256,"60":0.20726776123046875,"61":-0.17682577669620514,"62":-0.12242761999368668,"63":0.07000447809696198,"64":-0.37645846605300903,"65":-0.06082123890519142,"66":-0.34115588665008545,"67":-0.30158278346061707,"68":-0.41822269558906555,"69":0.04052126035094261,"70":-0.05176563560962677,"71":-0.03055240772664547,"72":-0.023225631564855576,"73":-0.24311663210391998,"74":-0.18392403423786163,"75":-0.1919807642698288,"76":-0.0860038548707962}},"2":{"bias":-0.0698314681649208,"weights":{"0":0.3432725667953491,"1":0.5874996185302734,"2":0.2332887351512909,"3":0.09966563433408737,"4":-0.19184830784797668,"5":0.3928143382072449,"6":-0.09415771067142487,"7":0.25513511896133423,"8":-0.31985458731651306,"9":0.10126519203186035,"10":0.23509900271892548,"11":-0.31404414772987366,"12":0.20804129540920258,"13":0.0803595632314682,"14":0.18052901327610016,"15":0.060849644243717194,"16":0.06820981204509735,"17":-0.19668501615524292,"18":-0.3168407082557678,"19":-0.27876999974250793,"20":-0.01324442494660616,"21":-0.08893989771604538,"22":0.3179952800273895,"23":0.026554342359304428,"24":0.19172923266887665,"25":0.05168262496590614,"26":-0.34679853916168213,"27":0.2595573365688324,"28":-0.11673595011234283,"29":-0.15740320086479187,"30":0.02034728042781353,"31":-0.18573421239852905,"32":0.15849946439266205,"33":0.008719051256775856,"34":-0.09455075860023499,"35":0.0018138432642444968,"36":-0.1279015690088272,"37":0.1241774708032608,"38":-0.5568760633468628,"39":0.1321888566017151,"40":0.036481406539678574,"41":-0.4210740923881531,"42":0.2108999788761139,"43":0.08262339979410172,"44":0.2009560912847519,"45":-0.01152972411364317,"46":0.056987859308719635,"47":0.04530533775687218,"48":-0.02295130118727684,"49":0.2876514792442322,"50":0.04467454552650452,"51":0.0706867203116417,"52":-0.0937136635184288,"53":0.08122957497835159,"54":-0.2916580140590668,"55":0.0215773768723011,"56":0.13547298312187195,"57":-0.04050478711724281,"58":-0.1088862493634224,"59":0.15454517304897308,"60":-0.16881397366523743,"61":-0.007357379421591759,"62":-0.14065377414226532,"63":-0.1864725947380066,"64":0.0308704674243927,"65":-0.21972545981407166,"66":-0.034127093851566315,"67":0.17726513743400574,"68":0.30903559923171997,"69":0.03262227401137352,"70":-0.08067625761032104,"71":0.02703898213803768,"72":-0.08400037884712219,"73":0.013311449438333511,"74":0.16509705781936646,"75":-0.04182187467813492,"76":0.10436508059501648}},"3":{"bias":0.08269309252500534,"weights":{"0":-0.46425363421440125,"1":-0.15286245942115784,"2":-0.04557684063911438,"3":0.03524721413850784,"4":-0.15053468942642212,"5":-0.2603384852409363,"6":-0.21703773736953735,"7":0.2774476706981659,"8":0.4831664562225342,"9":0.0692451000213623,"10":-0.28086429834365845,"11":0.23407085239887238,"12":0.29301196336746216,"13":0.017859632149338722,"14":0.17282702028751373,"15":0.3576298952102661,"16":0.02746514230966568,"17":-0.173369362950325,"18":-0.15731319785118103,"19":0.10945948958396912,"20":-0.1711948961019516,"21":0.1606355756521225,"22":-0.22496359050273895,"23":0.007555067073553801,"24":-0.13617582619190216,"25":-0.2826906740665436,"26":0.2552036643028259,"27":-0.003509285394102335,"28":-0.19779492914676666,"29":-0.21978652477264404,"30":0.3274304270744324,"31":-0.17236043512821198,"32":0.03271496295928955,"33":0.24635696411132812,"34":0.2898235023021698,"35":0.1820700466632843,"36":-0.07237637042999268,"37":0.04588500037789345,"38":0.09667601436376572,"39":0.058461543172597885,"40":0.2308477908372879,"41":0.06076149642467499,"42":-0.3090960383415222,"43":-0.06691090762615204,"44":-0.23913389444351196,"45":-0.11792600899934769,"46":-0.05744653567671776,"47":-0.03732201084494591,"48":0.013514796271920204,"49":-0.03430087864398956,"50":-0.227702334523201,"51":-0.24424517154693604,"52":-0.06396246701478958,"53":-0.2765161395072937,"54":-0.09993671625852585,"55":-0.21039508283138275,"56":0.0030915250536054373,"57":-0.08879192918539047,"58":-0.16966140270233154,"59":0.050512053072452545,"60":-0.1899048388004303,"61":-0.27153924107551575,"62":-0.20744256675243378,"63":-0.03704105317592621,"64":-0.41174471378326416,"65":-0.26472896337509155,"66":-0.36711376905441284,"67":0.07444680482149124,"68":0.12843231856822968,"69":0.050520822405815125,"70":0.23194126784801483,"71":0.0764252170920372,"72":-0.30917471647262573,"73":-0.1678163707256317,"74":-0.35908299684524536,"75":-0.21884723007678986,"76":0.0018761189421638846}},"4":{"bias":0.02731793187558651,"weights":{"0":0.08800626546144485,"1":-0.3943730592727661,"2":0.12512169778347015,"3":-0.18786264955997467,"4":0.2434285432100296,"5":0.2377910614013672,"6":0.3251155614852905,"7":-0.06351140886545181,"8":-0.19784799218177795,"9":0.2728164792060852,"10":0.08135122060775757,"11":0.11045233905315399,"12":0.27621859312057495,"13":0.06643889844417572,"14":0.17086274921894073,"15":-0.6525512337684631,"16":0.2229652851819992,"17":0.16981452703475952,"18":0.14924034476280212,"19":0.03619372099637985,"20":-0.05377214401960373,"21":-0.10072120279073715,"22":-0.10004927963018417,"23":-0.14224828779697418,"24":-0.13063348829746246,"25":0.13983981311321259,"26":0.1567583978176117,"27":-0.29962101578712463,"28":0.19681210815906525,"29":0.02366228587925434,"30":-0.0733570083975792,"31":0.1806146204471588,"32":-0.15130843222141266,"33":-0.05886412784457207,"34":-0.20434589684009552,"35":0.15804871916770935,"36":0.15864402055740356,"37":-0.06677735596895218,"38":0.2235097587108612,"39":-0.16501928865909576,"40":-0.07477855682373047,"41":-0.04894179478287697,"42":0.16239361464977264,"43":0.10980074107646942,"44":0.17890499532222748,"45":0.11883063614368439,"46":-0.13076810538768768,"47":-0.14602047204971313,"48":0.03589799255132675,"49":-0.014198482036590576,"50":0.09657825529575348,"51":0.10699024051427841,"52":0.01191716454923153,"53":-0.02620122581720352,"54":-0.015757597982883453,"55":0.18412289023399353,"56":-0.059798385947942734,"57":0.22084295749664307,"58":0.20262384414672852,"59":-0.1026173084974289,"60":0.3102583587169647,"61":-0.061468083411455154,"62":0.13792867958545685,"63":0.05607602000236511,"64":-0.25756704807281494,"65":-0.06460206210613251,"66":-0.1026114672422409,"67":0.003485147375613451,"68":0.2050970196723938,"69":0.02303094044327736,"70":0.17733445763587952,"71":0.3629845976829529,"72":0.13312317430973053,"73":0.04928411543369293,"74":0.30695581436157227,"75":0.07381576299667358,"76":0.13415490090847015}},"5":{"bias":0.10632205009460449,"weights":{"0":-0.06180920451879501,"1":0.34754225611686707,"2":0.023046189919114113,"3":-0.038366153836250305,"4":0.09407373517751694,"5":0.05659801512956619,"6":0.05389152839779854,"7":0.12959609925746918,"8":-0.12088165432214737,"9":0.0829857736825943,"10":-0.31369930505752563,"11":-0.3173099458217621,"12":-0.2931468188762665,"13":0.012167193926870823,"14":0.13218550384044647,"15":0.32050585746765137,"16":0.18890371918678284,"17":0.09590727090835571,"18":0.01744820363819599,"19":0.1667119711637497,"20":0.07646302133798599,"21":0.21028946340084076,"22":0.04829328879714012,"23":-0.32620155811309814,"24":-0.26885703206062317,"25":-0.28274106979370117,"26":-0.05920680984854698,"27":-0.16838769614696503,"28":-0.10992040485143661,"29":0.015713974833488464,"30":-0.024872858077287674,"31":0.03635305166244507,"32":-0.09545576572418213,"33":-0.5433731079101562,"34":-0.2858958840370178,"35":0.062092091888189316,"36":0.09311328828334808,"37":0.18985265493392944,"38":0.06836787611246109,"39":-0.0076392958872020245,"40":-0.11392781883478165,"41":0.06825336068868637,"42":-0.25248485803604126,"43":-0.05062765255570412,"44":-0.11463752388954163,"45":-0.3255895972251892,"46":-0.143289253115654,"47":-0.05697003751993179,"48":-0.01824144832789898,"49":-0.19096745550632477,"50":-0.2938191592693329,"51":0.0420876182615757,"52":0.3641339838504791,"53":0.03489413857460022,"54":0.19058993458747864,"55":0.08048848062753677,"56":0.04878528416156769,"57":0.24414409697055817,"58":0.14376257359981537,"59":0.1487569659948349,"60":0.2742222845554352,"61":0.0011223882902413607,"62":0.1104859709739685,"63":0.1621759831905365,"64":0.1506883203983307,"65":0.0017132227076217532,"66":0.28197112679481506,"67":-0.28004199266433716,"68":-0.1898302584886551,"69":0.368802934885025,"70":0.3545660376548767,"71":0.36741459369659424,"72":-0.13009344041347504,"73":0.03277720883488655,"74":0.08826599270105362,"75":0.2021663635969162,"76":0.16386257112026215}},"6":{"bias":-0.046367526054382324,"weights":{"0":0.09110664576292038,"1":0.03971485421061516,"2":0.23277707397937775,"3":0.1561306267976761,"4":0.28987711668014526,"5":0.2548372745513916,"6":0.12429089099168777,"7":0.34201425313949585,"8":-0.013440081849694252,"9":-0.07610425353050232,"10":0.14696285128593445,"11":0.33251407742500305,"12":0.37478727102279663,"13":-0.08596165478229523,"14":-0.006270133424550295,"15":-0.32478880882263184,"16":0.19015362858772278,"17":0.02453012950718403,"18":-0.16625289618968964,"19":-0.04355951398611069,"20":0.16451255977153778,"21":-0.13638190925121307,"22":0.16027623414993286,"23":0.027694782242178917,"24":0.2112829089164734,"25":0.018208691850304604,"26":-0.016105039045214653,"27":0.2256917655467987,"28":0.14842724800109863,"29":0.12107289582490921,"30":-0.021133802831172943,"31":0.0772247463464737,"32":0.09140082448720932,"33":0.3488161861896515,"34":0.10413126647472382,"35":-0.160060316324234,"36":-0.027570484206080437,"37":0.07760358601808548,"38":-0.18634794652462006,"39":0.0490848571062088,"40":0.06837195158004761,"41":-0.16489653289318085,"42":0.034735262393951416,"43":-0.09987715631723404,"44":0.12373223900794983,"45":0.13270428776741028,"46":-0.11812829226255417,"47":0.06487160176038742,"48":-0.1197650283575058,"49":-0.1253049224615097,"50":0.1517082303762436,"51":0.17900450527668,"52":-0.14873431622982025,"53":-0.2050638198852539,"54":0.15469902753829956,"55":-0.04906993359327316,"56":0.1436208039522171,"57":-0.120357945561409,"58":0.20484691858291626,"59":0.07209078222513199,"60":0.1355898231267929,"61":-0.09848388284444809,"62":0.1336597055196762,"63":-0.07133070379495621,"64":-0.43082311749458313,"65":-0.10065663605928421,"66":-0.35312744975090027,"67":0.0599091537296772,"68":0.31396669149398804,"69":-0.11475740373134613,"70":-0.11802233755588531,"71":0.048443153500556946,"72":-0.10987462103366852,"73":-0.014289799146354198,"74":0.08345790207386017,"75":-0.47593411803245544,"76":-0.04977717995643616}},"7":{"bias":0.048700179904699326,"weights":{"0":-0.12623988091945648,"1":-0.18108196556568146,"2":-0.01817910373210907,"3":-0.00822761096060276,"4":-0.2727653682231903,"5":0.021770363673567772,"6":0.32426974177360535,"7":0.2680222690105438,"8":-0.0810626670718193,"9":0.3275871276855469,"10":-0.17323458194732666,"11":0.2654748857021332,"12":0.009621053002774715,"13":-0.08159340173006058,"14":0.313154399394989,"15":0.08299698680639267,"16":0.06876975297927856,"17":0.2463243156671524,"18":0.20769378542900085,"19":0.08400660008192062,"20":-0.47073400020599365,"21":0.14900799095630646,"22":-0.11571180820465088,"23":-0.0742444321513176,"24":0.052769482135772705,"25":0.07004217058420181,"26":-0.04954739660024643,"27":-0.13364720344543457,"28":-0.17212729156017303,"29":0.1584039032459259,"30":0.1555483490228653,"31":-0.18040287494659424,"32":0.010579748079180717,"33":-0.090233713388443,"34":0.010771467350423336,"35":0.16901744902133942,"36":0.07278837263584137,"37":-0.04108361527323723,"38":0.06789443641901016,"39":-0.14415998756885529,"40":-0.1554754078388214,"41":0.20078812539577484,"42":-0.0757405087351799,"43":-0.20432786643505096,"44":-0.07849396765232086,"45":0.0607420913875103,"46":-0.046057578176259995,"47":0.05949052795767784,"48":-0.04184095188975334,"49":-0.054425403475761414,"50":-0.16252033412456512,"51":0.03838051110506058,"52":-0.10500957071781158,"53":-0.10565657168626785,"54":0.006098263431340456,"55":0.11091642081737518,"56":0.3668367862701416,"57":0.09207360446453094,"58":0.0009552934789098799,"59":-0.1353638470172882,"60":0.38514694571495056,"61":0.030032003298401833,"62":0.04099090024828911,"63":-0.03380497545003891,"64":-0.2953146994113922,"65":0.05552568659186363,"66":-0.2974558174610138,"67":-0.15801815688610077,"68":-0.08080178499221802,"69":0.5015841126441956,"70":0.3637771010398865,"71":0.2856931984424591,"72":0.24407947063446045,"73":-0.46296340227127075,"74":0.05872379615902901,"75":-0.3420957624912262,"76":0.10568810999393463}},"8":{"bias":-0.28331148624420166,"weights":{"0":0.320502907037735,"1":0.21523787081241608,"2":0.18384745717048645,"3":-0.2493438571691513,"4":0.015203150920569897,"5":0.11740876734256744,"6":-0.21229824423789978,"7":-0.1505899429321289,"8":0.09080999344587326,"9":0.02047116868197918,"10":0.4091816246509552,"11":0.4023614525794983,"12":0.3071177303791046,"13":-0.13325950503349304,"14":0.1773006021976471,"15":-0.28610673546791077,"16":0.2261275053024292,"17":0.08073928207159042,"18":0.18767499923706055,"19":0.15419167280197144,"20":0.17249727249145508,"21":-0.020026134327054024,"22":0.15585942566394806,"23":0.2026650309562683,"24":-0.013899242505431175,"25":0.2020787000656128,"26":0.0991983562707901,"27":0.026958858594298363,"28":-0.06451106071472168,"29":0.07909475266933441,"30":-0.24248148500919342,"31":0.14475876092910767,"32":0.06537501513957977,"33":-0.011683140881359577,"34":0.0027544039767235518,"35":-0.05089277774095535,"36":-0.08252812922000885,"37":0.011568764224648476,"38":0.3758053481578827,"39":0.14250043034553528,"40":-0.1968398243188858,"41":0.27307358384132385,"42":0.01972280442714691,"43":0.05704593285918236,"44":0.1521565169095993,"45":-0.036412276327610016,"46":-0.08712820708751678,"47":0.14940562844276428,"48":0.0016142301028594375,"49":-0.04421490803360939,"50":0.2640458345413208,"51":0.10297264158725739,"52":-0.07691481709480286,"53":-0.14673244953155518,"54":0.08101824671030045,"55":-0.12914206087589264,"56":0.3440225422382355,"57":0.06647001951932907,"58":-0.05931131914258003,"59":-0.12444651871919632,"60":0.2659241855144501,"61":0.06615448743104935,"62":0.13726797699928284,"63":0.2489335685968399,"64":-0.021881170570850372,"65":0.154941588640213,"66":-0.17664788663387299,"67":0.0650017186999321,"68":-0.4290600121021271,"69":-0.08332523703575134,"70":-0.15682202577590942,"71":-0.08941654860973358,"72":0.3480638265609741,"73":0.20764677226543427,"74":-0.12379858642816544,"75":-0.05581418797373772,"76":-0.02087797410786152}},"9":{"bias":-0.15275833010673523,"weights":{"0":-0.06673937290906906,"1":-0.572253942489624,"2":-0.1986764371395111,"3":0.04680155590176582,"4":-0.07897898554801941,"5":-0.02965935692191124,"6":0.17720869183540344,"7":0.29931652545928955,"8":0.31377580761909485,"9":-0.14662957191467285,"10":-0.021625051274895668,"11":0.4155350625514984,"12":0.23257656395435333,"13":-0.05700813978910446,"14":0.055788878351449966,"15":-0.3608412444591522,"16":-0.028378859162330627,"17":-0.12871842086315155,"18":-0.015629492700099945,"19":-0.0005026867729611695,"20":-0.3049478232860565,"21":0.02281537465751171,"22":0.023084182292222977,"23":0.11650115996599197,"24":-0.10661746561527252,"25":0.1984153687953949,"26":0.1698320358991623,"27":0.2701272666454315,"28":0.004532341379672289,"29":0.14301513135433197,"30":0.087034210562706,"31":-0.1249670684337616,"32":-0.19932468235492706,"33":0.21227318048477173,"34":0.3151313364505768,"35":-0.1876341849565506,"36":0.18073736131191254,"37":0.19804935157299042,"38":0.33375802636146545,"39":0.18179380893707275,"40":0.20851556956768036,"41":0.3215172588825226,"42":-0.04126681014895439,"43":-0.16403234004974365,"44":0.14440199732780457,"45":0.12837772071361542,"46":-0.16151204705238342,"47":-0.07708863914012909,"48":0.18330436944961548,"49":-0.11020353436470032,"50":0.16658014059066772,"51":-0.12371288239955902,"52":-0.007422804366797209,"53":0.2453335076570511,"54":0.13395708799362183,"55":0.19168904423713684,"56":-0.1694379448890686,"57":0.002734726993367076,"58":0.19511544704437256,"59":-0.12661296129226685,"60":0.012658301740884781,"61":0.18915368616580963,"62":0.08590802550315857,"63":0.07207642495632172,"64":0.06397899985313416,"65":0.08791173249483109,"66":-0.11476872861385345,"67":0.0470234751701355,"68":-0.1180005818605423,"69":0.07675320655107498,"70":-0.17190219461917877,"71":-0.13482587039470673,"72":0.20283742249011993,"73":-0.12445402145385742,"74":0.11927516758441925,"75":0.04043545201420784,"76":-0.01212406437844038}},"10":{"bias":0.23626494407653809,"weights":{"0":0.018033724278211594,"1":0.4602060914039612,"2":0.20849284529685974,"3":-0.060681045055389404,"4":-0.3918285071849823,"5":-0.4300844669342041,"6":-0.22869786620140076,"7":-0.13873693346977234,"8":-0.25974828004837036,"9":0.24949078261852264,"10":-0.075034961104393,"11":-0.22390733659267426,"12":-0.12129644304513931,"13":0.17904670536518097,"14":-0.2811239957809448,"15":0.5213581323623657,"16":-0.05420779436826706,"17":-0.16480040550231934,"18":-0.028436850756406784,"19":-0.10987747460603714,"20":-0.1911604106426239,"21":0.20527665317058563,"22":0.19175663590431213,"23":0.04834117367863655,"24":0.31793078780174255,"25":-0.01917911320924759,"26":-0.12784594297409058,"27":-0.07825498282909393,"28":-0.14494839310646057,"29":-0.1252223253250122,"30":-0.28761035203933716,"31":-0.16417735815048218,"32":0.02924240007996559,"33":-0.18565864861011505,"34":-0.15553468465805054,"35":-0.18327301740646362,"36":-0.18133342266082764,"37":0.034739285707473755,"38":0.06501737982034683,"39":-0.1245054081082344,"40":-0.08973439782857895,"41":-0.1802842766046524,"42":0.07180362939834595,"43":0.054487332701683044,"44":0.2231709063053131,"45":0.16662345826625824,"46":0.08386391401290894,"47":0.26827988028526306,"48":0.15477481484413147,"49":0.0013370810775086284,"50":0.036377932876348495,"51":0.007618660107254982,"52":-0.05321488529443741,"53":0.17761556804180145,"54":0.003408318618312478,"55":0.006367177702486515,"56":-0.10137104243040085,"57":0.09731164574623108,"58":-0.11206408590078354,"59":0.17250758409500122,"60":-0.18238307535648346,"61":-0.10147877037525177,"62":-0.14006111025810242,"63":0.0688672736287117,"64":-0.03432149812579155,"65":0.12383724004030228,"66":0.26993316411972046,"67":-0.45291274785995483,"68":-0.4682127833366394,"69":-0.18476031720638275,"70":-0.18183359503746033,"71":-0.13055023550987244,"72":0.1291419267654419,"73":-0.3737846612930298,"74":-0.31007975339889526,"75":-0.0824013501405716,"76":0.12616124749183655}},"11":{"bias":-0.4826553761959076,"weights":{"0":0.655107855796814,"1":0.008150178007781506,"2":0.2976105809211731,"3":0.03273557871580124,"4":0.16755490005016327,"5":0.4716728627681732,"6":-0.3087386190891266,"7":0.3051527440547943,"8":-0.2155049443244934,"9":0.11310575157403946,"10":0.6202043294906616,"11":-0.3417503535747528,"12":0.22590745985507965,"13":0.05855651944875717,"14":0.2649036645889282,"15":-0.4961727261543274,"16":-0.13559402525424957,"17":0.16765688359737396,"18":0.04696904122829437,"19":0.033238258212804794,"20":0.3285326659679413,"21":0.18440191447734833,"22":0.15865524113178253,"23":0.1046806275844574,"24":0.2488907426595688,"25":0.08759140223264694,"26":-0.3576091527938843,"27":0.034606534987688065,"28":-0.1060156375169754,"29":0.12016382813453674,"30":0.127009317278862,"31":-0.07447947561740875,"32":0.18565575778484344,"33":-0.5311275720596313,"34":-0.08983637392520905,"35":-0.004743617027997971,"36":-0.00015579817409161478,"37":-0.011900362558662891,"38":-0.3940823972225189,"39":0.07699059695005417,"40":-0.08887123316526413,"41":-0.16534796357154846,"42":0.15597794950008392,"43":0.23790325224399567,"44":0.22610534727573395,"45":-0.0019460440380498767,"46":0.28132006525993347,"47":0.02657170407474041,"48":0.19284486770629883,"49":-0.008397778496146202,"50":0.02322777733206749,"51":0.22710512578487396,"52":0.16554826498031616,"53":0.40750405192375183,"54":0.035006675869226456,"55":-0.011981084942817688,"56":0.16965819895267487,"57":0.314773291349411,"58":-0.005345972254872322,"59":-0.0019706799648702145,"60":-0.002454257570207119,"61":-0.04841164872050285,"62":0.17653419077396393,"63":-0.1481662094593048,"64":0.41841021180152893,"65":0.10690537095069885,"66":0.14502443373203278,"67":0.2233910709619522,"68":0.20449203252792358,"69":-0.20769979059696198,"70":-0.18693867325782776,"71":-0.04044540971517563,"72":0.0571867898106575,"73":0.3114284873008728,"74":0.00078580406261608,"75":0.38756704330444336,"76":0.016148239374160767}},"12":{"bias":-0.06214442849159241,"weights":{"0":-0.23336532711982727,"1":-0.16181129217147827,"2":0.26491063833236694,"3":-0.09899180382490158,"4":0.03638351708650589,"5":-0.03834516555070877,"6":0.21143946051597595,"7":0.2574414014816284,"8":-0.06204305216670036,"9":0.05976742506027222,"10":-0.07297021150588989,"11":-0.1903221309185028,"12":-0.024709897115826607,"13":-0.04239542409777641,"14":0.2056436389684677,"15":-0.12041961401700974,"16":0.18098050355911255,"17":0.0607784204185009,"18":0.09043346345424652,"19":0.02688666619360447,"20":-0.32360878586769104,"21":0.16890737414360046,"22":-0.12077377736568451,"23":-0.06427613645792007,"24":-0.20986606180667877,"25":-0.15888617932796478,"26":0.05731678009033203,"27":-0.046407610177993774,"28":-0.13563133776187897,"29":0.26239025592803955,"30":0.20917941629886627,"31":-0.01835506223142147,"32":-0.00920491199940443,"33":0.17303331196308136,"34":0.07801171392202377,"35":0.11400952935218811,"36":0.04988216236233711,"37":-0.07646450400352478,"38":0.11389924585819244,"39":0.17314359545707703,"40":0.16121149063110352,"41":-0.2893356382846832,"42":0.04954671859741211,"43":-0.2683582901954651,"44":-0.2549029290676117,"45":-0.1921558827161789,"46":0.014506635256111622,"47":-0.1802690625190735,"48":-0.07709857076406479,"49":0.06639435142278671,"50":-0.08136775344610214,"51":-0.05736834555864334,"52":-0.06653738766908646,"53":0.03364467993378639,"54":0.2122490257024765,"55":-0.012987027876079082,"56":0.3149918019771576,"57":0.3538534939289093,"58":0.1428743302822113,"59":-0.06366313993930817,"60":0.4338223934173584,"61":0.02827145718038082,"62":-0.09743509441614151,"63":-0.11941380053758621,"64":0.03942076116800308,"65":0.09198914468288422,"66":-0.032905008643865585,"67":-0.21543434262275696,"68":-0.22137640416622162,"69":0.05813874676823616,"70":-0.10322004556655884,"71":-0.23288658261299133,"72":0.16699323058128357,"73":-0.12195419520139694,"74":-0.05991077423095703,"75":-0.004100042860955,"76":-0.11781273037195206}},"13":{"bias":0.028467414900660515,"weights":{"0":-0.11683780699968338,"1":0.44311392307281494,"2":-0.08346656709909439,"3":-0.3038289248943329,"4":0.09585729986429214,"5":-0.039379652589559555,"6":-0.0649498924612999,"7":-0.4920893907546997,"8":0.06429962813854218,"9":-0.3040493428707123,"10":-0.03663886338472366,"11":0.24304020404815674,"12":0.1106189712882042,"13":-0.05564660578966141,"14":-0.2943877875804901,"15":0.3852427303791046,"16":0.29034921526908875,"17":0.19451944530010223,"18":-0.018868761137127876,"19":0.09679465740919113,"20":0.12436535209417343,"21":-0.10367561131715775,"22":0.15132933855056763,"23":-0.037804193794727325,"24":-0.018738267943263054,"25":0.016652658581733704,"26":0.3326292634010315,"27":-0.2715635597705841,"28":-0.14784012734889984,"29":0.14298970997333527,"30":-0.34087851643562317,"31":-0.05522061139345169,"32":0.1974664032459259,"33":-0.39088189601898193,"34":0.02495414949953556,"35":-0.12129101902246475,"36":0.10577573627233505,"37":0.04729778319597244,"38":0.21558760106563568,"39":-0.013613761402666569,"40":-0.3279940187931061,"41":0.05481281504034996,"42":0.08428754657506943,"43":-0.10455616563558578,"44":-0.014153868891298771,"45":0.15789808332920074,"46":0.013016601093113422,"47":-0.08427134901285172,"48":0.1258033812046051,"49":0.04323321580886841,"50":-0.07827605307102203,"51":0.012913585640490055,"52":0.07215669751167297,"53":0.06664083898067474,"54":0.01055306289345026,"55":0.1564967930316925,"56":-0.31847670674324036,"57":-0.19690541923046112,"58":0.2924881875514984,"59":-0.15587188303470612,"60":0.06594952940940857,"61":0.19440728425979614,"62":-0.06849679350852966,"63":0.026711206883192062,"64":0.17195536196231842,"65":0.1836066097021103,"66":-0.06893055140972137,"67":-0.24341949820518494,"68":-0.28227514028549194,"69":-0.29461926221847534,"70":-0.20422044396400452,"71":0.04506395384669304,"72":0.33781108260154724,"73":0.12556715309619904,"74":-0.143493190407753,"75":0.23887628316879272,"76":0.14057332277297974}},"14":{"bias":0.26618316769599915,"weights":{"0":-0.004870908800512552,"1":0.0925157219171524,"2":0.28127017617225647,"3":-0.3571571409702301,"4":-0.005010454449802637,"5":-0.10802764445543289,"6":-0.3658859431743622,"7":0.0024111198727041483,"8":-0.17361147701740265,"9":0.30558937788009644,"10":-0.12956637144088745,"11":-0.3115842342376709,"12":-0.1725330650806427,"13":0.0004521968658082187,"14":-0.25451281666755676,"15":-0.20748195052146912,"16":-0.1278197467327118,"17":-0.016890767961740494,"18":0.01944146119058132,"19":-0.2407960295677185,"20":0.13695994019508362,"21":0.08813618868589401,"22":-0.32166239619255066,"23":-0.19616520404815674,"24":-0.23435261845588684,"25":0.0073050446808338165,"26":-0.0205887109041214,"27":-0.26268789172172546,"28":-0.03504456207156181,"29":0.041642095893621445,"30":-0.19339202344417572,"31":0.010243616998195648,"32":-0.15555663406848907,"33":0.2766675651073456,"34":-0.2884131968021393,"35":-0.09967667609453201,"36":-0.1872577965259552,"37":-0.10148455947637558,"38":0.042008209973573685,"39":0.00018940155860036612,"40":-0.34887734055519104,"41":-0.00006996756565058604,"42":-0.07729098945856094,"43":-0.29580172896385193,"44":-0.2826080918312073,"45":-0.2945684492588043,"46":-0.27375805377960205,"47":-0.06193210184574127,"48":-0.08934714645147324,"49":0.06498821079730988,"50":-0.2688598930835724,"51":-0.3222450315952301,"52":0.08939588069915771,"53":0.4570102393627167,"54":-0.08952344954013824,"55":-0.16186347603797913,"56":0.2373517006635666,"57":0.24855339527130127,"58":-0.09639976918697357,"59":0.05459452420473099,"60":0.28752580285072327,"61":-0.05902812257409096,"62":-0.2101924568414688,"63":0.039247650653123856,"64":0.29199302196502686,"65":-0.2316276729106903,"66":0.4722221791744232,"67":-0.2883675992488861,"68":-0.3674633800983429,"69":-0.1843368411064148,"70":-0.19466054439544678,"71":0.023005638271570206,"72":-0.1344475895166397,"73":-0.09287934750318527,"74":-0.36297136545181274,"75":0.4573209583759308,"76":-0.0004981746897101402}},"15":{"bias":0.0766698494553566,"weights":{"0":0.11392597109079361,"1":0.16086077690124512,"2":-0.24026049673557281,"3":0.17790313065052032,"4":0.09787295013666153,"5":0.46081769466400146,"6":-0.3392149806022644,"7":-0.05083265155553818,"8":-0.22310833632946014,"9":-0.24339018762111664,"10":-0.021278198808431625,"11":-0.019108043983578682,"12":-0.13336245715618134,"13":-0.010221262462437153,"14":0.3154294788837433,"15":-0.024031102657318115,"16":0.018816649913787842,"17":-0.0870736688375473,"18":0.24575302004814148,"19":0.1783488541841507,"20":0.07343319803476334,"21":-0.0836075097322464,"22":0.12831690907478333,"23":0.10263979434967041,"24":0.06965580582618713,"25":-0.08170482516288757,"26":-0.36175182461738586,"27":0.2416451871395111,"28":-0.047710441052913666,"29":0.2713788151741028,"30":0.1636015623807907,"31":0.10955889523029327,"32":-0.11913202702999115,"33":0.45641863346099854,"34":0.013549278490245342,"35":-0.050146348774433136,"36":-0.02648146264255047,"37":0.04437783733010292,"38":-0.10924869030714035,"39":-0.07630236446857452,"40":0.13963833451271057,"41":-0.26342716813087463,"42":-0.0896821841597557,"43":0.07481110841035843,"44":0.07671211659908295,"45":-0.18981841206550598,"46":-0.07737140357494354,"47":0.010493123903870583,"48":0.04684301093220711,"49":0.0625922903418541,"50":0.05648111179471016,"51":-0.049889467656612396,"52":-0.13855890929698944,"53":-0.13782979547977448,"54":0.24217680096626282,"55":0.017008066177368164,"56":-0.11251743137836456,"57":0.22356891632080078,"58":0.0226841252297163,"59":-0.04196539893746376,"60":0.19718672335147858,"61":0.06622100621461868,"62":0.20307707786560059,"63":0.0002042898559011519,"64":0.15362119674682617,"65":0.15226250886917114,"66":0.04525206238031387,"67":0.20292998850345612,"68":-0.22575177252292633,"69":-0.16092808544635773,"70":-0.2571311891078949,"71":-0.36035293340682983,"72":0.12312623858451843,"73":0.06089688837528229,"74":-0.2674742639064789,"75":-0.03348642215132713,"76":0.1003616601228714}},"16":{"bias":-0.025586120784282684,"weights":{"0":-0.07941955327987671,"1":-0.7346493601799011,"2":-0.1463860124349594,"3":0.3739737570285797,"4":-0.19358229637145996,"5":-0.16068941354751587,"6":0.2895508110523224,"7":-0.06250066310167313,"8":-0.0027761354576796293,"9":-0.34195542335510254,"10":-0.26681631803512573,"11":0.22374822199344635,"12":-0.012419228442013264,"13":0.08109479397535324,"14":-0.056497734040021896,"15":-0.42160531878471375,"16":0.2573070526123047,"17":-0.12569241225719452,"18":0.2609110176563263,"19":0.24034231901168823,"20":-0.4095308482646942,"21":-0.16430146992206573,"22":0.2366536557674408,"23":0.30078572034835815,"24":0.05748288333415985,"25":0.36211347579956055,"26":-0.10212843865156174,"27":0.2504890561103821,"28":-0.19141072034835815,"29":-0.07358784228563309,"30":0.22346560657024384,"31":0.1410539448261261,"32":0.19757439196109772,"33":0.7806335687637329,"34":0.35941529273986816,"35":-0.13157416880130768,"36":-0.01889164000749588,"37":0.19149115681648254,"38":-0.10661526769399643,"39":0.08720459043979645,"40":0.13051997125148773,"41":-0.351849764585495,"42":0.24330441653728485,"43":0.07104982435703278,"44":0.02191333845257759,"45":0.023734698072075844,"46":0.19927845895290375,"47":0.21247228980064392,"48":0.34059324860572815,"49":0.32425442337989807,"50":0.04327838867902756,"51":0.23523268103599548,"52":-0.13669289648532867,"53":-0.08775070309638977,"54":0.08496031165122986,"55":0.20987775921821594,"56":-0.11969564110040665,"57":0.08454005420207977,"58":0.23206797242164612,"59":-0.0390031598508358,"60":0.025083916261792183,"61":0.08615069836378098,"62":0.19457025825977325,"63":0.05007117614150047,"64":-0.06580448895692825,"65":0.04100591316819191,"66":-0.013518290594220161,"67":0.14972902834415436,"68":0.10957269370555878,"69":0.05494668707251549,"70":0.1549275666475296,"71":0.023637643083930016,"72":0.38534146547317505,"73":-0.4188467264175415,"74":-0.2746143043041229,"75":0.18137502670288086,"76":-0.12880244851112366}},"17":{"bias":0.08437912911176682,"weights":{"0":-0.2711334824562073,"1":-0.5801593065261841,"2":-0.08327248692512512,"3":-0.0466267466545105,"4":-0.041420310735702515,"5":-0.07788363099098206,"6":0.33212050795555115,"7":0.06364806741476059,"8":-0.3293714225292206,"9":-0.22047725319862366,"10":-0.31858694553375244,"11":-0.4776570796966553,"12":-0.1564599722623825,"13":0.1888023465871811,"14":-0.10840822756290436,"15":-0.41623151302337646,"16":-0.15616728365421295,"17":0.04805362597107887,"18":-0.14966849982738495,"19":0.06909379363059998,"20":-0.13819777965545654,"21":-0.12019297480583191,"22":0.10252075642347336,"23":0.009203988127410412,"24":-0.07350622862577438,"25":-0.2589881122112274,"26":-0.4043472409248352,"27":0.22287054359912872,"28":0.19352255761623383,"29":0.04208175465464592,"30":0.2659241557121277,"31":-0.09519312530755997,"32":-0.1310596615076065,"33":0.5061371326446533,"34":0.11512571573257446,"35":0.08534963428974152,"36":0.005716070998460054,"37":-0.09294545650482178,"38":-0.11014416813850403,"39":0.03311830386519432,"40":0.2039816528558731,"41":-0.4354694187641144,"42":-0.05593575909733772,"43":0.08009254932403564,"44":-0.18521834909915924,"45":-0.21228791773319244,"46":-0.2242780178785324,"47":-0.15037570893764496,"48":-0.2690974175930023,"49":0.07690228521823883,"50":-0.05694721266627312,"51":-0.21031437814235687,"52":0.406218945980072,"53":0.29457876086235046,"54":-0.24642997980117798,"55":0.08886343240737915,"56":-0.2574629783630371,"57":-0.17355604469776154,"58":0.0011804261012002826,"59":-0.060712117701768875,"60":-0.28704091906547546,"61":0.10412317514419556,"62":-0.2550009489059448,"63":0.10601609200239182,"64":0.2462117075920105,"65":-0.164680615067482,"66":0.3957923948764801,"67":0.3046744763851166,"68":0.4585106074810028,"69":0.15733301639556885,"70":0.23292884230613708,"71":0.40448975563049316,"72":-0.15951581299304962,"73":0.1653161495923996,"74":0.05226388946175575,"75":0.22406786680221558,"76":0.0012161165941506624}},"18":{"bias":-0.13254064321517944,"weights":{"0":-0.1791095733642578,"1":-0.10002338886260986,"2":-0.13110648095607758,"3":0.09464329481124878,"4":0.1422223150730133,"5":-0.020483555272221565,"6":0.17641934752464294,"7":-0.312833696603775,"8":0.2821730077266693,"9":-0.4055972695350647,"10":-0.0074386377818882465,"11":0.16290119290351868,"12":0.19420123100280762,"13":-0.027297595515847206,"14":-0.015490280464291573,"15":-0.1246672198176384,"16":0.29714256525039673,"17":0.21667078137397766,"18":0.13869608938694,"19":0.09548810124397278,"20":0.30374065041542053,"21":-0.3684810698032379,"22":-0.27928951382637024,"23":-0.1516420841217041,"24":-0.15886279940605164,"25":-0.26536035537719727,"26":0.04710022360086441,"27":-0.14895004034042358,"28":0.00804051011800766,"29":0.21378028392791748,"30":-0.1527998298406601,"31":0.19367973506450653,"32":-0.07797858119010925,"33":-0.13979898393154144,"34":-0.019579192623496056,"35":-0.028736766427755356,"36":0.12133730947971344,"37":0.1048189327120781,"38":0.1378958374261856,"39":-0.1812271624803543,"40":-0.172241672873497,"41":0.12468855082988739,"42":-0.03468391299247742,"43":-0.025474298745393753,"44":-0.04309210553765297,"45":-0.06308771669864655,"46":-0.1201070249080658,"47":-0.226000115275383,"48":-0.020823493599891663,"49":-0.011954324319958687,"50":-0.24607932567596436,"51":-0.27786535024642944,"52":-0.17367501556873322,"53":-0.2433227300643921,"54":0.23775498569011688,"55":-0.00164355942979455,"56":-0.06373418867588043,"57":-0.0976688340306282,"58":0.024971963837742805,"59":0.06812837719917297,"60":-0.12375429272651672,"61":0.24893827736377716,"62":0.044228263199329376,"63":0.22215008735656738,"64":-0.34409740567207336,"65":0.06941530853509903,"66":-0.04676210880279541,"67":0.27355748414993286,"68":0.1429879367351532,"69":0.0719674751162529,"70":0.18290463089942932,"71":0.15668454766273499,"72":0.21316270530223846,"73":0.011500265449285507,"74":0.432045042514801,"75":-0.32572439312934875,"76":-0.02696848288178444}},"19":{"bias":-0.04670960083603859,"weights":{"0":-0.09773888438940048,"1":0.00866624154150486,"2":-0.07330325245857239,"3":0.34236621856689453,"4":0.12269420176744461,"5":-0.19826410710811615,"6":-0.16654209792613983,"7":-0.021134452894330025,"8":0.5531885027885437,"9":-0.1846337616443634,"10":-0.17518377304077148,"11":0.25311556458473206,"12":0.29633066058158875,"13":-0.0033207093365490437,"14":0.20752716064453125,"15":0.21965736150741577,"16":-0.07204574346542358,"17":-0.07969122380018234,"18":-0.15288245677947998,"19":-0.07784313708543777,"20":-0.12514431774616241,"21":-0.2997383773326874,"22":-0.08918065577745438,"23":-0.01188933290541172,"24":0.045217618346214294,"25":0.18618768453598022,"26":0.08969110250473022,"27":0.20660367608070374,"28":-0.14450551569461823,"29":0.20790348947048187,"30":0.01636912114918232,"31":-0.14159061014652252,"32":0.10799188166856766,"33":-0.016184605658054352,"34":0.09335324168205261,"35":-0.030600566416978836,"36":0.11617498099803925,"37":0.042814407497644424,"38":0.4212494492530823,"39":-0.10673144459724426,"40":0.2981593608856201,"41":0.0760587677359581,"42":-0.15707255899906158,"43":0.1979682296514511,"44":-0.1609814316034317,"45":0.07051452249288559,"46":-0.1669529676437378,"47":0.1637135148048401,"48":-0.08908172696828842,"49":0.11370742321014404,"50":-0.012357166036963463,"51":0.08500057458877563,"52":0.23145663738250732,"53":0.21024411916732788,"54":0.19116558134555817,"55":-0.14216956496238708,"56":-0.20336619019508362,"57":-0.19613467156887054,"58":0.12509720027446747,"59":-0.06209976598620415,"60":-0.08494690805673599,"61":0.1436464935541153,"62":0.06956960260868073,"63":0.01391095295548439,"64":0.030918654054403305,"65":0.1258615255355835,"66":-0.00977290514856577,"67":0.0057626450434327126,"68":-0.24583816528320312,"69":-0.20045164227485657,"70":-0.1520339846611023,"71":-0.3701012432575226,"72":0.08761569112539291,"73":-0.2679639160633087,"74":-0.24045895040035248,"75":0.07182662934064865,"76":-0.05287116393446922}},"20":{"bias":-0.24765978753566742,"weights":{"0":0.1675204187631607,"1":-0.27897536754608154,"2":0.050816796720027924,"3":-0.10235020518302917,"4":-0.2494277060031891,"5":-0.3108694553375244,"6":0.3490169942378998,"7":0.04467594251036644,"8":0.22718344628810883,"9":0.08979712426662445,"10":0.2755683660507202,"11":0.22868993878364563,"12":0.4833586513996124,"13":-0.11631235480308533,"14":-0.26706966757774353,"15":-0.5700204372406006,"16":-0.00691267242655158,"17":-0.27344757318496704,"18":0.046807076781988144,"19":-0.02287859097123146,"20":0.16869419813156128,"21":0.1544414907693863,"22":-0.0009102659532800317,"23":0.2947929799556732,"24":0.050580721348524094,"25":0.1670994609594345,"26":0.30997708439826965,"27":-0.2598295509815216,"28":-0.08201389759778976,"29":-0.180345356464386,"30":0.020196832716464996,"31":0.10120164602994919,"32":0.13148608803749084,"33":-0.34867894649505615,"34":-0.2707703411579132,"35":-0.16331666707992554,"36":-0.18783330917358398,"37":-0.0332627072930336,"38":0.2632824778556824,"39":0.02382984757423401,"40":-0.044953662902116776,"41":0.26171278953552246,"42":-0.0920538529753685,"43":-0.05401523411273956,"44":0.09705067425966263,"45":-0.033032264560461044,"46":0.005065920762717724,"47":0.29873746633529663,"48":0.20420819520950317,"49":-0.09832624346017838,"50":0.1156986653804779,"51":0.13968969881534576,"52":-0.0060511487536132336,"53":-0.20743153989315033,"54":-0.18069025874137878,"55":-0.12282384932041168,"56":0.09470828622579575,"57":0.09682030230760574,"58":-0.08124289661645889,"59":-0.016734594479203224,"60":-0.20115439593791962,"61":-0.17222356796264648,"62":-0.06887772679328918,"63":-0.09904162585735321,"64":-0.3710377514362335,"65":-0.11300834268331528,"66":-0.3340815305709839,"67":-0.07243843376636505,"68":0.32466191053390503,"69":0.4957105219364166,"70":0.34606894850730896,"71":0.4690640866756439,"72":-0.12946389615535736,"73":-0.14634649455547333,"74":0.22490528225898743,"75":-0.042180657386779785,"76":0.15107281506061554}},"21":{"bias":0.04164939001202583,"weights":{"0":0.11282864212989807,"1":0.2847595512866974,"2":-0.34670382738113403,"3":-0.308242529630661,"4":0.1051550805568695,"5":-0.3327907621860504,"6":-0.15107625722885132,"7":-0.37064626812934875,"8":0.052692897617816925,"9":-0.21001890301704407,"10":0.08243609219789505,"11":0.2945137321949005,"12":0.009872937574982643,"13":0.09436804801225662,"14":-0.5034880042076111,"15":0.22111909091472626,"16":-0.2916933000087738,"17":-0.09525284171104431,"18":-0.1728120595216751,"19":-0.016148846596479416,"20":0.1969447284936905,"21":-0.2706861197948456,"22":0.1875334531068802,"23":0.05199829861521721,"24":0.24883310496807098,"25":-0.08184121549129486,"26":0.43321412801742554,"27":-0.07666653394699097,"28":0.04682973772287369,"29":-0.11829130351543427,"30":-0.10749778151512146,"31":0.0929383933544159,"32":-0.012110885232686996,"33":-0.4997542202472687,"34":-0.13854488730430603,"35":-0.08980351686477661,"36":-0.03666926920413971,"37":0.09415142983198166,"38":0.27440714836120605,"39":0.05092046782374382,"40":-0.27897709608078003,"41":0.4228092133998871,"42":0.11152488738298416,"43":0.18601810932159424,"44":0.0033371925819665194,"45":0.10396114736795425,"46":-0.09969550371170044,"47":0.03126360476016998,"48":0.2754650115966797,"49":0.27437788248062134,"50":0.19287264347076416,"51":0.17737342417240143,"52":0.1387859731912613,"53":0.07055693119764328,"54":-0.0391106978058815,"55":-0.17458300292491913,"56":-0.38723647594451904,"57":-0.19394131004810333,"58":0.07836922258138657,"59":-0.07547855377197266,"60":-0.18186615407466888,"61":-0.19836579263210297,"62":-0.016063498333096504,"63":-0.005852049682289362,"64":-0.022652624174952507,"65":-0.2631725072860718,"66":0.2698191702365875,"67":0.06076021119952202,"68":-0.008813027292490005,"69":0.13766413927078247,"70":0.08459387719631195,"71":0.20330755412578583,"72":-0.1407139152288437,"73":0.021957259625196457,"74":0.03653175011277199,"75":0.3013029992580414,"76":-0.14849655330181122}},"22":{"bias":0.044623371213674545,"weights":{"0":-0.06104349344968796,"1":0.653276264667511,"2":-0.1355581432580948,"3":-0.07347168773412704,"4":0.3349483609199524,"5":0.024065101519227028,"6":-0.29518458247184753,"7":-0.13194267451763153,"8":-0.47808676958084106,"9":-0.17621012032032013,"10":-0.04172271490097046,"11":-0.11319978535175323,"12":-0.43514373898506165,"13":0.10517270117998123,"14":-0.12439343333244324,"15":0.4972282350063324,"16":0.19794641435146332,"17":0.04105887934565544,"18":0.062222447246313095,"19":0.01681448332965374,"20":-0.050547461956739426,"21":-0.18465404212474823,"22":0.07869567722082138,"23":-0.10565324872732162,"24":0.1289975941181183,"25":0.16764624416828156,"26":-0.37406691908836365,"27":0.03825608640909195,"28":-0.10513143986463547,"29":0.22771471738815308,"30":-0.2936648726463318,"31":0.15928679704666138,"32":0.19983191788196564,"33":0.6430335640907288,"34":-0.29258453845977783,"35":-0.05687033385038376,"36":0.16601359844207764,"37":-0.07657923549413681,"38":-0.22186851501464844,"39":0.18487195670604706,"40":-0.09012505412101746,"41":-0.293111652135849,"42":-0.025528045371174812,"43":0.07323596626520157,"44":0.0782313272356987,"45":-0.22026434540748596,"46":-0.13414357602596283,"47":0.05794858932495117,"48":0.1625296026468277,"49":0.04795759916305542,"50":-0.20211678743362427,"51":-0.09354906529188156,"52":-0.37114325165748596,"53":-0.5146444439888,"54":-0.006344705354422331,"55":0.25146111845970154,"56":-0.12916800379753113,"57":-0.1587633490562439,"58":0.28939005732536316,"59":0.1230851262807846,"60":0.04698525741696358,"61":0.07000633329153061,"62":0.1904270052909851,"63":0.07732973992824554,"64":-0.3291448652744293,"65":-0.0013992871390655637,"66":-0.4254533052444458,"67":-0.05684461444616318,"68":-0.4450366497039795,"69":-0.14640168845653534,"70":-0.09282476454973221,"71":-0.10278226435184479,"72":0.02156912535429001,"73":0.2589881122112274,"74":-0.16554667055606842,"75":-0.31991350650787354,"76":-0.17985932528972626}},"23":{"bias":0.22041018307209015,"weights":{"0":-0.0436694361269474,"1":-0.45204439759254456,"2":-0.2751544117927551,"3":0.015297671779990196,"4":0.05215959623456001,"5":-0.1530793309211731,"6":-0.03223482891917229,"7":-0.2686946988105774,"8":-0.2737162411212921,"9":-0.17012187838554382,"10":0.02107960171997547,"11":-0.09897778928279877,"12":-0.3260197341442108,"13":0.0822228491306305,"14":-0.22007538378238678,"15":-0.3992692530155182,"16":0.036882441490888596,"17":-0.02224816009402275,"18":0.1365107148885727,"19":-0.11827126145362854,"20":0.32747727632522583,"21":-0.26404812932014465,"22":-0.09280068427324295,"23":-0.1905817687511444,"24":-0.09277110546827316,"25":-0.22461044788360596,"26":0.04566991329193115,"27":-0.20828083157539368,"28":-0.07820188999176025,"29":0.19453907012939453,"30":-0.021674582734704018,"31":-0.036186158657073975,"32":-0.0832948237657547,"33":0.24534887075424194,"34":-0.1594872921705246,"35":0.04156050086021423,"36":0.15578237175941467,"37":-0.13545607030391693,"38":-0.01532413437962532,"39":-0.085591159760952,"40":-0.015288322232663631,"41":-0.15777646005153656,"42":0.16757957637310028,"43":-0.09257428348064423,"44":-0.10928627848625183,"45":-0.1178727075457573,"46":0.07128508388996124,"47":0.09218363463878632,"48":0.08908212184906006,"49":0.14769870042800903,"50":0.04501461237668991,"51":-0.09568177163600922,"52":-0.3365970253944397,"53":-0.07774893194437027,"54":0.0180737916380167,"55":-0.09322290867567062,"56":-0.23633646965026855,"57":0.11337413638830185,"58":-0.023602105677127838,"59":-0.07085777074098587,"60":-0.21383829414844513,"61":-0.04915323108434677,"62":0.22929900884628296,"63":0.19864775240421295,"64":-0.11492139101028442,"65":0.00822058878839016,"66":-0.3574657440185547,"67":-0.10746162384748459,"68":0.2435407191514969,"69":0.013999439775943756,"70":0.03484154865145683,"71":0.1409902274608612,"72":0.12555360794067383,"73":0.328792542219162,"74":0.4337925910949707,"75":-0.21417498588562012,"76":0.13171637058258057}},"24":{"bias":-0.032314516603946686,"weights":{"0":0.1491403728723526,"1":0.2799355685710907,"2":-0.011725656688213348,"3":-0.09006589651107788,"4":-0.01257382147014141,"5":-0.32608136534690857,"6":0.36308255791664124,"7":-0.4448740780353546,"8":-0.4229286015033722,"9":-0.20374740660190582,"10":0.2691352963447571,"11":-0.20555971562862396,"12":-0.054288849234580994,"13":-0.044952791184186935,"14":-0.22481602430343628,"15":0.3307736814022064,"16":-0.000979483826085925,"17":-0.07407619804143906,"18":0.04623398929834366,"19":-0.09158884733915329,"20":0.38368070125579834,"21":-0.18257473409175873,"22":0.11911632120609283,"23":0.14284053444862366,"24":0.28273066878318787,"25":0.11557848751544952,"26":-0.11986489593982697,"27":0.06307072937488556,"28":0.030150124803185463,"29":-0.1265193670988083,"30":-0.2984170913696289,"31":-0.023852340877056122,"32":0.007992646656930447,"33":-0.09096988290548325,"34":-0.12001007795333862,"35":0.1753694713115692,"36":-0.08741442114114761,"37":0.16447092592716217,"38":-0.2580482065677643,"39":-0.13919736444950104,"40":-0.10750946402549744,"41":-0.1475512832403183,"42":-0.00511683477088809,"43":0.03306226059794426,"44":0.22100113332271576,"45":0.05473751202225685,"46":0.15134947001934052,"47":0.31277817487716675,"48":0.013636056333780289,"49":0.13191145658493042,"50":0.04685387760400772,"51":0.28660449385643005,"52":-0.12688636779785156,"53":-0.310607373714447,"54":-0.07935359328985214,"55":-0.049610938876867294,"56":-0.29703402519226074,"57":-0.4129253923892975,"58":-0.11657293885946274,"59":-0.0010422716150060296,"60":-0.37460577487945557,"61":0.049444232136011124,"62":0.12653020024299622,"63":-0.14256535470485687,"64":-0.05593438446521759,"65":-0.01839444972574711,"66":-0.021684426814317703,"67":-0.019702482968568802,"68":0.21119549870491028,"69":0.38040995597839355,"70":0.23055750131607056,"71":0.11480628699064255,"72":-0.1203327551484108,"73":0.3062168061733246,"74":0.2699626684188843,"75":0.013269090093672276,"76":-0.12093497812747955}},"25":{"bias":-0.015190293081104755,"weights":{"0":0.2553150951862335,"1":-0.2670837342739105,"2":-0.007607907988131046,"3":0.0026927958242595196,"4":0.3103483319282532,"5":0.20595049858093262,"6":0.2218789905309677,"7":-0.06097976863384247,"8":-0.3155990242958069,"9":-0.002479724818840623,"10":0.09559530764818192,"11":0.09635012596845627,"12":-0.1900467574596405,"13":-0.18257884681224823,"14":0.1444830745458603,"15":-0.21343488991260529,"16":0.09968976676464081,"17":0.255826473236084,"18":0.06017769128084183,"19":0.15328653156757355,"20":0.3547397255897522,"21":-0.1367958039045334,"22":-0.005946447607129812,"23":0.09308025985956192,"24":0.12279323488473892,"25":-0.14182351529598236,"26":-0.0050147175788879395,"27":0.06612005084753036,"28":0.11800168454647064,"29":0.24356277287006378,"30":0.1222081407904625,"31":-0.07802388817071915,"32":0.06113196164369583,"33":-0.4765763580799103,"34":0.06949691474437714,"35":0.12770335376262665,"36":0.012748145498335361,"37":0.1050977036356926,"38":-0.1311192661523819,"39":-0.09395556896924973,"40":-0.1528005599975586,"41":-0.0196845680475235,"42":-0.21586602926254272,"43":-0.13978302478790283,"44":-0.03150505572557449,"45":0.07895931601524353,"46":-0.08162130415439606,"47":0.08113731443881989,"48":-0.12595003843307495,"49":0.04879187420010567,"50":0.15052737295627594,"51":0.004386396612972021,"52":0.2438763678073883,"53":0.03856426477432251,"54":0.1638222336769104,"55":0.2502181828022003,"56":0.17086243629455566,"57":0.15046507120132446,"58":-0.018864789977669716,"59":0.18626010417938232,"60":-0.028284259140491486,"61":0.14568740129470825,"62":0.2009953409433365,"63":0.008190173655748367,"64":0.04779834672808647,"65":0.22225424647331238,"66":0.1264333873987198,"67":0.2886330485343933,"68":0.40526479482650757,"69":0.19219616055488586,"70":0.15834400057792664,"71":-0.10884151607751846,"72":0.09635018557310104,"73":0.28434866666793823,"74":0.1206808090209961,"75":0.34089723229408264,"76":0.15775075554847717}},"26":{"bias":-0.00378449191339314,"weights":{"0":0.06983637809753418,"1":0.2939082384109497,"2":0.21778537333011627,"3":0.19974789023399353,"4":-0.2679750323295593,"5":-0.03377952054142952,"6":0.041469916701316833,"7":0.42178112268447876,"8":0.03238606080412865,"9":0.33812931180000305,"10":0.07491163909435272,"11":0.10096294432878494,"12":0.1264372617006302,"13":0.17751555144786835,"14":0.38067832589149475,"15":0.4475889205932617,"16":-0.17028123140335083,"17":-0.19334690272808075,"18":0.0728313997387886,"19":-0.02068345993757248,"20":-0.13363009691238403,"21":-0.020117420703172684,"22":-0.021587777882814407,"23":-0.13074085116386414,"24":0.14680588245391846,"25":0.20853190124034882,"26":0.10053378343582153,"27":-0.0346895307302475,"28":-0.13658127188682556,"29":-0.1548479199409485,"30":0.03617693856358528,"31":-0.19844898581504822,"32":0.007348003331571817,"33":0.2687984108924866,"34":0.08426977694034576,"35":0.1739841103553772,"36":0.03524475544691086,"37":0.0389213040471077,"38":0.0036944178864359856,"39":-0.06688536703586578,"40":0.25726163387298584,"41":0.046867210417985916,"42":-0.03285821154713631,"43":0.155572772026062,"44":0.015702296048402786,"45":-0.06276509165763855,"46":-0.08845729380846024,"47":-0.032366394996643066,"48":0.08613770455121994,"49":0.10259870439767838,"50":0.02009337767958641,"51":-0.011888478882610798,"52":-0.41722097992897034,"53":-0.3591312766075134,"54":-0.004556549713015556,"55":-0.18331143260002136,"56":0.19952204823493958,"57":0.026166819036006927,"58":-0.15429295599460602,"59":0.02727554179728031,"60":0.007406892720609903,"61":-0.12349791079759598,"62":-0.14398737251758575,"63":-0.13037647306919098,"64":-0.3926592767238617,"65":0.026786644011735916,"66":-0.4058149755001068,"67":-0.08316756784915924,"68":-0.09770343452692032,"69":0.18023084104061127,"70":0.17702274024486542,"71":0.23183514177799225,"72":0.046174902468919754,"73":-0.39342373609542847,"74":-0.34026777744293213,"75":-0.5058748126029968,"76":-0.13637952506542206}},"27":{"bias":-0.10897836089134216,"weights":{"0":0.12395951896905899,"1":0.7429273724555969,"2":0.09254021942615509,"3":0.10284393280744553,"4":-0.050567276775836945,"5":0.3209470510482788,"6":-0.5411605834960938,"7":0.15015026926994324,"8":0.3757089674472809,"9":0.04459802806377411,"10":0.42531275749206543,"11":0.12190021574497223,"12":0.5897483229637146,"13":0.1623627245426178,"14":0.1877930611371994,"15":0.2051033228635788,"16":-0.19908130168914795,"17":-0.24350079894065857,"18":-0.08581767976284027,"19":-0.09836295247077942,"20":0.08316455036401749,"21":0.1800089329481125,"22":0.05466165393590927,"23":0.028859784826636314,"24":0.15996240079402924,"25":-0.06522277742624283,"26":0.34582430124282837,"27":0.09890253096818924,"28":-0.0210626982152462,"29":-0.010214627720415592,"30":0.11232861131429672,"31":-0.07685908675193787,"32":0.14331035315990448,"33":-0.5362615585327148,"34":0.22543247044086456,"35":0.12307535856962204,"36":0.09105975925922394,"37":0.005000398959964514,"38":0.13850989937782288,"39":-0.02223542146384716,"40":0.0006190507556311786,"41":0.26732006669044495,"42":-0.016734465956687927,"43":-0.06473083794116974,"44":0.00647160317748785,"45":0.09248913079500198,"46":0.001262207399122417,"47":0.020683012902736664,"48":0.019398832693696022,"49":-0.09719683229923248,"50":0.02812490612268448,"51":-0.09176463633775711,"52":-0.07243909686803818,"53":-0.12586897611618042,"54":0.053344015032052994,"55":-0.08857974410057068,"56":-0.2066800743341446,"57":0.17793096601963043,"58":0.058881472796201706,"59":-0.09083651006221771,"60":-0.03242054209113121,"61":-0.29324936866760254,"62":-0.3076586425304413,"63":-0.29285669326782227,"64":0.019466402009129524,"65":-0.08846066892147064,"66":0.04706075042486191,"67":0.07040571421384811,"68":0.08853675425052643,"69":-0.3385312855243683,"70":-0.48447859287261963,"71":-0.23862896859645844,"72":0.052727892994880676,"73":0.3433140516281128,"74":-0.26138022541999817,"75":0.12329859286546707,"76":0.14733316004276276}},"28":{"bias":0.07237564772367477,"weights":{"0":-0.13632750511169434,"1":0.07570376247167587,"2":-0.36818447709083557,"3":0.028326453641057014,"4":-0.040654703974723816,"5":0.027847902849316597,"6":0.076314277946949,"7":-0.2942344546318054,"8":-0.28865116834640503,"9":-0.19557151198387146,"10":-0.307320773601532,"11":0.1418064385652542,"12":-0.2507913410663605,"13":-0.13134805858135223,"14":-0.03195178881287575,"15":0.016226820647716522,"16":0.10664632171392441,"17":0.1723148673772812,"18":0.26462262868881226,"19":0.24127742648124695,"20":0.04877530038356781,"21":-0.16911812126636505,"22":0.22679980099201202,"23":0.17532873153686523,"24":0.14521990716457367,"25":0.04790740832686424,"26":-0.34419775009155273,"27":0.04846711829304695,"28":0.17923614382743835,"29":-0.10709641873836517,"30":0.08541961759328842,"31":-0.14156024158000946,"32":0.050338082015514374,"33":-0.30127841234207153,"34":-0.15362557768821716,"35":0.024530678987503052,"36":0.04593801870942116,"37":-0.02685415744781494,"38":-0.3176765441894531,"39":0.0658804327249527,"40":-0.1524329036474228,"41":-0.017358198761940002,"42":-0.02175462804734707,"43":0.2021770030260086,"44":0.0927586629986763,"45":0.015434649772942066,"46":0.07231035828590393,"47":-0.030417881906032562,"48":0.215443417429924,"49":0.11399867385625839,"50":0.08308747410774231,"51":-0.06044837832450867,"52":0.29617661237716675,"53":0.18853187561035156,"54":0.13108211755752563,"55":-0.06662449240684509,"56":-0.03517798334360123,"57":-0.12813328206539154,"58":-0.004602846223860979,"59":0.08082673698663712,"60":-0.2810792326927185,"61":0.07983618229627609,"62":0.17306624352931976,"63":0.1907583326101303,"64":0.04305288940668106,"65":0.2155105024576187,"66":0.04922313615679741,"67":-0.1339753121137619,"68":0.21266987919807434,"69":-0.04464142769575119,"70":0.20886214077472687,"71":0.006624685600399971,"72":0.3667861819267273,"73":-0.19105572998523712,"74":0.02660629153251648,"75":0.06428492814302444,"76":-0.043494828045368195}},"29":{"bias":0.032269883900880814,"weights":{"0":0.017756348475813866,"1":0.482337087392807,"2":-0.10628967732191086,"3":0.2955853044986725,"4":-0.03490562364459038,"5":0.3637303113937378,"6":-0.0016658426029607654,"7":0.22943317890167236,"8":-0.0010780140291899443,"9":0.1406032145023346,"10":-0.021523699164390564,"11":-0.3919029235839844,"12":-0.18624773621559143,"13":-0.15319250524044037,"14":0.1572621911764145,"15":0.41723284125328064,"16":0.03815485164523125,"17":0.007482592947781086,"18":-0.03397660329937935,"19":0.00503484858199954,"20":0.17365911602973938,"21":0.043485403060913086,"22":-0.1395954191684723,"23":-0.28632330894470215,"24":0.07855262607336044,"25":-0.03498353809118271,"26":-0.42790687084198,"27":0.3279474377632141,"28":0.04098908603191376,"29":0.036130066961050034,"30":0.23696987330913544,"31":0.18633103370666504,"32":0.1297939568758011,"33":-0.2470097839832306,"34":0.1103329136967659,"35":0.04208966717123985,"36":0.037014786154031754,"37":0.061872705817222595,"38":-0.37508800625801086,"39":0.05779038742184639,"40":0.12301810085773468,"41":-0.16059483587741852,"42":-0.1813683807849884,"43":-0.18738608062267303,"44":0.0581173337996006,"45":-0.21084730327129364,"46":-0.0746336430311203,"47":-0.06645935773849487,"48":0.02151736244559288,"49":-0.13356728851795197,"50":-0.06850969791412354,"51":0.07838112860918045,"52":0.004306770395487547,"53":-0.007082304451614618,"54":0.13463419675827026,"55":-0.1694236844778061,"56":-0.12582454085350037,"57":-0.048575274646282196,"58":-0.07029493898153305,"59":0.03037272021174431,"60":-0.12505975365638733,"61":-0.19467030465602875,"62":0.027621213346719742,"63":-0.14384248852729797,"64":-0.18164671957492828,"65":-0.042440060526132584,"66":-0.0075033786706626415,"67":0.320160835981369,"68":0.442131906747818,"69":0.07097160071134567,"70":0.31145238876342773,"71":0.04908789321780205,"72":-0.264813631772995,"73":0.20065277814865112,"74":0.17367130517959595,"75":0.03635893389582634,"76":-0.12259206920862198}},"30":{"bias":0.12273675948381424,"weights":{"0":0.10772630572319031,"1":0.25190627574920654,"2":0.24223417043685913,"3":0.3428635001182556,"4":-0.13717807829380035,"5":0.2617757320404053,"6":-0.5442453622817993,"7":0.2847176194190979,"8":0.004155631642788649,"9":0.08416797965765,"10":0.06462642550468445,"11":-0.04721834138035774,"12":-0.026084691286087036,"13":-0.06196466460824013,"14":0.03946293145418167,"15":0.25191450119018555,"16":-0.2622445821762085,"17":-0.30846458673477173,"18":-0.1760822981595993,"19":0.06957276910543442,"20":-0.16621214151382446,"21":-0.04188761115074158,"22":-0.04929625615477562,"23":-0.07435916364192963,"24":0.10031353682279587,"25":-0.11989058554172516,"26":-0.18369221687316895,"27":0.08555423468351364,"28":0.0449487529695034,"29":0.06888850033283234,"30":0.25084805488586426,"31":0.09960798919200897,"32":0.12270812690258026,"33":0.33960315585136414,"34":0.3313247859477997,"35":0.05371180176734924,"36":0.05347976088523865,"37":-0.0465654656291008,"38":-0.24168457090854645,"39":0.16658903658390045,"40":0.10782814770936966,"41":-0.3327881395816803,"42":0.07766903936862946,"43":-0.1631222516298294,"44":0.004934371914714575,"45":0.07810946553945541,"46":-0.08585817366838455,"47":-0.06979683041572571,"48":0.09528718888759613,"49":-0.15879064798355103,"50":-0.026210438460111618,"51":-0.08999112248420715,"52":-0.11974078416824341,"53":-0.08614738285541534,"54":-0.06572157144546509,"55":0.021691331639885902,"56":-0.06880921125411987,"57":-0.10714803636074066,"58":-0.18887320160865784,"59":0.05457566678524017,"60":-0.037848640233278275,"61":-0.08548399060964584,"62":-0.10837449878454208,"63":-0.31658849120140076,"64":0.021553752943873405,"65":0.07310998439788818,"66":0.041441649198532104,"67":0.0849418193101883,"68":0.008444386534392834,"69":-0.3872489929199219,"70":-0.27643677592277527,"71":-0.39984825253486633,"72":-0.2996733486652374,"73":0.04465640336275101,"74":-0.32232096791267395,"75":-0.11224359273910522,"76":0.18838481605052948}},"31":{"bias":0.3367360532283783,"weights":{"0":-0.20761527121067047,"1":-0.5373440384864807,"2":-0.29701516032218933,"3":-0.03167227655649185,"4":-0.2227797657251358,"5":-0.3386572301387787,"6":-0.44689664244651794,"7":0.006400274112820625,"8":0.4078342616558075,"9":-0.04604044184088707,"10":-0.22636236250400543,"11":0.2696511745452881,"12":0.10751146823167801,"13":-0.06397959589958191,"14":-0.2511803209781647,"15":-0.2347341924905777,"16":-0.09788898378610611,"17":-0.057896219193935394,"18":-0.2770291566848755,"19":-0.21724410355091095,"20":-0.008935212157666683,"21":-0.18864722549915314,"22":-0.008117325603961945,"23":0.19126249849796295,"24":-0.11736305058002472,"25":0.20525048673152924,"26":0.3169512152671814,"27":-0.02036406099796295,"28":0.1136847585439682,"29":-0.21579448878765106,"30":-0.06800059974193573,"31":0.11191529035568237,"32":0.04812828451395035,"33":0.3451094925403595,"34":-0.18290597200393677,"35":-0.12680043280124664,"36":0.024238472804427147,"37":0.10580503195524216,"38":0.2647557854652405,"39":-0.15501821041107178,"40":-0.10843238979578018,"41":0.07611487060785294,"42":0.04371429979801178,"43":0.18306955695152283,"44":-0.15665164589881897,"45":-0.15463654696941376,"46":0.061467692255973816,"47":0.13622450828552246,"48":-0.07463286072015762,"49":0.01969803310930729,"50":0.016883911564946175,"51":-0.10237880051136017,"52":0.30434727668762207,"53":0.27464428544044495,"54":-0.06204623356461525,"55":0.007623706944286823,"56":-0.3658509850502014,"57":-0.3367874324321747,"58":0.07957787811756134,"59":0.13817940652370453,"60":-0.3704985976219177,"61":-0.08443300426006317,"62":-0.05424530431628227,"63":-0.12093143910169601,"64":0.1918364018201828,"65":-0.10572625696659088,"66":0.2661442160606384,"67":-0.24159051477909088,"68":-0.4529094994068146,"69":-0.3139095604419708,"70":-0.27425020933151245,"71":-0.302947461605072,"72":0.06510070711374283,"73":-0.20396621525287628,"74":-0.5390059947967529,"75":0.04417155310511589,"76":0.1092979684472084}},"32":{"bias":0.0405738428235054,"weights":{"0":-0.06681838631629944,"1":0.4327000081539154,"2":0.2140120565891266,"3":0.018364891409873962,"4":-0.17462851107120514,"5":-0.1374610811471939,"6":0.3678090572357178,"7":-0.10118106007575989,"8":-0.16407965123653412,"9":0.11103976517915726,"10":-0.19855070114135742,"11":0.00716456538066268,"12":-0.4739479720592499,"13":-0.028097741305828094,"14":-0.22479577362537384,"15":0.44064095616340637,"16":-0.09739966690540314,"17":0.06324070692062378,"18":-0.02564050257205963,"19":-0.020458562299609184,"20":-0.27314209938049316,"21":0.06590567529201508,"22":-0.054091744124889374,"23":-0.05433580279350281,"24":0.26058098673820496,"25":0.24157360196113586,"26":-0.3081485331058502,"27":-0.23062172532081604,"28":0.11222691088914871,"29":-0.1357433944940567,"30":-0.1600710153579712,"31":0.141428604722023,"32":0.15264183282852173,"33":-0.8401678204536438,"34":0.027911309152841568,"35":0.19730491936206818,"36":0.027232196182012558,"37":0.1984649896621704,"38":-0.03861716389656067,"39":-0.041684236377477646,"40":-0.13535718619823456,"41":-0.3061628043651581,"42":0.10595680773258209,"43":0.2491912841796875,"44":0.186090350151062,"45":-0.016602035611867905,"46":0.11359094828367233,"47":0.19000011682510376,"48":0.21627402305603027,"49":0.24502278864383698,"50":0.23121649026870728,"51":0.20233847200870514,"52":0.2878666818141937,"53":0.3451405167579651,"54":-0.10209257900714874,"55":0.10461671650409698,"56":-0.036310017108917236,"57":0.28226104378700256,"58":-0.050435278564691544,"59":-0.15465393662452698,"60":0.23854370415210724,"61":0.19167785346508026,"62":0.11330104619264603,"63":0.22728678584098816,"64":0.4397946000099182,"65":0.1142437607049942,"66":0.19632230699062347,"67":-0.4486137330532074,"68":-0.2655688226222992,"69":0.30513811111450195,"70":0.21793349087238312,"71":0.196599543094635,"72":0.2347213625907898,"73":-0.077581025660038,"74":-0.0875539481639862,"75":0.4526679515838623,"76":0.1917027086019516}},"33":{"bias":0.0318305678665638,"weights":{"0":-0.06428822875022888,"1":0.3353090286254883,"2":-0.18687894940376282,"3":-0.10921669751405716,"4":0.10304118692874908,"5":0.08484054356813431,"6":-0.020284222438931465,"7":-0.14110612869262695,"8":0.12359430640935898,"9":-0.30303317308425903,"10":0.1379062980413437,"11":-0.12664538621902466,"12":0.018396401777863503,"13":0.0227687805891037,"14":-0.3346260190010071,"15":0.2779824733734131,"16":-0.07158444821834564,"17":-0.10571910440921783,"18":-0.049147654324769974,"19":0.008696775883436203,"20":0.04770297184586525,"21":-0.2075340896844864,"22":0.1535281091928482,"23":0.06625738739967346,"24":0.09284920990467072,"25":-0.10713329166173935,"26":0.07296635955572128,"27":-0.15712234377861023,"28":0.01836582086980343,"29":0.10568167269229889,"30":-0.04641471058130264,"31":0.1489836871623993,"32":-0.11448986083269119,"33":-0.003930944483727217,"34":0.05375657603144646,"35":0.0631735697388649,"36":-0.1534058004617691,"37":0.016052544116973877,"38":-0.20885679125785828,"39":-0.015997081995010376,"40":0.1173311099410057,"41":0.031184254214167595,"42":-0.13852789998054504,"43":-0.0836549773812294,"44":-0.10229916870594025,"45":-0.07787449657917023,"46":0.1888212263584137,"47":-0.08381284773349762,"48":-0.05943790078163147,"49":-0.1657222956418991,"50":0.224617138504982,"51":0.035611849278211594,"52":-0.2523055374622345,"53":-0.019739549607038498,"54":-0.07113983482122421,"55":-0.17638066411018372,"56":-0.2816440463066101,"57":0.002888728864490986,"58":0.1457064151763916,"59":-0.177981898188591,"60":-0.2326868176460266,"61":0.022824639454483986,"62":-0.24131052196025848,"63":-0.11632996052503586,"64":-0.2991955280303955,"65":-0.18604683876037598,"66":-0.20740051567554474,"67":0.25612521171569824,"68":0.24350732564926147,"69":0.33626440167427063,"70":0.3003329336643219,"71":0.23039455711841583,"72":-0.03770695999264717,"73":0.04088053107261658,"74":0.3476075828075409,"75":-0.07322221994400024,"76":-0.0422327034175396}},"34":{"bias":-0.14791661500930786,"weights":{"0":0.19003525376319885,"1":-0.05013827979564667,"2":0.11297070980072021,"3":-0.22109760344028473,"4":0.1287212073802948,"5":0.03447628393769264,"6":-0.18032009899616241,"7":0.14062902331352234,"8":0.3214409649372101,"9":-0.06326715648174286,"10":0.15651929378509521,"11":0.48929351568222046,"12":0.1226821318268776,"13":0.1599504053592682,"14":0.009278015233576298,"15":-0.525852382183075,"16":0.01759164221584797,"17":0.15083840489387512,"18":0.17344962060451508,"19":0.25700095295906067,"20":0.019555240869522095,"21":0.24404498934745789,"22":0.1433122158050537,"23":0.15567050874233246,"24":0.10801196843385696,"25":0.21673372387886047,"26":0.11943064630031586,"27":-0.11847846210002899,"28":-0.1603040099143982,"29":0.23630723357200623,"30":-0.0051857298240065575,"31":-0.17592847347259521,"32":0.0873744934797287,"33":-0.5078588724136353,"34":-0.08216973394155502,"35":0.019394829869270325,"36":-0.19025516510009766,"37":0.1276247650384903,"38":0.517315149307251,"39":-0.10593509674072266,"40":-0.034442294389009476,"41":0.406857430934906,"42":0.0702316164970398,"43":-0.09343566000461578,"44":0.2125488519668579,"45":0.10909099131822586,"46":0.0901409462094307,"47":0.11416729539632797,"48":-0.026945050805807114,"49":-0.08432911336421967,"50":0.2466467171907425,"51":0.13795137405395508,"52":0.025244340300559998,"53":0.19474755227565765,"54":0.11459838598966599,"55":-0.08460550755262375,"56":0.21605908870697021,"57":0.2474772036075592,"58":-0.08696342259645462,"59":0.142696812748909,"60":0.22204893827438354,"61":0.17912152409553528,"62":0.08564592897891998,"63":0.16048826277256012,"64":0.27159667015075684,"65":0.1322450339794159,"66":-0.09820716083049774,"67":-0.23840175569057465,"68":-0.18516682088375092,"69":0.06491340696811676,"70":0.02669518254697323,"71":-0.0687524825334549,"72":0.15189041197299957,"73":-0.01094068493694067,"74":0.04558712989091873,"75":0.14065372943878174,"76":0.0674402117729187}},"35":{"bias":0.06141728535294533,"weights":{"0":-0.2545207142829895,"1":-0.02982809580862522,"2":-0.08695445954799652,"3":0.08768095076084137,"4":-0.1647241860628128,"5":0.11645615100860596,"6":0.14495724439620972,"7":0.2873660922050476,"8":-0.17143550515174866,"9":0.04960845038294792,"10":-0.38577452301979065,"11":0.1927541047334671,"12":-0.366703599691391,"13":0.07049280405044556,"14":0.33403366804122925,"15":0.11088966578245163,"16":0.13116402924060822,"17":0.184357687830925,"18":0.10670635849237442,"19":-0.09210904687643051,"20":-0.21507591009140015,"21":-0.004484366159886122,"22":0.21112625300884247,"23":0.07901265472173691,"24":0.2715614140033722,"25":0.26479753851890564,"26":-0.05619378387928009,"27":0.18089419603347778,"28":0.09419211745262146,"29":0.24487562477588654,"30":0.14531606435775757,"31":-0.16331684589385986,"32":-0.13308995962142944,"33":-0.06107837334275246,"34":0.22724756598472595,"35":-0.17409636080265045,"36":-0.08167586475610733,"37":0.17017577588558197,"38":-0.2561745047569275,"39":-0.1941261738538742,"40":0.2413460910320282,"41":0.009487357921898365,"42":0.06873129308223724,"43":0.03734821453690529,"44":-0.09113024920225143,"45":0.25405290722846985,"46":0.08720841258764267,"47":0.10180475562810898,"48":-0.08466342836618423,"49":0.2936995029449463,"50":0.2449495941400528,"51":0.14218640327453613,"52":0.05812473222613335,"53":-0.12378022074699402,"54":-0.07027088850736618,"55":0.26606056094169617,"56":-0.026435133069753647,"57":0.2653900384902954,"58":0.01248510368168354,"59":0.014035996980965137,"60":0.033094361424446106,"61":0.09282185137271881,"62":-0.09901893883943558,"63":0.17503246665000916,"64":-0.14304496347904205,"65":0.042619816958904266,"66":0.053400084376335144,"67":-0.11711817979812622,"68":-0.09032545238733292,"69":0.28295889496803284,"70":0.20305860042572021,"71":0.20385228097438812,"72":0.175804004073143,"73":-0.4227895140647888,"74":0.04851369187235832,"75":-0.039190299808979034,"76":-0.041948430240154266}},"36":{"bias":0.24776853621006012,"weights":{"0":-0.008548351936042309,"1":-0.4065696895122528,"2":0.17504137754440308,"3":-0.2275695502758026,"4":-0.3264996111392975,"5":-0.07944770902395248,"6":-0.2689412236213684,"7":0.08566583693027496,"8":-0.20449866354465485,"9":-0.01439872570335865,"10":-0.06747312843799591,"11":-0.13342614471912384,"12":-0.46834486722946167,"13":-0.06844516843557358,"14":-0.06204938888549805,"15":-0.4237327575683594,"16":0.18631628155708313,"17":-0.058752186596393585,"18":-0.06128465384244919,"19":0.12701329588890076,"20":-0.006037434097379446,"21":0.31767627596855164,"22":-0.14411498606204987,"23":0.14876025915145874,"24":0.11577753722667694,"25":0.045118220150470734,"26":-0.33937954902648926,"27":-0.34605979919433594,"28":0.025728397071361542,"29":0.027934765443205833,"30":-0.26052331924438477,"31":0.16086387634277344,"32":-0.024456139653921127,"33":0.5950948596000671,"34":-0.29786068201065063,"35":0.1345454305410385,"36":-0.18908123672008514,"37":-0.12285695970058441,"38":-0.19340632855892181,"39":-0.05360206589102745,"40":-0.13989320397377014,"41":-0.04555162042379379,"42":0.03734459728002548,"43":0.15749713778495789,"44":-0.05659216642379761,"45":-0.11802826076745987,"46":-0.14353999495506287,"47":-0.17453065514564514,"48":-0.05962226912379265,"49":0.007068802136927843,"50":-0.18742667138576508,"51":0.0417647510766983,"52":0.09093037247657776,"53":0.41666433215141296,"54":0.1428508311510086,"55":-0.11941823363304138,"56":0.3473815321922302,"57":0.3583700358867645,"58":-0.06095752492547035,"59":-0.03960448130965233,"60":0.3836243450641632,"61":0.14806410670280457,"62":0.10654725879430771,"63":-0.16881415247917175,"64":0.33863523602485657,"65":-0.18966275453567505,"66":0.2512536644935608,"67":-0.23960119485855103,"68":-0.4830930233001709,"69":-0.3088955283164978,"70":-0.3074570894241333,"71":-0.009577355347573757,"72":0.03383919969201088,"73":-0.26258131861686707,"74":-0.48504042625427246,"75":0.16207394003868103,"76":-0.154819056391716}},"37":{"bias":-0.12610942125320435,"weights":{"0":0.112502321600914,"1":-0.3701402544975281,"2":0.17447006702423096,"3":0.09957956522703171,"4":0.3591685891151428,"5":0.30121132731437683,"6":-0.21607539057731628,"7":0.015357979573309422,"8":0.33726733922958374,"9":-0.01035604253411293,"10":0.10975106805562973,"11":0.2310289740562439,"12":0.4549080431461334,"13":0.12937681376934052,"14":0.16632242500782013,"15":-0.382260262966156,"16":0.22824643552303314,"17":0.19307266175746918,"18":0.24639172852039337,"19":-0.07911832630634308,"20":0.29541411995887756,"21":0.019368913024663925,"22":0.06354604661464691,"23":-0.297415167093277,"24":-0.17523477971553802,"25":0.04524599760770798,"26":0.3571925759315491,"27":0.0354364849627018,"28":0.09103751927614212,"29":0.10052564740180969,"30":0.03358851373195648,"31":-0.19906216859817505,"32":0.19099663197994232,"33":0.07311876863241196,"34":0.03973233699798584,"35":0.14590908586978912,"36":-0.054727986454963684,"37":-0.002166891237720847,"38":0.26787135004997253,"39":0.07316728681325912,"40":-0.011004404164850712,"41":0.02229827456176281,"42":-0.28472593426704407,"43":-0.28755298256874084,"44":-0.118988037109375,"45":-0.2571870684623718,"46":-0.22705835103988647,"47":-0.24790233373641968,"48":0.04167822375893593,"49":-0.2116459310054779,"50":-0.11212538927793503,"51":-0.28896352648735046,"52":0.19589351117610931,"53":0.2128717303276062,"54":-0.023077959194779396,"55":0.05078067258000374,"56":0.3060966432094574,"57":0.3036451041698456,"58":0.08919334411621094,"59":0.012982125394046307,"60":0.2571997344493866,"61":-0.04838632792234421,"62":0.14137299358844757,"63":-0.07498449087142944,"64":0.29721471667289734,"65":0.027679812163114548,"66":0.24006053805351257,"67":0.3040156066417694,"68":0.046562012284994125,"69":-0.03948285058140755,"70":-0.04347308352589607,"71":-0.1929716318845749,"72":-0.216871976852417,"73":0.11633942276239395,"74":0.2507169246673584,"75":0.07922548055648804,"76":0.040794190019369125}}},{"Poor dietary choices":{"bias":-0.24632808566093445,"weights":{"0":-0.17490512132644653,"1":0.6951238512992859,"2":-0.2696445882320404,"3":0.17729128897190094,"4":-0.1242327094078064,"5":-0.5128634572029114,"6":0.03209409862756729,"7":-0.24224817752838135,"8":-0.25121060013771057,"9":-0.15562812983989716,"10":0.19596174359321594,"11":-0.862837016582489,"12":0.14616431295871735,"13":-0.3600480556488037,"14":0.6182310581207275,"15":0.264099657535553,"16":0.5211645364761353,"17":0.5214942693710327,"18":-0.17028629779815674,"19":-0.34960711002349854,"20":-0.3014236390590668,"21":-0.3933011591434479,"22":0.8835748434066772,"23":0.6793106198310852,"24":-0.07340212911367416,"25":-0.6770064830780029,"26":-0.0014935428043827415,"27":-0.9334302544593811,"28":-0.22353382408618927,"29":-0.6158613562583923,"30":0.284511923789978,"31":0.7559354901313782,"32":-0.8403912782669067,"33":-0.2035524696111679,"34":-0.666753351688385,"35":-0.17785730957984924,"36":1.0101615190505981,"37":-0.41574063897132874}},"Intestinal Permeability / Leaky Gut Syndrome 5":{"bias":-0.4025072455406189,"weights":{"0":0.2550404369831085,"1":-0.3814319670200348,"2":0.4529288113117218,"3":-0.6201149225234985,"4":0.08008365333080292,"5":-0.2704714238643646,"6":0.2641400396823883,"7":-1.1760928630828857,"8":0.10168282687664032,"9":-0.5955681800842285,"10":-0.8495361804962158,"11":0.8714011907577515,"12":-0.7043097019195557,"13":0.005777258425951004,"14":-0.17318925261497498,"15":0.023426640778779984,"16":-1.1258149147033691,"17":0.008493589237332344,"18":0.33086657524108887,"19":-0.5157203078269958,"20":0.0007469645934179425,"21":0.1991633027791977,"22":0.13609161972999573,"23":0.32766416668891907,"24":0.4787001311779022,"25":0.35152462124824524,"26":-0.6523900628089905,"27":0.5031726956367493,"28":-0.2907732129096985,"29":0.33019065856933594,"30":-0.07152052968740463,"31":-0.6443734765052795,"32":-0.8712639212608337,"33":0.4178308844566345,"34":-0.3231184482574463,"35":-1.1082234382629395,"36":-0.8019754886627197,"37":0.35755637288093567}},"Impaired Gut Function":{"bias":-0.27764037251472473,"weights":{"0":0.6694764494895935,"1":-0.0804472342133522,"2":-0.037640150636434555,"3":0.005014097783714533,"4":0.3422236442565918,"5":0.42499542236328125,"6":-0.20921511948108673,"7":0.5483704209327698,"8":-0.8929837942123413,"9":-0.2989993691444397,"10":-0.44324812293052673,"11":-0.7293856143951416,"12":-0.27863770723342896,"13":-0.5027912259101868,"14":-0.34869226813316345,"15":-1.0225224494934082,"16":-0.08838874846696854,"17":0.8347809314727783,"18":0.2279868870973587,"19":-0.8337476849555969,"20":0.9528902173042297,"21":0.11428773403167725,"22":-0.545630156993866,"23":0.3911692202091217,"24":0.6092244982719421,"25":-0.04545886069536209,"26":-0.061515308916568756,"27":-1.2221903800964355,"28":0.15100452303886414,"29":0.14746563136577606,"30":-0.9881981611251831,"31":-0.8005226850509644,"32":0.2305826097726822,"33":0.4087713658809662,"34":-0.5445258021354675,"35":0.25368326902389526,"36":-0.6129833459854126,"37":-0.5565671920776367}},"Low stomach acid 5":{"bias":-0.38644325733184814,"weights":{"0":-0.0191477183252573,"1":-0.40341830253601074,"2":0.1877686232328415,"3":0.8807845711708069,"4":-0.5260700583457947,"5":-0.643643856048584,"6":0.482968270778656,"7":-0.2105732262134552,"8":-0.46519458293914795,"9":0.4645003080368042,"10":-0.9459595680236816,"11":-0.35056164860725403,"12":-0.1028725653886795,"13":-1.0043531656265259,"14":-0.9948416948318481,"15":0.27637964487075806,"16":0.6621657609939575,"17":0.4226231575012207,"18":-0.2113562673330307,"19":0.4443865716457367,"20":-0.45935752987861633,"21":-0.853307843208313,"22":-0.5329418182373047,"23":-0.4281841218471527,"24":-0.7317893505096436,"25":-0.4070105254650116,"26":0.36346209049224854,"27":0.2054564654827118,"28":-0.3008042275905609,"29":0.4295162260532379,"30":0.7168332934379578,"31":0.03729145601391792,"32":-0.927863597869873,"33":-0.17257453501224518,"34":-0.6165015697479248,"35":0.2403385043144226,"36":-0.6975905895233154,"37":0.11940295994281769}},"Inflamed Gut 1":{"bias":-0.40773093700408936,"weights":{"0":0.1864318698644638,"1":1.0190776586532593,"2":0.08671833574771881,"3":0.29084134101867676,"4":-1.0737630128860474,"5":0.4508078396320343,"6":-0.48597607016563416,"7":-0.18360285460948944,"8":-0.4964761734008789,"9":-0.8765456676483154,"10":0.8433168530464172,"11":-0.975456714630127,"12":-0.25525039434432983,"13":0.5324020385742188,"14":0.14326032996177673,"15":-0.0639491006731987,"16":-0.9925342798233032,"17":-0.5022375583648682,"18":-0.1335040181875229,"19":0.014775053597986698,"20":-0.8871655464172363,"21":0.2674049437046051,"22":1.0256844758987427,"23":-0.33205947279930115,"24":0.34367677569389343,"25":-0.6512323617935181,"26":0.3244214653968811,"27":0.21939459443092346,"28":0.12312854826450348,"29":0.43533435463905334,"30":0.33844950795173645,"31":-0.26584020256996155,"32":0.44028785824775696,"33":0.23286429047584534,"34":-0.8771798014640808,"35":-0.028321262449026108,"36":-0.3743950426578522,"37":-0.9720038771629333}},"Bacterial Imbalance 7":{"bias":-0.4301789402961731,"weights":{"0":-0.7241698503494263,"1":-0.33702942728996277,"2":-1.0368542671203613,"3":-0.8592118620872498,"4":0.3079961836338043,"5":0.19167159497737885,"6":-0.07883034646511078,"7":0.37063705921173096,"8":0.3966316282749176,"9":0.1429324746131897,"10":-0.537612795829773,"11":-0.2986963987350464,"12":0.4195266664028168,"13":0.29851341247558594,"14":-0.32316339015960693,"15":0.3279968202114105,"16":0.15450891852378845,"17":-0.3672032654285431,"18":0.5531362891197205,"19":-0.14392492175102234,"20":-0.6857573986053467,"21":-0.7799167037010193,"22":0.21229813992977142,"23":0.06672371923923492,"24":-0.6160637736320496,"25":0.4632124602794647,"26":-0.5347944498062134,"27":-0.9130574464797974,"28":0.18394847214221954,"29":-0.6164268851280212,"30":-0.8977047801017761,"31":-0.8233699798583984,"32":0.054575588554143906,"33":-0.563602089881897,"34":0.39927536249160767,"35":0.3072640597820282,"36":0.02277653105556965,"37":0.26894399523735046}},"Gut Infection -5":{"bias":-0.13624025881290436,"weights":{"0":-0.24252746999263763,"1":0.05443108081817627,"2":-1.184161901473999,"3":0.7138185501098633,"4":-0.0688718929886818,"5":-0.2782277762889862,"6":-0.21450956165790558,"7":-0.011384309269487858,"8":0.31430506706237793,"9":0.4830189645290375,"10":-0.19406086206436157,"11":-1.1627528667449951,"12":-0.32913342118263245,"13":0.39531928300857544,"14":-0.0025418850127607584,"15":-0.7710249423980713,"16":-0.5173267722129822,"17":-0.8152528405189514,"18":0.32295817136764526,"19":0.5002802610397339,"20":0.6899003386497498,"21":0.7244527339935303,"22":-0.8094683289527893,"23":-0.13829948008060455,"24":-0.5503072142601013,"25":-0.6181262731552124,"26":-0.10635468363761902,"27":0.4785667061805725,"28":-0.5870068073272705,"29":-0.9540808796882629,"30":-0.4468856453895569,"31":0.9219857454299927,"32":-0.6505311131477356,"33":-0.15767940878868103,"34":0.5558050274848938,"35":-0.5103160738945007,"36":-0.42806634306907654,"37":0.33644941449165344}},"Small Intestine Bacterial Overgrowth (SIBO)6":{"bias":-0.2745623290538788,"weights":{"0":-0.968885064125061,"1":0.3738098442554474,"2":0.43353384733200073,"3":-0.12202360481023788,"4":0.059660736471414566,"5":0.2947806417942047,"6":0.031994085758924484,"7":0.3327973783016205,"8":0.31141066551208496,"9":-0.48423126339912415,"10":0.13211952149868011,"11":0.8099647164344788,"12":0.45232367515563965,"13":-0.6808610558509827,"14":0.617838978767395,"15":-0.16582579910755157,"16":-0.9699963331222534,"17":-0.6740759015083313,"18":-0.9002955555915833,"19":-0.6575796604156494,"20":-0.07135739922523499,"21":-0.9564637541770935,"22":-0.28249064087867737,"23":-0.738823652267456,"24":-0.8513603210449219,"25":-0.3768121302127838,"26":0.5822524428367615,"27":0.4308082163333893,"28":-0.8936440944671631,"29":-0.11876463890075684,"30":0.2050669938325882,"31":-0.7644118666648865,"32":-0.054613932967185974,"33":-0.6245649456977844,"34":0.0649886205792427,"35":-0.1922270953655243,"36":0.4800245463848114,"37":0.1370697021484375}},"Mal-absorption":{"bias":-0.35418158769607544,"weights":{"0":-0.7834281921386719,"1":-0.4349779784679413,"2":0.4519384503364563,"3":-0.8563493490219116,"4":-0.3093816041946411,"5":-1.1025108098983765,"6":0.03441358730196953,"7":-0.3970203995704651,"8":0.48651549220085144,"9":-0.24570509791374207,"10":0.6208459734916687,"11":0.43240514397621155,"12":-0.7532504200935364,"13":0.23395247757434845,"14":-1.0137196779251099,"15":-0.2292969524860382,"16":0.5712999701499939,"17":-0.8571742177009583,"18":-0.6854991912841797,"19":-0.08504670858383179,"20":0.2293740212917328,"21":0.5573851466178894,"22":-0.0350990928709507,"23":-0.3111593723297119,"24":0.5215862989425659,"25":-0.4952404499053955,"26":0.047948338091373444,"27":0.06994585692882538,"28":0.23257918655872345,"29":-0.747503936290741,"30":-0.2548026442527771,"31":0.06947234272956848,"32":0.493989497423172,"33":-0.14969001710414886,"34":0.23742684721946716,"35":0.17806044220924377,"36":-0.3075355291366577,"37":-1.085171103477478}},"No problem":{"bias":-0.2233716994524002,"weights":{"0":0.044491760432720184,"1":-0.38808608055114746,"2":-0.19721479713916779,"3":-0.6035229563713074,"4":-0.43803301453590393,"5":0.44195789098739624,"6":-1.0510485172271729,"7":-0.6951121687889099,"8":-0.5610755681991577,"9":-0.16172350943088531,"10":0.3415740132331848,"11":0.24488763511180878,"12":-0.11874453723430634,"13":0.1836332231760025,"14":1.094286322593689,"15":-0.14604173600673676,"16":-0.26028972864151,"17":0.8470267057418823,"18":-0.639390230178833,"19":0.04872819408774376,"20":-0.6476613283157349,"21":0.3466654419898987,"22":-0.9261267781257629,"23":-0.3769061863422394,"24":-0.2992531359195709,"25":0.05601455271244049,"26":-1.2689813375473022,"27":-0.3104056119918823,"28":0.2714787423610687,"29":-0.3005456328392029,"30":-0.10014360398054123,"31":0.6909997463226318,"32":0.7778589725494385,"33":-0.5560742020606995,"34":-0.15184001624584198,"35":-0.18762852251529694,"36":0.7807207107543945,"37":0.08065562695264816}}}],"outputLookup":true,"inputLookup":false,"activation":"sigmoid","trainOpts":{"iterations":20000,"errorThresh":0.005,"log":false,"logPeriod":10,"learningRate":0.3,"momentum":0.1,"callbackPeriod":10,"beta1":0.9,"beta2":0.999,"epsilon":1e-8}}