{"sizes":[77,38,10],"layers":[{"0":{},"1":{},"2":{},"3":{},"4":{},"5":{},"6":{},"7":{},"8":{},"9":{},"10":{},"11":{},"12":{},"13":{},"14":{},"15":{},"16":{},"17":{},"18":{},"19":{},"20":{},"21":{},"22":{},"23":{},"24":{},"25":{},"26":{},"27":{},"28":{},"29":{},"30":{},"31":{},"32":{},"33":{},"34":{},"35":{},"36":{},"37":{},"38":{},"39":{},"40":{},"41":{},"42":{},"43":{},"44":{},"45":{},"46":{},"47":{},"48":{},"49":{},"50":{},"51":{},"52":{},"53":{},"54":{},"55":{},"56":{},"57":{},"58":{},"59":{},"60":{},"61":{},"62":{},"63":{},"64":{},"65":{},"66":{},"67":{},"68":{},"69":{},"70":{},"71":{},"72":{},"73":{},"74":{},"75":{},"76":{}},{"0":{"bias":0.0041574398055672646,"weights":{"0":-0.09969525784254074,"1":-0.7045968770980835,"2":0.004978951532393694,"3":0.11606640368700027,"4":0.2839628756046295,"5":-0.1081191673874855,"6":0.09247423708438873,"7":0.12716303765773773,"8":-0.03520481660962105,"9":-0.34200048446655273,"10":-0.06480856239795685,"11":0.42775219678878784,"12":0.04378693178296089,"13":0.03341173753142357,"14":0.24450579285621643,"15":-0.5063464641571045,"16":0.2588200569152832,"17":0.0027335388585925102,"18":-0.038071632385253906,"19":-0.06406429409980774,"20":-0.002712196670472622,"21":-0.08581635355949402,"22":-0.03574711084365845,"23":0.10852989554405212,"24":0.22387242317199707,"25":0.010280906222760677,"26":-0.04197251424193382,"27":-0.05748338997364044,"28":0.014695357531309128,"29":0.02661125920712948,"30":0.1585841327905655,"31":0.013697018846869469,"32":0.15181374549865723,"33":0.25316160917282104,"34":0.27105912566185,"35":-0.18786099553108215,"36":-0.1827930510044098,"37":-0.009264351800084114,"38":0.2379390299320221,"39":-0.06311317533254623,"40":-0.007164255250245333,"41":-0.17408202588558197,"42":-0.03252280130982399,"43":0.14068731665611267,"44":0.06897726655006409,"45":-0.04408292472362518,"46":-0.07675135135650635,"47":0.05293288081884384,"48":0.11794903874397278,"49":0.05654029920697212,"50":0.14882470667362213,"51":-0.0062078144401311874,"52":0.05334377661347389,"53":0.10138287395238876,"54":0.21189865469932556,"55":-0.09436127543449402,"56":-0.13323165476322174,"57":-0.23296166956424713,"58":0.03396435081958771,"59":0.16666792333126068,"60":0.01556315366178751,"61":0.13544104993343353,"62":0.07335066795349121,"63":0.12862317264080048,"64":0.04544734209775925,"65":0.04538704454898834,"66":0.13265913724899292,"67":-0.0146908238530159,"68":0.39881592988967896,"69":-0.037851426750421524,"70":0.0066167498007416725,"71":0.00868543703109026,"72":0.15196388959884644,"73":0.06559471040964127,"74":0.3121326267719269,"75":0.1972554624080658,"76":0.08609803020954132}},"1":{"bias":0.0999927893280983,"weights":{"0":-0.09929846972227097,"1":0.2749219834804535,"2":0.008474182337522507,"3":-0.17005768418312073,"4":-0.19549112021923065,"5":-0.3555869162082672,"6":0.09540864080190659,"7":-0.21033847332000732,"8":-0.3358410894870758,"9":-0.05033639073371887,"10":0.020591234788298607,"11":-0.5187300443649292,"12":-0.2421564906835556,"13":0.036106497049331665,"14":-0.2659224569797516,"15":0.5316330194473267,"16":0.04966258630156517,"17":0.12751342356204987,"18":-0.0868968516588211,"19":-0.04902530089020729,"20":-0.020572634413838387,"21":0.07677727192640305,"22":-0.16773954033851624,"23":-0.16363976895809174,"24":-0.13503725826740265,"25":-0.2841978371143341,"26":-0.1982995867729187,"27":-0.15026694536209106,"28":-0.011494776234030724,"29":-0.17114800214767456,"30":-0.036378923803567886,"31":0.019281694665551186,"32":-0.17783349752426147,"33":-0.3548228144645691,"34":-0.09531848877668381,"35":-0.13479214906692505,"36":0.15986725687980652,"37":-0.03862573206424713,"38":-0.19812323153018951,"39":0.08573069423437119,"40":-0.19414177536964417,"41":-0.12340214103460312,"42":-0.030867235735058784,"43":-0.18927016854286194,"44":0.05855139344930649,"45":0.0623403862118721,"46":0.08950474858283997,"47":-0.2330925464630127,"48":-0.047884751111269,"49":-0.2802162170410156,"50":-0.05099021643400192,"51":-0.1380721628665924,"52":0.09339680522680283,"53":-0.07136911898851395,"54":0.11863210052251816,"55":-0.15701693296432495,"56":-0.17073635756969452,"57":0.11184008419513702,"58":-0.16518014669418335,"59":0.14928951859474182,"60":0.018273599445819855,"61":0.06788141280412674,"62":-0.16586050391197205,"63":-0.07000356912612915,"64":-0.06640394777059555,"65":-0.18864604830741882,"66":-0.21965818107128143,"67":-0.1545369029045105,"68":0.06290850043296814,"69":0.4668651223182678,"70":0.4223497807979584,"71":0.19360001385211945,"72":-0.1988331824541092,"73":0.03271472826600075,"74":0.08613889664411545,"75":0.03775529935956001,"76":0.1729355901479721}},"2":{"bias":0.1574520766735077,"weights":{"0":0.0049180034548044205,"1":-0.4649871587753296,"2":-0.020544208586215973,"3":0.044914610683918,"4":-0.44605281949043274,"5":-0.04875060170888901,"6":-0.08275150507688522,"7":-0.028903117403388023,"8":0.031440868973731995,"9":-0.12314806133508682,"10":-0.3232203722000122,"11":0.1411900520324707,"12":0.02311832271516323,"13":-0.16293449699878693,"14":-0.048147063702344894,"15":-0.07318886369466782,"16":-0.16325213015079498,"17":-0.04929341375827789,"18":0.08502212911844254,"19":0.019596513360738754,"20":-0.33853620290756226,"21":-0.09201949089765549,"22":0.24436591565608978,"23":0.017487874254584312,"24":0.2124442756175995,"25":0.15225733816623688,"26":-0.1019657552242279,"27":0.03139248490333557,"28":0.03597896546125412,"29":-0.18337690830230713,"30":0.16671064496040344,"31":-0.1618799865245819,"32":-0.09098096191883087,"33":0.7179313898086548,"34":0.05354735255241394,"35":0.09128547459840775,"36":-0.09382354468107224,"37":0.021792147308588028,"38":-0.2106509953737259,"39":0.13568751513957977,"40":0.177405446767807,"41":-0.07313687354326248,"42":0.300442636013031,"43":0.21702973544597626,"44":0.26006701588630676,"45":0.03698369488120079,"46":0.31931886076927185,"47":0.2632230818271637,"48":0.16705694794654846,"49":0.14895135164260864,"50":0.02900676243007183,"51":0.15516680479049683,"52":-0.31417882442474365,"53":-0.2301524132490158,"54":-0.23394769430160522,"55":0.04857535660266876,"56":-0.09211642295122147,"57":-0.08704667538404465,"58":-0.17921115458011627,"59":-0.16782020032405853,"60":-0.01744483783841133,"61":0.08856695145368576,"62":-0.0316602922976017,"63":-0.12380418181419373,"64":-0.4467421770095825,"65":0.0469001829624176,"66":-0.336844801902771,"67":-0.12116166949272156,"68":-0.23519329726696014,"69":0.2663244307041168,"70":0.20322482287883759,"71":0.05853879824280739,"72":-0.04162010923027992,"73":-0.24691706895828247,"74":-0.2109890878200531,"75":-0.35090336203575134,"76":0.04707604646682739}},"3":{"bias":-0.17695121467113495,"weights":{"0":-0.4331413209438324,"1":-0.7398955225944519,"2":-0.13331423699855804,"3":0.11644251644611359,"4":-0.33494362235069275,"5":-0.07416465133428574,"6":0.3387412130832672,"7":0.19842715561389923,"8":-0.13003012537956238,"9":-0.14371396601200104,"10":-0.32960525155067444,"11":-0.00268957344815135,"12":-0.05762084200978279,"13":0.17288868129253387,"14":-0.08041494339704514,"15":-0.490475058555603,"16":-0.15840832889080048,"17":-0.08485446870326996,"18":0.07607609778642654,"19":0.16014569997787476,"20":-0.2782524526119232,"21":-0.0011943734716624022,"22":-0.17210695147514343,"23":-0.14818821847438812,"24":-0.07539764791727066,"25":0.12374464422464371,"26":-0.2619805932044983,"27":0.05889228731393814,"28":0.08860582113265991,"29":0.0034392252564430237,"30":0.3526407778263092,"31":-0.09161797165870667,"32":0.1339723765850067,"33":0.11828674376010895,"34":0.2497526854276657,"35":-0.14141716063022614,"36":0.16636674106121063,"37":0.03941766545176506,"38":-0.2496921271085739,"39":0.07112498581409454,"40":0.11629711091518402,"41":-0.07988099753856659,"42":-0.14638251066207886,"43":0.0870029404759407,"44":-0.23138496279716492,"45":-0.1341152936220169,"46":0.06706038117408752,"47":-0.16718189418315887,"48":-0.1436467170715332,"49":-0.06315071135759354,"50":-0.014424782246351242,"51":0.14620761573314667,"52":0.5969530344009399,"53":0.2790352702140808,"54":-0.02335241064429283,"55":0.11680350452661514,"56":-0.24262137711048126,"57":0.005132869351655245,"58":-0.18699774146080017,"59":-0.008388767950236797,"60":-0.15969431400299072,"61":0.07263851910829544,"62":-0.10046790540218353,"63":0.18008136749267578,"64":0.518658459186554,"65":0.04133102297782898,"66":0.33769282698631287,"67":0.022537559270858765,"68":0.5179449319839478,"69":0.23877792060375214,"70":0.26054948568344116,"71":0.3495843708515167,"72":0.08248217403888702,"73":-0.16383279860019684,"74":0.1725684404373169,"75":0.36141714453697205,"76":0.17680297791957855}},"4":{"bias":-0.24379992485046387,"weights":{"0":0.0699094906449318,"1":0.09933058172464371,"2":0.14134646952152252,"3":0.010859175585210323,"4":0.13690035045146942,"5":0.3057006597518921,"6":0.259818971157074,"7":0.028098739683628082,"8":0.02085084468126297,"9":-0.10287310928106308,"10":0.13411687314510345,"11":0.1323348879814148,"12":0.17919982969760895,"13":-0.16967611014842987,"14":-0.013705880381166935,"15":-0.09908581525087357,"16":0.12322543561458588,"17":0.09026528149843216,"18":-0.12733635306358337,"19":-0.10270116478204727,"20":0.03064294531941414,"21":0.14503467082977295,"22":0.11917218565940857,"23":0.27285951375961304,"24":-0.006537346635013819,"25":0.2252548485994339,"26":-0.36586761474609375,"27":0.0633876696228981,"28":-0.13401807844638824,"29":0.056108277291059494,"30":0.11261198669672012,"31":0.17708973586559296,"32":0.12735480070114136,"33":-0.3543689548969269,"34":-0.008298498578369617,"35":0.11565499007701874,"36":0.12820640206336975,"37":0.06906946748495102,"38":-0.3640158474445343,"39":-0.05497313290834427,"40":0.18216872215270996,"41":-0.07710734009742737,"42":0.13498461246490479,"43":0.14731097221374512,"44":0.08810010552406311,"45":-0.07152579724788666,"46":0.10534936189651489,"47":0.22363264858722687,"48":0.2007155865430832,"49":0.2300347238779068,"50":0.19303764402866364,"51":0.2952149510383606,"52":-0.20715202391147614,"53":-0.24518032371997833,"54":0.10719489306211472,"55":-0.21273773908615112,"56":-0.04298233240842819,"57":-0.013191891834139824,"58":0.07521795481443405,"59":-0.10781137645244598,"60":0.15351536870002747,"61":-0.10480688512325287,"62":0.06418293714523315,"63":-0.153804749250412,"64":-0.3117247521877289,"65":-0.08508463203907013,"66":-0.3528383672237396,"67":0.18009214103221893,"68":0.5995888113975525,"69":0.37552204728126526,"70":0.33471646904945374,"71":0.3310045599937439,"72":0.025907892733812332,"73":0.07261456549167633,"74":0.4861716628074646,"75":-0.33317920565605164,"76":-0.16356579959392548}},"5":{"bias":-0.019933359697461128,"weights":{"0":-0.25211358070373535,"1":0.22123706340789795,"2":0.1740020364522934,"3":0.10982280224561691,"4":-0.05676720663905144,"5":-0.12464451044797897,"6":0.23821207880973816,"7":0.18901871144771576,"8":0.259488582611084,"9":0.03756369650363922,"10":-0.2854402959346771,"11":0.1622777283191681,"12":-0.09795745462179184,"13":-0.18538957834243774,"14":0.21751944720745087,"15":0.2896673381328583,"16":-0.04944836348295212,"17":0.03807014226913452,"18":0.03752410411834717,"19":-0.08859127759933472,"20":0.10034719109535217,"21":0.24572353065013885,"22":-0.009622192941606045,"23":-0.20727112889289856,"24":-0.23173904418945312,"25":-0.15839867293834686,"26":0.18180331587791443,"27":-0.025418909266591072,"28":-0.17484068870544434,"29":0.09384097158908844,"30":0.16097185015678406,"31":0.028729716315865517,"32":-0.06173566356301308,"33":-0.2186465561389923,"34":0.22140298783779144,"35":-0.029833514243364334,"36":0.17409192025661469,"37":-0.12897950410842896,"38":-0.035023823380470276,"39":-0.022682562470436096,"40":0.2234831154346466,"41":-0.038899343460798264,"42":-0.21276918053627014,"43":-0.2559951841831207,"44":-0.1573784202337265,"45":-0.007485090754926205,"46":0.028960440307855606,"47":-0.11277779936790466,"48":0.04517343267798424,"49":-0.3168569803237915,"50":-0.16295668482780457,"51":-0.03324359655380249,"52":0.10152383893728256,"53":-0.19509871304035187,"54":-0.22146449983119965,"55":0.04608558490872383,"56":-0.0030999358277767897,"57":0.17189085483551025,"58":0.06980389356613159,"59":-0.17458485066890717,"60":-0.11715379357337952,"61":-0.17940020561218262,"62":0.03694528341293335,"63":0.13712437450885773,"64":-0.27156540751457214,"65":0.013658697716891766,"66":-0.05063939094543457,"67":0.24227294325828552,"68":0.3353971838951111,"69":0.07290320098400116,"70":0.026604827493429184,"71":0.04463668540120125,"72":-0.37026217579841614,"73":-0.14783978462219238,"74":0.17804382741451263,"75":0.021142836660146713,"76":0.03971503674983978}},"6":{"bias":-0.34986501932144165,"weights":{"0":0.21737748384475708,"1":0.15562132000923157,"2":-0.16918976604938507,"3":-0.10132574290037155,"4":0.24335594475269318,"5":0.36036810278892517,"6":-0.13990725576877594,"7":-0.22209295630455017,"8":0.23968350887298584,"9":-0.05190617963671684,"10":0.11108057200908661,"11":0.3334950804710388,"12":0.36948463320732117,"13":0.1427409052848816,"14":0.11152978986501694,"15":-0.16125871241092682,"16":0.0447457954287529,"17":0.035270269960165024,"18":0.1753811091184616,"19":0.06964965164661407,"20":0.36335545778274536,"21":-0.13744892179965973,"22":0.1207880824804306,"23":0.19423824548721313,"24":0.011644168756902218,"25":0.16275136172771454,"26":0.07577379047870636,"27":-0.2304786890745163,"28":-0.08364175260066986,"29":-0.08944059163331985,"30":0.015131089836359024,"31":-0.19363495707511902,"32":-0.14222188293933868,"33":-0.5446361899375916,"34":-0.1244926005601883,"35":-0.051096104085445404,"36":-0.0446859635412693,"37":-0.19247959554195404,"38":0.1978955864906311,"39":-0.1984693855047226,"40":-0.018665501847863197,"41":0.19915218651294708,"42":0.09779831022024155,"43":-0.008770404383540154,"44":0.2700587511062622,"45":0.14597320556640625,"46":0.1264653503894806,"47":0.21152600646018982,"48":0.14547862112522125,"49":-0.03501627594232559,"50":0.23438385128974915,"51":0.26466450095176697,"52":0.05552997440099716,"53":0.19255179166793823,"54":-0.03246459364891052,"55":0.23556053638458252,"56":0.08884428441524506,"57":0.07714423537254333,"58":0.058353524655103683,"59":0.05403687432408333,"60":-0.15376685559749603,"61":0.21156716346740723,"62":0.05499931797385216,"63":0.0033505097962915897,"64":0.18395991623401642,"65":0.27601516246795654,"66":-0.10050656646490097,"67":0.28177082538604736,"68":0.03921191021800041,"69":-0.15452182292938232,"70":-0.2661871314048767,"71":-0.24921667575836182,"72":0.005796442739665508,"73":0.3942115902900696,"74":0.1648525893688202,"75":-0.1004493460059166,"76":0.18813449144363403}},"7":{"bias":-0.014559720642864704,"weights":{"0":0.09666095674037933,"1":0.2060667723417282,"2":0.2074640542268753,"3":0.12842246890068054,"4":-0.4049251079559326,"5":-0.21195241808891296,"6":-0.0920645147562027,"7":0.04627704992890358,"8":-0.00844507571309805,"9":0.030178094282746315,"10":-0.046971093863248825,"11":0.17372192442417145,"12":0.008853383362293243,"13":0.19261807203292847,"14":-0.12632842361927032,"15":-0.10653046518564224,"16":-0.2563677728176117,"17":-0.30232852697372437,"18":0.058807361871004105,"19":-0.15195433795452118,"20":-0.3974970281124115,"21":0.13817721605300903,"22":0.10753268003463745,"23":0.28039827942848206,"24":0.14764538407325745,"25":0.2639135420322418,"26":-0.1465786099433899,"27":0.11965569108724594,"28":0.0937592089176178,"29":-0.09739428758621216,"30":0.09534244984388351,"31":0.02055547945201397,"32":0.1995707005262375,"33":0.2888988256454468,"34":-0.06306781619787216,"35":-0.04775477200746536,"36":0.054110027849674225,"37":-0.09593331813812256,"38":-0.2252255529165268,"39":-0.030645128339529037,"40":0.21271750330924988,"41":0.10631945729255676,"42":0.13316361606121063,"43":0.2865637242794037,"44":-0.008415719494223595,"45":0.11929401755332947,"46":0.26675334572792053,"47":0.3228996694087982,"48":-0.053805071860551834,"49":0.02073223702609539,"50":-0.05019185692071915,"51":0.2653238773345947,"52":0.23785637319087982,"53":0.27395355701446533,"54":-0.22503440082073212,"55":-0.17390410602092743,"56":0.044490061700344086,"57":-0.2393796741962433,"58":-0.26089945435523987,"59":0.020235136151313782,"60":-0.03657732531428337,"61":0.07924870401620865,"62":0.06600203365087509,"63":-0.03090815059840679,"64":0.05079313740134239,"65":-0.2240932732820511,"66":-0.0008732310961931944,"67":-0.3607771396636963,"68":-0.3758130371570587,"69":-0.07505381107330322,"70":-0.0589754581451416,"71":0.04044340178370476,"72":0.12143611162900925,"73":-0.19845253229141235,"74":-0.4482787251472473,"75":-0.07522211968898773,"76":0.07275766879320145}},"8":{"bias":-0.3360954821109772,"weights":{"0":0.06421350687742233,"1":0.4744751751422882,"2":0.27800577878952026,"3":0.2567416727542877,"4":0.14425835013389587,"5":0.27491310238838196,"6":0.1254393607378006,"7":0.2936708629131317,"8":0.3678659200668335,"9":0.23556770384311676,"10":-0.055411722511053085,"11":0.4766920804977417,"12":0.416260302066803,"13":-0.014863804914057255,"14":0.4431067109107971,"15":0.30932489037513733,"16":0.03020622581243515,"17":0.22119435667991638,"18":0.14720605313777924,"19":0.02001327835023403,"20":0.009894845075905323,"21":0.057518210262060165,"22":-0.03077995590865612,"23":0.21262876689434052,"24":0.14729273319244385,"25":0.06636415421962738,"26":0.16873063147068024,"27":0.19173403084278107,"28":0.0683128759264946,"29":0.03143831342458725,"30":-0.03865547850728035,"31":-0.13685639202594757,"32":-0.029063059017062187,"33":-0.7002907991409302,"34":0.11142393946647644,"35":-0.1099189817905426,"36":-0.09737449139356613,"37":0.03414096310734749,"38":0.12295129895210266,"39":0.13031108677387238,"40":0.218519926071167,"41":0.3195289373397827,"42":-0.13392449915409088,"43":0.22583834826946259,"44":0.14957638084888458,"45":-0.002948742127045989,"46":0.0781320109963417,"47":-0.13495925068855286,"48":-0.1321292370557785,"49":0.01184697262942791,"50":0.11653491854667664,"51":0.03344512730836868,"52":-0.017802266404032707,"53":0.18928933143615723,"54":0.16203200817108154,"55":0.06508826464414597,"56":0.03318612277507782,"57":0.17279107868671417,"58":0.020648891106247902,"59":-0.0829416960477829,"60":0.11655908077955246,"61":0.057923004031181335,"62":0.18759869039058685,"63":0.050597138702869415,"64":0.04348379373550415,"65":0.07179630547761917,"66":-0.1420731544494629,"67":-0.19794607162475586,"68":-0.2876807451248169,"69":-0.07073473930358887,"70":-0.061197903007268906,"71":-0.2867850363254547,"72":0.20952066779136658,"73":-0.07529962807893753,"74":-0.09863678365945816,"75":0.23036165535449982,"76":-0.10824473202228546}},"9":{"bias":-0.019744621589779854,"weights":{"0":0.0661829486489296,"1":-0.03865393251180649,"2":-0.10870974510908127,"3":-0.02735861763358116,"4":0.3786243200302124,"5":0.1321437507867813,"6":0.15760502219200134,"7":0.11979671567678452,"8":-0.22373202443122864,"9":-0.11514832824468613,"10":-0.05758616700768471,"11":-0.11105061322450638,"12":-0.1415087729692459,"13":-0.0043506985530257225,"14":0.07038816809654236,"15":0.04311699420213699,"16":-0.12158288061618805,"17":-0.17241287231445312,"18":-0.15361326932907104,"19":-0.1940745860338211,"20":0.16378921270370483,"21":-0.2712806463241577,"22":0.029754728078842163,"23":-0.03651522099971771,"24":-0.1719222217798233,"25":-0.15064547955989838,"26":-0.24409592151641846,"27":0.2620689868927002,"28":-0.10294397920370102,"29":0.13030673563480377,"30":0.0003677507920656353,"31":-0.1747213453054428,"32":0.04817884787917137,"33":0.6323039531707764,"34":0.29622820019721985,"35":-0.17884035408496857,"36":-0.1724443882703781,"37":-0.14580538868904114,"38":-0.29830771684646606,"39":-0.1189659908413887,"40":0.10063531994819641,"41":-0.32909682393074036,"42":-0.24621695280075073,"43":-0.12900809943675995,"44":-0.05145714804530144,"45":-0.2117728590965271,"46":-0.10220814496278763,"47":-0.03724317625164986,"48":-0.17363084852695465,"49":-0.028759704902768135,"50":-0.06983727961778641,"51":-0.2673591077327728,"52":-0.20085179805755615,"53":-0.11757151782512665,"54":-0.02675589732825756,"55":-0.002798526780679822,"56":-0.3042372465133667,"57":-0.2781035006046295,"58":0.16713635623455048,"59":0.18642498552799225,"60":-0.12298475950956345,"61":-0.05667368695139885,"62":-0.04279221594333649,"63":0.1498233675956726,"64":-0.4469543695449829,"65":0.028461895883083344,"66":-0.19818992912769318,"67":0.41951850056648254,"68":0.48949140310287476,"69":-0.035693224519491196,"70":0.13622456789016724,"71":-0.022265056148171425,"72":-0.09965797513723373,"73":0.3065924644470215,"74":0.012544000521302223,"75":-0.4429709017276764,"76":0.048061396926641464}},"10":{"bias":-0.1334545761346817,"weights":{"0":-0.12136111408472061,"1":0.3750850558280945,"2":-0.23410160839557648,"3":0.04928258806467056,"4":0.15025533735752106,"5":-0.25537022948265076,"6":0.0723903700709343,"7":-0.07668156176805496,"8":-0.13248218595981598,"9":-0.02850719355046749,"10":-0.2531222701072693,"11":0.09828218817710876,"12":-0.2630555033683777,"13":-0.01596124842762947,"14":-0.15334339439868927,"15":0.2397361546754837,"16":-0.0045720236375927925,"17":0.20927470922470093,"18":0.2876032590866089,"19":0.27480703592300415,"20":-0.059975285083055496,"21":-0.24086439609527588,"22":0.20830567181110382,"23":0.09576959908008575,"24":0.2409595400094986,"25":0.03544244542717934,"26":-0.021827906370162964,"27":0.1626056581735611,"28":0.09439023584127426,"29":0.11396362632513046,"30":0.06815246492624283,"31":0.09206579625606537,"32":0.039866719394922256,"33":0.09159031510353088,"34":-0.018866971135139465,"35":-0.10590124130249023,"36":-0.1851661503314972,"37":-0.07955028861761093,"38":0.10204590111970901,"39":0.0843784436583519,"40":-0.0820302963256836,"41":-0.18138526380062103,"42":0.283328115940094,"43":-0.015023795887827873,"44":0.18656860291957855,"45":0.18797585368156433,"46":0.190281942486763,"47":0.2172023206949234,"48":0.15066660940647125,"49":0.27578863501548767,"50":0.24703912436962128,"51":-0.05281539261341095,"52":-0.4133239686489105,"53":-0.08012691140174866,"54":-0.05229281261563301,"55":-0.04162604734301567,"56":0.0473836213350296,"57":0.10709945112466812,"58":-0.011352350935339928,"59":0.016252724453806877,"60":0.07442595064640045,"61":0.20607207715511322,"62":0.004300164524465799,"63":-0.024843983352184296,"64":-0.3439140021800995,"65":0.27503982186317444,"66":-0.1807025969028473,"67":-0.11593364179134369,"68":-0.16955409944057465,"69":-0.19715122878551483,"70":-0.19814302027225494,"71":-0.27016738057136536,"72":0.27331018447875977,"73":-0.18835002183914185,"74":-0.07701313495635986,"75":-0.3929958641529083,"76":-0.17868173122406006}},"11":{"bias":-0.3714008331298828,"weights":{"0":0.44465503096580505,"1":-0.1581837236881256,"2":0.13432510197162628,"3":0.22604705393314362,"4":-0.08552611619234085,"5":0.2973218560218811,"6":0.002479520859196782,"7":0.1824081540107727,"8":0.025404779240489006,"9":0.2814626097679138,"10":0.24459142982959747,"11":0.12080023437738419,"12":0.45813292264938354,"13":-0.19137509167194366,"14":0.0516946017742157,"15":-0.45852676033973694,"16":0.12698405981063843,"17":-0.043316151946783066,"18":0.004456782713532448,"19":-0.11899817734956741,"20":-0.18571564555168152,"21":0.3776375651359558,"22":0.04028980806469917,"23":-0.010815738700330257,"24":0.28679606318473816,"25":0.21029986441135406,"26":-0.25104644894599915,"27":0.2851642072200775,"28":-0.027079936116933823,"29":-0.16694658994674683,"30":0.06760989874601364,"31":-0.14094145596027374,"32":-0.19381198287010193,"33":-0.27176395058631897,"34":0.2017078399658203,"35":0.19781853258609772,"36":0.007678591646254063,"37":0.06803631037473679,"38":-0.28134599328041077,"39":0.1873752325773239,"40":0.0004327548376750201,"41":0.09897669404745102,"42":0.03848071023821831,"43":0.023788435384631157,"44":0.009617329575121403,"45":0.12381293624639511,"46":0.11357244104146957,"47":0.15810027718544006,"48":0.05832415446639061,"49":-0.050877928733825684,"50":-0.05268419161438942,"51":0.08307912200689316,"52":0.2514810562133789,"53":0.3030779957771301,"54":-0.006539403926581144,"55":0.13390886783599854,"56":0.31084927916526794,"57":0.29893213510513306,"58":-0.17638805508613586,"59":0.13398805260658264,"60":0.2662087678909302,"61":-0.204916849732399,"62":-0.016316307708621025,"63":0.06576529145240784,"64":0.03850328549742699,"65":0.090962715446949,"66":0.2646391689777374,"67":0.1397639364004135,"68":-0.07322964072227478,"69":-0.09113268554210663,"70":-0.02878110483288765,"71":-0.12474885582923889,"72":-0.026621481403708458,"73":0.12275660037994385,"74":-0.1256389319896698,"75":0.019841134548187256,"76":0.09939254820346832}},"12":{"bias":0.20002597570419312,"weights":{"0":0.19152705371379852,"1":0.49781718850135803,"2":0.2515789568424225,"3":-0.11233077943325043,"4":-0.2279616892337799,"5":-0.11864470690488815,"6":0.12300091236829758,"7":-0.15035727620124817,"8":-0.34789082407951355,"9":-0.12738831341266632,"10":0.14695288240909576,"11":-0.4659866392612457,"12":-0.42060819268226624,"13":0.03401630371809006,"14":-0.2879733741283417,"15":0.4074128270149231,"16":-0.23377883434295654,"17":-0.17138253152370453,"18":-0.20920327305793762,"19":0.024180062115192413,"20":-0.14924506843090057,"21":0.08654014021158218,"22":0.20750731229782104,"23":0.08305756747722626,"24":0.2926684021949768,"25":0.08263297379016876,"26":-0.19691407680511475,"27":0.03499477729201317,"28":0.11379645019769669,"29":-0.2176668792963028,"30":-0.20996803045272827,"31":0.14303244650363922,"32":0.1686890572309494,"33":-0.44948118925094604,"34":-0.028013672679662704,"35":-0.01673208549618721,"36":-0.03341266140341759,"37":-0.013696126639842987,"38":-0.4079928696155548,"39":-0.14865969121456146,"40":0.08988942205905914,"41":-0.40992745757102966,"42":0.1296757459640503,"43":-0.06149918958544731,"44":0.05548979341983795,"45":0.1573406606912613,"46":0.1517278403043747,"47":0.21913357079029083,"48":0.029654422774910927,"49":0.035419266670942307,"50":0.13773396611213684,"51":0.14541524648666382,"52":-0.05217709019780159,"53":0.2568046450614929,"54":-0.2571217119693756,"55":-0.12404798716306686,"56":-0.023134781047701836,"57":0.09192114323377609,"58":-0.16700850427150726,"59":0.10901208966970444,"60":-0.10594753175973892,"61":0.12980113923549652,"62":-0.18203772604465485,"63":-0.2576374113559723,"64":-0.07058680057525635,"65":-0.21847529709339142,"66":0.025348208844661713,"67":-0.313166081905365,"68":0.06392141431570053,"69":0.10128277540206909,"70":0.4770281910896301,"71":0.3823614716529846,"72":0.14781491458415985,"73":-0.2720605432987213,"74":0.05396813526749611,"75":-0.03182418644428253,"76":-0.18782876431941986}},"13":{"bias":0.022123336791992188,"weights":{"0":0.37193262577056885,"1":-0.1924060881137848,"2":0.07337476313114166,"3":-0.06524454057216644,"4":0.12337386608123779,"5":0.15861189365386963,"6":-0.20216572284698486,"7":0.023903559893369675,"8":-0.30419954657554626,"9":0.07335224747657776,"10":0.4194449782371521,"11":-0.46664974093437195,"12":-0.12075940519571304,"13":0.19563734531402588,"14":0.33457812666893005,"15":-0.19298070669174194,"16":0.25075826048851013,"17":0.09833703935146332,"18":0.23477469384670258,"19":-0.07269632071256638,"20":-0.05121045932173729,"21":-0.07144644856452942,"22":0.07539191842079163,"23":-0.06580226868391037,"24":-0.08222631365060806,"25":-0.11053392291069031,"26":-0.21837326884269714,"27":0.1147196888923645,"28":0.1504889875650406,"29":0.2276383489370346,"30":-0.08713734149932861,"31":0.01991020329296589,"32":0.06682635843753815,"33":0.227467879652977,"34":-0.05366230010986328,"35":-0.19610314071178436,"36":0.13606415688991547,"37":-0.03837095573544502,"38":-0.4079247713088989,"39":-0.10602830350399017,"40":-0.11734700947999954,"41":-0.46572399139404297,"42":0.08481737226247787,"43":-0.13348668813705444,"44":0.1865164190530777,"45":0.08262414485216141,"46":0.005522981286048889,"47":-0.006482196971774101,"48":0.025551654398441315,"49":-0.07495302706956863,"50":0.005722036585211754,"51":-0.14426913857460022,"52":0.11215931177139282,"53":-0.009011838585138321,"54":0.26105639338493347,"55":0.1385525017976761,"56":0.14676854014396667,"57":0.3729110062122345,"58":0.13679319620132446,"59":0.0265913475304842,"60":0.36407315731048584,"61":0.18446525931358337,"62":0.11033376306295395,"63":0.20040932297706604,"64":0.17634695768356323,"65":0.015301058068871498,"66":0.20655454695224762,"67":-0.05903298780322075,"68":0.019824622198939323,"69":-0.25871774554252625,"70":-0.05838216096162796,"71":0.07856021821498871,"72":0.03267188370227814,"73":0.2870250344276428,"74":0.22818903625011444,"75":0.28316953778266907,"76":0.15750525891780853}},"14":{"bias":0.23426946997642517,"weights":{"0":0.2619361877441406,"1":0.5074976086616516,"2":-0.1323406994342804,"3":-0.1603304147720337,"4":0.3643036186695099,"5":-0.08764524012804031,"6":-0.5521403551101685,"7":-0.45291122794151306,"8":-0.06348717212677002,"9":-0.3382910192012787,"10":0.24559029936790466,"11":0.047806549817323685,"12":-0.07111545652151108,"13":0.03914246708154678,"14":-0.34193873405456543,"15":0.1139172688126564,"16":-0.23840634524822235,"17":-0.013034452684223652,"18":0.026061933487653732,"19":-0.03607920929789543,"20":0.32922348380088806,"21":-0.08215505629777908,"22":0.05216370150446892,"23":-0.14715464413166046,"24":-0.05793393775820732,"25":0.09397602081298828,"26":0.20610885322093964,"27":-0.2027527540922165,"28":-0.12432722747325897,"29":-0.03313394635915756,"30":-0.3694395124912262,"31":0.03339390829205513,"32":0.15688949823379517,"33":-0.01575774885714054,"34":-0.304547518491745,"35":-0.191733255982399,"36":0.04401563107967377,"37":-0.03493533283472061,"38":-0.010621393099427223,"39":0.1918165534734726,"40":-0.17331230640411377,"41":0.23866209387779236,"42":-0.08033862709999084,"43":0.010135727934539318,"44":0.13443520665168762,"45":-0.07299236208200455,"46":-0.16876660287380219,"47":-0.13162735104560852,"48":0.02420961484313011,"49":0.16953599452972412,"50":-0.0957617536187172,"51":-0.10306134819984436,"52":0.19285719096660614,"53":-0.15734423696994781,"54":-0.21166358888149261,"55":-0.11980844289064407,"56":-0.20624291896820068,"57":-0.14074665307998657,"58":-0.14185458421707153,"59":-0.03759615123271942,"60":-0.37113648653030396,"61":0.11110091954469681,"62":0.04729467257857323,"63":0.008346699178218842,"64":0.18089495599269867,"65":-0.15956942737102509,"66":-0.17839722335338593,"67":-0.015204578638076782,"68":-0.2550240457057953,"69":-0.4742029011249542,"70":-0.2639491856098175,"71":-0.26526957750320435,"72":-0.03251774609088898,"73":0.14297927916049957,"74":0.05483933165669441,"75":0.09718728810548782,"76":0.03752688691020012}},"15":{"bias":0.15991300344467163,"weights":{"0":-0.3545805513858795,"1":0.1819765865802765,"2":-0.05192570760846138,"3":-0.14987073838710785,"4":-0.3563632369041443,"5":-0.20773935317993164,"6":0.020730342715978622,"7":-0.24521706998348236,"8":-0.18441657721996307,"9":-0.23858918249607086,"10":-0.30030789971351624,"11":-0.23102830350399017,"12":-0.28872910141944885,"13":-0.04531928896903992,"14":-0.12221604585647583,"15":0.3651646673679352,"16":-0.22425606846809387,"17":-0.1574399471282959,"18":-0.003758454229682684,"19":-0.1830902248620987,"20":-0.09193859249353409,"21":-0.22370269894599915,"22":-0.1204083263874054,"23":-0.1952560693025589,"24":-0.08032367378473282,"25":0.04046988859772682,"26":-0.01118506770581007,"27":0.10748254507780075,"28":0.15403150022029877,"29":-0.22278831899166107,"30":0.2082705795764923,"31":0.18317671120166779,"32":-0.050996001809835434,"33":-0.05133702978491783,"34":0.20538632571697235,"35":-0.08228503167629242,"36":-0.171846404671669,"37":-0.15605248510837555,"38":-0.2842968702316284,"39":-0.11380866914987564,"40":0.20977747440338135,"41":-0.11665358394384384,"42":-0.07969240099191666,"43":0.07749591022729874,"44":0.0897020548582077,"45":-0.1822255402803421,"46":0.1251084953546524,"47":-0.048931729048490524,"48":0.04028257355093956,"49":-0.0554770827293396,"50":-0.16213494539260864,"51":-0.02568257972598076,"52":0.10253909230232239,"53":0.058280885219573975,"54":-0.17252697050571442,"55":-0.04309750348329544,"56":-0.20974093675613403,"57":-0.34639301896095276,"58":0.03686503693461418,"59":-0.135635107755661,"60":-0.2969316244125366,"61":-0.0638456791639328,"62":-0.1698080152273178,"63":0.005080716218799353,"64":0.35633546113967896,"65":-0.08454108983278275,"66":0.2691723704338074,"67":-0.050120264291763306,"68":0.05548810958862305,"69":0.20383968949317932,"70":0.04538087174296379,"71":0.11667384207248688,"72":-0.03950169309973717,"73":-0.16642692685127258,"74":0.17727379500865936,"75":0.34395894408226013,"76":-0.12725648283958435}},"16":{"bias":-0.044589605182409286,"weights":{"0":-0.16648820042610168,"1":-0.09901659935712814,"2":0.25875386595726013,"3":-0.0033252055291086435,"4":-0.33840253949165344,"5":0.12892651557922363,"6":0.06937386095523834,"7":0.1572519987821579,"8":0.054376889020204544,"9":0.3464350700378418,"10":-0.13970471918582916,"11":0.17745082080364227,"12":-0.13498689234256744,"13":-0.04458056390285492,"14":0.35675299167633057,"15":-0.1421605497598648,"16":-0.005033307243138552,"17":0.1870090216398239,"18":-0.02299545332789421,"19":0.24444277584552765,"20":-0.17160862684249878,"21":0.2665668725967407,"22":-0.15747849643230438,"23":-0.08669548481702805,"24":-0.178853377699852,"25":-0.09715090692043304,"26":0.16064268350601196,"27":0.10350047796964645,"28":-0.17530038952827454,"29":0.10695961117744446,"30":0.040484484285116196,"31":-0.1273796409368515,"32":-0.025349432602524757,"33":0.1767542064189911,"34":0.1811622977256775,"35":0.027100540697574615,"36":-0.16522406041622162,"37":0.019028380513191223,"38":0.3191615641117096,"39":0.08056133985519409,"40":-0.06112207844853401,"41":0.23387353122234344,"42":-0.060059115290641785,"43":0.145548477768898,"44":-0.03689184784889221,"45":0.07252904772758484,"46":-0.004034103825688362,"47":0.20709751546382904,"48":-0.158222958445549,"49":-0.1521550416946411,"50":0.17481577396392822,"51":-0.12892936170101166,"52":-0.0735568031668663,"53":0.09861345589160919,"54":0.21741516888141632,"55":0.2339133769273758,"56":0.2767949104309082,"57":0.323841392993927,"58":0.212799072265625,"59":-0.18793019652366638,"60":0.17863331735134125,"61":-0.041375648230314255,"62":0.17399081587791443,"63":0.15839724242687225,"64":0.03449844568967819,"65":-0.11957437545061111,"66":-0.16750654578208923,"67":-0.36023247241973877,"68":-0.4392514228820801,"69":0.0729781985282898,"70":0.032014135271310806,"71":-0.1646863967180252,"72":-0.11346428096294403,"73":-0.1930622011423111,"74":-0.14870987832546234,"75":-0.22099588811397552,"76":-0.17288781702518463}},"17":{"bias":-0.13006287813186646,"weights":{"0":-0.07519783079624176,"1":-0.1301070749759674,"2":-0.005186224356293678,"3":-0.16734662652015686,"4":0.34554409980773926,"5":-0.11602457612752914,"6":0.3095185458660126,"7":-0.22893501818180084,"8":0.1627969890832901,"9":-0.046640586107969284,"10":-0.20517033338546753,"11":0.2169310748577118,"12":-0.12683168053627014,"13":0.03449756279587746,"14":-0.1944739669561386,"15":-0.07914290577173233,"16":0.05196540802717209,"17":0.17701230943202972,"18":-0.02096669375896454,"19":-0.04284811019897461,"20":0.1884695440530777,"21":-0.20031790435314178,"22":0.06371675431728363,"23":-0.22098179161548615,"24":0.006129831541329622,"25":0.009699332527816296,"26":0.11503120511770248,"27":-0.28493645787239075,"28":0.026085976511240005,"29":0.1701211929321289,"30":-0.022688275203108788,"31":-0.13259242475032806,"32":-0.0851624608039856,"33":-0.48980632424354553,"34":-0.13853009045124054,"35":-0.037197280675172806,"36":-0.13231797516345978,"37":0.1293553113937378,"38":0.37940433621406555,"39":0.028399081900715828,"40":0.029017837718129158,"41":0.10595154762268066,"42":-0.2649179995059967,"43":-0.257333904504776,"44":-0.1746048629283905,"45":-0.26809167861938477,"46":-0.2110183984041214,"47":-0.08493460714817047,"48":-0.1287418156862259,"49":-0.14857110381126404,"50":-0.24825480580329895,"51":-0.09705059230327606,"52":0.2734263837337494,"53":0.09537156671285629,"54":0.002438657684251666,"55":0.058755893260240555,"56":0.1149686723947525,"57":0.20438989996910095,"58":-0.08047129958868027,"59":0.10673385858535767,"60":0.08571480214595795,"61":0.06501705944538116,"62":0.05897882580757141,"63":-0.08218568563461304,"64":0.16561178863048553,"65":0.09017886221408844,"66":0.34097525477409363,"67":-0.03240816667675972,"68":0.03128178045153618,"69":0.335410475730896,"70":0.2186555415391922,"71":0.3683558702468872,"72":0.18000155687332153,"73":0.1180146262049675,"74":0.29620400071144104,"75":-0.029412589967250824,"76":0.08985965698957443}},"18":{"bias":0.1302158236503601,"weights":{"0":-0.3461112380027771,"1":0.3511328101158142,"2":-0.07221312820911407,"3":0.03245135769248009,"4":0.2391737401485443,"5":-0.35375747084617615,"6":-0.1944751888513565,"7":-0.3588058352470398,"8":0.3426557779312134,"9":-0.3134578466415405,"10":-0.38912102580070496,"11":0.04892970249056816,"12":-0.2588322162628174,"13":0.014209971763193607,"14":-0.05261654779314995,"15":0.5292051434516907,"16":0.34549403190612793,"17":0.3044108748435974,"18":0.182973712682724,"19":0.03121437132358551,"20":-0.15910692512989044,"21":-0.14896273612976074,"22":-0.15800274908542633,"23":0.017303485423326492,"24":-0.0797789916396141,"25":0.06728565692901611,"26":0.10829223692417145,"27":-0.18074364960193634,"28":-0.14600108563899994,"29":0.3396499752998352,"30":-0.2298198938369751,"31":0.19772379100322723,"32":0.10887129604816437,"33":-0.6122956871986389,"34":-0.3285077214241028,"35":0.08033198118209839,"36":-0.19342456758022308,"37":0.12726160883903503,"38":0.6287463903427124,"39":-0.048336442559957504,"40":-0.3377068042755127,"41":0.3623131513595581,"42":-0.1827569603919983,"43":-0.0003964168136008084,"44":0.08139849454164505,"45":-0.13066214323043823,"46":-0.09184908866882324,"47":0.037611011415719986,"48":0.09716515988111496,"49":-0.11168168485164642,"50":0.03840051591396332,"51":-0.1767415702342987,"52":0.1401825249195099,"53":0.1901712864637375,"54":-0.029851991683244705,"55":0.23532037436962128,"56":-0.03809158876538277,"57":0.08699379116296768,"58":-0.027621028944849968,"59":0.14288142323493958,"60":0.036016423255205154,"61":-0.04665479436516762,"62":0.2884503901004791,"63":-0.04036978259682655,"64":0.06394565850496292,"65":0.12886357307434082,"66":0.3046475648880005,"67":-0.3608369827270508,"68":-0.5689099431037903,"69":-0.3485262393951416,"70":-0.268673837184906,"71":-0.2637130618095398,"72":0.228009894490242,"73":-0.2379039078950882,"74":-0.12403081357479095,"75":0.07880909740924835,"76":0.08961933851242065}},"19":{"bias":0.0317111499607563,"weights":{"0":-0.14119185507297516,"1":0.36024901270866394,"2":-0.14692986011505127,"3":0.26715439558029175,"4":0.05990361049771309,"5":0.06000371277332306,"6":-0.32380545139312744,"7":-0.15704365074634552,"8":0.3094274401664734,"9":-0.3167192339897156,"10":0.054818086326122284,"11":-0.007289184723049402,"12":0.12661907076835632,"13":0.1125931665301323,"14":-0.20863085985183716,"15":0.38603582978248596,"16":-0.017957139760255814,"17":-0.15174587070941925,"18":0.004342187196016312,"19":-0.0649058073759079,"20":0.24947910010814667,"21":-0.1359383463859558,"22":-0.06184625253081322,"23":-0.259952574968338,"24":-0.06443610787391663,"25":-0.2837318778038025,"26":0.26523733139038086,"27":-0.038538165390491486,"28":0.16571766138076782,"29":-0.10254011303186417,"30":0.34657466411590576,"31":-0.15959693491458893,"32":0.1848836988210678,"33":0.13282452523708344,"34":0.2962155044078827,"35":-0.1045275330543518,"36":0.15745778381824493,"37":-0.13394780457019806,"38":-0.08677532523870468,"39":0.07253874093294144,"40":0.3098045587539673,"41":-0.003469150746241212,"42":-0.1819165199995041,"43":-0.11901033669710159,"44":-0.31066182255744934,"45":-0.006223674863576889,"46":-0.17201536893844604,"47":-0.017940441146492958,"48":-0.029912061989307404,"49":-0.2630862295627594,"50":0.07664132863283157,"51":-0.19374994933605194,"52":-0.25451964139938354,"53":-0.2427341639995575,"54":-0.1472984254360199,"55":-0.15049314498901367,"56":-0.41978520154953003,"57":-0.38655051589012146,"58":-0.2074977308511734,"59":-0.018033582717180252,"60":-0.1567237377166748,"61":0.11421862989664078,"62":-0.08888362348079681,"63":0.11084751784801483,"64":-0.3341868817806244,"65":-0.19409236311912537,"66":-0.44180628657341003,"67":0.12550552189350128,"68":0.3414321839809418,"69":0.011648292653262615,"70":0.06471533328294754,"71":-0.27845510840415955,"72":-0.17228014767169952,"73":0.27927571535110474,"74":0.1405942142009735,"75":-0.39630046486854553,"76":0.10398917645215988}},"20":{"bias":-0.22828879952430725,"weights":{"0":-0.1088094562292099,"1":-0.14480949938297272,"2":-0.2671124041080475,"3":-0.04044906049966812,"4":0.07765129953622818,"5":-0.29791250824928284,"6":0.4637033939361572,"7":-0.03323104977607727,"8":-0.1230611577630043,"9":0.03803952410817146,"10":-0.10100805759429932,"11":-0.0059927781112492085,"12":-0.2511882781982422,"13":0.036659833043813705,"14":-0.04452568665146828,"15":-0.12258918583393097,"16":0.2515692412853241,"17":0.33777502179145813,"18":0.1635216474533081,"19":0.15100891888141632,"20":-0.11772909015417099,"21":0.022507714107632637,"22":0.30900833010673523,"23":0.30110374093055725,"24":0.12150151282548904,"25":0.22792686522006989,"26":-0.30492445826530457,"27":-0.14481788873672485,"28":0.19360287487506866,"29":0.14543947577476501,"30":-0.14992640912532806,"31":0.13396674394607544,"32":-0.012383376248180866,"33":0.015652397647500038,"34":-0.02046918123960495,"35":0.16968537867069244,"36":-0.11437328159809113,"37":0.03464571386575699,"38":-0.18517372012138367,"39":-0.11337005347013474,"40":-0.29885685443878174,"41":-0.2555745542049408,"42":0.34310948848724365,"43":0.2801036536693573,"44":0.28641897439956665,"45":0.2709600627422333,"46":0.1363421380519867,"47":-0.009513984434306622,"48":0.09717416763305664,"49":0.21319258213043213,"50":-0.01791505143046379,"51":0.1318594515323639,"52":-0.14993956685066223,"53":-0.3548594117164612,"54":0.17864105105400085,"55":0.09509264677762985,"56":-0.03765750676393509,"57":-0.0674041360616684,"58":0.2290501892566681,"59":0.1930418163537979,"60":0.18289029598236084,"61":0.20050573348999023,"62":0.15454542636871338,"63":0.10409321635961533,"64":-0.17607399821281433,"65":0.10630523413419724,"66":-0.07458404451608658,"67":-0.3739710748195648,"68":-0.0012432329822331667,"69":0.22645987570285797,"70":0.3725784718990326,"71":0.21185964345932007,"72":0.2972322702407837,"73":-0.09436780959367752,"74":-0.047056056559085846,"75":-0.28080618381500244,"76":0.057939909398555756}},"21":{"bias":-0.09548212587833405,"weights":{"0":-0.012500720098614693,"1":-0.26962029933929443,"2":0.3818643093109131,"3":0.09530938416719437,"4":-0.3195168972015381,"5":0.023760434240102768,"6":0.3644521236419678,"7":0.4831794798374176,"8":-0.09596636146306992,"9":0.3728237748146057,"10":-0.10552692413330078,"11":-0.38267701864242554,"12":-0.3571109473705292,"13":-0.16565947234630585,"14":0.32425859570503235,"15":-0.2589476704597473,"16":0.2017892748117447,"17":0.1750858873128891,"18":0.008113251067698002,"19":0.17331326007843018,"20":-0.2944004237651825,"21":0.2775312662124634,"22":0.05957769230008125,"23":0.013505680486559868,"24":0.09716672450304031,"25":-0.11203594505786896,"26":-0.3348095118999481,"27":0.17939972877502441,"28":-0.17904610931873322,"29":0.13896635174751282,"30":0.3158404529094696,"31":-0.07678507268428802,"32":-0.016829686239361763,"33":0.29431450366973877,"34":0.3299561142921448,"35":-0.03129089996218681,"36":0.05249691754579544,"37":0.17898494005203247,"38":-0.2424948811531067,"39":0.19154246151447296,"40":0.31594371795654297,"41":-0.3546742796897888,"42":-0.08754335343837738,"43":-0.19644169509410858,"44":-0.07645606249570847,"45":-0.09714426845312119,"46":0.06492628157138824,"47":-0.09454839676618576,"48":0.034815218299627304,"49":0.1294558197259903,"50":-0.08996276557445526,"51":-0.02922087162733078,"52":0.23389793932437897,"53":-0.04694556072354317,"54":0.06721920520067215,"55":0.12246885895729065,"56":0.3885776698589325,"57":0.34382393956184387,"58":-0.07995262742042542,"59":0.16556020081043243,"60":0.4221496284008026,"61":0.06491216272115707,"62":0.05727994069457054,"63":0.06320927292108536,"64":0.0669701024889946,"65":-0.1783459335565567,"66":0.19143232703208923,"67":0.034882206469774246,"68":0.2039605677127838,"69":0.38278570771217346,"70":0.3688231110572815,"71":0.03875774145126343,"72":-0.16985869407653809,"73":-0.07364694774150848,"74":-0.15053121745586395,"75":-0.02012793906033039,"76":0.08592241257429123}},"22":{"bias":-0.15929308533668518,"weights":{"0":0.5005107522010803,"1":0.14659897983074188,"2":0.3080281615257263,"3":-0.12027212232351303,"4":-0.07049243152141571,"5":0.3114125728607178,"6":-0.6003453135490417,"7":0.041397955268621445,"8":0.02065502107143402,"9":0.07104141265153885,"10":0.34257563948631287,"11":-0.12381844222545624,"12":0.6005598306655884,"13":-0.10394179075956345,"14":0.039126064628362656,"15":-0.40428707003593445,"16":-0.18362310528755188,"17":-0.3157151937484741,"18":-0.0246339850127697,"19":-0.1400539129972458,"20":0.2066909521818161,"21":0.23283913731575012,"22":-0.1340029388666153,"23":-0.01762697845697403,"24":-0.18757364153862,"25":-0.09306032210588455,"26":0.45819976925849915,"27":0.02179168350994587,"28":-0.032582078129053116,"29":-0.24883322417736053,"30":-0.17226187884807587,"31":0.1087632104754448,"32":-0.021711209788918495,"33":0.1235196515917778,"34":-0.25959399342536926,"35":0.10301173478364944,"36":0.1471824198961258,"37":0.009074907749891281,"38":0.25701579451560974,"39":0.013338030315935612,"40":-0.26489993929862976,"41":0.4198484718799591,"42":0.079056516289711,"43":-0.21540090441703796,"44":-0.1945929229259491,"45":0.08444324135780334,"46":-0.18073450028896332,"47":-0.22336046397686005,"48":0.03613007813692093,"49":-0.20604489743709564,"50":0.07155569642782211,"51":-0.10647588968276978,"52":-0.12098915129899979,"53":-0.2299453467130661,"54":-0.12383643537759781,"55":-0.18602776527404785,"56":0.24288257956504822,"57":0.15928559005260468,"58":-0.08036613464355469,"59":0.08457378298044205,"60":0.09603318572044373,"61":-0.013739846646785736,"62":-0.28902366757392883,"63":-0.02924458310008049,"64":-0.17235803604125977,"65":-0.1694866120815277,"66":0.02228822000324726,"67":-0.008433820679783821,"68":-0.38356515765190125,"69":-0.3678467571735382,"70":-0.4484938085079193,"71":-0.28724604845046997,"72":-0.21215440332889557,"73":-0.029233261942863464,"74":-0.38956332206726074,"75":-0.20653565227985382,"76":0.11069011688232422}},"23":{"bias":0.05755920708179474,"weights":{"0":-0.1648668795824051,"1":0.28788796067237854,"2":0.15279538929462433,"3":0.0755949318408966,"4":-0.040042031556367874,"5":-0.3640659749507904,"6":-0.441226989030838,"7":-0.19036297500133514,"8":-0.23342210054397583,"9":-0.15680630505084991,"10":-0.08303464949131012,"11":-0.4383697509765625,"12":-0.37594902515411377,"13":0.017921051010489464,"14":-0.0317043773829937,"15":0.04101750627160072,"16":0.10321273654699326,"17":-0.1670941263437271,"18":0.11547282338142395,"19":-0.011302236467599869,"20":0.11124230921268463,"21":-0.1354183852672577,"22":-0.07897800952196121,"23":-0.05560978874564171,"24":0.1514304280281067,"25":0.0845421850681305,"26":-0.07761634141206741,"27":-0.14949527382850647,"28":0.01314608659595251,"29":-0.09807971864938736,"30":-0.134773388504982,"31":-0.03455446660518646,"32":-0.0026365104131400585,"33":0.5130355954170227,"34":-0.11232181638479233,"35":0.13205428421497345,"36":0.1249241977930069,"37":0.09080417454242706,"38":-0.33297017216682434,"39":0.1326943039894104,"40":-0.032137494534254074,"41":-0.04605532065033913,"42":0.11673843115568161,"43":-0.18674342334270477,"44":-0.10027521103620529,"45":-0.05232695862650871,"46":-0.20978805422782898,"47":0.09133036434650421,"48":-0.013982175849378109,"49":-0.1218600794672966,"50":-0.008747118525207043,"51":-0.18547667562961578,"52":-0.04490864276885986,"53":-0.14801856875419617,"54":0.07080025970935822,"55":0.06721627712249756,"56":-0.11338281631469727,"57":-0.21540720760822296,"58":-0.2030298411846161,"59":0.005558333359658718,"60":0.10835609585046768,"61":-0.06611547619104385,"62":0.10748481750488281,"63":0.046612054109573364,"64":0.22033536434173584,"65":-0.1561000645160675,"66":0.04874056577682495,"67":-0.274433434009552,"68":-0.4114012122154236,"69":-0.07923997193574905,"70":-0.24559414386749268,"71":-0.05989927798509598,"72":-0.09852234274148941,"73":-0.04557332769036293,"74":-0.5171736478805542,"75":0.003834932576864958,"76":0.03495601564645767}},"24":{"bias":0.06354453414678574,"weights":{"0":0.22663383185863495,"1":0.2568961977958679,"2":-0.32140371203422546,"3":0.004622302949428558,"4":0.19977104663848877,"5":-0.2662579119205475,"6":-0.06334658712148666,"7":-0.2622047960758209,"8":-0.09333173930644989,"9":-0.013774430379271507,"10":-0.03744668886065483,"11":-0.3697110712528229,"12":-0.23486125469207764,"13":-0.1943632960319519,"14":-0.38815271854400635,"15":0.14097420871257782,"16":-0.18689948320388794,"17":-0.00028227936127223074,"18":-0.1499090939760208,"19":0.029906557872891426,"20":0.3485526144504547,"21":-0.09569402784109116,"22":-0.1772698014974594,"23":0.037908606231212616,"24":-0.05594892054796219,"25":0.047402650117874146,"26":-0.22871823608875275,"27":-0.08430646359920502,"28":-0.04322301968932152,"29":-0.11378125101327896,"30":-0.190715491771698,"31":-0.15201982855796814,"32":-0.19411562383174896,"33":-0.446642130613327,"34":-0.026938285678625107,"35":0.09345528483390808,"36":0.02057957649230957,"37":-0.013537108898162842,"38":-0.017043501138687134,"39":0.17402641475200653,"40":0.014812178909778595,"41":-0.25329792499542236,"42":-0.15098370611667633,"43":0.05188605189323425,"44":-0.13489942252635956,"45":0.14406633377075195,"46":0.19243815541267395,"47":0.2097707986831665,"48":-0.1019839271903038,"49":0.011678407900035381,"50":0.17738229036331177,"51":0.05637529492378235,"52":0.24708271026611328,"53":0.4426720440387726,"54":-0.15838052332401276,"55":0.0032493022736161947,"56":-0.14334122836589813,"57":-0.04568716511130333,"58":-0.13102470338344574,"59":0.1566798835992813,"60":-0.03442458063364029,"61":0.07115849107503891,"62":0.05952281132340431,"63":-0.05062786117196083,"64":0.3795270621776581,"65":-0.12792594730854034,"66":0.43451571464538574,"67":-0.032985154539346695,"68":0.2606509029865265,"69":0.1584932655096054,"70":0.11675408482551575,"71":0.022046657279133797,"72":0.05112957954406738,"73":0.2917451560497284,"74":0.3090028166770935,"75":0.13355505466461182,"76":-0.15419098734855652}},"25":{"bias":-0.3603356182575226,"weights":{"0":-0.15906065702438354,"1":0.44377970695495605,"2":-0.022945376113057137,"3":0.05777478590607643,"4":0.008527371101081371,"5":0.23200461268424988,"6":-0.13052046298980713,"7":0.016716497018933296,"8":0.05351021885871887,"9":-0.20043118298053741,"10":-0.0683915838599205,"11":0.3628302812576294,"12":0.07436728477478027,"13":-0.014058483764529228,"14":0.02282538078725338,"15":0.33316656947135925,"16":0.29170089960098267,"17":0.23258261382579803,"18":0.2930764853954315,"19":0.23622556030750275,"20":0.11018790304660797,"21":-0.21104717254638672,"22":0.03693782538175583,"23":0.23603087663650513,"24":0.17246659100055695,"25":0.18710368871688843,"26":-0.29658806324005127,"27":0.10073329508304596,"28":-0.12502482533454895,"29":0.18498948216438293,"30":-0.015376877970993519,"31":-0.08347368985414505,"32":0.09707307815551758,"33":-0.5438284277915955,"34":0.3477129340171814,"35":0.013939539901912212,"36":-0.03698200732469559,"37":-0.10450740158557892,"38":-0.08864726126194,"39":0.13381288945674896,"40":0.12170661240816116,"41":-0.0422380305826664,"42":0.25049638748168945,"43":0.29141685366630554,"44":0.2754482924938202,"45":0.01620982028543949,"46":0.2798111140727997,"47":0.1484070122241974,"48":0.29215580224990845,"49":-0.004197938833385706,"50":0.29793065786361694,"51":-0.08863610029220581,"52":0.27415284514427185,"53":0.2240818440914154,"54":0.06856601685285568,"55":0.07102587819099426,"56":-0.19571132957935333,"57":-0.1346243917942047,"58":0.15416216850280762,"59":0.19342881441116333,"60":0.13709427416324615,"61":0.2842714190483093,"62":0.3057641088962555,"63":0.005285888910293579,"64":0.11688513308763504,"65":0.26973140239715576,"66":0.1789785474538803,"67":0.3379996716976166,"68":0.18158289790153503,"69":-0.3865770697593689,"70":-0.2704628109931946,"71":-0.05441280081868172,"72":0.08457118272781372,"73":0.0233523678034544,"74":0.15124274790287018,"75":0.17490266263484955,"76":-0.1850615292787552}},"26":{"bias":-0.0009131389670073986,"weights":{"0":-0.016019893810153008,"1":-0.3087749779224396,"2":0.11400707066059113,"3":0.17375586926937103,"4":0.016049107536673546,"5":0.1375180333852768,"6":-0.10686428844928741,"7":0.34306424856185913,"8":0.44619521498680115,"9":0.1449057012796402,"10":-0.1409223973751068,"11":-0.017267372459173203,"12":0.2655220925807953,"13":0.13299058377742767,"14":0.07467297464609146,"15":-0.5313916802406311,"16":0.04419216513633728,"17":-0.018520928919315338,"18":-0.04926300793886185,"19":-0.07020595669746399,"20":0.062132418155670166,"21":0.2009289562702179,"22":-0.21669426560401917,"23":-0.026612170040607452,"24":-0.10092137008905411,"25":0.09261661022901535,"26":0.13625212013721466,"27":0.2812105715274811,"28":-0.16151486337184906,"29":-0.27266547083854675,"30":0.2704266607761383,"31":-0.1445693075656891,"32":-0.026491278782486916,"33":-0.00514260632917285,"34":0.1765679568052292,"35":-0.05521475523710251,"36":-0.05492831766605377,"37":0.18386563658714294,"38":0.2529146075248718,"39":-0.07528793811798096,"40":0.017892440780997276,"41":0.27455148100852966,"42":-0.08080198615789413,"43":-0.2917996644973755,"44":-0.2124258428812027,"45":-0.1051943227648735,"46":-0.054940301924943924,"47":0.05760703608393669,"48":-0.06947538256645203,"49":-0.16038767993450165,"50":-0.030962327495217323,"51":-0.12052857875823975,"52":-0.061809320002794266,"53":0.021873610094189644,"54":-0.15341685712337494,"55":0.04192070662975311,"56":0.05820417404174805,"57":0.1717139184474945,"58":-0.17103932797908783,"59":-0.12234283983707428,"60":-0.06218724325299263,"61":0.039907727390527725,"62":-0.2916717231273651,"63":0.06957991421222687,"64":0.14957542717456818,"65":-0.26448142528533936,"66":-0.07621470838785172,"67":-0.09417761862277985,"68":0.20285914838314056,"69":0.21398001909255981,"70":0.2102992832660675,"71":-0.06466085463762283,"72":-0.12126299738883972,"73":-0.032464656978845596,"74":-0.20184220373630524,"75":0.15371395647525787,"76":0.1544368863105774}},"27":{"bias":0.03351571410894394,"weights":{"0":0.026544461026787758,"1":-0.15200793743133545,"2":-0.14432820677757263,"3":0.07014867663383484,"4":-0.2699914872646332,"5":-0.1464502215385437,"6":-0.4414116442203522,"7":0.0867738425731659,"8":0.3857962191104889,"9":-0.01856950856745243,"10":0.018041569739580154,"11":0.32815423607826233,"12":0.36819908022880554,"13":0.1541055589914322,"14":-0.03717498108744621,"15":-0.296892911195755,"16":-0.2756584882736206,"17":-0.1854766458272934,"18":0.03564484789967537,"19":0.032318174839019775,"20":0.11313822120428085,"21":0.06516559422016144,"22":0.12066135555505753,"23":0.21348059177398682,"24":0.22986473143100739,"25":0.05802619084715843,"26":0.11401761323213577,"27":0.16533075273036957,"28":-0.1665545552968979,"29":-0.2562069594860077,"30":0.21360357105731964,"31":-0.01219168771058321,"32":0.0414467453956604,"33":-0.263219952583313,"34":0.13519999384880066,"35":0.050889719277620316,"36":-0.14598022401332855,"37":-0.17291967570781708,"38":0.1916743814945221,"39":0.036892328411340714,"40":0.20167489349842072,"41":0.060286492109298706,"42":0.1911836862564087,"43":0.19267044961452484,"44":0.17861537635326385,"45":-0.001824219711124897,"46":0.06891945749521255,"47":0.09597352147102356,"48":0.23757657408714294,"49":0.09242794662714005,"50":0.2066376954317093,"51":0.12169280648231506,"52":0.14739085733890533,"53":0.2821449041366577,"54":0.027532096952199936,"55":-0.27318114042282104,"56":0.0250396765768528,"57":-0.30802762508392334,"58":-0.13312019407749176,"59":-0.18603691458702087,"60":-0.1627752035856247,"61":0.0007414601277559996,"62":-0.14276927709579468,"63":0.09994688630104065,"64":0.0710102766752243,"65":-0.1568695604801178,"66":0.1472443789243698,"67":0.02853851206600666,"68":-0.13928617537021637,"69":-0.04618106409907341,"70":-0.21104593575000763,"71":-0.13600099086761475,"72":0.1286366730928421,"73":0.06532005220651627,"74":-0.4978415369987488,"75":0.43972620368003845,"76":-0.06886745989322662}},"28":{"bias":0.02479305863380432,"weights":{"0":-0.09878533333539963,"1":-0.246728777885437,"2":0.0060585252940654755,"3":-0.17868952453136444,"4":-0.09840894490480423,"5":-0.08764239400625229,"6":-0.24695658683776855,"7":0.24538159370422363,"8":-0.12648488581180573,"9":0.028102880343794823,"10":-0.27040377259254456,"11":-0.0195336751639843,"12":-0.22152036428451538,"13":0.12408287078142166,"14":-0.027032824233174324,"15":-0.11597739905118942,"16":0.12080688029527664,"17":-0.15405268967151642,"18":0.06414544582366943,"19":0.2223808318376541,"20":-0.28794607520103455,"21":0.23377203941345215,"22":-0.05090758204460144,"23":0.006687641609460115,"24":-0.09354148805141449,"25":-0.07803858071565628,"26":-0.16185031831264496,"27":-0.14320623874664307,"28":0.18252624571323395,"29":-0.02117163874208927,"30":0.05943826213479042,"31":0.1416984647512436,"32":-0.013102292083203793,"33":0.6021919846534729,"34":0.05913424491882324,"35":0.009042386896908283,"36":-0.14889253675937653,"37":0.1207801029086113,"38":0.17578917741775513,"39":0.024889612570405006,"40":0.018814565613865852,"41":0.05050328001379967,"42":-0.22624891996383667,"43":-0.17074541747570038,"44":-0.21857941150665283,"45":-0.280701220035553,"46":-0.2937304377555847,"47":-0.003742439905181527,"48":0.05976777523756027,"49":0.07330881059169769,"50":-0.1945054531097412,"51":-0.04930515214800835,"52":-0.20880164206027985,"53":-0.2538638412952423,"54":-0.1229325532913208,"55":0.20636048913002014,"56":-0.047806501388549805,"57":0.22576498985290527,"58":0.07499566674232483,"59":-0.19574692845344543,"60":0.1368364840745926,"61":0.04082664102315903,"62":0.128279909491539,"63":-0.11267054080963135,"64":-0.22400449216365814,"65":0.11825203895568848,"66":-0.03199687972664833,"67":-0.22708506882190704,"68":-0.36292052268981934,"69":-0.16027365624904633,"70":-0.04034154862165451,"71":-0.39889708161354065,"72":0.018765542656183243,"73":-0.14132794737815857,"74":-0.24251899123191833,"75":-0.26532888412475586,"76":0.03562947362661362}},"29":{"bias":0.23358048498630524,"weights":{"0":-0.3188616633415222,"1":-0.38595640659332275,"2":-0.29143789410591125,"3":0.06653566658496857,"4":-0.08991505950689316,"5":-0.415725976228714,"6":0.01334601640701294,"7":-0.10795438289642334,"8":0.17664867639541626,"9":0.0003963722556363791,"10":-0.27175626158714294,"11":0.30379050970077515,"12":-0.3050500750541687,"13":-0.19904790818691254,"14":-0.10984741151332855,"15":0.08383692055940628,"16":0.013601083308458328,"17":-0.182802215218544,"18":-0.09650938212871552,"19":0.00367209454998374,"20":-0.11819985508918762,"21":-0.10414470732212067,"22":0.09351595491170883,"23":-0.16921935975551605,"24":-0.22322598099708557,"25":-0.21252211928367615,"26":0.414663165807724,"27":-0.2174510657787323,"28":0.1377657949924469,"29":0.03572075441479683,"30":-0.0639486312866211,"31":0.050250329077243805,"32":-0.09193270653486252,"33":0.5012048482894897,"34":-0.10416741669178009,"35":0.11054641008377075,"36":-0.12756387889385223,"37":-0.035990167409181595,"38":0.2692868411540985,"39":-0.1516581028699875,"40":-0.19893161952495575,"41":0.1336992233991623,"42":-0.19832123816013336,"43":-0.06383182108402252,"44":-0.08649659901857376,"45":-0.23746170103549957,"46":-0.18156231939792633,"47":0.06711513549089432,"48":0.13261866569519043,"49":-0.21837744116783142,"50":0.08199824392795563,"51":0.05854035168886185,"52":0.04056021571159363,"53":-0.07111772894859314,"54":0.05224169045686722,"55":0.1755078136920929,"56":-0.3277966380119324,"57":-0.1005883663892746,"58":-0.08469382673501968,"59":0.1520308554172516,"60":-0.3311825096607208,"61":0.1214580088853836,"62":0.0244517233222723,"63":-0.06537432223558426,"64":0.046501997858285904,"65":0.015620099380612373,"66":0.022220443934202194,"67":-0.24175038933753967,"68":-0.42629989981651306,"69":-0.24759240448474884,"70":-0.27628809213638306,"71":-0.3018589913845062,"72":-0.05375272408127785,"73":-0.25243788957595825,"74":-0.17201043665409088,"75":0.2273920774459839,"76":0.1587565690279007}},"30":{"bias":-0.22911585867404938,"weights":{"0":0.2839759290218353,"1":0.4581384062767029,"2":0.18394909799098969,"3":-0.23836006224155426,"4":0.3744770586490631,"5":-0.020361678674817085,"6":0.3271801769733429,"7":-0.20684225857257843,"8":0.0375518798828125,"9":0.08294393867254257,"10":0.00915494654327631,"11":0.04830712452530861,"12":-0.04351953789591789,"13":0.08254247158765793,"14":0.13518068194389343,"15":0.23150448501110077,"16":-0.0013144296826794744,"17":-0.009991103783249855,"18":0.03843867778778076,"19":-0.07671638578176498,"20":0.3320451080799103,"21":0.022332996129989624,"22":0.004200427792966366,"23":-0.053680211305618286,"24":-0.05625583976507187,"25":-0.06567777693271637,"26":0.026008393615484238,"27":-0.20941708981990814,"28":0.06681042909622192,"29":0.1936703324317932,"30":-0.018531598150730133,"31":-0.1400969922542572,"32":0.0263960100710392,"33":-0.6071448922157288,"34":-0.10164516419172287,"35":0.17647713422775269,"36":0.14266008138656616,"37":-0.18040737509727478,"38":-0.13290689885616302,"39":0.14162759482860565,"40":-0.023464471101760864,"41":-0.0790729746222496,"42":-0.015506151132285595,"43":0.18048647046089172,"44":0.09440883249044418,"45":0.13270922005176544,"46":-0.11199329048395157,"47":0.11629506945610046,"48":0.05454991012811661,"49":-0.02715829759836197,"50":-0.11254589259624481,"51":0.102290578186512,"52":-0.38101744651794434,"53":-0.3632798194885254,"54":0.2437976598739624,"55":0.20534977316856384,"56":0.1226358488202095,"57":0.28950178623199463,"58":-0.038469232618808746,"59":0.16187897324562073,"60":0.1300746500492096,"61":0.27732497453689575,"62":0.059425875544548035,"63":0.22831124067306519,"64":-0.2652621865272522,"65":0.23340925574302673,"66":-0.11491706967353821,"67":-0.145830899477005,"68":0.20020931959152222,"69":0.34470462799072266,"70":0.3762046694755554,"71":0.3574059307575226,"72":0.07850923389196396,"73":0.2973015308380127,"74":0.6576783657073975,"75":-0.3937550187110901,"76":0.1927170753479004}},"31":{"bias":0.17569537460803986,"weights":{"0":0.12540742754936218,"1":0.2480606585741043,"2":0.06225702166557312,"3":-0.31925085186958313,"4":-0.12311204522848129,"5":-0.1605699211359024,"6":0.12867972254753113,"7":-0.20473547279834747,"8":0.06710870563983917,"9":-0.040093958377838135,"10":0.1896509975194931,"11":0.12069360166788101,"12":0.10821976512670517,"13":-0.12430444359779358,"14":-0.1705968677997589,"15":0.32247382402420044,"16":-0.13367438316345215,"17":-0.13743221759796143,"18":-0.12601666152477264,"19":-0.04173693805932999,"20":0.13162767887115479,"21":0.24915893375873566,"22":0.1707330197095871,"23":-0.08732043206691742,"24":0.009236333891749382,"25":0.07761062681674957,"26":0.14396753907203674,"27":-0.09698523581027985,"28":-0.18533670902252197,"29":-0.05821496248245239,"30":-0.1340658962726593,"31":0.1654473841190338,"32":0.1097007542848587,"33":-0.4015514850616455,"34":-0.09390506148338318,"35":-0.14827843010425568,"36":-0.14292417466640472,"37":0.18526114523410797,"38":0.16522759199142456,"39":-0.048881977796554565,"40":-0.40669867396354675,"41":0.4401004910469055,"42":-0.10718879103660583,"43":-0.20168115198612213,"44":-0.026849467307329178,"45":0.07798686623573303,"46":0.1662098914384842,"47":0.16360372304916382,"48":0.03842585161328316,"49":0.18783852458000183,"50":-0.14085401594638824,"51":0.11120688170194626,"52":-0.24019108712673187,"53":-0.2567562758922577,"54":0.0435577817261219,"55":-0.005443094298243523,"56":-0.060636747628450394,"57":0.20952247083187103,"58":0.04073409363627434,"59":0.09093713015317917,"60":0.019398558884859085,"61":-0.20315465331077576,"62":-0.13459038734436035,"63":-0.01430716086179018,"64":-0.28613340854644775,"65":-0.0032648295164108276,"66":-0.36532679200172424,"67":-0.3877788782119751,"68":-0.4181830883026123,"69":-0.13380244374275208,"70":-0.08191823959350586,"71":-0.21189351379871368,"72":0.1463610976934433,"73":0.2031521052122116,"74":0.15681864321231842,"75":-0.19288001954555511,"76":-0.19164326786994934}},"32":{"bias":-0.08694364130496979,"weights":{"0":0.20830689370632172,"1":-0.1279803365468979,"2":0.26798006892204285,"3":0.11976992338895798,"4":0.2739039361476898,"5":0.1432259976863861,"6":-0.2785806655883789,"7":-0.0042783101089298725,"8":-0.1040358915925026,"9":0.01955568604171276,"10":0.2693972587585449,"11":-0.19794237613677979,"12":0.2627948224544525,"13":0.0024872745852917433,"14":0.1511227786540985,"15":-0.33038511872291565,"16":-0.2757539749145508,"17":-0.1267419010400772,"18":-0.21349218487739563,"19":-0.17500002682209015,"20":0.26442161202430725,"21":-0.011557541787624359,"22":-0.015795256942510605,"23":-0.04883226379752159,"24":-0.13671286404132843,"25":0.06762697547674179,"26":-0.256378710269928,"27":0.2497071623802185,"28":0.06161986291408539,"29":-0.1163923442363739,"30":-0.11392500251531601,"31":0.10772708803415298,"32":-0.01606532372534275,"33":0.11983980983495712,"34":0.2688784897327423,"35":-0.1921517550945282,"36":-0.0704178512096405,"37":0.19919827580451965,"38":-0.37341004610061646,"39":-0.03519845008850098,"40":0.26134440302848816,"41":-0.37389329075813293,"42":-0.12206542491912842,"43":0.18394985795021057,"44":-0.048292458057403564,"45":0.16456474363803864,"46":-0.09858816862106323,"47":-0.006911720149219036,"48":0.1861943155527115,"49":-0.07651852071285248,"50":0.07734062522649765,"51":-0.16946634650230408,"52":0.3032532334327698,"53":0.3248463273048401,"54":-0.1683967262506485,"55":-0.27854979038238525,"56":0.08759510517120361,"57":-0.04906659200787544,"58":-0.24992695450782776,"59":0.05088266730308533,"60":0.18564531207084656,"61":0.012557480484247208,"62":-0.13352751731872559,"63":-0.2940389811992645,"64":0.09675435721874237,"65":-0.128256693482399,"66":0.2846851348876953,"67":0.09288061410188675,"68":0.08418991416692734,"69":0.1679692566394806,"70":0.01117676217108965,"71":0.07317177206277847,"72":0.040607303380966187,"73":0.058527447283267975,"74":0.1566632091999054,"75":0.4612515866756439,"76":-0.048608433455228806}},"33":{"bias":-0.39051151275634766,"weights":{"0":-0.11729355901479721,"1":-0.30833882093429565,"2":0.23136192560195923,"3":0.25337398052215576,"4":0.03801894560456276,"5":0.42098721861839294,"6":-0.17355570197105408,"7":0.1694297045469284,"8":0.08447019010782242,"9":0.2629435062408447,"10":-0.09016356617212296,"11":0.013581939972937107,"12":0.27506738901138306,"13":-0.13281676173210144,"14":0.4532385766506195,"15":0.042911697179079056,"16":0.07717937976121902,"17":0.12093716114759445,"18":0.10150840878486633,"19":0.08809579163789749,"20":-0.048121921718120575,"21":0.1843787580728531,"22":-0.23494106531143188,"23":-0.3101010024547577,"24":-0.03217422589659691,"25":-0.31433260440826416,"26":0.2105199247598648,"27":0.23767691850662231,"28":0.08449829369783401,"29":0.28153175115585327,"30":0.060270845890045166,"31":0.059665195643901825,"32":-0.0643686056137085,"33":0.036510445177555084,"34":0.18008992075920105,"35":0.07650589942932129,"36":-0.10473011434078217,"37":-0.061417777091264725,"38":0.18904660642147064,"39":0.025497546419501305,"40":0.12285365909337997,"41":0.1657409369945526,"42":-0.056443583220243454,"43":0.019383007660508156,"44":-0.05812400206923485,"45":0.03477175533771515,"46":-0.009297295473515987,"47":-0.04721428453922272,"48":-0.010492667555809021,"49":0.05275300145149231,"50":-0.09533343464136124,"51":-0.31554296612739563,"52":0.03491129353642464,"53":-0.27261462807655334,"54":0.13547344505786896,"55":0.1663096398115158,"56":0.45788344740867615,"57":0.31267890334129333,"58":0.07214440405368805,"59":-0.05374056100845337,"60":0.3436390161514282,"61":0.21046866476535797,"62":0.15727423131465912,"63":0.031231099739670753,"64":-0.07859504222869873,"65":-0.033964693546295166,"66":-0.10630683600902557,"67":-0.17277409136295319,"68":-0.18219447135925293,"69":-0.14294670522212982,"70":-0.1735561192035675,"71":0.0006629587151110172,"72":0.028567560017108917,"73":-0.1463145613670349,"74":-0.22269104421138763,"75":-0.03867857903242111,"76":0.022730082273483276}},"34":{"bias":0.14846202731132507,"weights":{"0":-0.2370404303073883,"1":-0.6875201463699341,"2":-0.08535854518413544,"3":-0.05817999318242073,"4":0.4177178144454956,"5":-0.03918543830513954,"6":0.19892951846122742,"7":0.04856884106993675,"8":0.34588751196861267,"9":-0.4269973635673523,"10":0.025211527943611145,"11":0.31843575835227966,"12":0.35359999537467957,"13":-0.013896853663027287,"14":-0.16325820982456207,"15":-0.6532571911811829,"16":0.0643014907836914,"17":0.05045777186751366,"18":0.11076348274946213,"19":0.23785504698753357,"20":0.08134181797504425,"21":-0.18880437314510345,"22":-0.06042150780558586,"23":0.16563212871551514,"24":0.08476021140813828,"25":-0.03538299724459648,"26":0.17289942502975464,"27":0.06245005130767822,"28":0.12772035598754883,"29":0.04150892049074173,"30":0.0829390361905098,"31":-0.12241372466087341,"32":0.15267327427864075,"33":0.650592029094696,"34":0.038262128829956055,"35":-0.02990809455513954,"36":-0.04708942025899887,"37":-0.04376652464270592,"38":0.27535879611968994,"39":-0.05248858407139778,"40":-0.05128048360347748,"41":0.2003050446510315,"42":-0.019457228481769562,"43":-0.08354387432336807,"44":-0.14539992809295654,"45":-0.09528239071369171,"46":-0.18011298775672913,"47":-0.011143217794597149,"48":0.00828990526497364,"49":-0.18432791531085968,"50":-0.09624142199754715,"51":-0.16098804771900177,"52":-0.23757381737232208,"53":-0.35711631178855896,"54":0.08245495706796646,"55":0.1537065953016281,"56":-0.27676886320114136,"57":-0.1724516600370407,"58":-0.07529651373624802,"59":0.1747017502784729,"60":-0.33854255080223083,"61":-0.09226401150226593,"62":-0.03843802586197853,"63":-0.10230274498462677,"64":-0.2927432656288147,"65":0.2272072434425354,"66":-0.3087270259857178,"67":0.3794889748096466,"68":0.5977251529693604,"69":0.17136555910110474,"70":-0.06567652523517609,"71":0.2096419334411621,"72":0.14367103576660156,"73":0.16810518503189087,"74":0.2390192151069641,"75":-0.4310886859893799,"76":0.1595987230539322}},"35":{"bias":0.0899917259812355,"weights":{"0":0.028989043086767197,"1":-0.5066356658935547,"2":0.0018846613820642233,"3":0.052279986441135406,"4":-0.10780753940343857,"5":-0.3288934528827667,"6":0.16031229496002197,"7":-0.020476197823882103,"8":0.13303621113300323,"9":-0.036709628999233246,"10":0.07619849592447281,"11":0.2661990821361542,"12":0.10629529505968094,"13":-0.09234606474637985,"14":-0.2842111885547638,"15":-0.5618500709533691,"16":0.10944437235593796,"17":-0.0815504789352417,"18":0.08104250580072403,"19":-0.1987447589635849,"20":-0.31867924332618713,"21":-0.026350775733590126,"22":0.25003430247306824,"23":0.01607646606862545,"24":0.23576289415359497,"25":0.015696246176958084,"26":0.25802913308143616,"27":-0.2025419920682907,"28":0.0806538537144661,"29":-0.11496687680482864,"30":0.113834448158741,"31":0.12082425504922867,"32":-0.10862155258655548,"33":-0.16646385192871094,"34":-0.17583875358104706,"35":0.1852455586194992,"36":-0.031124752014875412,"37":-0.14846578240394592,"38":0.38666513562202454,"39":-0.19105778634548187,"40":-0.22194194793701172,"41":0.39176350831985474,"42":-0.06456539034843445,"43":0.16287949681282043,"44":-0.0010000047041103244,"45":-0.06384523212909698,"46":-0.0075648692436516285,"47":-0.1316298395395279,"48":0.1738540679216385,"49":0.14120088517665863,"50":-0.12079989910125732,"51":-0.11755181849002838,"52":0.36707887053489685,"53":0.3626422584056854,"54":0.09761739522218704,"55":0.10516300797462463,"56":0.1554524302482605,"57":-0.19177265465259552,"58":-0.02955307997763157,"59":-0.08145066350698471,"60":-0.1987553834915161,"61":-0.12211327254772186,"62":-0.26562657952308655,"63":-0.01771552860736847,"64":0.11548034846782684,"65":-0.26767101883888245,"66":0.1901782900094986,"67":-0.14441630244255066,"68":-0.19945310056209564,"69":0.2623227834701538,"70":0.15476161241531372,"71":0.013706144876778126,"72":0.15114088356494904,"73":-0.19934982061386108,"74":-0.22841715812683105,"75":0.13678862154483795,"76":0.05710576847195625}},"36":{"bias":0.27235376834869385,"weights":{"0":0.24163267016410828,"1":0.317134290933609,"2":0.11602482199668884,"3":-0.11412246525287628,"4":-0.009948798455297947,"5":-0.15591274201869965,"6":0.027124352753162384,"7":-0.1731817126274109,"8":-0.24442166090011597,"9":0.262004017829895,"10":0.17331530153751373,"11":-0.624212920665741,"12":-0.30895546078681946,"13":-0.06498975306749344,"14":-0.12305766344070435,"15":0.3572588264942169,"16":-0.010894575156271458,"17":0.03132044896483421,"18":0.04514198377728462,"19":-0.029584472998976707,"20":-0.026076428592205048,"21":0.012272152118384838,"22":-0.1342630535364151,"23":-0.0007743353489786386,"24":0.007742772344499826,"25":0.06428343802690506,"26":-0.18724948167800903,"27":-0.18732936680316925,"28":-0.09517856687307358,"29":0.10822053998708725,"30":-0.135526642203331,"31":0.17737144231796265,"32":-0.009503076784312725,"33":0.03511517494916916,"34":-0.12491500377655029,"35":0.12584266066551208,"36":-0.06208609789609909,"37":-0.1535927951335907,"38":-0.31180521845817566,"39":-0.10930602252483368,"40":-0.09383613616228104,"41":-0.3182542324066162,"42":-0.01966741308569908,"43":-0.2568953037261963,"44":-0.19992777705192566,"45":-0.14140616357326508,"46":0.012122804298996925,"47":-0.02476496621966362,"48":-0.2296624481678009,"49":-0.06858032196760178,"50":-0.10070487856864929,"51":-0.24386858940124512,"52":0.22772158682346344,"53":0.07938021421432495,"54":-0.13081759214401245,"55":-0.15107139945030212,"56":0.07832742482423782,"57":0.17806294560432434,"58":0.1581382006406784,"59":-0.1810886710882187,"60":0.15195497870445251,"61":0.015330481342971325,"62":-0.21503764390945435,"63":-0.14297455549240112,"64":0.057913996279239655,"65":-0.19166406989097595,"66":-0.06117440015077591,"67":-0.2294948697090149,"68":-0.07491721212863922,"69":-0.009753584861755371,"70":-0.09810908138751984,"71":0.07298511266708374,"72":-0.28926679491996765,"73":0.1252642720937729,"74":-0.1658799946308136,"75":0.31895241141319275,"76":0.08420760929584503}},"37":{"bias":0.03127414360642433,"weights":{"0":-0.2178952842950821,"1":0.2778246998786926,"2":-0.18784241378307343,"3":0.34322845935821533,"4":-0.14657098054885864,"5":-0.08053793758153915,"6":0.24783144891262054,"7":0.05114316940307617,"8":0.36423373222351074,"9":-0.25139474868774414,"10":-0.16469594836235046,"11":-0.013615302741527557,"12":0.01518725324422121,"13":0.08020156621932983,"14":0.12251129001379013,"15":0.49140432476997375,"16":0.0948115810751915,"17":-0.1683565229177475,"18":0.09659826010465622,"19":0.09739567339420319,"20":0.16953133046627045,"21":-0.1910277158021927,"22":-0.21647366881370544,"23":-0.17244291305541992,"24":-0.0824798047542572,"25":0.05184585601091385,"26":0.12910450994968414,"27":0.09525920450687408,"28":0.053335245698690414,"29":-0.19123756885528564,"30":0.17288674414157867,"31":0.06179450824856758,"32":0.15014630556106567,"33":-0.15738973021507263,"34":0.02433316968381405,"35":-0.018315499648451805,"36":-0.09439944475889206,"37":0.07185772061347961,"38":-0.1142176017165184,"39":-0.021743349730968475,"40":0.260738343000412,"41":0.02317945659160614,"42":-0.1819590926170349,"43":-0.12226618826389313,"44":-0.17669248580932617,"45":-0.05381803214550018,"46":-0.28732502460479736,"47":-0.07325485348701477,"48":-0.23390981554985046,"49":-0.1563599705696106,"50":-0.21412953734397888,"51":-0.05676715821027756,"52":-0.13818253576755524,"53":-0.36391690373420715,"54":-0.05851565673947334,"55":0.14076586067676544,"56":-0.15495367348194122,"57":-0.13826830685138702,"58":0.1578841358423233,"59":-0.18143661320209503,"60":-0.16334377229213715,"61":-0.20612727105617523,"62":0.11340433359146118,"63":0.08045722544193268,"64":-0.34392228722572327,"65":0.17526456713676453,"66":-0.330166220664978,"67":0.05556892603635788,"68":0.24524088203907013,"69":0.1881379932165146,"70":0.003534516552463174,"71":0.22842934727668762,"72":-0.23457908630371094,"73":-0.04208371043205261,"74":0.16002248227596283,"75":-0.22690989077091217,"76":-0.10177759826183319}}},{"Poor dietary choices":{"bias":-0.11789825558662415,"weights":{"0":-0.008778106421232224,"1":-0.028673794120550156,"2":0.8173078894615173,"3":-0.1332682967185974,"4":-0.6941885352134705,"5":-0.4643828272819519,"6":-0.7635793089866638,"7":0.27038466930389404,"8":-1.2576760053634644,"9":0.49420738220214844,"10":0.14297598600387573,"11":-0.572612464427948,"12":-0.2897581458091736,"13":0.2441791146993637,"14":0.21577084064483643,"15":0.017695337533950806,"16":0.02336672879755497,"17":-0.5786961913108826,"18":-0.33778244256973267,"19":0.0476444773375988,"20":0.21556459367275238,"21":0.0005240614991635084,"22":0.23079869151115417,"23":0.9698569178581238,"24":-0.36935776472091675,"25":-0.9993532299995422,"26":-0.1731427013874054,"27":-0.376569926738739,"28":0.9488118290901184,"29":0.8120115399360657,"30":-0.8592929244041443,"31":-0.10160034149885178,"32":-0.08908642828464508,"33":-0.16268324851989746,"34":0.44943585991859436,"35":-0.059196505695581436,"36":0.2380274534225464,"37":-0.3523748517036438}},"Intestinal Permeability / Leaky Gut Syndrome 5":{"bias":-0.28496691584587097,"weights":{"0":-0.2427649050951004,"1":0.020533695816993713,"2":-0.9668033123016357,"3":-0.7562593221664429,"4":0.2555791735649109,"5":-0.181214839220047,"6":0.7597333788871765,"7":-1.0009241104125977,"8":-0.39984533190727234,"9":0.6782885193824768,"10":-0.46693235635757446,"11":-0.14832961559295654,"12":-0.35489946603775024,"13":0.2681173086166382,"14":0.746813952922821,"15":-0.4076830744743347,"16":-1.1553398370742798,"17":-0.048692550510168076,"18":-0.6237189173698425,"19":0.6606075167655945,"20":-0.7304190993309021,"21":-0.8415479063987732,"22":0.3990294635295868,"23":-0.26231348514556885,"24":0.4627158045768738,"25":0.006048493552953005,"26":-0.2587911784648895,"27":-0.34215065836906433,"28":-0.5821802616119385,"29":-0.7085012793540955,"30":0.4509080946445465,"31":-0.05715760216116905,"32":0.4011993408203125,"33":-0.4459536075592041,"34":0.3809833526611328,"35":-0.6917425990104675,"36":0.026956934481859207,"37":-0.04510458931326866}},"Impaired Gut Function":{"bias":-0.5509153008460999,"weights":{"0":0.04318614304065704,"1":0.8538007736206055,"2":0.12776316702365875,"3":0.7419289946556091,"4":0.6636863946914673,"5":0.21028487384319305,"6":-0.7789573073387146,"7":-0.38536596298217773,"8":-0.8371003270149231,"9":0.11904046684503555,"10":-0.5046457052230835,"11":-0.5688894391059875,"12":0.636980414390564,"13":-0.3205258250236511,"14":-0.8617293834686279,"15":0.38247090578079224,"16":-0.45347702503204346,"17":0.4548323452472687,"18":-0.7755817174911499,"19":-0.10677026212215424,"20":0.41632330417633057,"21":0.32434162497520447,"22":-1.3751100301742554,"23":-0.4768350124359131,"24":0.1927475482225418,"25":-0.806145191192627,"26":-0.05882679298520088,"27":-0.7838475704193115,"28":-0.46242502331733704,"29":-0.32867076992988586,"30":0.6869611740112305,"31":-0.20926624536514282,"32":-0.1552935093641281,"33":-0.6442332863807678,"34":0.2899799644947052,"35":0.03137902915477753,"36":-0.07607578486204147,"37":0.27488070726394653}},"Low stomach acid 5":{"bias":-0.19562016427516937,"weights":{"0":0.2629944682121277,"1":-0.8063343167304993,"2":0.3356492519378662,"3":0.39536967873573303,"4":0.034019891172647476,"5":0.40051519870758057,"6":-0.3774692416191101,"7":-0.10819613188505173,"8":0.031340342015028,"9":0.5434665083885193,"10":-0.36263713240623474,"11":0.09134284406900406,"12":-0.8231551051139832,"13":-0.3889451324939728,"14":-1.0503236055374146,"15":-0.09754166752099991,"16":-0.23228754103183746,"17":-0.7394559383392334,"18":-1.1633936166763306,"19":0.5665897130966187,"20":-0.6971796154975891,"21":0.4382237195968628,"22":-0.304390013217926,"23":-0.3818453252315521,"24":-0.77482008934021,"25":-0.025686509907245636,"26":0.4545239806175232,"27":0.26764968037605286,"28":-0.010986819863319397,"29":-0.20565780997276306,"30":-0.72774338722229,"31":-1.1523663997650146,"32":0.156362384557724,"33":0.30096086859703064,"34":0.44455686211586,"35":-0.4326898455619812,"36":-0.8937806487083435,"37":0.40956366062164307}},"Inflamed Gut 1":{"bias":-0.375615656375885,"weights":{"0":-1.0649526119232178,"1":0.8725334405899048,"2":-0.23739013075828552,"3":-0.865537703037262,"4":-0.39565524458885193,"5":0.31684011220932007,"6":-0.4958227276802063,"7":0.030292626470327377,"8":0.0281588863581419,"9":0.06755787879228592,"10":0.4420352578163147,"11":-0.9283972382545471,"12":0.6210041046142578,"13":-0.547119677066803,"14":0.4131838083267212,"15":0.5417428016662598,"16":-0.2375008761882782,"17":-0.3445216715335846,"18":0.8143865466117859,"19":0.5951244235038757,"20":-0.27828243374824524,"21":-0.5128492712974548,"22":-0.37408384680747986,"23":0.6280492544174194,"24":0.07671905308961868,"25":0.11346887797117233,"26":-0.7337767481803894,"27":-0.40893757343292236,"28":0.09795661270618439,"29":0.15113604068756104,"30":0.05723737180233002,"31":0.3827178180217743,"32":-0.6316239833831787,"33":-0.34978511929512024,"34":-1.0628570318222046,"35":-0.8278360962867737,"36":0.5672242641448975,"37":0.6059218049049377}},"Bacterial Imbalance 7":{"bias":-0.2856253385543823,"weights":{"0":0.1722242534160614,"1":-0.46490347385406494,"2":-0.4581901431083679,"3":-0.3135423958301544,"4":-0.2869972586631775,"5":-0.1581074595451355,"6":0.2416321486234665,"7":-1.0256978273391724,"8":0.3476126194000244,"9":-0.3209795653820038,"10":0.2943497598171234,"11":-0.3123472332954407,"12":-1.0247271060943604,"13":0.4222840666770935,"14":-0.5633854866027832,"15":-0.7943946123123169,"16":0.3026120364665985,"17":0.26309332251548767,"18":0.7177971601486206,"19":-0.6485666632652283,"20":0.5029374957084656,"21":0.027513515204191208,"22":-0.7975468039512634,"23":-0.41997089982032776,"24":-0.5530939698219299,"25":0.5172526836395264,"26":-0.49620604515075684,"27":-0.8412920832633972,"28":0.14966635406017303,"29":-0.12900753319263458,"30":0.5741429328918457,"31":-0.20016157627105713,"32":-0.865506649017334,"33":0.6217117309570312,"34":0.010516487993299961,"35":-0.396316796541214,"36":-0.5150090456008911,"37":-0.18729589879512787}},"Gut Infection -5":{"bias":-0.2967405319213867,"weights":{"0":-0.1977987438440323,"1":-0.2926262617111206,"2":-0.05151589214801788,"3":-0.5330648422241211,"4":-0.7511612772941589,"5":0.00943179801106453,"6":0.14516980946063995,"7":-0.13401643931865692,"8":0.2082640826702118,"9":-0.7193515300750732,"10":-0.34779518842697144,"11":-0.46398985385894775,"12":-1.0308942794799805,"13":-1.2067978382110596,"14":0.25521382689476013,"15":-0.32300910353660583,"16":0.07367020100355148,"17":0.24968752264976501,"18":0.7043222188949585,"19":0.28695908188819885,"20":-0.6082600951194763,"21":-1.1944423913955688,"22":0.7559560537338257,"23":-0.2664010226726532,"24":-0.5581484436988831,"25":-0.5551823377609253,"26":0.4331546127796173,"27":0.4243353605270386,"28":0.12350728362798691,"29":0.7862493395805359,"30":-0.3697037994861603,"31":0.55914705991745,"32":-0.7611889839172363,"33":0.08994453400373459,"34":0.5037916898727417,"35":0.6993780136108398,"36":-0.7594050765037537,"37":0.04025169834494591}},"Small Intestine Bacterial Overgrowth (SIBO)6":{"bias":-0.4080859422683716,"weights":{"0":-0.7763183116912842,"1":-0.04097534343600273,"2":-0.33915409445762634,"3":-0.7295460104942322,"4":-0.1932612955570221,"5":-0.03214090317487717,"6":-0.23764953017234802,"7":-0.059908609837293625,"8":0.3413773775100708,"9":-0.559765636920929,"10":-0.6170449256896973,"11":0.7844315767288208,"12":-0.05766376852989197,"13":0.4098963141441345,"14":-0.518539547920227,"15":-0.793122410774231,"16":0.3855578303337097,"17":-0.45025885105133057,"18":-0.6298609972000122,"19":-0.6344180107116699,"20":-0.4576491713523865,"21":0.7972708940505981,"22":1.2481329441070557,"23":-0.061262354254722595,"24":-0.5916866064071655,"25":-0.6182550191879272,"26":0.2384592592716217,"27":-0.31743869185447693,"28":0.1268966645002365,"29":-0.822706937789917,"30":0.07589846849441528,"31":0.12794902920722961,"32":0.20437969267368317,"33":0.73824143409729,"34":-1.1166642904281616,"35":-0.2823314964771271,"36":0.28010356426239014,"37":-0.5223023891448975}},"Mal-absorption":{"bias":-0.20852765440940857,"weights":{"0":-0.1953342854976654,"1":-0.49407759308815,"2":0.6038342714309692,"3":-0.605065107345581,"4":0.39961251616477966,"5":-0.9535410404205322,"6":0.46880632638931274,"7":0.7470470666885376,"8":0.08281677961349487,"9":-0.7293828129768372,"10":0.478255033493042,"11":0.14136461913585663,"12":0.38988161087036133,"13":-0.27249154448509216,"14":0.03235208988189697,"15":-0.41174760460853577,"16":-0.5140511989593506,"17":-0.8595147728919983,"18":-0.25791630148887634,"19":-0.5995276570320129,"20":0.6713275909423828,"21":-0.6072323322296143,"22":-0.11415854096412659,"23":-0.1350027322769165,"24":-0.12535931169986725,"25":0.5442252159118652,"26":-0.7259951233863831,"27":0.5361896753311157,"28":-0.6184035539627075,"29":-0.4422895312309265,"30":-0.13029277324676514,"31":0.1491912603378296,"32":-0.18276335299015045,"33":-0.720483124256134,"34":-0.5232004523277283,"35":-0.010286080650985241,"36":-0.5638953447341919,"37":-0.8546549081802368}},"No problem":{"bias":-0.14712874591350555,"weights":{"0":0.02658550627529621,"1":0.1349175125360489,"2":-0.7871919274330139,"3":1.0055550336837769,"4":-1.088761568069458,"5":-0.30482053756713867,"6":-0.287698894739151,"7":0.1777423471212387,"8":-0.3437804877758026,"9":-0.7729191184043884,"10":-0.8099910616874695,"11":-0.05199762433767319,"12":0.07879415899515152,"13":0.1785428524017334,"14":0.07562807947397232,"15":0.5920249819755554,"16":-0.35828498005867004,"17":0.19674313068389893,"18":0.5049418210983276,"19":-0.8219290375709534,"20":-0.6347566843032837,"21":-0.01579161547124386,"22":-0.39225292205810547,"23":0.3790026903152466,"24":0.7027621865272522,"25":0.02944170869886875,"26":-0.127847358584404,"27":0.39919593930244446,"28":-0.24030326306819916,"29":0.3684113025665283,"30":-1.0379012823104858,"31":-0.5751314759254456,"32":0.5364358425140381,"33":-0.4478677213191986,"34":-0.9441297650337219,"35":0.44954705238342285,"36":0.34248608350753784,"37":-0.7489405870437622}}}],"outputLookup":true,"inputLookup":false,"activation":"sigmoid","trainOpts":{"iterations":20000,"errorThresh":0.005,"log":false,"logPeriod":10,"learningRate":0.3,"momentum":0.1,"callbackPeriod":10,"beta1":0.9,"beta2":0.999,"epsilon":1e-8}}