{"sizes":[77,38,10],"layers":[{"0":{},"1":{},"2":{},"3":{},"4":{},"5":{},"6":{},"7":{},"8":{},"9":{},"10":{},"11":{},"12":{},"13":{},"14":{},"15":{},"16":{},"17":{},"18":{},"19":{},"20":{},"21":{},"22":{},"23":{},"24":{},"25":{},"26":{},"27":{},"28":{},"29":{},"30":{},"31":{},"32":{},"33":{},"34":{},"35":{},"36":{},"37":{},"38":{},"39":{},"40":{},"41":{},"42":{},"43":{},"44":{},"45":{},"46":{},"47":{},"48":{},"49":{},"50":{},"51":{},"52":{},"53":{},"54":{},"55":{},"56":{},"57":{},"58":{},"59":{},"60":{},"61":{},"62":{},"63":{},"64":{},"65":{},"66":{},"67":{},"68":{},"69":{},"70":{},"71":{},"72":{},"73":{},"74":{},"75":{},"76":{}},{"0":{"bias":0.0011027698637917638,"weights":{"0":0.005154050420969725,"1":-0.115115225315094,"2":0.15789353847503662,"3":-0.17405185103416443,"4":-0.04586784914135933,"5":-0.052768345922231674,"6":-0.07906074821949005,"7":-0.08322078734636307,"8":0.12861955165863037,"9":0.012700911611318588,"10":-0.05699026584625244,"11":0.2760328948497772,"12":-0.180964857339859,"13":0.08385001122951508,"14":0.08443135023117065,"15":-0.18377916514873505,"16":-0.046426963061094284,"17":0.2380247712135315,"18":0.08194791525602341,"19":0.025494679808616638,"20":-0.10218019038438797,"21":0.05715712159872055,"22":0.20559367537498474,"23":0.0694509819149971,"24":0.13733594119548798,"25":0.20476070046424866,"26":0.12482466548681259,"27":-0.03375833481550217,"28":0.1601456105709076,"29":-0.05248338356614113,"30":-0.1295498162508011,"31":-0.010701360180974007,"32":0.020938042551279068,"33":-0.23373432457447052,"34":-0.23700353503227234,"35":-0.18314914405345917,"36":-0.05591953918337822,"37":0.19277609884738922,"38":-0.0005145910545252264,"39":-0.16189780831336975,"40":-0.13554798066616058,"41":0.23752669990062714,"42":0.18554143607616425,"43":0.011817730963230133,"44":0.2707197070121765,"45":0.21799317002296448,"46":0.13084271550178528,"47":0.05136112868785858,"48":0.1653444916009903,"49":-0.08516829460859299,"50":0.21591582894325256,"51":-0.10436483472585678,"52":0.28956204652786255,"53":0.302348256111145,"54":0.18840143084526062,"55":-0.11780709773302078,"56":0.06047779694199562,"57":-0.059434134513139725,"58":0.21529893577098846,"59":-0.023838872089982033,"60":0.12531660497188568,"61":0.24349334836006165,"62":0.22294308245182037,"63":0.05293731763958931,"64":-0.012188144959509373,"65":0.06247648224234581,"66":0.14058059453964233,"67":-0.3236106038093567,"68":-0.2832387685775757,"69":-0.27585750818252563,"70":-0.029017606750130653,"71":-0.1095137745141983,"72":0.28705069422721863,"73":-0.21227288246154785,"74":-0.1113792210817337,"75":0.020095745101571083,"76":-0.1135701835155487}},"1":{"bias":-0.13975651562213898,"weights":{"0":0.2633230686187744,"1":-0.4518391489982605,"2":0.07251836359500885,"3":-0.21481023728847504,"4":-0.17353731393814087,"5":-0.07993622124195099,"6":0.17784249782562256,"7":0.055726565420627594,"8":0.40529903769493103,"9":0.037825290113687515,"10":0.11478178948163986,"11":0.2656410336494446,"12":0.5349876284599304,"13":0.07702788710594177,"14":0.12703178822994232,"15":-0.4642851650714874,"16":0.13138972222805023,"17":-0.19127985835075378,"18":0.1406765729188919,"19":0.07019919902086258,"20":-0.03849340230226517,"21":0.2762450873851776,"22":-0.11466269940137863,"23":0.23082131147384644,"24":-0.005829544737935066,"25":0.20234227180480957,"26":0.33222833275794983,"27":-0.23426342010498047,"28":0.008939461782574654,"29":-0.1874891221523285,"30":-0.21462610363960266,"31":0.09835555404424667,"32":0.028568515554070473,"33":-0.15328247845172882,"34":-0.029656993225216866,"35":-0.07428940385580063,"36":0.19049206376075745,"37":0.16424542665481567,"38":0.10974869132041931,"39":0.16620416939258575,"40":-0.06993481516838074,"41":0.41281014680862427,"42":0.2310153841972351,"43":0.231392502784729,"44":0.16475164890289307,"45":0.13625992834568024,"46":0.08517774939537048,"47":0.15905863046646118,"48":-0.0404384508728981,"49":-0.017811644822359085,"50":0.21528926491737366,"51":0.22267946600914001,"52":-0.18427568674087524,"53":0.020817209035158157,"54":0.10961531847715378,"55":0.05172662064433098,"56":0.2406674027442932,"57":-0.08024757355451584,"58":0.0200017299503088,"59":0.13266851007938385,"60":0.1460196077823639,"61":0.00344961229711771,"62":-0.24425789713859558,"63":-0.09138797968626022,"64":-0.006091911345720291,"65":0.016103077679872513,"66":-0.04232141375541687,"67":-0.25805121660232544,"68":0.16391074657440186,"69":0.09905801713466644,"70":0.33744773268699646,"71":0.1930280327796936,"72":0.014012440107762814,"73":0.029043106362223625,"74":0.049058765172958374,"75":-0.02626687102019787,"76":-0.009883416816592216}},"2":{"bias":0.09296062588691711,"weights":{"0":0.37757402658462524,"1":0.4067385196685791,"2":0.20864947140216827,"3":-0.14193318784236908,"4":0.0160166397690773,"5":-0.03793702274560928,"6":-0.22854387760162354,"7":-0.11403817683458328,"8":-0.37701529264450073,"9":0.28249216079711914,"10":0.35821306705474854,"11":-0.30903854966163635,"12":-0.11633633822202682,"13":0.026429252699017525,"14":-0.1598406285047531,"15":0.4358900785446167,"16":-0.04852445423603058,"17":0.06614436954259872,"18":0.039258960634469986,"19":0.035207051783800125,"20":0.06406227499246597,"21":0.13083356618881226,"22":-0.033892761915922165,"23":0.06262902915477753,"24":-0.013544515706598759,"25":0.10378307104110718,"26":-0.12038878351449966,"27":-0.23790115118026733,"28":0.07852435111999512,"29":-0.06769037246704102,"30":-0.23214557766914368,"31":0.018418224528431892,"32":0.0070121376775205135,"33":0.44649359583854675,"34":-0.05220815911889076,"35":-0.09481700509786606,"36":-0.19927768409252167,"37":-0.15473870933055878,"38":-0.4281648099422455,"39":0.17069639265537262,"40":-0.019817911088466644,"41":-0.04707038775086403,"42":-0.053871896117925644,"43":0.2461014688014984,"44":0.04996112734079361,"45":0.17974691092967987,"46":0.12358885258436203,"47":0.16716036200523376,"48":-0.03159771487116814,"49":0.02327802963554859,"50":0.18057730793952942,"51":-0.02305794507265091,"52":-0.38620471954345703,"53":-0.04627278074622154,"54":-0.10742831975221634,"55":-0.04198692739009857,"56":0.16764496266841888,"57":0.21973779797554016,"58":-0.18968942761421204,"59":0.18820235133171082,"60":0.10824216157197952,"61":-0.2652479112148285,"62":-0.16252142190933228,"63":-0.15098963677883148,"64":-0.278048038482666,"65":-0.11392735689878464,"66":-0.3695482313632965,"67":-0.1772652417421341,"68":-0.5608466267585754,"69":-0.4079349935054779,"70":-0.170118048787117,"71":-0.30940601229667664,"72":0.05276166647672653,"73":0.1879575401544571,"74":-0.1924634426832199,"75":-0.1788642704486847,"76":0.14552482962608337}},"3":{"bias":0.18364083766937256,"weights":{"0":-0.1367187798023224,"1":-0.16549623012542725,"2":-0.06412005424499512,"3":0.021396368741989136,"4":-0.04977836832404137,"5":0.012737041339278221,"6":0.09762807190418243,"7":-0.03825857490301132,"8":-0.2019263356924057,"9":-0.303478866815567,"10":-0.024439919739961624,"11":-0.28468042612075806,"12":-0.4553823471069336,"13":0.10862743109464645,"14":0.10489341616630554,"15":-0.1591554582118988,"16":-0.2630974054336548,"17":0.025878379121422768,"18":0.07604753971099854,"19":-0.13617868721485138,"20":0.2287924885749817,"21":-0.30667585134506226,"22":-0.11481686681509018,"23":-0.16386264562606812,"24":0.03226802498102188,"25":-0.21489305794239044,"26":-0.33861270546913147,"27":0.21112780272960663,"28":0.12126979976892471,"29":-0.11208301037549973,"30":0.1403295248746872,"31":-0.04219811037182808,"32":0.09876444935798645,"33":0.5445374250411987,"34":0.019639624282717705,"35":0.06323763728141785,"36":0.027403786778450012,"37":0.04933374747633934,"38":-0.4999614953994751,"39":-0.0950731486082077,"40":0.3356747031211853,"41":-0.4588952660560608,"42":0.04050209000706673,"43":0.06273363530635834,"44":-0.2896338105201721,"45":-0.08089499920606613,"46":-0.27041956782341003,"47":-0.12000502645969391,"48":-0.009577871300280094,"49":0.021501826122403145,"50":-0.196528360247612,"51":-0.13432909548282623,"52":0.28188833594322205,"53":0.19765117764472961,"54":-0.006948395632207394,"55":-0.022702669724822044,"56":-0.2121630609035492,"57":-0.28491291403770447,"58":-0.17205855250358582,"59":-0.11292527616024017,"60":-0.42183130979537964,"61":0.09922001510858536,"62":-0.10517857223749161,"63":0.11933639645576477,"64":0.406634122133255,"65":-0.15800483524799347,"66":0.21181529760360718,"67":0.4837226867675781,"68":0.6099826097488403,"69":0.12080533802509308,"70":0.20358261466026306,"71":0.12690159678459167,"72":-0.1977812498807907,"73":0.37040451169013977,"74":0.30588093400001526,"75":0.3770689070224762,"76":-0.17888730764389038}},"4":{"bias":0.08821497857570648,"weights":{"0":-0.10240525007247925,"1":0.184269979596138,"2":0.3116788864135742,"3":-0.013547955080866814,"4":-0.09554780274629593,"5":-0.03920953348278999,"6":0.3391695022583008,"7":0.4642888903617859,"8":0.22519154846668243,"9":-0.07162147015333176,"10":-0.18078072369098663,"11":-0.30058154463768005,"12":-0.00441802479326725,"13":-0.15845319628715515,"14":0.09020426124334335,"15":0.10523912310600281,"16":0.04757954552769661,"17":0.08858048170804977,"18":-0.23137438297271729,"19":0.04885266721248627,"20":0.0998266190290451,"21":0.07314790040254593,"22":0.08101405948400497,"23":-0.11526437103748322,"24":0.00613736268132925,"25":-0.0403091199696064,"26":-0.19886340200901031,"27":0.2725623846054077,"28":-0.0777202770113945,"29":-0.006841635797172785,"30":0.2645176947116852,"31":0.107667475938797,"32":0.04689371958374977,"33":-0.3202130198478699,"34":0.038944367319345474,"35":0.138311505317688,"36":-0.18973898887634277,"37":0.020999304950237274,"38":-0.2238740473985672,"39":-0.03225437551736832,"40":0.24436749517917633,"41":-0.25314056873321533,"42":-0.06777691096067429,"43":-0.1448826640844345,"44":-0.20726929605007172,"45":0.02954844757914543,"46":-0.08614428341388702,"47":0.0033957925625145435,"48":-0.15096183121204376,"49":-0.02637934498488903,"50":-0.07131530344486237,"51":-0.2610871195793152,"52":0.192021906375885,"53":0.008864219300448895,"54":-0.003159251995384693,"55":0.03471248596906662,"56":0.18324272334575653,"57":-0.12511812150478363,"58":-0.23258356750011444,"59":-0.1411265730857849,"60":-0.03492962196469307,"61":0.0028392011299729347,"62":-0.06657567620277405,"63":-0.18951104581356049,"64":0.2691648006439209,"65":-0.03460986912250519,"66":0.13398152589797974,"67":0.1660621613264084,"68":0.4529045522212982,"69":0.12444276362657547,"70":0.3092138469219208,"71":0.09067386388778687,"72":-0.3160228133201599,"73":-0.18084394931793213,"74":0.10652260482311249,"75":0.02326381951570511,"76":-0.04639603570103645}},"5":{"bias":0.15531517565250397,"weights":{"0":0.0993606448173523,"1":0.20871515572071075,"2":0.02061524987220764,"3":-0.047907356172800064,"4":0.1437995433807373,"5":0.20338158309459686,"6":-0.14519020915031433,"7":0.11211366206407547,"8":0.03658284619450569,"9":0.00846809707581997,"10":0.2788940966129303,"11":-0.0772959366440773,"12":0.35104361176490784,"13":0.08599010854959488,"14":0.16985464096069336,"15":-0.11978372931480408,"16":-0.22434277832508087,"17":-0.06501160562038422,"18":-0.1988396793603897,"19":0.11834351718425751,"20":0.11324946582317352,"21":0.1710871160030365,"22":0.009512030519545078,"23":-0.11491809040307999,"24":0.0766073539853096,"25":-0.0472244918346405,"26":0.10514923185110092,"27":0.06527973711490631,"28":-0.027676355093717575,"29":-0.05313791334629059,"30":-0.0675976499915123,"31":0.1826464682817459,"32":0.08470325917005539,"33":0.1428280621767044,"34":0.054366111755371094,"35":-0.0768047496676445,"36":0.09700366109609604,"37":-0.13880997896194458,"38":0.11069116741418839,"39":-0.01699906587600708,"40":-0.1098782941699028,"41":0.22358070313930511,"42":-0.1254984587430954,"43":0.09483904391527176,"44":-0.14836561679840088,"45":0.10923474282026291,"46":0.1212218701839447,"47":-0.004470099229365587,"48":0.16724452376365662,"49":-0.17286284267902374,"50":0.14788657426834106,"51":-0.157603457570076,"52":-0.34095731377601624,"53":-0.32245588302612305,"54":-0.25662678480148315,"55":-0.1588967740535736,"56":-0.017699893563985825,"57":0.013909886591136456,"58":-0.16410274803638458,"59":-0.09123405814170837,"60":0.26041877269744873,"61":-0.0839168131351471,"62":-0.23752523958683014,"63":-0.11520576477050781,"64":-0.21712090075016022,"65":-0.2579130232334137,"66":-0.22824040055274963,"67":-0.21440239250659943,"68":-0.30404001474380493,"69":-0.3172856271266937,"70":-0.13579843938350677,"71":-0.21480092406272888,"72":0.08355776965618134,"73":-0.03474416583776474,"74":-0.427097350358963,"75":-0.3496055006980896,"76":0.11553344130516052}},"6":{"bias":-0.09794250130653381,"weights":{"0":0.20592652261257172,"1":0.24531547725200653,"2":0.07914665341377258,"3":0.07785645127296448,"4":0.08765584230422974,"5":0.389455646276474,"6":0.06354807317256927,"7":0.21556200087070465,"8":-0.18553143739700317,"9":-0.15639889240264893,"10":0.043562114238739014,"11":-0.249564066529274,"12":0.1584090143442154,"13":-0.014229873195290565,"14":-0.07989578694105148,"15":0.25592759251594543,"16":0.14787334203720093,"17":-0.08248995244503021,"18":0.17961448431015015,"19":-0.014444931410253048,"20":0.09903958439826965,"21":0.07391764968633652,"22":-0.22480055689811707,"23":-0.18027126789093018,"24":-0.2028389424085617,"25":-0.32984623312950134,"26":0.09857858717441559,"27":0.13796554505825043,"28":0.19957704842090607,"29":-0.00749767292290926,"30":0.20439937710762024,"31":-0.0198782030493021,"32":0.14263145625591278,"33":-0.06133962422609329,"34":0.05494200065732002,"35":-0.07532399892807007,"36":0.07981979101896286,"37":-0.12816324830055237,"38":-0.03480924665927887,"39":-0.039767928421497345,"40":0.1441413313150406,"41":-0.12774227559566498,"42":-0.11788676679134369,"43":-0.20991554856300354,"44":-0.3229597806930542,"45":-0.21052910387516022,"46":-0.06609922647476196,"47":-0.12812800705432892,"48":-0.2078583836555481,"49":-0.1864115595817566,"50":-0.21693192422389984,"51":-0.27269694209098816,"52":-0.13031207025051117,"53":-0.10582821816205978,"54":0.08701661229133606,"55":-0.07852722704410553,"56":0.009866147302091122,"57":0.24314145743846893,"58":0.05434295907616615,"59":-0.1267692893743515,"60":0.15249821543693542,"61":-0.07790179550647736,"62":0.11027505993843079,"63":0.13820262253284454,"64":-0.3963433802127838,"65":0.19952082633972168,"66":-0.09477053582668304,"67":0.27259543538093567,"68":0.496477335691452,"69":0.10148657858371735,"70":0.15666139125823975,"71":0.2312638759613037,"72":0.06167132407426834,"73":0.24352030456066132,"74":0.5550708770751953,"75":-0.056550249457359314,"76":-0.05948270112276077}},"7":{"bias":-0.34010088443756104,"weights":{"0":0.1932787448167801,"1":-0.0421345978975296,"2":0.3549821376800537,"3":0.26227274537086487,"4":0.11025123298168182,"5":0.37868544459342957,"6":0.24491189420223236,"7":0.25759875774383545,"8":0.10597047209739685,"9":0.2794462740421295,"10":0.3263150155544281,"11":0.170948326587677,"12":0.2629640996456146,"13":-0.17422914505004883,"14":0.5430900454521179,"15":-0.5865592956542969,"16":-0.09860024601221085,"17":0.04983925446867943,"18":0.07939030230045319,"19":0.1068001538515091,"20":-0.05908981338143349,"21":0.29717910289764404,"22":0.15305708348751068,"23":0.2708171308040619,"24":0.15401166677474976,"25":0.04148252308368683,"26":-0.2917093336582184,"27":0.05976849049329758,"28":0.12010230123996735,"29":0.17572540044784546,"30":0.022678224369883537,"31":-0.062288638204336166,"32":0.11528414487838745,"33":0.05875018239021301,"34":0.0236390121281147,"35":0.15745559334754944,"36":0.004516749642789364,"37":-0.1389240175485611,"38":-0.21218203008174896,"39":-0.015183917246758938,"40":0.0874231606721878,"41":-0.3503870368003845,"42":0.18158037960529327,"43":-0.0735408142209053,"44":-0.04380824416875839,"45":0.0317876860499382,"46":0.0818786695599556,"47":-0.0323641262948513,"48":0.2789151668548584,"49":-0.08489145338535309,"50":0.02513118088245392,"51":-0.06615539640188217,"52":0.14336591958999634,"53":0.17871679365634918,"54":0.17683584988117218,"55":0.1282086819410324,"56":0.11889483034610748,"57":0.17566893994808197,"58":0.17888298630714417,"59":-0.08125019818544388,"60":0.09554018825292587,"61":0.163100004196167,"62":0.014185570180416107,"63":-0.06419844180345535,"64":0.03711983934044838,"65":0.11095914989709854,"66":0.1930149495601654,"67":0.015830960124731064,"68":-0.06491220742464066,"69":0.1681760847568512,"70":-0.14592896401882172,"71":-0.14889222383499146,"72":0.25481128692626953,"73":-0.2541064918041229,"74":-0.23777440190315247,"75":-0.013155650347471237,"76":-0.007423617411404848}},"8":{"bias":0.1295606791973114,"weights":{"0":-0.08581483364105225,"1":-0.5191007852554321,"2":-0.006852808874100447,"3":-0.0026813559234142303,"4":0.08924054354429245,"5":-0.40636470913887024,"6":0.43023109436035156,"7":-0.08027131110429764,"8":-0.3779459297657013,"9":-0.07822217792272568,"10":-0.34593918919563293,"11":-0.435029536485672,"12":-0.612137496471405,"13":-0.09557074308395386,"14":-0.35365718603134155,"15":-0.08696258068084717,"16":-0.08609072118997574,"17":0.17287392914295197,"18":-0.15476396679878235,"19":-0.1340196281671524,"20":-0.04794429987668991,"21":0.012622731737792492,"22":-0.129641592502594,"23":-0.028935927897691727,"24":-0.1935146003961563,"25":-0.030904829502105713,"26":-0.27771657705307007,"27":-0.2518191635608673,"28":-0.06423423439264297,"29":-0.17494715750217438,"30":-0.21787934005260468,"31":0.16349299252033234,"32":0.001151141244918108,"33":0.7649117708206177,"34":-0.24754852056503296,"35":0.04693328216671944,"36":-0.13463404774665833,"37":-0.15983955562114716,"38":-0.1565660983324051,"39":-0.1189052015542984,"40":-0.2769710421562195,"41":-0.04480347782373428,"42":0.0907345861196518,"43":-0.19396518170833588,"44":0.04609055444598198,"45":-0.22230976819992065,"46":0.006181965582072735,"47":-0.03547980636358261,"48":-0.1716202050447464,"49":-0.06550310552120209,"50":-0.22899504005908966,"51":0.14216233789920807,"52":-0.007865766063332558,"53":-0.20643272995948792,"54":0.08714581280946732,"55":-0.09804630279541016,"56":0.10842712223529816,"57":-0.11014749109745026,"58":0.15184269845485687,"59":0.1934322565793991,"60":0.10137588530778885,"61":0.03198628127574921,"62":0.08876360952854156,"63":0.13511627912521362,"64":-0.12430504709482193,"65":-0.12672877311706543,"66":-0.12832951545715332,"67":-0.36304545402526855,"68":0.0265487227588892,"69":0.3979300260543823,"70":0.3724606931209564,"71":0.3327682316303253,"72":0.168131485581398,"73":-0.11491858214139938,"74":0.1899849772453308,"75":-0.2975226938724518,"76":0.08278102427721024}},"9":{"bias":-0.025623399764299393,"weights":{"0":-0.31937313079833984,"1":0.3965878188610077,"2":0.04727281257510185,"3":-0.14979450404644012,"4":0.15250681340694427,"5":0.023606251925230026,"6":-0.19133684039115906,"7":0.06085488572716713,"8":0.162565678358078,"9":-0.12601310014724731,"10":-0.16746971011161804,"11":-0.044530320912599564,"12":-0.1383344978094101,"13":0.09473126381635666,"14":0.09414037317037582,"15":0.5473700165748596,"16":0.1797764003276825,"17":0.21934673190116882,"18":0.17099982500076294,"19":0.26487046480178833,"20":-0.2490273118019104,"21":-0.018741164356470108,"22":-0.052574507892131805,"23":0.07943739742040634,"24":-0.20211070775985718,"25":-0.28374427556991577,"26":0.38761207461357117,"27":0.013233899138867855,"28":-0.10169265419244766,"29":0.04937359318137169,"30":0.127982959151268,"31":0.13060571253299713,"32":0.15877270698547363,"33":-0.5725892782211304,"34":-0.18012045323848724,"35":0.06641475856304169,"36":-0.03759460896253586,"37":0.09566523879766464,"38":0.14861519634723663,"39":0.059565600007772446,"40":-0.20001082122325897,"41":0.29124894738197327,"42":-0.22162342071533203,"43":0.031842172145843506,"44":-0.25478166341781616,"45":-0.07473356276750565,"46":0.1002470999956131,"47":-0.20990394055843353,"48":-0.14737433195114136,"49":-0.29213371872901917,"50":-0.23206989467144012,"51":-0.19544261693954468,"52":-0.1855456829071045,"53":0.06644247472286224,"54":0.1350862681865692,"55":0.03439740836620331,"56":-0.03993650898337364,"57":-0.10952214896678925,"58":-0.0042856233194470406,"59":0.035287708044052124,"60":0.16307447850704193,"61":0.20684579014778137,"62":-0.059225235134363174,"63":-0.09742791205644608,"64":-0.05885901674628258,"65":0.15565964579582214,"66":-0.09195942431688309,"67":0.029073020443320274,"68":-0.12676198780536652,"69":-0.165337473154068,"70":-0.07905029505491257,"71":-0.2627631723880768,"72":0.12583357095718384,"73":-0.23449718952178955,"74":-0.27489173412323,"75":-0.16185173392295837,"76":0.12388904392719269}},"10":{"bias":0.20279130339622498,"weights":{"0":-0.09597458690404892,"1":0.3929656147956848,"2":-0.052534837275743484,"3":-0.1616722196340561,"4":-0.02586674503982067,"5":-0.04797079786658287,"6":-0.31814131140708923,"7":0.016770752146840096,"8":0.2337510585784912,"9":-0.14821188151836395,"10":-0.3592338263988495,"11":-0.18525496125221252,"12":-0.21464431285858154,"13":0.08727502077817917,"14":-0.2755158245563507,"15":0.6076812148094177,"16":-0.04120684042572975,"17":-0.2396923005580902,"18":-0.03567729517817497,"19":-0.05134158954024315,"20":-0.11147505044937134,"21":-0.2556406855583191,"22":0.059840016067028046,"23":-0.2699318528175354,"24":-0.2800911068916321,"25":-0.007844556123018265,"26":0.14647257328033447,"27":0.1273341178894043,"28":-0.1425200253725052,"29":-0.21245047450065613,"30":-0.16571570932865143,"31":0.1241169348359108,"32":-0.006589766126126051,"33":-0.29294681549072266,"34":-0.1974879801273346,"35":-0.12383725494146347,"36":0.053132038563489914,"37":0.03360915184020996,"38":0.015948142856359482,"39":0.016390156000852585,"40":-0.038217220455408096,"41":0.28496554493904114,"42":-0.05340361222624779,"43":-0.20874667167663574,"44":-0.01926504448056221,"45":-0.15873600542545319,"46":0.05969560146331787,"47":-0.05203569680452347,"48":-0.11840678006410599,"49":-0.13318443298339844,"50":-0.01746862381696701,"51":-0.17449098825454712,"52":0.24351449310779572,"53":0.06558828800916672,"54":0.06155998632311821,"55":-0.18504098057746887,"56":-0.2993775010108948,"57":-0.3606564402580261,"58":0.04575579985976219,"59":-0.11419191211462021,"60":-0.2880670130252838,"61":-0.11988473683595657,"62":-0.302651584148407,"63":-0.09623102843761444,"64":0.30562111735343933,"65":0.07861518859863281,"66":0.3014335036277771,"67":0.10347522050142288,"68":-0.015802931040525436,"69":-0.3796522915363312,"70":-0.06321265548467636,"71":-0.22543765604496002,"72":-0.25244367122650146,"73":-0.023084061220288277,"74":-0.2016824185848236,"75":0.14656780660152435,"76":-0.10758485645055771}},"11":{"bias":-0.051195066422224045,"weights":{"0":-0.12096934020519257,"1":-0.7216701507568359,"2":0.31849420070648193,"3":0.1874428689479828,"4":-0.32683733105659485,"5":0.026859913021326065,"6":0.24000318348407745,"7":0.2474353164434433,"8":0.4347015619277954,"9":-0.03461817279458046,"10":-0.3768390417098999,"11":0.2787487208843231,"12":0.06480211019515991,"13":0.1080818846821785,"14":0.24323663115501404,"15":-0.4284169673919678,"16":-0.24203135073184967,"17":-0.26509761810302734,"18":0.03264497220516205,"19":-0.16295897960662842,"20":-0.05131141096353531,"21":0.0614483542740345,"22":-0.19066250324249268,"23":0.08042465895414352,"24":-0.16814418137073517,"25":-0.07612911611795425,"26":0.4106404483318329,"27":0.022112779319286346,"28":-0.16995921730995178,"29":-0.0376727432012558,"30":0.2844957411289215,"31":-0.02116369642317295,"32":0.15854202210903168,"33":0.31806689500808716,"34":0.24841754138469696,"35":0.018042098730802536,"36":0.09273690730333328,"37":-0.012783561833202839,"38":0.27009356021881104,"39":0.16627226769924164,"40":0.08003481477499008,"41":0.41464632749557495,"42":0.005768876057118177,"43":0.06466174125671387,"44":-0.1582631766796112,"45":-0.09783429652452469,"46":-0.11915256828069687,"47":0.06944495439529419,"48":-0.26769497990608215,"49":-0.2554473578929901,"50":-0.24142925441265106,"51":-0.23420390486717224,"52":-0.22480173408985138,"53":0.043259698897600174,"54":-0.2578639090061188,"55":0.04807993024587631,"56":0.17335043847560883,"57":-0.15571998059749603,"58":-0.05869457125663757,"59":-0.07198329269886017,"60":0.13072113692760468,"61":-0.20061375200748444,"62":-0.284471720457077,"63":-0.26284605264663696,"64":-0.06384161114692688,"65":0.028075728565454483,"66":-0.17899902164936066,"67":0.03166702762246132,"68":0.293145090341568,"69":0.3146406412124634,"70":0.22968126833438873,"71":0.1718977391719818,"72":-0.3920074701309204,"73":-0.3758871853351593,"74":0.031117277219891548,"75":-0.20025311410427094,"76":0.1411461979150772}},"12":{"bias":-0.09954243153333664,"weights":{"0":-0.014912191778421402,"1":0.34741970896720886,"2":-0.0008446198189631104,"3":0.11452404409646988,"4":0.18574990332126617,"5":0.32650336623191833,"6":0.1852847784757614,"7":-0.09302204102277756,"8":0.18250855803489685,"9":0.1214510053396225,"10":-0.11534539610147476,"11":0.05492020770907402,"12":0.32387876510620117,"13":-0.17192745208740234,"14":0.15179459750652313,"15":0.08032725006341934,"16":0.2140970081090927,"17":-0.023628922179341316,"18":0.07938407361507416,"19":0.23351801931858063,"20":0.15545396506786346,"21":-0.15029077231884003,"22":0.14804841578006744,"23":0.1396823227405548,"24":0.05078832060098648,"25":0.10676086694002151,"26":0.15194527804851532,"27":0.2553699314594269,"28":0.07283871620893478,"29":-0.06228995323181152,"30":0.18992048501968384,"31":0.14780862629413605,"32":-0.06749381124973297,"33":-0.23003177344799042,"34":-0.04380839318037033,"35":0.006619779393076897,"36":-0.08483844250440598,"37":-0.11570563167333603,"38":-0.07796759903430939,"39":-0.09849875420331955,"40":-0.04573504999279976,"41":0.06927663087844849,"42":0.09337873756885529,"43":-0.04022614657878876,"44":-0.04683893546462059,"45":0.08513772487640381,"46":0.08602429181337357,"47":0.06346432119607925,"48":0.10836795717477798,"49":0.17204558849334717,"50":-0.12108250707387924,"51":-0.15667934715747833,"52":0.007560878060758114,"53":0.03934025391936302,"54":0.04777165502309799,"55":-0.05619192495942116,"56":0.16519464552402496,"57":0.013872462324798107,"58":0.17996178567409515,"59":0.009031648747622967,"60":0.0479518324136734,"61":0.250471830368042,"62":0.2996962368488312,"63":0.05615682154893875,"64":-0.09648649394512177,"65":0.30295059084892273,"66":-0.10905405879020691,"67":0.3651680052280426,"68":0.003116403706371784,"69":-0.1706923395395279,"70":0.0016038637841120362,"71":-0.21936464309692383,"72":0.25632548332214355,"73":0.11674368381500244,"74":0.0671049952507019,"75":-0.10089857131242752,"76":-0.010485819540917873}},"13":{"bias":0.1377851665019989,"weights":{"0":0.05764458328485489,"1":-0.28863969445228577,"2":0.05906371399760246,"3":-0.23799364268779755,"4":0.06485623121261597,"5":0.011542283929884434,"6":-0.2973482310771942,"7":-0.24035806953907013,"8":0.08461079001426697,"9":0.03441132605075836,"10":0.16725651919841766,"11":-0.1895105391740799,"12":-0.18296948075294495,"13":0.05417054519057274,"14":-0.3840237855911255,"15":0.010846244171261787,"16":0.13089899718761444,"17":-0.004599469713866711,"18":-0.008151078596711159,"19":-0.06616216152906418,"20":0.12302941828966141,"21":-0.3035358786582947,"22":0.12671679258346558,"23":-0.022945061326026917,"24":-0.16743157804012299,"25":-0.13760659098625183,"26":0.1353369504213333,"27":-0.17282165586948395,"28":-0.08881562948226929,"29":0.00464682187885046,"30":-0.1508921980857849,"31":0.014302272349596024,"32":-0.059047192335128784,"33":0.40679657459259033,"34":-0.15741802752017975,"35":0.121209055185318,"36":0.03552566468715668,"37":-0.16006435453891754,"38":-0.021580148488283157,"39":0.14623083174228668,"40":-0.009891930967569351,"41":0.19517141580581665,"42":-0.11395814269781113,"43":0.18023237586021423,"44":0.033378079533576965,"45":-0.12249656766653061,"46":0.09722445905208588,"47":-0.004304041154682636,"48":-0.11921650171279907,"49":-0.16275948286056519,"50":-0.04809613525867462,"51":-0.08424112945795059,"52":-0.1932409405708313,"53":-0.33620938658714294,"54":0.12245195358991623,"55":0.14976705610752106,"56":-0.14729638397693634,"57":-0.0398184210062027,"58":-0.17605790495872498,"59":0.17726536095142365,"60":-0.0747881680727005,"61":-0.04820087179541588,"62":-0.007219032850116491,"63":-0.1031535416841507,"64":-0.21439670026302338,"65":0.0601193793118,"66":-0.2855250835418701,"67":-0.16659866273403168,"68":-0.1285153478384018,"69":-0.07767807692289352,"70":-0.24351808428764343,"71":-0.15860000252723694,"72":0.10233843326568604,"73":0.30890703201293945,"74":-0.13785088062286377,"75":-0.17323914170265198,"76":0.11032874882221222}},"14":{"bias":0.021218813955783844,"weights":{"0":-0.014718982391059399,"1":0.03261135146021843,"2":-0.22468172013759613,"3":-0.3188185393810272,"4":0.3142630457878113,"5":-0.14578913152217865,"6":-0.028715046122670174,"7":-0.39453545212745667,"8":0.3432392179965973,"9":-0.1783471554517746,"10":0.17274321615695953,"11":0.3704849183559418,"12":0.30940067768096924,"13":-0.1871294230222702,"14":-0.14432984590530396,"15":-0.20594431459903717,"16":0.013223392888903618,"17":-0.11109208315610886,"18":0.13543060421943665,"19":-0.02111130766570568,"20":0.44055891036987305,"21":-0.0714353621006012,"22":-0.10803627222776413,"23":-0.19307972490787506,"24":0.006976043805480003,"25":0.19946278631687164,"26":0.18208424746990204,"27":-0.3104136884212494,"28":-0.19791226089000702,"29":-0.0888042226433754,"30":-0.2761203646659851,"31":-0.017750496044754982,"32":0.08621733635663986,"33":-0.8522664904594421,"34":-0.11798553168773651,"35":0.06254401057958603,"36":-0.0058703189715743065,"37":-0.14541034400463104,"38":0.3258710503578186,"39":0.07811707258224487,"40":-0.015963250771164894,"41":0.1753002256155014,"42":0.1901112198829651,"43":0.0112595921382308,"44":-0.013834262266755104,"45":0.0850641205906868,"46":0.16213832795619965,"47":-0.12184397876262665,"48":-0.15517878532409668,"49":0.13085265457630157,"50":0.01593092270195484,"51":-0.17338135838508606,"52":0.2425752878189087,"53":0.464286744594574,"54":0.21459871530532837,"55":-0.12032876908779144,"56":-0.0569893978536129,"57":0.012906314805150032,"58":-0.018178656697273254,"59":0.12176595628261566,"60":0.0021766868885606527,"61":0.02090592309832573,"62":0.2075178325176239,"63":-0.0693676695227623,"64":0.2720990478992462,"65":0.22486653923988342,"66":0.35268890857696533,"67":-0.1052669957280159,"68":-0.21087147295475006,"69":-0.3011200428009033,"70":-0.20436672866344452,"71":0.014634441584348679,"72":0.22052131593227386,"73":0.2881460189819336,"74":0.31082481145858765,"75":0.5191601514816284,"76":0.1437876671552658}},"15":{"bias":-0.026191234588623047,"weights":{"0":-0.04341107979416847,"1":-0.08800453692674637,"2":-0.21969398856163025,"3":0.15404458343982697,"4":-0.19061237573623657,"5":-0.33606085181236267,"6":-0.4677343964576721,"7":-0.09378322958946228,"8":0.016323301941156387,"9":0.03411538898944855,"10":-0.2261047512292862,"11":0.19698001444339752,"12":-0.043860677629709244,"13":0.13533127307891846,"14":0.04975912347435951,"15":-0.10574992001056671,"16":0.08814429491758347,"17":-0.12680137157440186,"18":-0.22342339158058167,"19":0.10280628502368927,"20":-0.14041337370872498,"21":-0.12155476957559586,"22":0.02394905686378479,"23":0.21601572632789612,"24":-0.04607067629694939,"25":0.25384798645973206,"26":-0.01109596248716116,"27":0.07876202464103699,"28":-0.034518368542194366,"29":-0.2903365194797516,"30":0.32136812806129456,"31":-0.04272620379924774,"32":-0.08920332044363022,"33":0.7455345392227173,"34":0.20893314480781555,"35":-0.104146808385849,"36":-0.02629408985376358,"37":-0.13577015697956085,"38":-0.19096136093139648,"39":0.08632553368806839,"40":0.23192067444324493,"41":0.19400902092456818,"42":0.09606228768825531,"43":0.26442664861679077,"44":0.0014434397453442216,"45":0.3123619258403778,"46":0.2772950530052185,"47":0.26663970947265625,"48":0.3044331669807434,"49":0.059319060295820236,"50":-0.028690887615084648,"51":-0.045901697129011154,"52":-0.2677737772464752,"53":-0.2616921365261078,"54":0.08654516190290451,"55":-0.041793737560510635,"56":-0.09404697269201279,"57":-0.3805079758167267,"58":-0.2809789776802063,"59":-0.023336682468652725,"60":-0.4209446609020233,"61":0.06623481214046478,"62":-0.19436317682266235,"63":-0.05860433727502823,"64":-0.29225656390190125,"65":-0.2413477897644043,"66":-0.10525879263877869,"67":0.017183594405651093,"68":-0.04286712780594826,"69":-0.24119462072849274,"70":-0.407672256231308,"71":-0.35300740599632263,"72":0.045148856937885284,"73":-0.04834485799074173,"74":-0.2936250567436218,"75":-0.008522453717887402,"76":-0.19302809238433838}},"16":{"bias":0.11522535979747772,"weights":{"0":-0.20129825174808502,"1":-0.37348347902297974,"2":0.3325008749961853,"3":0.05881693214178085,"4":-0.2550410330295563,"5":0.004910335876047611,"6":0.13540951907634735,"7":0.3136959969997406,"8":-0.07190737128257751,"9":0.20393992960453033,"10":0.07473848760128021,"11":0.08914634585380554,"12":-0.1388382911682129,"13":0.06330566853284836,"14":-0.009586526080965996,"15":-0.037708815187215805,"16":-0.09824176877737045,"17":0.06207064166665077,"18":0.188598170876503,"19":0.07555349916219711,"20":-0.2349318116903305,"21":0.17888469994068146,"22":-0.2372789978981018,"23":0.009587227366864681,"24":-0.11328713595867157,"25":-0.1934334933757782,"26":0.07447236776351929,"27":0.04500158503651619,"28":0.012234334833920002,"29":0.07761049270629883,"30":0.08053891360759735,"31":-0.01702750474214554,"32":0.16941547393798828,"33":0.2078566998243332,"34":0.026919370517134666,"35":0.18955786526203156,"36":0.13278792798519135,"37":-0.052372101694345474,"38":0.18939974904060364,"39":-0.132566899061203,"40":0.05770217999815941,"41":0.11738027632236481,"42":-0.24657605588436127,"43":0.02167515829205513,"44":-0.18719971179962158,"45":-0.022936314344406128,"46":-0.13165195286273956,"47":-0.1946619600057602,"48":-0.17203129827976227,"49":-0.09139224141836166,"50":-0.22857798635959625,"51":0.05190296843647957,"52":0.0871940553188324,"53":0.02673073299229145,"54":0.17464245855808258,"55":0.19864310324192047,"56":0.31070348620414734,"57":0.35911858081817627,"58":0.20344693958759308,"59":0.011041766032576561,"60":0.327597439289093,"61":0.026486333459615707,"62":0.09119898825883865,"63":0.197458416223526,"64":-0.26789960265159607,"65":0.09710328280925751,"66":0.027165893465280533,"67":-0.17599625885486603,"68":-0.02282463200390339,"69":0.04810990393161774,"70":0.3533309996128082,"71":0.05382390320301056,"72":-0.18543915450572968,"73":-0.16566306352615356,"74":0.16212107241153717,"75":-0.11248385161161423,"76":0.011425082571804523}},"17":{"bias":-0.03209492936730385,"weights":{"0":0.2923918664455414,"1":-0.246246799826622,"2":0.3650432527065277,"3":0.3127218186855316,"4":-0.4351014494895935,"5":0.10582412034273148,"6":0.2752983868122101,"7":0.22541318833827972,"8":0.18029972910881042,"9":0.11870715022087097,"10":0.24085237085819244,"11":0.17669075727462769,"12":0.4170641601085663,"13":-0.10312303900718689,"14":0.05368848890066147,"15":-0.32893967628479004,"16":-0.12854169309139252,"17":-0.056621190160512924,"18":0.05098474398255348,"19":-0.10017390549182892,"20":-0.262914776802063,"21":0.19257934391498566,"22":0.1260715126991272,"23":0.17888599634170532,"24":-0.12537281215190887,"25":0.2214757651090622,"26":0.19745920598506927,"27":-0.042027488350868225,"28":0.13520990312099457,"29":-0.1937917172908783,"30":0.08045335114002228,"31":-0.06776569783687592,"32":-0.033840686082839966,"33":-0.15170398354530334,"34":0.31608447432518005,"35":0.013857325538992882,"36":0.008443974889814854,"37":-0.019592691212892532,"38":-0.1981847733259201,"39":0.0522904209792614,"40":0.1655389815568924,"41":0.17447930574417114,"42":0.058755841106176376,"43":-0.0440228208899498,"44":0.12959788739681244,"45":0.118728406727314,"46":-0.07980713248252869,"47":0.07323922216892242,"48":0.14549404382705688,"49":-0.0757734626531601,"50":-0.03260387107729912,"51":0.09647323191165924,"52":0.046621449291706085,"53":-0.34703537821769714,"54":-0.23843683302402496,"55":-0.062270451337099075,"56":-0.012561163865029812,"57":0.07056410610675812,"58":-0.08245344460010529,"59":0.10096630454063416,"60":0.02003246732056141,"61":-0.04183286428451538,"62":-0.2163517326116562,"63":0.018382089212536812,"64":-0.3431203365325928,"65":-0.11995577812194824,"66":-0.2495356947183609,"67":-0.018898598849773407,"68":0.43465617299079895,"69":0.20328916609287262,"70":0.19626830518245697,"71":0.10933849215507507,"72":-0.08671963959932327,"73":-0.24509167671203613,"74":-0.18850557506084442,"75":-0.17990723252296448,"76":0.06949352473020554}},"18":{"bias":-0.23781263828277588,"weights":{"0":-0.2922826111316681,"1":-0.18207259476184845,"2":-0.12358678877353668,"3":0.02720700576901436,"4":0.1630798876285553,"5":0.12535086274147034,"6":-0.058086492121219635,"7":0.05301111564040184,"8":0.002710543340072036,"9":-0.03916127607226372,"10":-0.11109885573387146,"11":0.32313257455825806,"12":-0.0346413180232048,"13":-0.12077604234218597,"14":0.2674599289894104,"15":-0.024652663618326187,"16":0.04397159069776535,"17":-0.0906183049082756,"18":0.28403517603874207,"19":0.09641144424676895,"20":-0.04373607039451599,"21":-0.23946945369243622,"22":0.10301216691732407,"23":-0.0646899864077568,"24":0.17452868819236755,"25":0.18348358571529388,"26":-0.08856797218322754,"27":0.15488529205322266,"28":0.10778739303350449,"29":0.08806168287992477,"30":0.21130618453025818,"31":0.03495465964078903,"32":0.14747467637062073,"33":0.3653586804866791,"34":0.20864230394363403,"35":-0.0191677026450634,"36":0.032917752861976624,"37":0.016413614153862,"38":0.24165642261505127,"39":-0.06211519241333008,"40":0.3187423646450043,"41":-0.13348938524723053,"42":0.04783731326460838,"43":0.15090690553188324,"44":0.006708979140967131,"45":-0.01726110652089119,"46":-0.019428661093115807,"47":0.11947301775217056,"48":0.14251740276813507,"49":0.12668229639530182,"50":0.022245382890105247,"51":0.023668983951210976,"52":0.005853865761309862,"53":0.018262388184666634,"54":-0.08052968978881836,"55":-0.08655387163162231,"56":-0.09942012280225754,"57":0.15728837251663208,"58":0.15635521709918976,"59":0.16726043820381165,"60":0.1392686367034912,"61":0.21034276485443115,"62":0.2081197053194046,"63":-0.025067994371056557,"64":-0.22500218451023102,"65":0.28112906217575073,"66":-0.14056771993637085,"67":0.1887449026107788,"68":0.1848279982805252,"69":-0.17317302525043488,"70":0.15977604687213898,"71":0.1543923020362854,"72":-0.024092622101306915,"73":-0.08552640676498413,"74":0.12256806343793869,"75":-0.20981119573116302,"76":-0.1855374425649643}},"19":{"bias":0.07953038066625595,"weights":{"0":-0.08969323337078094,"1":-0.3551071286201477,"2":-0.06493541598320007,"3":-0.03886287659406662,"4":0.07287902384996414,"5":-0.1562485694885254,"6":-0.3064441382884979,"7":0.029906755313277245,"8":0.2215297520160675,"9":-0.033850427716970444,"10":-0.17483659088611603,"11":-0.020005913451313972,"12":0.23244017362594604,"13":-0.19438783824443817,"14":-0.2188538759946823,"15":-0.008593742735683918,"16":0.04525306075811386,"17":-0.06106869876384735,"18":-0.040122345089912415,"19":-0.09856076538562775,"20":0.19674162566661835,"21":-0.0075038583017885685,"22":0.08582457900047302,"23":-0.014930625446140766,"24":-0.2630060315132141,"25":-0.11978732794523239,"26":0.11121910065412521,"27":0.17701195180416107,"28":0.04016267880797386,"29":-0.2879323363304138,"30":-0.0691738873720169,"31":0.1521923840045929,"32":0.13440929353237152,"33":0.6488282084465027,"34":-0.10177022963762283,"35":0.009961665607988834,"36":0.00016489342669956386,"37":-0.07407940179109573,"38":0.22708405554294586,"39":-0.12336818128824234,"40":0.1991756558418274,"41":0.3873955309391022,"42":-0.05097391828894615,"43":-0.16639934480190277,"44":-0.02721109427511692,"45":-0.010322500951588154,"46":-0.004737925715744495,"47":0.0130362119525671,"48":-0.10165002197027206,"49":-0.23320017755031586,"50":-0.0636347159743309,"51":-0.13435229659080505,"52":0.18348419666290283,"53":0.08474398404359818,"54":-0.03569290414452553,"55":-0.22284269332885742,"56":-0.03499189019203186,"57":-0.3293769061565399,"58":-0.28418049216270447,"59":0.09205344319343567,"60":-0.3273695707321167,"61":0.06572888791561127,"62":0.028299136087298393,"63":-0.07962211966514587,"64":0.17673847079277039,"65":-0.1435602903366089,"66":-0.025913244113326073,"67":0.1680527627468109,"68":-0.11089521646499634,"69":-0.40492990612983704,"70":-0.20234519243240356,"71":-0.43078476190567017,"72":-0.22669193148612976,"73":-0.012969356030225754,"74":-0.36673301458358765,"75":0.15150773525238037,"76":-0.19354164600372314}},"20":{"bias":-0.1809883415699005,"weights":{"0":0.2155175656080246,"1":-0.037947073578834534,"2":-0.237153097987175,"3":0.10672071576118469,"4":0.049628645181655884,"5":-0.18653066456317902,"6":-0.02624996192753315,"7":-0.2512478828430176,"8":0.04965208098292351,"9":-0.1907760500907898,"10":0.2884603440761566,"11":0.24019497632980347,"12":0.3743828535079956,"13":0.19506196677684784,"14":-0.05315112695097923,"15":0.024800781160593033,"16":-0.14489378035068512,"17":0.04074703902006149,"18":-0.2219294160604477,"19":0.11687421053647995,"20":0.2237968146800995,"21":-0.1949668973684311,"22":0.16190041601657867,"23":-0.03723607584834099,"24":0.16458554565906525,"25":-0.10185996443033218,"26":-0.05523646995425224,"27":0.12000145018100739,"28":0.13523192703723907,"29":0.0089346868917346,"30":-0.1743939071893692,"31":-0.044095855206251144,"32":-0.08085741847753525,"33":-0.47667235136032104,"34":-0.05792185291647911,"35":0.003426340874284506,"36":0.08675013482570648,"37":-0.06392162293195724,"38":-0.06712640076875687,"39":0.05465802177786827,"40":-0.15058830380439758,"41":-0.01099932286888361,"42":0.1666865050792694,"43":0.16683053970336914,"44":0.14773564040660858,"45":0.05172574147582054,"46":-0.09810285270214081,"47":0.16911084949970245,"48":0.27316123247146606,"49":0.11721762269735336,"50":0.1609688103199005,"51":0.12432858347892761,"52":0.20982643961906433,"53":0.3260765075683594,"54":0.07832825928926468,"55":-0.20727677643299103,"56":-0.05324091762304306,"57":-0.34686872363090515,"58":-0.007937080226838589,"59":0.16392570734024048,"60":-0.08896088600158691,"61":-0.14346759021282196,"62":-0.06718263030052185,"63":0.05426356941461563,"64":0.12817177176475525,"65":-0.1964457780122757,"66":0.3633406162261963,"67":0.16123676300048828,"68":0.1484551876783371,"69":0.17775043845176697,"70":0.1356997936964035,"71":0.11054717004299164,"72":0.01132900919765234,"73":0.18952572345733643,"74":0.1887976974248886,"75":0.10227791219949722,"76":0.1422814130783081}},"21":{"bias":0.041465874761343,"weights":{"0":0.2164357602596283,"1":0.07831156253814697,"2":0.37462157011032104,"3":0.0042045461013913155,"4":-0.2970060110092163,"5":-0.1775117814540863,"6":-0.181390181183815,"7":0.02616840973496437,"8":0.10550262033939362,"9":0.2799259126186371,"10":-0.021506357938051224,"11":-0.09131317585706711,"12":0.04258933290839195,"13":-0.16126932203769684,"14":0.0007570873713120818,"15":0.040700048208236694,"16":0.017101038247346878,"17":-0.22053533792495728,"18":-0.17623071372509003,"19":0.004299488849937916,"20":-0.37943339347839355,"21":0.343517541885376,"22":0.0212569423019886,"23":0.038984496146440506,"24":0.18854455649852753,"25":-0.03064093552529812,"26":0.18819770216941833,"27":-0.17672595381736755,"28":-0.16928429901599884,"29":-0.2014864683151245,"30":-0.2316344678401947,"31":0.020260510966181755,"32":-0.14929811656475067,"33":0.046624910086393356,"34":-0.07240775972604752,"35":0.0015163554344326258,"36":-0.040999289602041245,"37":0.15329375863075256,"38":-0.190959170460701,"39":-0.04521634429693222,"40":0.02261778898537159,"41":0.01516228262335062,"42":0.13212940096855164,"43":0.13025623559951782,"44":0.11956848949193954,"45":0.00582040986046195,"46":0.23922832310199738,"47":0.11544743925333023,"48":0.08566650748252869,"49":-0.11944044381380081,"50":0.2475252002477646,"51":0.008868162520229816,"52":-0.12021064758300781,"53":-0.25362032651901245,"54":-0.22539088129997253,"55":-0.171835795044899,"56":-0.029240358620882034,"57":0.330199658870697,"58":0.011758417822420597,"59":0.16895245015621185,"60":0.28164857625961304,"61":0.005080781411379576,"62":-0.27610450983047485,"63":0.026925887912511826,"64":-0.27704739570617676,"65":-0.17051465809345245,"66":-0.2910172641277313,"67":-0.3901931643486023,"68":-0.4150610566139221,"69":0.11555320024490356,"70":-0.13915413618087769,"71":0.05700234696269035,"72":-0.15274646878242493,"73":-0.1767299920320511,"74":-0.12882187962532043,"75":-0.007168418262153864,"76":0.1971963793039322}},"22":{"bias":-0.19515196979045868,"weights":{"0":0.4561315178871155,"1":0.366948664188385,"2":0.229979008436203,"3":-0.017694376409053802,"4":0.36238452792167664,"5":0.25931501388549805,"6":-0.3256493806838989,"7":-0.19801068305969238,"8":0.1028154119849205,"9":0.007272760383784771,"10":0.3884204626083374,"11":-0.11422183364629745,"12":0.43895235657691956,"13":-0.10391546785831451,"14":-0.00034105649683624506,"15":0.02524443343281746,"16":-0.12612809240818024,"17":0.1825806051492691,"18":0.1529041826725006,"19":-0.04493289813399315,"20":0.08451199531555176,"21":0.24953819811344147,"22":-0.2641671597957611,"23":-0.2820938527584076,"24":-0.2433428168296814,"25":-0.05575057491660118,"26":0.01510110218077898,"27":-0.054581109434366226,"28":-0.14673037827014923,"29":0.12520332634449005,"30":-0.27217593789100647,"31":-0.03169810399413109,"32":0.08474792540073395,"33":-0.7105448246002197,"34":-0.34733402729034424,"35":-0.04201805591583252,"36":0.0170258991420269,"37":0.16717490553855896,"38":0.34517380595207214,"39":-0.11611183732748032,"40":-0.24212895333766937,"41":0.044158801436424255,"42":-0.28448325395584106,"43":0.009835874661803246,"44":-0.17933745682239532,"45":0.0458325557410717,"46":-0.08562325686216354,"47":-0.206110417842865,"48":-0.29678910970687866,"49":-0.06936851888895035,"50":-0.10035832971334457,"51":-0.3117377758026123,"52":-0.10969926416873932,"53":0.20989063382148743,"54":-0.13412193953990936,"55":0.13141338527202606,"56":0.28871673345565796,"57":0.14526459574699402,"58":-0.028695441782474518,"59":-0.17369578778743744,"60":0.03874832019209862,"61":0.23545031249523163,"62":0.0601065531373024,"63":0.11200636625289917,"64":0.07877062261104584,"65":0.1357659250497818,"66":-0.030809558928012848,"67":0.02422155812382698,"68":0.07222157716751099,"69":-0.3842932879924774,"70":-0.007354609668254852,"71":-0.24709811806678772,"72":0.10087108612060547,"73":0.10982771962881088,"74":0.14378409087657928,"75":-0.014364986680448055,"76":0.11061745136976242}},"23":{"bias":0.20416966080665588,"weights":{"0":-0.3731433153152466,"1":-0.15427279472351074,"2":-0.03487156331539154,"3":-0.026494503021240234,"4":-0.37713757157325745,"5":-0.536657989025116,"6":0.2918861508369446,"7":0.020718064159154892,"8":0.04856984689831734,"9":-0.2601654827594757,"10":-0.17374451458454132,"11":-0.06941274553537369,"12":-0.17685730755329132,"13":-0.1700127273797989,"14":-0.18684089183807373,"15":0.19190765917301178,"16":-0.1528303474187851,"17":-0.10739105939865112,"18":0.06522321701049805,"19":-0.03632292523980141,"20":-0.117715984582901,"21":-0.20021504163742065,"22":0.027921801432967186,"23":0.023013869300484657,"24":-0.08327062427997589,"25":0.014116774313151836,"26":-0.08911708742380142,"27":-0.1480453461408615,"28":0.036150675266981125,"29":0.006230414845049381,"30":-0.07280164957046509,"31":0.027852408587932587,"32":-0.02975746989250183,"33":-0.4131796658039093,"34":0.03683606535196304,"35":0.1339043825864792,"36":0.05767921730875969,"37":0.13385123014450073,"38":-0.09975752234458923,"39":-0.013785620220005512,"40":-0.19843687117099762,"41":0.21604305505752563,"42":0.1230163425207138,"43":0.07748571038246155,"44":0.02478393167257309,"45":0.22685523331165314,"46":-0.07854727655649185,"47":0.12957972288131714,"48":0.12271010875701904,"49":-0.11052996665239334,"50":-0.09473337233066559,"51":0.14175577461719513,"52":0.3674723207950592,"53":0.11770807206630707,"54":0.04748242348432541,"55":-0.18012051284313202,"56":0.003440210595726967,"57":-0.15471023321151733,"58":0.08648942410945892,"59":0.07191357761621475,"60":0.0648401603102684,"61":-0.17337629199028015,"62":-0.013457459397614002,"63":-0.15221215784549713,"64":0.28617000579833984,"65":-0.22406068444252014,"66":0.42516350746154785,"67":-0.465160995721817,"68":-0.21119514107704163,"69":0.06714123487472534,"70":0.39260604977607727,"71":0.36016055941581726,"72":0.12049376219511032,"73":-0.2399231642484665,"74":-0.029477501288056374,"75":0.4220174551010132,"76":0.1440247744321823}},"24":{"bias":-0.1558544635772705,"weights":{"0":0.04824482277035713,"1":-0.7640746235847473,"2":0.05621076002717018,"3":0.1982705444097519,"4":-0.07522094994783401,"5":0.02353631891310215,"6":-0.18965862691402435,"7":0.2672260105609894,"8":-0.04716328904032707,"9":-0.19395598769187927,"10":0.0008290719706565142,"11":0.3488944172859192,"12":0.13933788239955902,"13":-0.05379059910774231,"14":0.23893986642360687,"15":-0.5693398118019104,"16":0.0048563419841229916,"17":0.11807053536176682,"18":0.2833932638168335,"19":-0.07877835631370544,"20":-0.28291165828704834,"21":0.012993399053812027,"22":0.04061182960867882,"23":0.27761849761009216,"24":0.2744333744049072,"25":0.2732774019241333,"26":0.03511197492480278,"27":0.10358419269323349,"28":-0.01695595122873783,"29":0.24945537745952606,"30":0.004574702121317387,"31":-0.19029952585697174,"32":-0.07496640831232071,"33":0.3886927366256714,"34":0.15017935633659363,"35":-0.13312533497810364,"36":0.10277435928583145,"37":0.0001033028747770004,"38":0.036530256271362305,"39":0.007454088423401117,"40":0.03630378097295761,"41":0.0016988462302833796,"42":-0.018446503207087517,"43":0.03468858450651169,"44":-0.0813477635383606,"45":0.2869704067707062,"46":0.1443181335926056,"47":0.19416029751300812,"48":0.21198955178260803,"49":0.08129899948835373,"50":0.04941903054714203,"51":0.1582389771938324,"52":0.5102516412734985,"53":0.5217109322547913,"54":-0.032026562839746475,"55":0.2587297260761261,"56":-0.021642738953232765,"57":-0.08548940718173981,"58":0.21852710843086243,"59":0.07225672900676727,"60":0.24239656329154968,"61":-0.005022927187383175,"62":0.20929071307182312,"63":0.10669953376054764,"64":0.3960888683795929,"65":-0.05533778294920921,"66":0.3915714919567108,"67":0.16473501920700073,"68":-0.029296614229679108,"69":0.03386712074279785,"70":-0.2920442819595337,"71":-0.13912872970104218,"72":0.37503504753112793,"73":-0.17502859234809875,"74":-0.19036084413528442,"75":0.2925134599208832,"76":0.0663207396864891}},"25":{"bias":-0.3583313524723053,"weights":{"0":-0.2595280706882477,"1":0.13662895560264587,"2":-0.2880435287952423,"3":0.24737776815891266,"4":-0.017197512090206146,"5":-0.0982641726732254,"6":-0.02084384672343731,"7":-0.24222080409526825,"8":0.46589890122413635,"9":-0.09125300496816635,"10":-0.03888005018234253,"11":0.7109639048576355,"12":0.2990323305130005,"13":0.15133169293403625,"14":-0.22272147238254547,"15":0.3117828369140625,"16":0.19041292369365692,"17":0.27324551343917847,"18":0.2887572646141052,"19":0.27721649408340454,"20":0.09070345014333725,"21":-0.0894029513001442,"22":-0.0937749594449997,"23":0.2131483554840088,"24":0.11314396560192108,"25":0.19813157618045807,"26":0.3800438344478607,"27":0.23079925775527954,"28":0.15218904614448547,"29":0.21664181351661682,"30":-0.08288450539112091,"31":-0.17360177636146545,"32":0.04663766175508499,"33":-0.4291478991508484,"34":0.1965693086385727,"35":-0.023500017821788788,"36":0.05938573181629181,"37":0.08841554820537567,"38":0.4728780686855316,"39":-0.06553013622760773,"40":0.18300184607505798,"41":0.3925614356994629,"42":0.1029227152466774,"43":0.19683723151683807,"44":0.03954535722732544,"45":0.20361606776714325,"46":-0.07185424119234085,"47":-0.03863602876663208,"48":0.1800786256790161,"49":-0.06894921511411667,"50":0.2778734862804413,"51":0.20405110716819763,"52":-0.3478808104991913,"53":-0.13635212182998657,"54":0.10079624503850937,"55":-0.00589762581512332,"56":-0.2657398283481598,"57":-0.16956934332847595,"58":0.08478477597236633,"59":0.04759915545582771,"60":-0.05486445873975754,"61":0.27367347478866577,"62":0.1771358996629715,"63":0.05526683107018471,"64":-0.4158019721508026,"65":0.3039122223854065,"66":-0.24430134892463684,"67":0.1450883001089096,"68":0.2211621105670929,"69":-0.028413956984877586,"70":0.07031109929084778,"71":-0.06536410748958588,"72":0.12457584589719772,"73":0.15583497285842896,"74":-0.017375269904732704,"75":-0.3892836272716522,"76":0.18489187955856323}},"26":{"bias":-0.1341610997915268,"weights":{"0":-0.0300071369856596,"1":0.16829048097133636,"2":0.11418911814689636,"3":-0.15951529145240784,"4":-0.20256999135017395,"5":-0.07790014147758484,"6":0.2980468273162842,"7":-0.15131601691246033,"8":-0.33662232756614685,"9":-0.14438514411449432,"10":0.0201506856828928,"11":-0.2563326060771942,"12":-0.4803543984889984,"13":0.13453444838523865,"14":-0.18459953367710114,"15":0.4398616552352905,"16":-0.023139558732509613,"17":0.21279117465019226,"18":0.025070946663618088,"19":0.16835924983024597,"20":-0.26495376229286194,"21":-0.18889303505420685,"22":0.20417605340480804,"23":0.246333509683609,"24":0.1104736402630806,"25":0.16640309989452362,"26":-0.4200015068054199,"27":0.1212802305817604,"28":-0.09430481493473053,"29":0.13148052990436554,"30":-0.02171977609395981,"31":-0.05053265765309334,"32":0.013654389418661594,"33":-0.1720351278781891,"34":-0.09607751667499542,"35":0.10502935200929642,"36":0.14927561581134796,"37":0.01858389750123024,"38":-0.20816290378570557,"39":0.09813573211431503,"40":-0.04770591855049133,"41":-0.08245865255594254,"42":0.1518910974264145,"43":0.06231827288866043,"44":0.17590108513832092,"45":0.2576683759689331,"46":-0.01122425589710474,"47":0.11978521198034286,"48":0.15019282698631287,"49":0.2447517216205597,"50":0.008978741243481636,"51":0.056373026221990585,"52":-0.19776634871959686,"53":-0.3815537095069885,"54":0.16505566239356995,"55":0.1199997067451477,"56":0.14745162427425385,"57":0.08932295441627502,"58":0.23385053873062134,"59":-0.13093999028205872,"60":0.23364117741584778,"61":0.23702484369277954,"62":-0.0782051533460617,"63":0.06100061535835266,"64":-0.12850166857242584,"65":0.11789127439260483,"66":-0.31373023986816406,"67":-0.3454018235206604,"68":0.11316689848899841,"69":0.5045737624168396,"70":0.4401343762874603,"71":0.44483470916748047,"72":0.1235751062631607,"73":0.0015060557052493095,"74":0.21465209126472473,"75":-0.35989025235176086,"76":-0.16845019161701202}},"27":{"bias":0.1670716255903244,"weights":{"0":-0.14556977152824402,"1":0.07832341641187668,"2":0.08936416357755661,"3":-0.27639999985694885,"4":-0.18333402276039124,"5":-0.030388642102479935,"6":0.2281215637922287,"7":0.12431734800338745,"8":-0.20676858723163605,"9":0.05035104602575302,"10":0.044259246438741684,"11":-0.23414094746112823,"12":-0.17733795940876007,"13":-0.06103143095970154,"14":-0.0364978089928627,"15":0.15686781704425812,"16":0.12927614152431488,"17":0.08224396407604218,"18":0.020117031410336494,"19":-0.08411134034395218,"20":-0.2623733580112457,"21":0.21683244407176971,"22":-0.10893445461988449,"23":-0.24779587984085083,"24":-0.1278601586818695,"25":0.019287817180156708,"26":0.31833547353744507,"27":-0.1896209418773651,"28":-0.19888831675052643,"29":0.11476867645978928,"30":-0.1605762541294098,"31":0.08938957750797272,"32":-0.0011116592213511467,"33":0.21837511658668518,"34":-0.24684837460517883,"35":0.11529117822647095,"36":0.08183194696903229,"37":-0.18194977939128876,"38":0.3480086624622345,"39":-0.14397989213466644,"40":-0.2875273823738098,"41":0.16858424246311188,"42":-0.09298107028007507,"43":-0.22293581068515778,"44":-0.00867451075464487,"45":-0.056458476930856705,"46":-0.20830975472927094,"47":-0.012247215956449509,"48":0.04423142969608307,"49":-0.22133301198482513,"50":-0.18077099323272705,"51":-0.2473958134651184,"52":-0.12892070412635803,"53":-0.45450258255004883,"54":-0.1298309564590454,"55":-0.055404748767614365,"56":0.06684693694114685,"57":0.22725145518779755,"58":0.0936465859413147,"59":-0.1411333978176117,"60":0.15626542270183563,"61":0.10862459242343903,"62":0.19053766131401062,"63":-0.10569221526384354,"64":-0.05965403467416763,"65":0.20957373082637787,"66":-0.1619042456150055,"67":-0.3810754716396332,"68":-0.2663652300834656,"69":-0.07807022333145142,"70":-0.14916878938674927,"71":0.006470224354416132,"72":0.0003122383204754442,"73":-0.10651498287916183,"74":0.06510679423809052,"75":-0.3716335892677307,"76":-0.02641555666923523}},"28":{"bias":0.03897443041205406,"weights":{"0":-0.4823888838291168,"1":0.09731439501047134,"2":-0.17218929529190063,"3":-0.2192830592393875,"4":0.14049004018306732,"5":-0.2340312898159027,"6":0.17430351674556732,"7":-0.42607322335243225,"8":-0.015200275927782059,"9":-0.22734373807907104,"10":-0.29263344407081604,"11":-0.07256435602903366,"12":-0.569321870803833,"13":0.10067084431648254,"14":-0.05162882059812546,"15":0.487405389547348,"16":-0.03188204765319824,"17":0.19654551148414612,"18":-0.05358691141009331,"19":0.2676921784877777,"20":0.019319280982017517,"21":-0.3347261846065521,"22":0.10380052775144577,"23":0.017217937856912613,"24":-0.18750376999378204,"25":0.0036111976951360703,"26":0.02674959972500801,"27":0.02687985636293888,"28":0.1726309210062027,"29":0.08265968412160873,"30":0.04166649281978607,"31":0.1509886384010315,"32":-0.129835307598114,"33":-0.173097163438797,"34":-0.27018994092941284,"35":-0.17086590826511383,"36":-0.14660361409187317,"37":-0.1915481984615326,"38":0.2931496798992157,"39":0.12644697725772858,"40":-0.21301402151584625,"41":-0.19652065634727478,"42":0.10551995784044266,"43":-0.08361107110977173,"44":0.05063888430595398,"45":-0.13096369802951813,"46":0.03301357850432396,"47":0.016790157184004784,"48":-0.17628933489322662,"49":-0.17946983873844147,"50":-0.27909255027770996,"51":-0.13361109793186188,"52":0.04105424880981445,"53":0.24617604911327362,"54":0.03768264129757881,"55":0.06597661972045898,"56":0.11574558913707733,"57":0.0375477634370327,"58":0.18214507400989532,"59":0.04761827364563942,"60":-0.08903613686561584,"61":0.27343714237213135,"62":0.19189511239528656,"63":0.26783713698387146,"64":0.1047266274690628,"65":0.2574533224105835,"66":0.3420734107494354,"67":-0.20750375092029572,"68":-0.33568793535232544,"69":-0.1388811618089676,"70":0.03259928897023201,"71":-0.27525535225868225,"72":0.23795755207538605,"73":-0.0953722894191742,"74":-0.10008946061134338,"75":0.37101393938064575,"76":0.18196436762809753}},"29":{"bias":0.2795010209083557,"weights":{"0":-0.25631117820739746,"1":-0.0837516263127327,"2":-0.22713766992092133,"3":-0.07041957974433899,"4":-0.313913494348526,"5":-0.40236926078796387,"6":0.3953629732131958,"7":-0.28843259811401367,"8":-0.37366870045661926,"9":-0.002798726549372077,"10":-0.08746103942394257,"11":-0.0658864825963974,"12":-0.6114261746406555,"13":0.14755353331565857,"14":-0.18348164856433868,"15":0.2786407470703125,"16":0.20572355389595032,"17":-0.09740512073040009,"18":-0.09864728897809982,"19":0.08731754124164581,"20":-0.15901626646518707,"21":-0.23181049525737762,"22":0.1761590838432312,"23":0.22641609609127045,"24":0.2684865891933441,"25":0.2888679802417755,"26":-0.3065306842327118,"27":-0.02880680561065674,"28":-0.10174247622489929,"29":0.006544610019773245,"30":-0.14782044291496277,"31":0.1232471838593483,"32":-0.024637514725327492,"33":0.05699675530195236,"34":-0.198699489235878,"35":-0.18964149057865143,"36":-0.14339280128479004,"37":-0.05183060094714165,"38":-0.028290772810578346,"39":-0.16877779364585876,"40":-0.17590783536434174,"41":-0.189125657081604,"42":0.27189522981643677,"43":0.26791080832481384,"44":0.2777441442012787,"45":0.25129392743110657,"46":0.10635087639093399,"47":-0.04842928797006607,"48":0.048722006380558014,"49":0.18245498836040497,"50":0.2095445692539215,"51":0.1780177354812622,"52":0.4160575270652771,"53":0.2535627782344818,"54":0.2315405160188675,"55":0.10932017117738724,"56":-0.15035799145698547,"57":-0.17981867492198944,"58":0.03909219056367874,"59":-0.17266543209552765,"60":-0.23194237053394318,"61":0.024309882894158363,"62":0.06309538334608078,"63":0.12150508165359497,"64":0.3023213744163513,"65":-0.11284072697162628,"66":0.11595070362091064,"67":-0.3635881841182709,"68":-0.21661610901355743,"69":0.20239748060703278,"70":0.08670936524868011,"71":0.42507386207580566,"72":0.2082882970571518,"73":-0.31576427817344666,"74":-0.011339569464325905,"75":0.13388140499591827,"76":0.14677785336971283}},"30":{"bias":-0.2373434156179428,"weights":{"0":0.3068617880344391,"1":0.5089226961135864,"2":-0.34842467308044434,"3":-0.06853280961513519,"4":0.16883471608161926,"5":-0.051015183329582214,"6":0.19255755841732025,"7":-0.4752443730831146,"8":-0.30384787917137146,"9":-0.3745390474796295,"10":0.1405874639749527,"11":-0.3618752956390381,"12":0.06716855615377426,"13":-0.170701801776886,"14":-0.5564873814582825,"15":0.42445793747901917,"16":0.09793134033679962,"17":-0.08396956324577332,"18":0.13279466331005096,"19":-0.09643048048019409,"20":0.3659365773200989,"21":-0.09779491275548935,"22":-0.07255981862545013,"23":0.18683113157749176,"24":0.12394606322050095,"25":0.24440507590770721,"26":-0.1720476895570755,"27":-0.2568342983722687,"28":0.12815159559249878,"29":-0.14211918413639069,"30":0.010582669638097286,"31":0.033914390951395035,"32":0.19687893986701965,"33":-0.6955451369285583,"34":-0.22700326144695282,"35":-0.05050234496593475,"36":-0.028872275725007057,"37":0.05314081162214279,"38":-0.2652837336063385,"39":0.06362438201904297,"40":-0.3416741192340851,"41":0.0885300487279892,"42":-0.13615812361240387,"43":-0.08804699778556824,"44":-0.14191938936710358,"45":0.1837540864944458,"46":0.2247685343027115,"47":0.0261343102902174,"48":-0.04200999438762665,"49":0.0566658116877079,"50":0.09245927631855011,"51":0.19355350732803345,"52":-0.37507668137550354,"53":-0.3131631314754486,"54":0.12803436815738678,"55":-0.04456470534205437,"56":-0.19842493534088135,"57":-0.3804098665714264,"58":0.11822353303432465,"59":0.13777422904968262,"60":-0.07149975746870041,"61":-0.20069395005702972,"62":0.06902097910642624,"63":-0.11328090727329254,"64":-0.3521405756473541,"65":-0.00564398430287838,"66":-0.21541112661361694,"67":0.3120526969432831,"68":0.3231581747531891,"69":0.30822184681892395,"70":0.41678574681282043,"71":0.3900594413280487,"72":0.03425253555178642,"73":0.3262251913547516,"74":0.6062043905258179,"75":-0.3641166687011719,"76":-0.1934036910533905}},"31":{"bias":-0.08860649913549423,"weights":{"0":0.0062306723557412624,"1":-0.790395200252533,"2":-0.1612018197774887,"3":0.3296436071395874,"4":0.16508749127388,"5":0.21075037121772766,"6":0.11855016648769379,"7":0.14380556344985962,"8":0.1476839929819107,"9":-0.1551971733570099,"10":-0.06648293137550354,"11":-0.05670574679970741,"12":-0.21956466138362885,"13":-0.08366049826145172,"14":0.20866674184799194,"15":-0.5526559352874756,"16":0.26549530029296875,"17":0.3026427626609802,"18":0.2779349386692047,"19":0.17344453930854797,"20":-0.13067130744457245,"21":-0.2199927419424057,"22":-0.23191289603710175,"23":-0.00832231156527996,"24":-0.09336312860250473,"25":0.09292978048324585,"26":-0.3850654661655426,"27":0.36919933557510376,"28":0.01919352449476719,"29":-0.0016369635704904795,"30":0.03130248561501503,"31":-0.15615639090538025,"32":0.05583885684609413,"33":0.5252151489257812,"34":0.28803423047065735,"35":-0.0044372049160301685,"36":0.18674622476100922,"37":0.008022311143577099,"38":0.0576130636036396,"39":-0.11560586094856262,"40":0.34151318669319153,"41":-0.3774805963039398,"42":-0.10790782421827316,"43":-0.22901350259780884,"44":0.01916482485830784,"45":0.04055968299508095,"46":-0.1989588439464569,"47":-0.24983203411102295,"48":-0.2748293876647949,"49":0.08954022079706192,"50":-0.25065141916275024,"51":-0.17802944779396057,"52":0.3221874535083771,"53":0.44274449348449707,"54":-0.0709386020898819,"55":0.061927761882543564,"56":0.14214636385440826,"57":0.03154245391488075,"58":0.30738502740859985,"59":-0.05143528804183006,"60":0.1514769196510315,"61":0.1007523387670517,"62":0.13197381794452667,"63":0.010984390042722225,"64":0.10237003862857819,"65":0.1675160527229309,"66":0.3355169892311096,"67":0.12808246910572052,"68":0.2624651789665222,"69":-0.12924276292324066,"70":-0.049175724387168884,"71":0.05941787362098694,"72":0.06377553939819336,"73":0.1723414957523346,"74":-0.10453692078590393,"75":0.2512666881084442,"76":-0.06151141971349716}},"32":{"bias":0.055834755301475525,"weights":{"0":0.3396284580230713,"1":0.553629994392395,"2":0.10219837725162506,"3":-0.019902948290109634,"4":-0.005259509664028883,"5":0.05142546072602272,"6":-0.12054135650396347,"7":0.10395517200231552,"8":-0.5539754629135132,"9":0.03751499950885773,"10":0.37679433822631836,"11":-0.4549033045768738,"12":0.06709951907396317,"13":-0.07915521413087845,"14":-0.03518077731132507,"15":0.29917100071907043,"16":-0.24950528144836426,"17":-0.2719591557979584,"18":-0.081724613904953,"19":-0.0025799397844821215,"20":0.28529542684555054,"21":-0.17905192077159882,"22":0.20975932478904724,"23":0.27883538603782654,"24":-0.007388562895357609,"25":-0.040694959461688995,"26":-0.4724453091621399,"27":-0.07974991947412491,"28":-0.039772938936948776,"29":-0.03094460628926754,"30":0.13122567534446716,"31":-0.047273874282836914,"32":0.029197271913290024,"33":0.1497652679681778,"34":0.025996722280979156,"35":0.13085338473320007,"36":0.08398523181676865,"37":0.07226575911045074,"38":-0.5857513546943665,"39":0.17034336924552917,"40":-0.06251414865255356,"41":-0.375090092420578,"42":0.22902128100395203,"43":0.27226194739341736,"44":0.24156248569488525,"45":0.17154380679130554,"46":0.03893355652689934,"47":0.035502128303050995,"48":0.2669393718242645,"49":-0.09872760623693466,"50":0.26845723390579224,"51":0.004282227251678705,"52":-0.11213002353906631,"53":0.14088332653045654,"54":0.058667607605457306,"55":0.09790145605802536,"56":0.051465172320604324,"57":-0.019106999039649963,"58":-0.2652958035469055,"59":-0.19319407641887665,"60":-0.16266900300979614,"61":-0.2434059977531433,"62":-0.06904710084199905,"63":0.07176055759191513,"64":0.1268635392189026,"65":-0.001010830863378942,"66":-0.06446120887994766,"67":0.11479119211435318,"68":0.2264658361673355,"69":-0.09553861618041992,"70":-0.25728166103363037,"71":-0.14624586701393127,"72":0.06103818118572235,"73":0.20800593495368958,"74":0.16516032814979553,"75":0.18771995604038239,"76":-0.033677514642477036}},"33":{"bias":0.16780245304107666,"weights":{"0":-0.13339048624038696,"1":0.5533341765403748,"2":0.3952125012874603,"3":-0.010821174830198288,"4":-0.3917394280433655,"5":-0.15276548266410828,"6":-0.2978840172290802,"7":0.2728022336959839,"8":-0.24534422159194946,"9":0.24014461040496826,"10":0.036623504012823105,"11":-0.25071707367897034,"12":-0.28930166363716125,"13":-0.19224517047405243,"14":-0.11656701564788818,"15":0.673196017742157,"16":-0.24159102141857147,"17":-0.20295469462871552,"18":-0.1479082703590393,"19":-0.20643417537212372,"20":-0.18561793863773346,"21":0.2461007535457611,"22":-0.20769500732421875,"23":-0.21827363967895508,"24":-0.04957953095436096,"25":0.005998792592436075,"26":0.07315177470445633,"27":-0.1434430330991745,"28":0.012664192356169224,"29":-0.1773805469274521,"30":-0.28412774205207825,"31":-0.18027453124523163,"32":-0.1035645380616188,"33":-0.24030935764312744,"34":-0.22551722824573517,"35":0.014295424334704876,"36":0.14049312472343445,"37":0.049138154834508896,"38":-0.027398819103837013,"39":-0.14009851217269897,"40":-0.2651475965976715,"41":-0.044585008174180984,"42":-0.18769435584545135,"43":0.013883894309401512,"44":-0.1088598221540451,"45":-0.2321643829345703,"46":-0.19494971632957458,"47":0.0011232661781832576,"48":0.06458224356174469,"49":-0.01441322173923254,"50":0.04672449082136154,"51":-0.25665992498397827,"52":-0.04965931922197342,"53":0.13765187561511993,"54":0.005096277222037315,"55":0.06716512888669968,"56":-0.019487248733639717,"57":0.25310271978378296,"58":0.0773925930261612,"59":-0.10157535970211029,"60":0.15669558942317963,"61":-0.022233782336115837,"62":0.00919495988637209,"63":-0.13515210151672363,"64":0.15662270784378052,"65":0.07860839366912842,"66":-0.02005244977772236,"67":-0.43886369466781616,"68":-0.544204592704773,"69":-0.15100783109664917,"70":-0.007935456931591034,"71":-0.17868421971797943,"72":-0.19727306067943573,"73":-0.2671962380409241,"74":-0.2777634859085083,"75":0.060760483145713806,"76":-0.15994596481323242}},"34":{"bias":-0.12309561669826508,"weights":{"0":0.44135499000549316,"1":-0.14201386272907257,"2":0.12629297375679016,"3":-0.07671625167131424,"4":0.1752336174249649,"5":0.15257947146892548,"6":0.1857679784297943,"7":-0.07735330611467361,"8":0.12969602644443512,"9":0.14115095138549805,"10":0.17534397542476654,"11":0.22924122214317322,"12":0.5344443917274475,"13":-0.07366135716438293,"14":-0.18193897604942322,"15":-0.25297510623931885,"16":0.053164903074502945,"17":-0.21368129551410675,"18":-0.3071761131286621,"19":-0.3055262267589569,"20":0.2193579524755478,"21":0.17332789301872253,"22":0.14744022488594055,"23":0.019409483298659325,"24":0.06299115717411041,"25":0.234551340341568,"26":-0.08080346137285233,"27":-0.12740834057331085,"28":-0.1616070717573166,"29":-0.2871231436729431,"30":0.05793164297938347,"31":0.09815488755702972,"32":-0.012770161032676697,"33":-0.057477980852127075,"34":-0.0032437723129987717,"35":0.059040896594524384,"36":-0.12397290021181107,"37":-0.00841694138944149,"38":0.06352777779102325,"39":-0.1717321127653122,"40":0.0005732669960707426,"41":-0.10532166808843613,"42":-0.07683343440294266,"43":0.26993125677108765,"44":0.156927689909935,"45":-0.09716025739908218,"46":0.00838241633027792,"47":0.2163551300764084,"48":0.00984686054289341,"49":0.24431617558002472,"50":0.19977682828903198,"51":0.1813640147447586,"52":0.10019101202487946,"53":-0.2391871213912964,"54":-0.13584518432617188,"55":-0.09597836434841156,"56":-0.06116789951920509,"57":-0.21222805976867676,"58":-0.2613655626773834,"59":-0.024970948696136475,"60":0.08216838538646698,"61":-0.23854844272136688,"62":-0.2308928221464157,"63":-0.12710998952388763,"64":0.10744328796863556,"65":0.07361574470996857,"66":0.14676204323768616,"67":0.20874914526939392,"68":0.16953414678573608,"69":0.12959681451320648,"70":0.22514331340789795,"71":0.24288946390151978,"72":0.09600575268268585,"73":0.15832726657390594,"74":-0.026172935962677002,"75":-0.23715972900390625,"76":-0.17719893157482147}},"35":{"bias":0.04791970178484917,"weights":{"0":-0.10446146875619888,"1":0.18601670861244202,"2":-0.32037481665611267,"3":0.21364401280879974,"4":-0.1037226989865303,"5":0.06177494302392006,"6":-0.12478291988372803,"7":0.0003082970797549933,"8":0.17704112827777863,"9":-0.20397046208381653,"10":0.009257261641323566,"11":0.17737235128879547,"12":0.04658161848783493,"13":-0.1328965574502945,"14":-0.30833059549331665,"15":0.062904492020607,"16":0.04965261369943619,"17":0.0006017807172611356,"18":-0.2982993423938751,"19":-0.22536516189575195,"20":0.16793936491012573,"21":-0.2691987454891205,"22":-0.07520981878042221,"23":0.22015166282653809,"24":-0.14150604605674744,"25":0.14708811044692993,"26":-0.015933683142066002,"27":0.32023558020591736,"28":0.049365390092134476,"29":-0.09554216265678406,"30":0.28591805696487427,"31":0.08726724982261658,"32":-0.050830211490392685,"33":-0.29662227630615234,"34":0.008773925714194775,"35":0.06595844030380249,"36":0.13631850481033325,"37":0.17433102428913116,"38":0.06551221013069153,"39":0.09838857501745224,"40":0.2541082501411438,"41":0.22673651576042175,"42":-0.06500047445297241,"43":0.19690001010894775,"44":0.03797856345772743,"45":0.009039556607604027,"46":0.15227457880973816,"47":0.02170228585600853,"48":0.12764154374599457,"49":0.1546129584312439,"50":0.15629783272743225,"51":0.005468129646033049,"52":0.4144626259803772,"53":0.19379043579101562,"54":-0.06838332116603851,"55":0.06030809506773949,"56":-0.09837502986192703,"57":-0.4093775153160095,"58":-0.03777346760034561,"59":0.03638811409473419,"60":-0.32729458808898926,"61":-0.2467336654663086,"62":-0.2826378047466278,"63":-0.07674384862184525,"64":0.4374102056026459,"65":-0.10350724309682846,"66":0.3689442574977875,"67":0.2919430136680603,"68":0.350073903799057,"69":0.06587976217269897,"70":-0.05604496970772743,"71":-0.09124832600355148,"72":0.047288525849580765,"73":0.0420566201210022,"74":-0.039545897394418716,"75":0.1809132695198059,"76":-0.1132599413394928}},"36":{"bias":-0.08075875043869019,"weights":{"0":0.07020046561956406,"1":-0.11852863430976868,"2":0.2167760133743286,"3":-0.11662378162145615,"4":0.15295839309692383,"5":-0.060787711292505264,"6":-0.2621384561061859,"7":-0.015189796686172485,"8":-0.2515105605125427,"9":-0.1475798487663269,"10":0.02619716338813305,"11":-0.021625274792313576,"12":-0.400858074426651,"13":0.054547496140003204,"14":0.19371698796749115,"15":0.05012938752770424,"16":0.1481526494026184,"17":0.23813948035240173,"18":0.15851102769374847,"19":0.28442278504371643,"20":-0.07424965500831604,"21":0.20332969725131989,"22":-0.01986244134604931,"23":-0.08006417006254196,"24":0.2057710587978363,"25":0.23480413854122162,"26":-0.2686302363872528,"27":-0.08683391660451889,"28":-0.17204946279525757,"29":0.11427856236696243,"30":0.06342224776744843,"31":0.10278642177581787,"32":0.181845560669899,"33":0.2047077864408493,"34":0.03709638863801956,"35":-0.05912982299923897,"36":-0.1846548616886139,"37":-0.14543993771076202,"38":0.0570109598338604,"39":0.07967287302017212,"40":0.10130084306001663,"41":-0.09437079727649689,"42":-0.07305852323770523,"43":0.01056563202291727,"44":-0.053267013281583786,"45":0.18853026628494263,"46":-0.014699261635541916,"47":-0.09618286043405533,"48":0.027440223842859268,"49":0.20769166946411133,"50":0.2734960615634918,"51":0.006989586167037487,"52":0.36027592420578003,"53":0.035918526351451874,"54":0.1340194046497345,"55":0.17426295578479767,"56":0.20275871455669403,"57":0.07467392832040787,"58":0.0327637642621994,"59":0.029781050980091095,"60":0.3206554353237152,"61":0.06789606809616089,"62":0.3192928433418274,"63":0.08978083729743958,"64":0.37649545073509216,"65":0.14072152972221375,"66":0.26469799876213074,"67":-0.2931059002876282,"68":-0.5112170577049255,"69":-0.3514859974384308,"70":-0.3811984956264496,"71":-0.09534763544797897,"72":0.1904124617576599,"73":-0.3189102113246918,"74":-0.3865174353122711,"75":0.14393489062786102,"76":0.18756861984729767}},"37":{"bias":-0.2733927369117737,"weights":{"0":0.05466056242585182,"1":0.2793259918689728,"2":0.13106220960617065,"3":0.18836797773838043,"4":0.058626413345336914,"5":0.24856655299663544,"6":-0.07538525015115738,"7":0.4617307186126709,"8":-0.3272402882575989,"9":0.2738042175769806,"10":0.04169238358736038,"11":-0.06588032841682434,"12":0.0777321308851242,"13":0.11070367693901062,"14":0.5619207620620728,"15":0.3036591708660126,"16":0.23518018424510956,"17":0.16032354533672333,"18":0.10534915328025818,"19":0.23831979930400848,"20":-0.2602638602256775,"21":0.097730353474617,"22":0.2127588838338852,"23":0.12042571604251862,"24":0.1950150430202484,"25":0.2501574456691742,"26":-0.5307788252830505,"27":0.184132382273674,"28":-0.18914596736431122,"29":-0.014166763983666897,"30":0.3686845004558563,"31":0.1674053817987442,"32":-0.0529106967151165,"33":0.1484566479921341,"34":0.2371850609779358,"35":-0.03645460307598114,"36":-0.029804961755871773,"37":-0.044628649950027466,"38":-0.32966193556785583,"39":0.01668126881122589,"40":0.11010726541280746,"41":-0.3965277671813965,"42":-0.05165717378258705,"43":0.06121216341853142,"44":0.2014913260936737,"45":0.17797935009002686,"46":-0.07109217345714569,"47":0.1740439087152481,"48":0.10397576540708542,"49":0.014285209588706493,"50":0.2308724820613861,"51":0.016224002465605736,"52":-0.32835084199905396,"53":-0.04878474399447441,"54":0.06495083123445511,"55":0.045602597296237946,"56":0.3144569396972656,"57":0.1009601429104805,"58":0.021751273423433304,"59":0.08303149044513702,"60":0.055049601942300797,"61":0.13805188238620758,"62":0.2011738419532776,"63":0.10754060745239258,"64":-0.2599438726902008,"65":0.2509014904499054,"66":-0.1328030377626419,"67":0.08915746212005615,"68":-0.26629573106765747,"69":-0.04740515723824501,"70":-0.03510558605194092,"71":-0.29742228984832764,"72":0.1140461340546608,"73":-0.23528952896595,"74":0.006599473301321268,"75":-0.19743259251117706,"76":0.06975637376308441}}},{"Poor dietary choices":{"bias":-0.24027614295482635,"weights":{"0":-0.12263993173837662,"1":-0.3679046332836151,"2":0.6828269958496094,"3":0.3460572361946106,"4":-0.6673974394798279,"5":0.27934932708740234,"6":-0.5061097145080566,"7":-0.46633288264274597,"8":1.1587327718734741,"9":-0.3973240554332733,"10":-0.11327377706766129,"11":0.21387161314487457,"12":-0.6824982762336731,"13":0.8063521385192871,"14":-0.8485251069068909,"15":0.9145594239234924,"16":0.025678589940071106,"17":-0.3899639844894409,"18":-0.03259289264678955,"19":0.6843268871307373,"20":-0.6688681244850159,"21":0.18462151288986206,"22":-0.7669597864151001,"23":-0.15337376296520233,"24":0.05661407858133316,"25":-0.7156482934951782,"26":-0.1453857272863388,"27":0.46184441447257996,"28":0.030681293457746506,"29":0.21756470203399658,"30":-0.5867410898208618,"31":0.19839386641979218,"32":-0.0583307109773159,"33":-0.023983828723430634,"34":-0.33564743399620056,"35":-0.5768122673034668,"36":0.2945013642311096,"37":-0.1408359855413437}},"Intestinal Permeability / Leaky Gut Syndrome 5":{"bias":-0.04002772644162178,"weights":{"0":-0.6578722596168518,"1":-0.4162761867046356,"2":0.11748945713043213,"3":0.4155769646167755,"4":-0.2238391488790512,"5":0.041798483580350876,"6":0.6716192960739136,"7":-0.4174076318740845,"8":-0.4953821897506714,"9":-0.2387179583311081,"10":0.10081245750188828,"11":-0.7844370603561401,"12":0.03886980190873146,"13":0.233489990234375,"14":0.35297659039497375,"15":-0.329145222902298,"16":-0.7300822734832764,"17":-0.42906463146209717,"18":-0.3700277507305145,"19":-0.03569921478629112,"20":0.3525391221046448,"21":-0.7074069380760193,"22":0.9151276350021362,"23":-1.093403697013855,"24":-0.7175369262695312,"25":-0.06146813929080963,"26":-0.421057790517807,"27":-0.34469377994537354,"28":-0.5838400721549988,"29":-1.1436208486557007,"30":1.2873581647872925,"31":-0.43455272912979126,"32":0.7023129463195801,"33":-0.6960433721542358,"34":0.3665246367454529,"35":0.13779222965240479,"36":-0.7669649124145508,"37":-0.39527276158332825}},"Impaired Gut Function":{"bias":-0.16353873908519745,"weights":{"0":-0.4803900718688965,"1":0.1094205304980278,"2":-0.8444541096687317,"3":0.5569530129432678,"4":0.42844927310943604,"5":-0.7472937107086182,"6":0.29109472036361694,"7":-0.5645406246185303,"8":1.1408097743988037,"9":-0.40386059880256653,"10":-0.3871770203113556,"11":0.5464929938316345,"12":-0.6277773976325989,"13":-0.2688979208469391,"14":-0.5476250648498535,"15":-0.6905495524406433,"16":0.1851770430803299,"17":0.226812943816185,"18":-0.25484612584114075,"19":-0.8442286849021912,"20":-0.02182137966156006,"21":-0.23131263256072998,"22":-0.7092658281326294,"23":0.6218995451927185,"24":-0.6192748546600342,"25":-0.28494924306869507,"26":0.9685972929000854,"27":0.07350265979766846,"28":-0.15843038260936737,"29":0.5617527961730957,"30":0.9400268197059631,"31":-0.30684491991996765,"32":-0.329347163438797,"33":-0.46208420395851135,"34":0.03808481618762016,"35":-0.24800659716129303,"36":-0.9998537302017212,"37":-0.6330816745758057}},"Low stomach acid 5":{"bias":-0.0678497850894928,"weights":{"0":-0.645348072052002,"1":-0.38514795899391174,"2":-0.736058235168457,"3":0.4441160261631012,"4":0.33417144417762756,"5":-0.10347640514373779,"6":0.05654466524720192,"7":0.233778715133667,"8":-0.8867311477661133,"9":-0.2462252378463745,"10":-0.1503165364265442,"11":0.7087374925613403,"12":-0.08572347462177277,"13":-0.441145658493042,"14":-1.0480635166168213,"15":0.5547097325325012,"16":-0.16539393365383148,"17":0.41183218359947205,"18":0.3946388363838196,"19":0.2415323108434677,"20":-0.33878815174102783,"21":-0.4783626198768616,"22":-0.771342396736145,"23":-0.47119200229644775,"24":0.33682072162628174,"25":0.23453499376773834,"26":-0.6056686043739319,"27":-0.7448248267173767,"28":-0.7571030259132385,"29":-0.8596457839012146,"30":-0.9262905120849609,"31":0.7330862283706665,"32":-0.4257006347179413,"33":-0.8838697075843811,"34":-0.1376676857471466,"35":0.3699311316013336,"36":-0.454826295375824,"37":0.3698411285877228}},"Inflamed Gut 1":{"bias":-0.3761519491672516,"weights":{"0":-0.28150510787963867,"1":-1.0545775890350342,"2":0.5680549144744873,"3":-0.21931932866573334,"4":-0.010490994900465012,"5":-0.01235185470432043,"6":-0.04931666702032089,"7":-0.9927585124969482,"8":-0.04286257177591324,"9":0.8377606272697449,"10":0.9463619589805603,"11":-0.7802218794822693,"12":-0.17752330005168915,"13":0.03325852379202843,"14":-0.46047911047935486,"15":0.1264405995607376,"16":-0.3738093376159668,"17":-0.6022448539733887,"18":-0.41667869687080383,"19":-0.10634410381317139,"20":-0.3429563343524933,"21":0.13783679902553558,"22":-0.14463484287261963,"23":0.2904822528362274,"24":-1.2844171524047852,"25":0.11733625084161758,"26":0.46360594034194946,"27":0.32431331276893616,"28":0.637769341468811,"29":0.2894381284713745,"30":0.5903902649879456,"31":-1.1442679166793823,"32":0.2845885157585144,"33":1.0353059768676758,"34":-0.7037550806999207,"35":-0.060559313744306564,"36":-0.09046272933483124,"37":0.12583006918430328}},"Bacterial Imbalance 7":{"bias":-0.12654608488082886,"weights":{"0":0.21009951829910278,"1":-0.3859993815422058,"2":-0.4453965723514557,"3":-0.6290374398231506,"4":-0.5733356475830078,"5":-0.42985743284225464,"6":-0.025506822392344475,"7":0.10123118758201599,"8":-0.03510207310318947,"9":0.35436350107192993,"10":-0.7798564434051514,"11":-0.5499911904335022,"12":0.328218013048172,"13":-0.1806776523590088,"14":0.04123890399932861,"15":-0.7721012234687805,"16":0.25194233655929565,"17":-0.8351160883903503,"18":0.26936301589012146,"19":-0.7607371807098389,"20":-0.5474456548690796,"21":-0.6251081228256226,"22":0.1309441328048706,"23":-0.2972734272480011,"24":0.19791282713413239,"25":0.4729229509830475,"26":0.25813737511634827,"27":0.28196433186531067,"28":0.7759508490562439,"29":-0.08550862222909927,"30":-0.3717816174030304,"31":0.48903384804725647,"32":-0.7823516130447388,"33":-0.48884662985801697,"34":-0.91741943359375,"35":-0.8430799245834351,"36":0.6665844917297363,"37":0.3581821322441101}},"Gut Infection -5":{"bias":-0.35566553473472595,"weights":{"0":0.1028326228260994,"1":0.7143225073814392,"2":-0.5561141967773438,"3":-1.196582317352295,"4":-0.49256324768066406,"5":0.2803438603878021,"6":-0.4528823792934418,"7":-0.7141168117523193,"8":-0.5563585758209229,"9":0.45692116022109985,"10":0.36385223269462585,"11":0.828546404838562,"12":-0.2353820949792862,"13":0.25530970096588135,"14":0.6633135080337524,"15":0.09668290615081787,"16":-0.0847507193684578,"17":0.09267689287662506,"18":-0.2613922953605652,"19":0.5631778240203857,"20":0.05103567615151405,"21":0.07950206100940704,"22":0.15683269500732422,"23":0.18682099878787994,"24":-0.18478646874427795,"25":1.0076788663864136,"26":-0.8627123236656189,"27":0.2641744315624237,"28":-0.09054571390151978,"29":-0.5907036066055298,"30":-0.35690703988075256,"31":-0.6828902363777161,"32":-1.4975403547286987,"33":-0.11890031397342682,"34":0.005630103405565023,"35":0.08304153382778168,"36":-0.5214274525642395,"37":-1.2292821407318115}},"Small Intestine Bacterial Overgrowth (SIBO)6":{"bias":-0.25721868872642517,"weights":{"0":-0.22458221018314362,"1":0.053581081330776215,"2":0.5857689380645752,"3":-0.9381693601608276,"4":0.02919904701411724,"5":0.5655189156532288,"6":0.028427565470337868,"7":0.7253664135932922,"8":-0.3896070718765259,"9":-0.015976496040821075,"10":-0.5132670998573303,"11":-0.017052557319402695,"12":-0.33538320660591125,"13":-0.29474347829818726,"14":-0.678441047668457,"15":-0.6341153979301453,"16":0.3560429811477661,"17":0.4338092803955078,"18":-0.6031488180160522,"19":-0.4241221845149994,"20":-0.5978060364723206,"21":0.7336709499359131,"22":0.5331289172172546,"23":-0.44186338782310486,"24":-0.40066248178482056,"25":-1.001237392425537,"26":-0.19729219377040863,"27":0.39035195112228394,"28":-0.9129170179367065,"29":-0.9308755993843079,"30":-0.720357358455658,"31":-0.5982415080070496,"32":0.044647466391325,"33":0.78182053565979,"34":0.0011979673290625215,"35":-0.969780445098877,"36":0.05388732627034187,"37":0.4898289144039154}},"Mal-absorption":{"bias":-0.4142921268939972,"weights":{"0":0.3117862641811371,"1":0.21993780136108398,"2":0.29875895380973816,"3":-0.8685972690582275,"4":-0.7599413394927979,"5":-0.052719563245773315,"6":-1.263466477394104,"7":0.14846591651439667,"8":-0.5109540224075317,"9":-0.7151352763175964,"10":-0.6267507076263428,"11":-0.9794381260871887,"12":-0.23049049079418182,"13":-0.18578428030014038,"14":-0.11971541494131088,"15":0.566296398639679,"16":-0.8519992828369141,"17":0.06424712389707565,"18":-0.2430611252784729,"19":-0.5412070751190186,"20":0.3885396718978882,"21":0.18410660326480865,"22":-0.6076887845993042,"23":0.04025014117360115,"24":0.3216094672679901,"25":0.3538025915622711,"26":0.35833144187927246,"27":-0.5918056964874268,"28":-0.5387025475502014,"29":0.6024232506752014,"30":0.27619922161102295,"31":-0.9040869474411011,"32":0.4552834928035736,"33":-0.5077536106109619,"34":0.4652726352214813,"35":0.041771963238716125,"36":0.010489819571375847,"37":0.23572620749473572}},"No problem":{"bias":-0.22517065703868866,"weights":{"0":0.1668912023305893,"1":-0.5626751780509949,"2":-0.5250848531723022,"3":0.6562076807022095,"4":-0.014436236582696438,"5":-0.7235844135284424,"6":-0.7945227026939392,"7":-0.3032013475894928,"8":-0.13087061047554016,"9":-0.165088951587677,"10":0.5674420595169067,"11":-0.4289298355579376,"12":-0.6613274216651917,"13":-0.3882594704627991,"14":0.7148762345314026,"15":-0.30664658546447754,"16":-0.3805747628211975,"17":-0.8192122578620911,"18":-0.6870195865631104,"19":0.2010248601436615,"20":0.2394140511751175,"21":-0.47513657808303833,"22":-0.27717021107673645,"23":0.9758646488189697,"24":0.7829163670539856,"25":-1.0747268199920654,"26":-0.7514123320579529,"27":-0.4874141812324524,"28":0.6073886156082153,"29":0.6783770322799683,"30":-0.8395918607711792,"31":0.35435450077056885,"32":-0.14593003690242767,"33":0.16131922602653503,"34":-0.4523862600326538,"35":0.5616099238395691,"36":0.49214011430740356,"37":-0.757598340511322}}}],"outputLookup":true,"inputLookup":false,"activation":"sigmoid","trainOpts":{"iterations":20000,"errorThresh":0.005,"log":false,"logPeriod":10,"learningRate":0.3,"momentum":0.1,"callbackPeriod":10,"beta1":0.9,"beta2":0.999,"epsilon":1e-8}}