{"sizes":[77,38,10],"layers":[{"0":{},"1":{},"2":{},"3":{},"4":{},"5":{},"6":{},"7":{},"8":{},"9":{},"10":{},"11":{},"12":{},"13":{},"14":{},"15":{},"16":{},"17":{},"18":{},"19":{},"20":{},"21":{},"22":{},"23":{},"24":{},"25":{},"26":{},"27":{},"28":{},"29":{},"30":{},"31":{},"32":{},"33":{},"34":{},"35":{},"36":{},"37":{},"38":{},"39":{},"40":{},"41":{},"42":{},"43":{},"44":{},"45":{},"46":{},"47":{},"48":{},"49":{},"50":{},"51":{},"52":{},"53":{},"54":{},"55":{},"56":{},"57":{},"58":{},"59":{},"60":{},"61":{},"62":{},"63":{},"64":{},"65":{},"66":{},"67":{},"68":{},"69":{},"70":{},"71":{},"72":{},"73":{},"74":{},"75":{},"76":{}},{"0":{"bias":-0.7295217514038086,"weights":{"0":-0.1558735966682434,"1":-0.041979435831308365,"2":-0.3507305681705475,"3":0.10617124289274216,"4":-0.09126273542642593,"5":-0.3038612902164459,"6":0.36889174580574036,"7":0.3341977000236511,"8":-0.2369493693113327,"9":0.04726283997297287,"10":0.033576902002096176,"11":0.1868332475423813,"12":-0.14533010125160217,"13":0.2924369275569916,"14":0.09280315786600113,"15":-0.032076045870780945,"16":-0.04201894626021385,"17":0.16677945852279663,"18":0.23555214703083038,"19":-0.4388408660888672,"20":0.35234707593917847,"21":0.015226827934384346,"22":0.02476857788860798,"23":-0.08105010539293289,"24":-0.1102055236697197,"25":-0.15023890137672424,"26":-0.033285871148109436,"27":0.14267300069332123,"28":0.04737883061170578,"29":0.0684305727481842,"30":-0.11406596004962921,"31":-0.26665377616882324,"32":0.10298043489456177,"33":-0.10808854550123215,"34":-0.20425677299499512,"35":0.2530447542667389,"36":-0.19443780183792114,"37":0.18352963030338287,"38":-0.3040256202220917,"39":0.18665441870689392,"40":-0.18776029348373413,"41":-0.1415434032678604,"42":0.05359911173582077,"43":-0.1673775464296341,"44":-0.29014360904693604,"45":-0.018017610535025597,"46":0.06955769658088684,"47":-0.07431758940219879,"48":0.08656591176986694,"49":-0.0858784019947052,"50":-0.228610560297966,"51":0.06768397986888885,"52":-0.06642170995473862,"53":-0.01286137942224741,"54":0.5206510424613953,"55":-0.09393520653247833,"56":-0.5787317156791687,"57":-0.5252066850662231,"58":-0.5727283358573914,"59":-0.144958958029747,"60":0.3157150447368622,"61":-0.277092844247818,"62":0.006799343507736921,"63":0.18074168264865875,"64":0.3749192953109741,"65":-0.07692613452672958,"66":-0.19740495085716248,"67":-0.2062317132949829,"68":-0.19669492542743683,"69":-0.2485581934452057,"70":0.07139220088720322,"71":0.011421934701502323,"72":0.023941317573189735,"73":0.007321641314774752,"74":0.1122400164604187,"75":0.018720092251896858,"76":-0.06743229925632477}},"1":{"bias":0.03711874037981033,"weights":{"0":-0.12618117034435272,"1":0.053295403718948364,"2":-0.07096040993928909,"3":0.01678239367902279,"4":-0.16359677910804749,"5":0.07634903490543365,"6":-0.3135199248790741,"7":-0.4004313349723816,"8":0.06433401256799698,"9":-0.28872624039649963,"10":-0.20675313472747803,"11":0.002426361897960305,"12":-0.20046065747737885,"13":-0.4132373631000519,"14":-0.49164947867393494,"15":-0.13226944208145142,"16":0.19352294504642487,"17":-0.41548794507980347,"18":-0.5635133981704712,"19":0.06382577866315842,"20":-0.489991158246994,"21":0.06998294591903687,"22":-0.12672141194343567,"23":-0.014728390611708164,"24":-0.3133319318294525,"25":-0.10985766351222992,"26":-0.2898508310317993,"27":-0.27008962631225586,"28":-0.23990388214588165,"29":0.03754923492670059,"30":-0.048208098858594894,"31":0.3392445743083954,"32":-0.316315621137619,"33":-0.19549676775932312,"34":-0.2793567180633545,"35":-0.3083575367927551,"36":0.1894819289445877,"37":0.16741830110549927,"38":-0.2547000050544739,"39":-0.039261460304260254,"40":0.057253398001194,"41":0.1804739236831665,"42":-0.17293892800807953,"43":-0.017865201458334923,"44":-0.08881440758705139,"45":-0.4784378707408905,"46":-0.26081880927085876,"47":-0.17323225736618042,"48":-0.303521066904068,"49":0.016910992562770844,"50":-0.05611085146665573,"51":-0.02794417180120945,"52":-0.061098501086235046,"53":-0.08287794142961502,"54":-0.4282824695110321,"55":-0.07022488862276077,"56":0.4679662883281708,"57":0.12321824580430984,"58":0.3635588586330414,"59":-0.20810316503047943,"60":-0.2729300260543823,"61":0.10370209068059921,"62":-0.11541130393743515,"63":0.15608873963356018,"64":0.010580861940979958,"65":0.1454135775566101,"66":-0.08336873352527618,"67":0.1530866175889969,"68":-0.2281993180513382,"69":0.10593482851982117,"70":-0.10168696939945221,"71":-0.08534757047891617,"72":-0.08612386882305145,"73":-0.026126880198717117,"74":-0.11680535227060318,"75":-0.1557016372680664,"76":-0.17533749341964722}},"2":{"bias":0.2126857191324234,"weights":{"0":-0.25620242953300476,"1":-0.18626482784748077,"2":-0.3672298192977905,"3":0.1528230905532837,"4":0.058248162269592285,"5":-0.1973956823348999,"6":-0.5683779120445251,"7":0.020482610911130905,"8":-0.23551245033740997,"9":-0.052240632474422455,"10":-0.8759385347366333,"11":0.1708250641822815,"12":-0.36002349853515625,"13":-0.33654338121414185,"14":0.09994767606258392,"15":0.18460644781589508,"16":0.5617243647575378,"17":0.12861336767673492,"18":0.0012983314227312803,"19":0.17598336935043335,"20":-0.37331369519233704,"21":-0.5408816337585449,"22":0.11972960829734802,"23":0.3208947479724884,"24":0.09723634272813797,"25":0.1454496532678604,"26":0.2931528389453888,"27":-0.3402133584022522,"28":-0.054516397416591644,"29":-0.1315828412771225,"30":-0.15175189077854156,"31":-0.40750187635421753,"32":-0.07164926081895828,"33":0.07086633145809174,"34":0.09395093470811844,"35":0.11705006659030914,"36":0.0033239489421248436,"37":-0.058592747896909714,"38":0.5434151887893677,"39":-0.21420827507972717,"40":0.14152540266513824,"41":0.1337134838104248,"42":0.16361942887306213,"43":0.20808175206184387,"44":0.14134511351585388,"45":-0.10388710349798203,"46":0.1469816267490387,"47":0.05829857662320137,"48":0.032314300537109375,"49":0.19497746229171753,"50":0.42401373386383057,"51":0.09140992909669876,"52":0.1452925205230713,"53":-0.07548897713422775,"54":-0.31878963112831116,"55":-0.5735777616500854,"56":-0.23632167279720306,"57":-0.27907413244247437,"58":-0.31379449367523193,"59":0.1428043097257614,"60":-0.19956302642822266,"61":-0.18883681297302246,"62":-0.14389199018478394,"63":0.0030594784766435623,"64":0.14696930348873138,"65":-0.4235804080963135,"66":-0.26080045104026794,"67":-0.2713099420070648,"68":-0.028376488015055656,"69":0.0023272575344890356,"70":-0.0010541112860664725,"71":-0.1877518594264984,"72":-0.28656166791915894,"73":-0.26447755098342896,"74":-0.12640263140201569,"75":0.17980153858661652,"76":0.00012269058788660914}},"3":{"bias":-0.1176682785153389,"weights":{"0":-0.26762551069259644,"1":-0.3544870913028717,"2":0.3102478086948395,"3":-0.09229818731546402,"4":-0.0687965527176857,"5":0.18899691104888916,"6":-0.14078013598918915,"7":0.25554516911506653,"8":-0.06981085985898972,"9":0.13790780305862427,"10":0.33954331278800964,"11":-0.3927548825740814,"12":-0.4243730306625366,"13":-0.30724483728408813,"14":-0.14223074913024902,"15":0.027891818434000015,"16":-0.452770471572876,"17":0.08917159587144852,"18":-0.020395217463374138,"19":0.31682226061820984,"20":-0.0717276856303215,"21":0.40935152769088745,"22":0.14601409435272217,"23":-0.11865964531898499,"24":-0.07611356675624847,"25":-0.16029295325279236,"26":-0.20017962157726288,"27":-0.33633697032928467,"28":-0.2585304081439972,"29":-0.43878546357154846,"30":-0.11596240848302841,"31":0.4223722815513611,"32":0.11992384493350983,"33":0.19809889793395996,"34":-0.09013258665800095,"35":0.2523459196090698,"36":-0.04406863823533058,"37":-0.07816559821367264,"38":-0.2505432665348053,"39":0.030956998467445374,"40":-0.17912429571151733,"41":-0.02311590686440468,"42":-0.07938435673713684,"43":-0.002903721295297146,"44":-0.5232383012771606,"45":-0.3608032166957855,"46":-0.2668173313140869,"47":0.11496933549642563,"48":-0.3856648802757263,"49":-0.2724788188934326,"50":0.05108451470732689,"51":0.11554742604494095,"52":0.050645612180233,"53":-0.08355153352022171,"54":0.5993136763572693,"55":0.7346920371055603,"56":0.3461534380912781,"57":0.3535435199737549,"58":0.2442418336868286,"59":-0.31809335947036743,"60":0.24394503235816956,"61":0.30591779947280884,"62":0.04550827294588089,"63":-0.08988863974809647,"64":0.34095996618270874,"65":0.4148072600364685,"66":-0.29320022463798523,"67":-0.164505735039711,"68":-0.2941433787345886,"69":-0.12156308442354202,"70":-0.11146152764558792,"71":-0.15900452435016632,"72":-0.33970388770103455,"73":-0.42207542061805725,"74":-0.1730404943227768,"75":-0.18496982753276825,"76":-0.08059177547693253}},"4":{"bias":-0.26751548051834106,"weights":{"0":-0.23087038099765778,"1":-0.2084532082080841,"2":-0.16055044531822205,"3":-0.07172898948192596,"4":0.09244097769260406,"5":0.5361071825027466,"6":0.07249806076288223,"7":0.5272061824798584,"8":-0.12432705610990524,"9":-0.07616276293992996,"10":0.04688858985900879,"11":0.6041772365570068,"12":-0.3596324622631073,"13":0.1343979835510254,"14":-0.25670337677001953,"15":-0.2462226301431656,"16":0.5558701157569885,"17":0.20657646656036377,"18":-0.12391731888055801,"19":-0.39463090896606445,"20":-0.40059468150138855,"21":0.08760587126016617,"22":0.13508689403533936,"23":0.028886258602142334,"24":0.059207621961832047,"25":-0.26382172107696533,"26":-0.07962986081838608,"27":-0.30822521448135376,"28":-0.3989435136318207,"29":-0.38380712270736694,"30":-0.2399999052286148,"31":0.4408661723136902,"32":-0.16616302728652954,"33":0.19287820160388947,"34":-0.23095577955245972,"35":-0.36064237356185913,"36":0.04797966778278351,"37":0.015514424070715904,"38":-1.0267057418823242,"39":-0.1845327466726303,"40":-0.02957187220454216,"41":-0.02029225416481495,"42":-0.09344594180583954,"43":0.051691047847270966,"44":-0.3189481794834137,"45":-0.17517361044883728,"46":-0.17826656997203827,"47":-0.01803479716181755,"48":-0.29425668716430664,"49":0.10631422698497772,"50":0.024668721482157707,"51":0.13173678517341614,"52":-0.12124206870794296,"53":0.048955775797367096,"54":0.19025598466396332,"55":0.11226951330900192,"56":-0.3552127182483673,"57":-0.23429889976978302,"58":-0.07318025827407837,"59":-0.3548005521297455,"60":0.2834332287311554,"61":0.1419583559036255,"62":0.07880289107561111,"63":0.15680313110351562,"64":-0.38485631346702576,"65":0.5035661458969116,"66":-0.2859657108783722,"67":-0.3865090608596802,"68":-0.22342000901699066,"69":-0.19679035246372223,"70":-0.08059531450271606,"71":-0.3466830849647522,"72":-0.13129478693008423,"73":-0.09652860462665558,"74":-0.0572907030582428,"75":-0.14481887221336365,"76":0.0910402461886406}},"5":{"bias":-0.3878362774848938,"weights":{"0":0.4177577495574951,"1":-0.02334434725344181,"2":0.4103611707687378,"3":-0.06589999049901962,"4":0.03249547258019447,"5":0.38912129402160645,"6":-0.17789144814014435,"7":-0.34337368607521057,"8":-0.11093362420797348,"9":0.4189548194408417,"10":0.010204666294157505,"11":-0.19737699627876282,"12":0.04517406225204468,"13":-0.45093488693237305,"14":0.5960188508033752,"15":0.018045132979750633,"16":0.06480816751718521,"17":-0.2711971700191498,"18":0.3851342797279358,"19":-0.07164236903190613,"20":0.663250207901001,"21":0.4681890904903412,"22":-0.12162584811449051,"23":0.19348125159740448,"24":-0.027471020817756653,"25":0.3389350473880768,"26":0.2968463897705078,"27":0.20034977793693542,"28":-0.11522350460290909,"29":-0.25029245018959045,"30":-0.09892018139362335,"31":0.2304040789604187,"32":0.21262523531913757,"33":0.1970488280057907,"34":0.3013868033885956,"35":0.1815653145313263,"36":-0.09788767248392105,"37":-0.06620314717292786,"38":0.09399402886629105,"39":0.3226981461048126,"40":-0.09871697425842285,"41":-0.09093639254570007,"42":0.17274995148181915,"43":0.0281088687479496,"44":0.5362573862075806,"45":0.49644261598587036,"46":0.18024134635925293,"47":0.11949868500232697,"48":0.48576557636260986,"49":0.007219481747597456,"50":0.3588016927242279,"51":-0.15966376662254333,"52":0.08389116078615189,"53":0.1300193965435028,"54":-0.10134164243936539,"55":-0.3638577461242676,"56":-0.5223666429519653,"57":-0.4104050099849701,"58":-0.5583837628364563,"59":-0.1714242547750473,"60":-0.2770306468009949,"61":-0.8104477524757385,"62":0.033308472484350204,"63":-0.0771876871585846,"64":0.2517572045326233,"65":0.30867061018943787,"66":-0.06145940348505974,"67":-0.3091896176338196,"68":-0.024239379912614822,"69":-0.3672419786453247,"70":-0.2908499836921692,"71":-0.2565382122993469,"72":-0.38005679845809937,"73":-0.20562142133712769,"74":-0.1400579810142517,"75":0.06589434295892715,"76":0.04893839731812477}},"6":{"bias":0.23658117651939392,"weights":{"0":0.1361619234085083,"1":-0.11553192883729935,"2":-0.16180108487606049,"3":0.03807733207941055,"4":-0.10544894635677338,"5":0.19056984782218933,"6":-0.3612317144870758,"7":-0.24627138674259186,"8":-0.11076173186302185,"9":-0.2766248881816864,"10":0.09745495766401291,"11":0.22967474162578583,"12":0.2896216809749603,"13":-0.36404603719711304,"14":-0.025643134489655495,"15":-0.3080090284347534,"16":0.5637478232383728,"17":-0.34847790002822876,"18":-0.15709665417671204,"19":0.1722618043422699,"20":-0.09901805967092514,"21":0.045510005205869675,"22":-0.01252635195851326,"23":-0.13938488066196442,"24":-0.11201527714729309,"25":-0.10668367147445679,"26":-0.25884953141212463,"27":0.38332465291023254,"28":-0.19965720176696777,"29":-0.4694448709487915,"30":-0.2952534854412079,"31":0.21032126247882843,"32":-0.27212706208229065,"33":-0.1796652227640152,"34":-0.29485318064689636,"35":-0.16729289293289185,"36":-0.12661385536193848,"37":-0.16999457776546478,"38":-0.4517079293727875,"39":-0.1109471395611763,"40":0.0714985728263855,"41":0.10329660773277283,"42":-0.2969716191291809,"43":-0.3005816340446472,"44":-0.023466037586331367,"45":0.19091187417507172,"46":-0.08615414798259735,"47":0.005378423724323511,"48":-0.10252219438552856,"49":-0.27915433049201965,"50":-0.24620939791202545,"51":-0.17480161786079407,"52":-0.23892842233181,"53":-0.11855386197566986,"54":-0.3204338252544403,"55":0.03646375238895416,"56":0.4780254364013672,"57":0.4126376211643219,"58":0.406431645154953,"59":-0.3739016354084015,"60":0.0439581423997879,"61":-0.11421407014131546,"62":0.1190820261836052,"63":-0.06306540220975876,"64":-0.2062004804611206,"65":0.3698388636112213,"66":-0.17514215409755707,"67":-0.15725009143352509,"68":-0.1297028362751007,"69":-0.2601069509983063,"70":-0.4671553671360016,"71":-0.21308639645576477,"72":-0.4126095175743103,"73":-0.1529056429862976,"74":-0.2355046570301056,"75":0.003402127418667078,"76":-0.14365358650684357}},"7":{"bias":0.0730847418308258,"weights":{"0":0.39545881748199463,"1":-0.25900861620903015,"2":0.2543243169784546,"3":-0.020947763696312904,"4":-0.15743519365787506,"5":0.06423540413379669,"6":-0.4064972400665283,"7":-0.45580706000328064,"8":-0.13540366291999817,"9":0.01708059012889862,"10":0.28370171785354614,"11":-0.23431013524532318,"12":0.33414098620414734,"13":-0.048922669142484665,"14":0.2736370265483856,"15":-0.2563801407814026,"16":0.36508575081825256,"17":-0.4997788369655609,"18":0.09049869328737259,"19":-0.5476872324943542,"20":0.6720076203346252,"21":0.5979793071746826,"22":0.09584944695234299,"23":-0.25531089305877686,"24":-0.23249243199825287,"25":-0.2828243672847748,"26":-0.1420670449733734,"27":0.13375361263751984,"28":-0.18422573804855347,"29":-0.2920236885547638,"30":-0.29481542110443115,"31":0.3474665880203247,"32":0.20019152760505676,"33":-0.14794306457042694,"34":0.021583110094070435,"35":0.12666095793247223,"36":0.18382522463798523,"37":0.03786655515432358,"38":0.458119660615921,"39":0.2657589316368103,"40":-0.14718173444271088,"41":0.12051235139369965,"42":-0.16807027161121368,"43":-0.02991694211959839,"44":0.03253816440701485,"45":0.16216112673282623,"46":-0.12514473497867584,"47":-0.037002112716436386,"48":0.09333238750696182,"49":-0.2650502622127533,"50":0.06251116096973419,"51":-0.1909683793783188,"52":-0.19859060645103455,"53":-0.0709775760769844,"54":-0.030545741319656372,"55":-0.3688960075378418,"56":-0.5121883153915405,"57":-0.5026837587356567,"58":-0.16705988347530365,"59":-0.10792352259159088,"60":-0.39409083127975464,"61":-0.8901066780090332,"62":0.06654500216245651,"63":0.07621856778860092,"64":0.1890406459569931,"65":0.43214166164398193,"66":-0.21919429302215576,"67":-0.2047126144170761,"68":-0.38777241110801697,"69":-0.32470831274986267,"70":-0.03184076398611069,"71":-0.23456674814224243,"72":-0.38543152809143066,"73":-0.1755901277065277,"74":-0.222001850605011,"75":0.06865417212247849,"76":0.04638463258743286}},"8":{"bias":-0.6545689702033997,"weights":{"0":-0.4148956537246704,"1":0.03394400700926781,"2":0.06782019883394241,"3":0.05907135829329491,"4":-0.031328968703746796,"5":0.004803634714335203,"6":-0.3189341425895691,"7":-0.12693318724632263,"8":-0.06517026573419571,"9":0.17598237097263336,"10":-0.21240100264549255,"11":-0.5416374802589417,"12":-0.069012850522995,"13":-0.3854920268058777,"14":0.05499888211488724,"15":0.11164598166942596,"16":-0.012419464066624641,"17":0.01867734268307686,"18":0.14501546323299408,"19":0.4077601432800293,"20":-0.14064694941043854,"21":0.24049460887908936,"22":0.1507205069065094,"23":0.17842279374599457,"24":0.11587803810834885,"25":0.29845964908599854,"26":0.052938297390937805,"27":-0.3461270332336426,"28":0.15332892537117004,"29":0.16614140570163727,"30":-0.19860416650772095,"31":-0.2749868929386139,"32":0.4121071994304657,"33":-0.0046119699254632,"34":0.36527058482170105,"35":0.38911184668540955,"36":0.04401334002614021,"37":-0.0026394291780889034,"38":-0.3651925325393677,"39":0.31536439061164856,"40":0.0014168565394356847,"41":-0.09064019471406937,"42":0.3167080879211426,"43":0.010178228840231895,"44":0.015810957178473473,"45":-0.1485837697982788,"46":0.2554854452610016,"47":0.02708113193511963,"48":-0.24283194541931152,"49":0.00879702065140009,"50":0.22557558119297028,"51":-0.17571702599525452,"52":0.1555398404598236,"53":-0.0013656130759045482,"54":0.02669190615415573,"55":0.30882367491722107,"56":0.213046595454216,"57":0.2019309252500534,"58":0.3459242284297943,"59":-0.01612178608775139,"60":-0.16966800391674042,"61":0.3241943120956421,"62":0.0258333757519722,"63":-0.1829696148633957,"64":0.4398372769355774,"65":-0.2311411201953888,"66":-0.049765728414058685,"67":0.13269610702991486,"68":-0.07908933609724045,"69":0.09123017638921738,"70":-0.14575104415416718,"71":0.00028749098419211805,"72":-0.04480283707380295,"73":-0.054005131125450134,"74":0.15238700807094574,"75":-0.16947710514068604,"76":-0.07865568995475769}},"9":{"bias":-0.3847877085208893,"weights":{"0":0.4250528812408447,"1":-0.1668252944946289,"2":-0.8128798007965088,"3":0.007184627000242472,"4":0.06315638870000839,"5":-0.5330297946929932,"6":0.047091275453567505,"7":0.027899429202079773,"8":0.0794859528541565,"9":0.08138009160757065,"10":-0.2982845902442932,"11":0.7016279101371765,"12":0.4124844968318939,"13":0.21343038976192474,"14":0.09636697918176651,"15":-0.09712133556604385,"16":0.4572307765483856,"17":-0.2720198631286621,"18":-0.03888840973377228,"19":0.2125115543603897,"20":0.12652766704559326,"21":-0.4620461165904999,"22":0.11492334306240082,"23":-0.28192511200904846,"24":0.0005623119650408626,"25":-0.3334943950176239,"26":-0.36190202832221985,"27":0.20889912545681,"28":-0.002632871037349105,"29":-0.10250423103570938,"30":-0.08213286846876144,"31":-0.2281009405851364,"32":-0.01754850149154663,"33":0.07257741689682007,"34":-0.12071874737739563,"35":-0.23434416949748993,"36":0.19123490154743195,"37":0.055699653923511505,"38":-0.6819189190864563,"39":-0.2006741315126419,"40":-0.05237556993961334,"41":0.01441076397895813,"42":-0.3569413721561432,"43":-0.1069750040769577,"44":0.11531069874763489,"45":-0.044079478830099106,"46":-0.2914701998233795,"47":0.036980561912059784,"48":0.24756312370300293,"49":-0.1659046709537506,"50":-0.12246992439031601,"51":-0.1543702483177185,"52":-0.2838864028453827,"53":0.18174327909946442,"54":-0.31776314973831177,"55":0.1412287950515747,"56":0.4588220715522766,"57":0.46223312616348267,"58":0.5552486777305603,"59":-0.08602418005466461,"60":-0.2844730019569397,"61":0.1214851662516594,"62":-0.12261650711297989,"63":0.047344304621219635,"64":-0.23978395760059357,"65":-0.312855064868927,"66":-0.06978247314691544,"67":0.07818979024887085,"68":-0.09591315686702728,"69":-0.1848064810037613,"70":-0.015363930724561214,"71":-0.20535816252231598,"72":-0.28293436765670776,"73":-0.2506831884384155,"74":0.06055489555001259,"75":-0.0972946286201477,"76":-0.04391390085220337}},"10":{"bias":0.0526595413684845,"weights":{"0":-0.2940021753311157,"1":-0.15384966135025024,"2":0.44630956649780273,"3":0.13587477803230286,"4":0.10811556875705719,"5":0.6878900527954102,"6":-0.3235769271850586,"7":-0.3695659637451172,"8":-0.3160347640514374,"9":-0.07310346513986588,"10":-0.14506006240844727,"11":-0.5243788957595825,"12":-0.020570578053593636,"13":-0.45822328329086304,"14":-0.3541559875011444,"15":0.08424367010593414,"16":0.2651207447052002,"17":-0.08928454667329788,"18":-0.39126142859458923,"19":0.1876210868358612,"20":-0.513659656047821,"21":0.44268593192100525,"22":-0.01092720776796341,"23":0.22551949322223663,"24":-0.03321290761232376,"25":0.08674012869596481,"26":0.025401510298252106,"27":-0.15517136454582214,"28":-0.14634472131729126,"29":-0.32295066118240356,"30":-0.08966412395238876,"31":0.752750039100647,"32":-0.35726943612098694,"33":0.06814448535442352,"34":-0.026209169998764992,"35":-0.38523152470588684,"36":0.03422721102833748,"37":-0.07144876569509506,"38":-0.37112700939178467,"39":-0.25440600514411926,"40":0.030334509909152985,"41":0.13130298256874084,"42":-0.05812476575374603,"43":0.20641565322875977,"44":-0.02671697363257408,"45":-0.03875495120882988,"46":0.16563645005226135,"47":-0.021610328927636147,"48":0.06644543260335922,"49":0.2732171416282654,"50":0.27213141322135925,"51":0.16656069457530975,"52":0.20763607323169708,"53":0.15690186619758606,"54":-0.5757933855056763,"55":-0.5339674353599548,"56":-0.021704409271478653,"57":-0.22191908955574036,"58":-0.16907714307308197,"59":-0.03739680349826813,"60":-0.3592112064361572,"61":-0.08135756105184555,"62":-0.07826327532529831,"63":-0.0187902320176363,"64":-0.1307837814092636,"65":0.7808250784873962,"66":-0.2594466805458069,"67":-0.32376110553741455,"68":-0.26174914836883545,"69":-0.3381426930427551,"70":-0.0029298258014023304,"71":-0.012053309008479118,"72":-0.2646174728870392,"73":-0.06423007696866989,"74":-0.3510378897190094,"75":-0.011973538435995579,"76":-0.18203356862068176}},"11":{"bias":0.5785191059112549,"weights":{"0":-0.30728161334991455,"1":-0.4144415855407715,"2":-0.7344645857810974,"3":0.12436641752719879,"4":0.029909862205386162,"5":-0.24655058979988098,"6":-0.03723343461751938,"7":0.22575397789478302,"8":-0.4436366558074951,"9":-0.33734390139579773,"10":-0.743428111076355,"11":0.13804598152637482,"12":-0.004296405240893364,"13":-0.1272142082452774,"14":0.038827914744615555,"15":0.20836281776428223,"16":0.15173199772834778,"17":0.5959608554840088,"18":0.2715666890144348,"19":-0.031539902091026306,"20":-0.334940105676651,"21":-0.39760875701904297,"22":-0.0216273944824934,"23":-0.00243566045537591,"24":0.23918382823467255,"25":0.038186121731996536,"26":0.20198747515678406,"27":-0.1151498332619667,"28":-0.28125661611557007,"29":-0.3177110552787781,"30":-0.3985481858253479,"31":-0.4183271825313568,"32":-0.32580816745758057,"33":0.058712467551231384,"34":-0.005529888439923525,"35":-0.31991490721702576,"36":0.031599026173353195,"37":0.05375075712800026,"38":0.5192475914955139,"39":-0.11374198645353317,"40":0.09999020397663116,"41":0.12250441312789917,"42":0.07516255229711533,"43":0.19179850816726685,"44":0.01516596507281065,"45":-0.06643202155828476,"46":0.03551908954977989,"47":-0.07770179212093353,"48":0.08485425263643265,"49":0.3236633837223053,"50":0.24989581108093262,"51":0.12463401257991791,"52":0.3215879201889038,"53":0.14436502754688263,"54":0.2741978168487549,"55":-0.1858913153409958,"56":-0.09878050535917282,"57":-0.2558455169200897,"58":0.019281847402453423,"59":0.08946124464273453,"60":0.2609178423881531,"61":0.38236933946609497,"62":-0.17440558969974518,"63":-0.059658233076334,"64":-0.2701687812805176,"65":-0.1865866482257843,"66":-0.31800156831741333,"67":-0.4082603454589844,"68":-0.16264371573925018,"69":-0.2123182713985443,"70":-0.26538148522377014,"71":-0.215835839509964,"72":-0.05872651934623718,"73":-0.37930697202682495,"74":-0.19010266661643982,"75":0.08811631798744202,"76":-0.004727533552795649}},"12":{"bias":0.5159086585044861,"weights":{"0":-0.18732130527496338,"1":-0.2863774597644806,"2":-0.5206529498100281,"3":-0.02131359837949276,"4":-0.08395174890756607,"5":-0.16914759576320648,"6":-0.735466718673706,"7":-0.06134495884180069,"8":-0.17377202212810516,"9":-0.13819780945777893,"10":-1.0562454462051392,"11":0.5447949767112732,"12":-0.38884907960891724,"13":-0.639285147190094,"14":-0.06422287970781326,"15":0.3061034083366394,"16":1.0967901945114136,"17":-0.2252839058637619,"18":-0.488237202167511,"19":0.14795325696468353,"20":-0.07553908228874207,"21":-0.27911943197250366,"22":-0.16547182202339172,"23":0.1932225525379181,"24":-0.00810564961284399,"25":0.13613970577716827,"26":0.08708794414997101,"27":-0.237289160490036,"28":-0.11004404723644257,"29":-0.20471036434173584,"30":0.0011709796963259578,"31":-0.49197524785995483,"32":-0.08995694667100906,"33":0.13500992953777313,"34":-0.07188701629638672,"35":-0.07877892255783081,"36":0.16832473874092102,"37":0.14281369745731354,"38":0.32375481724739075,"39":-0.1907391995191574,"40":0.17468568682670593,"41":0.11402060091495514,"42":0.2689177989959717,"43":0.20094862580299377,"44":0.00836906023323536,"45":-0.18003155291080475,"46":0.131581649184227,"47":0.046192653477191925,"48":0.10841213911771774,"49":0.14480353891849518,"50":0.010056443512439728,"51":0.14077910780906677,"52":0.03057802841067314,"53":0.009009127505123615,"54":-0.19278351962566376,"55":-0.021347738802433014,"56":0.17142418026924133,"57":0.2953208386898041,"58":0.06731295585632324,"59":-0.07916005700826645,"60":-0.31738561391830444,"61":-0.1886501908302307,"62":0.1064087375998497,"63":0.030894534662365913,"64":0.13754980266094208,"65":-0.13062496483325958,"66":-0.24895526468753815,"67":-0.17068520188331604,"68":-0.3022865951061249,"69":-0.17260079085826874,"70":-0.10543425381183624,"71":-0.32460692524909973,"72":-0.30245673656463623,"73":-0.243092879652977,"74":-0.26406750082969666,"75":0.1390817016363144,"76":0.037608642131090164}},"13":{"bias":-1.1408257484436035,"weights":{"0":0.18080945312976837,"1":-0.002295824931934476,"2":-0.2752668559551239,"3":-0.0066536953672766685,"4":0.1874181479215622,"5":-0.2070787250995636,"6":0.2728477418422699,"7":-0.1433907002210617,"8":-0.09438971430063248,"9":0.1541271060705185,"10":0.1504582315683365,"11":-0.24668772518634796,"12":0.1322682946920395,"13":0.19389815628528595,"14":0.7183443307876587,"15":0.1902017444372177,"16":-0.47326961159706116,"17":0.024473367258906364,"18":0.7178940773010254,"19":0.521226167678833,"20":0.360603392124176,"21":-0.1287582963705063,"22":0.11779066920280457,"23":0.014275658875703812,"24":0.14104555547237396,"25":-0.06034509465098381,"26":0.05832488089799881,"27":0.2150014340877533,"28":0.054661769419908524,"29":-0.06571986526250839,"30":0.06757201999425888,"31":-0.644636869430542,"32":0.2329188734292984,"33":0.027994532138109207,"34":0.05519840866327286,"35":0.1312188357114792,"36":-0.08002151548862457,"37":-0.05172499641776085,"38":-0.7670906782150269,"39":0.3256628215312958,"40":0.02755802497267723,"41":-0.07581594586372375,"42":0.2832450568675995,"43":0.00810247752815485,"44":0.22768548130989075,"45":0.11574942618608475,"46":0.22486290335655212,"47":-0.040384016931056976,"48":0.38084468245506287,"49":0.011743186973035336,"50":0.12809734046459198,"51":-0.146173357963562,"52":0.2093079835176468,"53":-0.12117096781730652,"54":0.08944950997829437,"55":0.4624902009963989,"56":0.2603299915790558,"57":0.08414101600646973,"58":0.39549335837364197,"59":0.01606796681880951,"60":0.22350779175758362,"61":0.43306764960289,"62":0.142942413687706,"63":0.08593916147947311,"64":0.3917914927005768,"65":-0.5391978025436401,"66":0.00045501909335143864,"67":-0.006917933933436871,"68":-0.1940094381570816,"69":0.07494979351758957,"70":-0.1737915426492691,"71":-0.07030747085809708,"72":-0.11415713280439377,"73":0.12445785105228424,"74":-0.1294204592704773,"75":-0.137029230594635,"76":-0.1725984513759613}},"14":{"bias":-0.07154983282089233,"weights":{"0":-0.3330782651901245,"1":0.022618280723690987,"2":0.22282391786575317,"3":-0.15648153424263,"4":-0.14636236429214478,"5":0.6177060604095459,"6":-0.4216257929801941,"7":-0.33637601137161255,"8":-0.05471910908818245,"9":-0.2789473235607147,"10":-0.33598217368125916,"11":0.2165769785642624,"12":-0.13804379105567932,"13":-0.5511409044265747,"14":-0.1736856997013092,"15":0.2160322517156601,"16":0.46476849913597107,"17":-0.006481107324361801,"18":-0.1971476972103119,"19":-0.1255723088979721,"20":-0.24663420021533966,"21":0.15404796600341797,"22":-0.17576363682746887,"23":-0.0015241720248013735,"24":0.09313371777534485,"25":0.22633469104766846,"26":0.24164952337741852,"27":0.04829525575041771,"28":-0.11358049511909485,"29":0.0004942037630826235,"30":-0.03563584387302399,"31":0.28743329644203186,"32":-0.3565104305744171,"33":0.1416265368461609,"34":0.25679612159729004,"35":-0.29061686992645264,"36":-0.08741194009780884,"37":-0.13233675062656403,"38":-0.19286014139652252,"39":-0.3178582489490509,"40":-0.09838572889566422,"41":-0.023107411339879036,"42":0.13946455717086792,"43":0.1379280686378479,"44":-0.1153595894575119,"45":0.01930125243961811,"46":-0.0014371845172718167,"47":-0.05293326452374458,"48":-0.18069317936897278,"49":0.10697633773088455,"50":0.13623502850532532,"51":-0.04529612511396408,"52":0.28369203209877014,"53":-0.16450916230678558,"54":-0.5032268166542053,"55":-0.921371579170227,"56":-0.19556154310703278,"57":-0.47876524925231934,"58":-0.369797945022583,"59":0.05813097581267357,"60":-0.365878701210022,"61":-0.19507260620594025,"62":-0.1067085862159729,"63":0.04094630852341652,"64":-0.40857771039009094,"65":0.3767341673374176,"66":-0.12261854857206345,"67":0.055361438542604446,"68":-0.01428690180182457,"69":-0.1742049753665924,"70":0.033333953469991684,"71":-0.22903142869472504,"72":0.03179170563817024,"73":0.005481056869029999,"74":-0.1493341326713562,"75":-0.1225467398762703,"76":0.18835248053073883}},"15":{"bias":0.13762325048446655,"weights":{"0":0.30168744921684265,"1":-0.3490350842475891,"2":-0.7934352159500122,"3":0.1163213849067688,"4":0.15733112394809723,"5":-0.5721603035926819,"6":0.27632275223731995,"7":0.1327952891588211,"8":-0.23469305038452148,"9":-0.10939478874206543,"10":-0.34118157625198364,"11":0.5748111605644226,"12":0.09391919523477554,"13":0.14600040018558502,"14":-0.22902292013168335,"15":-0.27251264452934265,"16":0.5144767761230469,"17":-0.21206623315811157,"18":-0.197040855884552,"19":0.2130713313817978,"20":0.15114234387874603,"21":-0.3796626925468445,"22":-0.06546171009540558,"23":-0.16283127665519714,"24":0.007407386787235737,"25":-0.2184188961982727,"26":-0.20027954876422882,"27":0.09355001151561737,"28":-0.18480843305587769,"29":-0.17713619768619537,"30":-0.17784281075000763,"31":-0.2358953356742859,"32":-0.2613852024078369,"33":-0.0414198562502861,"34":-0.24860912561416626,"35":-0.2992019057273865,"36":0.05251139774918556,"37":0.08042947947978973,"38":-0.5856097936630249,"39":-0.14963819086551666,"40":0.014215251430869102,"41":-0.18126186728477478,"42":-0.13843563199043274,"43":-0.19495905935764313,"44":0.13678321242332458,"45":-0.08283941447734833,"46":-0.05098198354244232,"47":0.16361919045448303,"48":0.12820467352867126,"49":-0.32053714990615845,"50":-0.29274481534957886,"51":-0.13968652486801147,"52":-0.2669083774089813,"53":-0.06927312165498734,"54":-0.2538285553455353,"55":0.43025508522987366,"56":0.3551516532897949,"57":0.4218595623970032,"58":0.3240083158016205,"59":-0.2758157253265381,"60":-0.046243082731962204,"61":0.27059999108314514,"62":-0.046461429446935654,"63":0.11967509984970093,"64":-0.22935457527637482,"65":-0.4821879267692566,"66":0.011229204013943672,"67":-0.15719808638095856,"68":-0.22282461822032928,"69":-0.03331553190946579,"70":-0.30397605895996094,"71":-0.18138723075389862,"72":-0.086574986577034,"73":-0.15196330845355988,"74":-0.19407197833061218,"75":-0.056753236800432205,"76":0.04462645202875137}},"16":{"bias":-0.9679036736488342,"weights":{"0":-0.4838811159133911,"1":0.07722368091344833,"2":0.06941816955804825,"3":-0.03197452053427696,"4":-0.0815114825963974,"5":0.18996059894561768,"6":-0.15041519701480865,"7":0.29479292035102844,"8":-0.10431072860956192,"9":0.2383570671081543,"10":0.33028551936149597,"11":-0.18272268772125244,"12":-0.2791299819946289,"13":-0.17720119655132294,"14":-0.21965907514095306,"15":-0.23979082703590393,"16":-0.16526611149311066,"17":0.1080181747674942,"18":0.14855626225471497,"19":-0.04912509024143219,"20":0.035249222069978714,"21":0.43151208758354187,"22":0.0753326341509819,"23":-0.27217093110084534,"24":0.11438965052366257,"25":-0.1902458369731903,"26":-0.07809249311685562,"27":-0.2781529426574707,"28":-0.1353081911802292,"29":0.027141522616147995,"30":-0.09347715973854065,"31":-0.028609927743673325,"32":0.26751551032066345,"33":0.16866551339626312,"34":-0.1293397694826126,"35":0.03126966953277588,"36":-0.1560431867837906,"37":-0.03334767743945122,"38":-0.3777131140232086,"39":0.0396890714764595,"40":-0.11311903595924377,"41":0.004221378825604916,"42":-0.08656290918588638,"43":0.03560438007116318,"44":-0.5508289933204651,"45":-0.4308706820011139,"46":-0.2679319381713867,"47":0.07800211757421494,"48":-0.5376495718955994,"49":0.037373870611190796,"50":-0.259807825088501,"51":-0.1543993502855301,"52":-0.05531691387295723,"53":-0.19516445696353912,"54":0.5700292587280273,"55":0.5328763127326965,"56":-0.1636984497308731,"57":-0.14717604219913483,"58":-0.28334882855415344,"59":-0.316921204328537,"60":0.22076012194156647,"61":0.18205386400222778,"62":-0.10533872246742249,"63":0.12123437225818634,"64":0.023249056190252304,"65":0.004697996657341719,"66":-0.007840541191399097,"67":0.09538037329912186,"68":0.15039978921413422,"69":0.1454252451658249,"70":0.001434443285688758,"71":0.10108698904514313,"72":-0.1490502655506134,"73":0.07986589521169662,"74":-0.12241102010011673,"75":-0.07664099335670471,"76":0.10589054971933365}},"17":{"bias":0.05027047172188759,"weights":{"0":0.3004504144191742,"1":0.04152952507138252,"2":-0.5709609389305115,"3":0.16444385051727295,"4":0.09309974312782288,"5":-0.21288131177425385,"6":0.02554907836019993,"7":-0.06258220970630646,"8":-0.05638417974114418,"9":-0.01145848911255598,"10":-0.6470044851303101,"11":-0.7027896046638489,"12":0.22363413870334625,"13":-0.04965456202626228,"14":-0.0007599754608236253,"15":0.08928242325782776,"16":-0.582426905632019,"17":-0.2214137315750122,"18":-0.12018899619579315,"19":0.1887987107038498,"20":0.019781196489930153,"21":-0.635298490524292,"22":0.051035210490226746,"23":0.16999515891075134,"24":0.16636554896831512,"25":0.20681189000606537,"26":0.06600560247898102,"27":0.34103354811668396,"28":-0.00005485989458975382,"29":0.07739904522895813,"30":-0.2083856612443924,"31":-0.3574361801147461,"32":-0.1663968861103058,"33":-0.17253074049949646,"34":0.1677338033914566,"35":-0.28973010182380676,"36":-0.04893799126148224,"37":0.17205499112606049,"38":1.1977916955947876,"39":-0.0037105544470250607,"40":-0.17854619026184082,"41":-0.13913880288600922,"42":-0.08280273526906967,"43":0.07615966349840164,"44":0.2689632177352905,"45":0.4610804319381714,"46":0.045075517147779465,"47":-0.026401333510875702,"48":0.2382982075214386,"49":-0.07096310704946518,"50":0.15438808500766754,"51":-0.13565689325332642,"52":0.23969675600528717,"53":0.1455674171447754,"54":-0.5248257517814636,"55":-0.5284826755523682,"56":0.0809255912899971,"57":0.14348866045475006,"58":-0.06859976053237915,"59":0.06356162577867508,"60":-0.39691850543022156,"61":-0.30617398023605347,"62":0.045129187405109406,"63":0.10811764746904373,"64":-0.1330956071615219,"65":-0.46747303009033203,"66":-0.05039561167359352,"67":-0.0030999858863651752,"68":0.07712091505527496,"69":0.11558061093091965,"70":-0.20898310840129852,"71":-0.21368800103664398,"72":-0.17698734998703003,"73":-0.27048224210739136,"74":0.1027330607175827,"75":0.05988084152340889,"76":0.14846327900886536}},"18":{"bias":-0.48102283477783203,"weights":{"0":-0.17873911559581757,"1":-0.24968662858009338,"2":0.2723856568336487,"3":0.11363837122917175,"4":0.08463123440742493,"5":0.1760367453098297,"6":0.046902019530534744,"7":0.06386494636535645,"8":-0.0633901059627533,"9":-0.038128290325403214,"10":0.24890325963497162,"11":0.6889786720275879,"12":-0.022944893687963486,"13":-0.17947010695934296,"14":0.23595164716243744,"15":0.189239040017128,"16":0.6601836085319519,"17":-0.00044608558528125286,"18":0.2785019874572754,"19":0.3254702687263489,"20":-0.015966014936566353,"21":0.24239076673984528,"22":-0.044003281742334366,"23":0.050754573196172714,"24":0.17400522530078888,"25":-0.1603756844997406,"26":0.14739030599594116,"27":-0.07047886401414871,"28":-0.1450231820344925,"29":-0.04530096426606178,"30":-0.009536909870803356,"31":-0.05658784881234169,"32":0.09623485803604126,"33":-0.06763629615306854,"34":0.2054736465215683,"35":-0.021800749003887177,"36":0.1370987743139267,"37":0.08639306575059891,"38":-1.4647666215896606,"39":0.23197773098945618,"40":0.10098377615213394,"41":0.008577343076467514,"42":-0.08517137914896011,"43":-0.008014349266886711,"44":-0.11828914284706116,"45":-0.017039276659488678,"46":0.07538106292486191,"47":-0.18486647307872772,"48":-0.0492757111787796,"49":-0.03936310485005379,"50":0.1284274011850357,"51":-0.10157272219657898,"52":-0.14359603822231293,"53":-0.07529538869857788,"54":0.47183626890182495,"55":0.43177902698516846,"56":0.06866370886564255,"57":0.037701256573200226,"58":0.16230326890945435,"59":-0.1956292688846588,"60":0.1453113704919815,"61":0.1563119888305664,"62":0.10154145210981369,"63":0.1954479217529297,"64":0.1490931361913681,"65":0.27681607007980347,"66":-0.25283825397491455,"67":-0.22846122086048126,"68":-0.1318501979112625,"69":-0.2892301380634308,"70":-0.2731001079082489,"71":-0.3266999125480652,"72":-0.3506613075733185,"73":-0.003962371498346329,"74":-0.08867885172367096,"75":-0.19855140149593353,"76":-0.17057015001773834}},"19":{"bias":-0.1196604073047638,"weights":{"0":-0.510349690914154,"1":-0.26657700538635254,"2":-0.3687858581542969,"3":0.17343494296073914,"4":-0.14590974152088165,"5":0.17650538682937622,"6":0.06634502857923508,"7":0.3047073185443878,"8":-0.45145338773727417,"9":-0.0034097214229404926,"10":-0.20490574836730957,"11":0.8830986618995667,"12":-0.41019147634506226,"13":-0.18894585967063904,"14":-0.6493735909461975,"15":-0.059865958988666534,"16":0.9577868580818176,"17":0.4077467918395996,"18":0.13326723873615265,"19":-0.4361336827278137,"20":-0.638862669467926,"21":-0.15399786829948425,"22":0.16709521412849426,"23":0.09117356687784195,"24":-0.0866553857922554,"25":-0.01666301302611828,"26":-0.11047445237636566,"27":-0.36268171668052673,"28":-0.18633928894996643,"29":-0.3338419198989868,"30":-0.3897479474544525,"31":0.28954383730888367,"32":-0.10737713426351547,"33":-0.1277751326560974,"34":0.019930709153413773,"35":-0.2732188403606415,"36":-0.08578059822320938,"37":0.1410118043422699,"38":-0.9652034044265747,"39":-0.1450480967760086,"40":-0.11227073520421982,"41":0.0830543115735054,"42":0.16211363673210144,"43":0.11967061460018158,"44":-0.4344591200351715,"45":-0.22962665557861328,"46":0.2227998971939087,"47":0.12169578671455383,"48":-0.14846022427082062,"49":0.17606677114963531,"50":-0.14005626738071442,"51":0.16447268426418304,"52":0.18727174401283264,"53":0.1439432054758072,"54":0.468895822763443,"55":0.0882892906665802,"56":-0.20300182700157166,"57":-0.5481323599815369,"58":-0.4084549844264984,"59":-0.16447249054908752,"60":0.5482367873191833,"61":0.27674049139022827,"62":-0.15217775106430054,"63":-0.013130777515470982,"64":-0.10177946090698242,"65":0.3114107549190521,"66":-0.4323503375053406,"67":-0.3825273811817169,"68":-0.2801752984523773,"69":-0.12692978978157043,"70":-0.1406155675649643,"71":-0.34002795815467834,"72":-0.23337268829345703,"73":-0.2505751848220825,"74":-0.14960364997386932,"75":-0.1441458910703659,"76":-0.1487279087305069}},"20":{"bias":0.237549290060997,"weights":{"0":-0.1595747172832489,"1":-0.044226326048374176,"2":-0.6576976180076599,"3":0.007422348950058222,"4":0.008124075829982758,"5":-0.6118427515029907,"6":-0.3399868607521057,"7":-0.3471137583255768,"8":0.18950265645980835,"9":-0.08599619567394257,"10":-0.9850067496299744,"11":-0.4182702302932739,"12":-0.29009488224983215,"13":-0.3263741731643677,"14":-0.4141634702682495,"15":0.09428112953901291,"16":-0.15684601664543152,"17":-0.3424833416938782,"18":-0.6536064147949219,"19":0.301337867975235,"20":-0.43073442578315735,"21":-0.4115927219390869,"22":-0.023746930062770844,"23":-0.07285673916339874,"24":-0.11342500895261765,"25":-0.25173085927963257,"26":0.06207625940442085,"27":-0.013825279660522938,"28":0.17531909048557281,"29":0.12210669368505478,"30":0.11731071770191193,"31":-0.5701890587806702,"32":-0.21972927451133728,"33":-0.05220263451337814,"34":0.08262676000595093,"35":-0.2456948608160019,"36":0.02310120314359665,"37":-0.1644483208656311,"38":1.1185965538024902,"39":-0.17281948029994965,"40":-0.07926549762487411,"41":-0.17143678665161133,"42":-0.03818831220269203,"43":-0.214778870344162,"44":-0.07942002266645432,"45":-0.24524474143981934,"46":-0.28986430168151855,"47":-0.12779390811920166,"48":-0.2718624472618103,"49":-0.24254611134529114,"50":0.07921143621206284,"51":-0.011682714335620403,"52":-0.15965473651885986,"53":0.048680149018764496,"54":-0.37280526757240295,"55":-0.14608503878116608,"56":0.5126073956489563,"57":0.513288140296936,"58":0.5314403176307678,"59":0.07392316311597824,"60":-0.0550113171339035,"61":-0.05252842605113983,"62":-0.06819243729114532,"63":0.1595499962568283,"64":-0.15483936667442322,"65":-0.37739577889442444,"66":0.03351796790957451,"67":-0.08401679992675781,"68":-0.030575407668948174,"69":-0.15564298629760742,"70":0.11859419196844101,"71":0.17901325225830078,"72":0.09431391954421997,"73":0.001272482448257506,"74":0.11642874777317047,"75":0.1844659000635147,"76":0.11785829067230225}},"21":{"bias":-0.16849465668201447,"weights":{"0":0.2483471781015396,"1":0.004305366892367601,"2":-0.21949627995491028,"3":0.0984419584274292,"4":0.10181422531604767,"5":-0.4212556779384613,"6":-0.07207847386598587,"7":-0.10633160918951035,"8":-0.2788528800010681,"9":0.3652477562427521,"10":0.09876377135515213,"11":-0.7085035443305969,"12":0.27605098485946655,"13":0.03843368589878082,"14":0.4069371819496155,"15":-0.06326889991760254,"16":-1.0189787149429321,"17":-0.39980873465538025,"18":0.07348988205194473,"19":-0.6128804683685303,"20":0.7167996764183044,"21":-0.11536362767219543,"22":-0.08541619777679443,"23":0.08064721524715424,"24":-0.28940242528915405,"25":-0.28139716386795044,"26":-0.0545661523938179,"27":0.5069574117660522,"28":0.06459661573171616,"29":0.04966326057910919,"30":-0.2149462252855301,"31":-0.2719328999519348,"32":0.20814524590969086,"33":-0.055954430252313614,"34":-0.018979588523507118,"35":0.07508058845996857,"36":0.1982184648513794,"37":0.1822439730167389,"38":1.3948795795440674,"39":0.20279619097709656,"40":-0.07312125712633133,"41":-0.17410746216773987,"42":-0.05147787556052208,"43":-0.15957540273666382,"44":0.07270058989524841,"45":0.23084798455238342,"46":-0.28189992904663086,"47":0.0647130087018013,"48":0.27995574474334717,"49":0.07783891260623932,"50":-0.28579068183898926,"51":-0.0458536371588707,"52":-0.2204301357269287,"53":-0.11794774979352951,"54":-0.07921021431684494,"55":-0.5526989102363586,"56":-0.33563363552093506,"57":-0.31951627135276794,"58":-0.21660703420639038,"59":-0.13583391904830933,"60":-0.15821972489356995,"61":-0.9011750221252441,"62":-0.16327574849128723,"63":0.18251195549964905,"64":0.37314409017562866,"65":-0.3648248314857483,"66":-0.21799644827842712,"67":0.06678035110235214,"68":-0.22467593848705292,"69":0.016882317140698433,"70":-0.10534261912107468,"71":-0.2272900938987732,"72":-0.045683104544878006,"73":0.058257006108760834,"74":-0.010808699764311314,"75":0.1569528430700302,"76":-0.11587259918451309}},"22":{"bias":-0.07679696381092072,"weights":{"0":0.1851576417684555,"1":-0.27012935280799866,"2":-0.3379254937171936,"3":0.10979077965021133,"4":-0.15619133412837982,"5":-0.1406629979610443,"6":-0.24633628129959106,"7":-0.2913356423377991,"8":-0.23471099138259888,"9":-0.1415255218744278,"10":-0.6335822343826294,"11":0.798187792301178,"12":0.18525764346122742,"13":-0.2203470915555954,"14":0.33912205696105957,"15":0.2600501477718353,"16":0.9537911415100098,"17":-0.19863447546958923,"18":-0.12368230521678925,"19":0.3282143473625183,"20":0.36179232597351074,"21":-0.4243099093437195,"22":-0.02847672812640667,"23":0.15895000100135803,"24":0.2215001881122589,"25":0.24621440470218658,"26":0.2358626127243042,"27":0.24070394039154053,"28":-0.15692904591560364,"29":-0.08885819464921951,"30":-0.1329515427350998,"31":-0.005246925633400679,"32":-0.2886233329772949,"33":-0.044394273310899734,"34":0.26451998949050903,"35":-0.17460577189922333,"36":-0.08551808446645737,"37":0.14552001655101776,"38":-1.0742690563201904,"39":-0.04825843125581741,"40":0.0535259023308754,"41":0.107402503490448,"42":-0.04587886482477188,"43":0.1885073333978653,"44":0.3319767117500305,"45":0.47822239995002747,"46":0.0864236056804657,"47":-0.15796975791454315,"48":0.5320490598678589,"49":0.07357050478458405,"50":-0.0959426760673523,"51":0.005313114728778601,"52":0.2299634963274002,"53":-0.01741013117134571,"54":-0.668121337890625,"55":-0.26547181606292725,"56":0.31138089299201965,"57":0.32903218269348145,"58":0.19408373534679413,"59":-0.1071092039346695,"60":-0.5602519512176514,"61":-0.11177793890237808,"62":-0.14536021649837494,"63":-0.19596798717975616,"64":-0.2632310092449188,"65":-0.1787988841533661,"66":-0.1975651979446411,"67":-0.2088368535041809,"68":-0.2199643850326538,"69":-0.1725304126739502,"70":-0.16414912045001984,"71":-0.10771592706441879,"72":-0.2019396722316742,"73":-0.22124537825584412,"74":-0.06908129900693893,"75":-0.12512364983558655,"76":-0.07557512074708939}},"23":{"bias":0.22331655025482178,"weights":{"0":0.28372570872306824,"1":-0.2747160792350769,"2":-0.7264887690544128,"3":-0.08402938395738602,"4":-0.175877645611763,"5":-0.34191372990608215,"6":0.2587484121322632,"7":0.05363083630800247,"8":-0.08825324475765228,"9":0.018546152859926224,"10":-0.09761124104261398,"11":-0.4931696355342865,"12":0.3200257420539856,"13":0.16072046756744385,"14":-0.07701453566551208,"15":-0.13367757201194763,"16":-0.7580346465110779,"17":0.07212793827056885,"18":0.18651193380355835,"19":0.26112979650497437,"20":0.06188075616955757,"21":-0.3716509938240051,"22":0.050580911338329315,"23":-0.22968801856040955,"24":0.036119598895311356,"25":-0.28644898533821106,"26":0.08980631083250046,"27":0.13890209794044495,"28":-0.45707303285598755,"29":-0.30361199378967285,"30":-0.3874185085296631,"31":-0.07982585579156876,"32":-0.19426856935024261,"33":-0.060424961149692535,"34":-0.16051185131072998,"35":0.14671705663204193,"36":0.16479459404945374,"37":-0.007938370108604431,"38":0.45590144395828247,"39":0.152900829911232,"40":0.15827403962612152,"41":0.18408069014549255,"42":-0.27086037397384644,"43":-0.2758182883262634,"44":0.14794227480888367,"45":0.16498447954654694,"46":-0.10318679362535477,"47":0.12687134742736816,"48":0.20413389801979065,"49":-0.16879044473171234,"50":-0.11085396260023117,"51":0.06894667446613312,"52":-0.09227799624204636,"53":0.004644617438316345,"54":0.365251749753952,"55":0.6575192809104919,"56":0.1416863650083542,"57":0.3433796465396881,"58":0.17517663538455963,"59":-0.49388372898101807,"60":0.35513997077941895,"61":0.6110671758651733,"62":0.17839999496936798,"63":0.08895066380500793,"64":-0.03604789078235626,"65":-0.42828696966171265,"66":-0.32489699125289917,"67":-0.33585619926452637,"68":-0.254146009683609,"69":-0.08293220400810242,"70":-0.4063974618911743,"71":-0.18711335957050323,"72":-0.2702431082725525,"73":-0.21738556027412415,"74":-0.09448601305484772,"75":0.13528534770011902,"76":0.1799173802137375}},"24":{"bias":-0.3806484043598175,"weights":{"0":-0.3181343078613281,"1":-0.12790803611278534,"2":-0.1536327451467514,"3":0.08474867790937424,"4":0.11648520827293396,"5":-0.12878364324569702,"6":-0.12621210515499115,"7":0.5329903364181519,"8":-0.05294716730713844,"9":-0.277923047542572,"10":0.04335922375321388,"11":-0.5933286547660828,"12":-0.1410844475030899,"13":-0.020167475566267967,"14":-0.30085238814353943,"15":0.13220837712287903,"16":-0.6821923851966858,"17":0.483752965927124,"18":0.2961530387401581,"19":0.6048174500465393,"20":-0.4439091086387634,"21":-0.1417824774980545,"22":-0.12390484660863876,"23":0.2363298535346985,"24":0.28078898787498474,"25":-0.02874363400042057,"26":0.0475270040333271,"27":-0.0530170239508152,"28":-0.3230137526988983,"29":-0.35779863595962524,"30":-0.2988702058792114,"31":-0.2930493652820587,"32":0.012931723147630692,"33":0.1490146666765213,"34":0.12554438412189484,"35":-0.19006790220737457,"36":-0.15191687643527985,"37":0.1036018654704094,"38":-0.5022071003913879,"39":-0.14113639295101166,"40":0.1821177750825882,"41":0.19072000682353973,"42":0.1673140674829483,"43":0.2761993110179901,"44":0.027473101392388344,"45":0.02268034592270851,"46":0.24030077457427979,"47":0.05757659673690796,"48":-0.00030874338699504733,"49":-0.025993723422288895,"50":0.1760292500257492,"51":-0.10057908296585083,"52":0.3061572313308716,"53":-0.1737833172082901,"54":0.1650160551071167,"55":0.4953779876232147,"56":0.32182577252388,"57":0.12505342066287994,"58":0.09454628825187683,"59":0.036562155932188034,"60":0.48521387577056885,"61":0.7800275683403015,"62":0.028537709265947342,"63":-0.017215033993124962,"64":-0.19353745877742767,"65":-0.06623605638742447,"66":-0.3086637556552887,"67":-0.14491617679595947,"68":-0.2503852844238281,"69":-0.14960604906082153,"70":-0.15072137117385864,"71":-0.21422645449638367,"72":0.028790704905986786,"73":-0.33986127376556396,"74":-0.11876615881919861,"75":0.09060326218605042,"76":-0.03192180395126343}},"25":{"bias":0.01384615246206522,"weights":{"0":-0.3111187219619751,"1":-0.21367086470127106,"2":-0.6341906189918518,"3":0.004824282601475716,"4":-0.10976672172546387,"5":-0.37453508377075195,"6":-0.03383753448724747,"7":0.4208025336265564,"8":-0.31013378500938416,"9":-0.14428848028182983,"10":-0.22569359838962555,"11":-0.4072690010070801,"12":-0.007655048277229071,"13":0.22927719354629517,"14":-0.41415897011756897,"15":-0.10852085798978806,"16":-0.6543554663658142,"17":0.40151160955429077,"18":0.09001444280147552,"19":-0.5135729312896729,"20":-0.22035318613052368,"21":-0.24773429334163666,"22":-0.14688828587532043,"23":-0.08616022020578384,"24":-0.05864676460623741,"25":-0.039182115346193314,"26":-0.07949023693799973,"27":-0.09329533576965332,"28":-0.15348508954048157,"29":-0.08032756298780441,"30":-0.2071697860956192,"31":-0.1907448023557663,"32":-0.2482629269361496,"33":0.0793350413441658,"34":0.11782476305961609,"35":-0.15118442475795746,"36":0.19547240436077118,"37":-0.12455684691667557,"38":1.3609064817428589,"39":-0.2311774641275406,"40":0.0203422699123621,"41":0.05280066654086113,"42":-0.11734036356210709,"43":-0.10956583172082901,"44":-0.11206412315368652,"45":-0.4243942201137543,"46":-0.054512299597263336,"47":-0.07744978368282318,"48":-0.3498024046421051,"49":-0.19845926761627197,"50":-0.08738266676664352,"51":-0.1405031979084015,"52":-0.07607156783342361,"53":0.13869254291057587,"54":0.4433790147304535,"55":-0.002188417362049222,"56":-0.5696625709533691,"57":-0.5511347651481628,"58":-0.4486382007598877,"59":-0.09999006241559982,"60":0.5539984703063965,"61":-0.29748669266700745,"62":-0.08542324602603912,"63":0.029140369966626167,"64":-0.16372662782669067,"65":-0.28421568870544434,"66":-0.04222993180155754,"67":-0.29204848408699036,"68":-0.21491695940494537,"69":-0.22446443140506744,"70":-0.007913544774055481,"71":-0.05818486958742142,"72":-0.16614577174186707,"73":-0.029848894104361534,"74":-0.06242256239056587,"75":-0.18598389625549316,"76":-0.008939608931541443}},"26":{"bias":0.08601901680231094,"weights":{"0":-0.19585376977920532,"1":0.06820471584796906,"2":-0.11771294474601746,"3":0.0323437862098217,"4":0.15400314331054688,"5":-0.4609125554561615,"6":-0.4967789649963379,"7":-0.26530441641807556,"8":-0.1789414882659912,"9":0.37631890177726746,"10":-0.7412713170051575,"11":-1.363275170326233,"12":-0.3659658432006836,"13":-0.5283637642860413,"14":0.14557240903377533,"15":0.030134493485093117,"16":-0.731421172618866,"17":-0.17585067451000214,"18":0.08410080522298813,"19":0.5376894474029541,"20":0.10549435019493103,"21":-0.24922220408916473,"22":0.186493381857872,"23":0.19240263104438782,"24":0.11909045279026031,"25":0.11684510856866837,"26":0.14846421778202057,"27":-0.20493105053901672,"28":0.054854702204465866,"29":-0.031244724988937378,"30":-0.06827079504728317,"31":-0.39750292897224426,"32":0.3507838845252991,"33":-0.08633950352668762,"34":-0.10173579305410385,"35":0.3876853585243225,"36":-0.09412164986133575,"37":-0.027169913053512573,"38":1.0706290006637573,"39":0.273518443107605,"40":0.044400446116924286,"41":-0.05634552612900734,"42":0.2565237879753113,"43":0.08793625235557556,"44":-0.004254614468663931,"45":-0.03305433690547943,"46":0.18989959359169006,"47":0.017717499285936356,"48":-0.1462630331516266,"49":0.15532763302326202,"50":0.2721587121486664,"51":-0.18274591863155365,"52":-0.037768565118312836,"53":0.010954362340271473,"54":0.12657316029071808,"55":0.41086405515670776,"56":0.4889417886734009,"57":0.42203056812286377,"58":0.529505729675293,"59":0.24069207906723022,"60":-0.44752874970436096,"61":0.18412095308303833,"62":0.06707863509654999,"63":0.12152376025915146,"64":0.18629847466945648,"65":-0.6352500915527344,"66":0.0007842727936804295,"67":0.058746520429849625,"68":-0.02649611607193947,"69":0.0651312917470932,"70":0.1817644238471985,"71":-0.0357440821826458,"72":-0.03771482780575752,"73":0.13653631508350372,"74":0.08930616080760956,"75":0.18904998898506165,"76":-0.05887174233794212}},"27":{"bias":-0.9683644771575928,"weights":{"0":0.039992861449718475,"1":0.004362058825790882,"2":0.43354329466819763,"3":-0.04046695679426193,"4":-0.11643334478139877,"5":0.5158903002738953,"6":-0.2660031318664551,"7":-0.14727044105529785,"8":-0.1227988600730896,"9":-0.24875730276107788,"10":0.38053375482559204,"11":-0.7525670528411865,"12":-0.13873827457427979,"13":-0.22417552769184113,"14":-0.22842934727668762,"15":0.18479013442993164,"16":-0.8478167653083801,"17":0.17078912258148193,"18":-0.2844419777393341,"19":0.10467137396335602,"20":-0.2903781235218048,"21":0.4919830858707428,"22":-0.05370674654841423,"23":0.23991991579532623,"24":0.06358624994754791,"25":0.1051499992609024,"26":0.31326955556869507,"27":-0.16246719658374786,"28":0.05984432250261307,"29":0.06359346210956573,"30":0.06881771236658096,"31":0.6267298460006714,"32":-0.19081604480743408,"33":-0.09094598144292831,"34":0.09111953526735306,"35":-0.37839269638061523,"36":0.0023978117387741804,"37":0.07538381218910217,"38":-0.7681814432144165,"39":-0.42210450768470764,"40":-0.06291733682155609,"41":-0.1017710492014885,"42":0.26396444439888,"43":0.17445622384548187,"44":0.04512400180101395,"45":0.3471062183380127,"46":0.009105869568884373,"47":-0.08787548542022705,"48":0.11807842552661896,"49":0.16298340260982513,"50":0.12265986204147339,"51":0.14267626404762268,"52":0.1970544457435608,"53":0.1028362587094307,"54":-0.1640750914812088,"55":-0.45563527941703796,"56":0.06547711789608002,"57":-0.022068601101636887,"58":-0.13737909495830536,"59":0.17549602687358856,"60":-0.143167182803154,"61":0.00451560877263546,"62":0.13473087549209595,"63":-0.01236795261502266,"64":-0.41750481724739075,"65":0.45110854506492615,"66":0.07012327760457993,"67":0.005887698847800493,"68":0.05531279742717743,"69":0.0831388309597969,"70":-0.018109191209077835,"71":-0.005341629032045603,"72":-0.025002392008900642,"73":-0.17994113266468048,"74":-0.11979053169488907,"75":-0.1188398227095604,"76":-0.06353768706321716}},"28":{"bias":0.2720124423503876,"weights":{"0":-0.36512914299964905,"1":-0.08669660240411758,"2":-0.340308278799057,"3":0.05719175934791565,"4":-0.1804049164056778,"5":-0.4108763635158539,"6":-0.460063636302948,"7":-0.1528768390417099,"8":-0.06940414756536484,"9":0.461459219455719,"10":-0.5427596569061279,"11":0.039018407464027405,"12":-0.4509122371673584,"13":-0.6391940712928772,"14":0.2748895287513733,"15":0.16035345196723938,"16":0.6800681352615356,"17":-0.12136929482221603,"18":0.0077751982025802135,"19":-0.19814710319042206,"20":-0.02924526296555996,"21":-0.08701737225055695,"22":0.1261816918849945,"23":-0.13792389631271362,"24":-0.12138043344020844,"25":0.06057628244161606,"26":-0.19272442162036896,"27":-0.37631285190582275,"28":-0.3345802128314972,"29":-0.18640875816345215,"30":-0.3615535795688629,"31":-0.4494122564792633,"32":0.2619225084781647,"33":-0.023258494213223457,"34":-0.05565266311168671,"35":0.21207863092422485,"36":0.08316005766391754,"37":-0.1478828638792038,"38":0.727186381816864,"39":0.42482462525367737,"40":0.005834233947098255,"41":-0.029529130086302757,"42":-0.10163027793169022,"43":0.04609757289290428,"44":-0.154616117477417,"45":-0.11265908926725388,"46":0.15388859808444977,"47":0.015475783497095108,"48":-0.2776866555213928,"49":0.17677848041057587,"50":-0.04183252528309822,"51":-0.10790735483169556,"52":0.09587410092353821,"53":0.1799282282590866,"54":0.42612960934638977,"55":0.3332953155040741,"56":-0.1051344946026802,"57":-0.04660240188241005,"58":-0.03954431042075157,"59":0.00567980669438839,"60":0.018276313319802284,"61":-0.2593978941440582,"62":-0.16465547680854797,"63":0.07311514019966125,"64":0.2592932879924774,"65":-0.19361139833927155,"66":-0.37263450026512146,"67":-0.15312370657920837,"68":-0.17916664481163025,"69":-0.08239954710006714,"70":-0.27132245898246765,"71":-0.19239231944084167,"72":-0.28497734665870667,"73":-0.1246429905295372,"74":-0.2694256007671356,"75":0.018436450511217117,"76":0.06091921031475067}},"29":{"bias":-0.2021900862455368,"weights":{"0":-0.11834323406219482,"1":-0.07658450305461884,"2":0.16465157270431519,"3":-0.09229692816734314,"4":0.08414427936077118,"5":0.24782013893127441,"6":-0.6214574575424194,"7":-0.04765770584344864,"8":-0.11121561378240585,"9":0.11973771452903748,"10":0.14341036975383759,"11":0.2184170037508011,"12":-0.1599375456571579,"13":-0.44439807534217834,"14":-0.09202226251363754,"15":-0.039194170385599136,"16":0.624126136302948,"17":-0.21062792837619781,"18":0.03873227536678314,"19":0.47086140513420105,"20":0.24595418572425842,"21":0.6202434301376343,"22":-0.11354416608810425,"23":0.0515577495098114,"24":-0.10238663107156754,"25":0.04901730269193649,"26":-0.08822838962078094,"27":-0.032126083970069885,"28":-0.07069026678800583,"29":-0.3632800579071045,"30":-0.35244297981262207,"31":0.09212686121463776,"32":0.24312837421894073,"33":0.15036973357200623,"34":-0.22286632657051086,"35":0.17011287808418274,"36":0.0642881840467453,"37":0.18424564599990845,"38":-0.7424753904342651,"39":0.19404996931552887,"40":0.016583982855081558,"41":0.019496791064739227,"42":-0.1534905582666397,"43":0.14773793518543243,"44":-0.10977575927972794,"45":-0.02969321236014366,"46":0.032031040638685226,"47":-0.1863342523574829,"48":-0.31844085454940796,"49":0.08544319868087769,"50":0.08949428796768188,"51":0.19219040870666504,"52":-0.051230330020189285,"53":-0.07497254014015198,"54":0.2186066210269928,"55":0.5921708345413208,"56":0.4541509449481964,"57":0.29872095584869385,"58":0.2855486571788788,"59":-0.4244656264781952,"60":-0.17731095850467682,"61":0.09744652360677719,"62":0.1665978878736496,"63":-0.11503153294324875,"64":0.2991427183151245,"65":0.0313108004629612,"66":-0.3215563893318176,"67":-0.06792990863323212,"68":-0.346380352973938,"69":-0.26565203070640564,"70":-0.4127235412597656,"71":-0.09932194650173187,"72":-0.35674411058425903,"73":-0.10883253067731857,"74":-0.07382705062627792,"75":0.14680804312229156,"76":0.1223105862736702}},"30":{"bias":-0.46172329783439636,"weights":{"0":0.09551385790109634,"1":-0.047947995364665985,"2":-0.5109800100326538,"3":0.141824409365654,"4":-0.17240816354751587,"5":0.12481286376714706,"6":0.116697758436203,"7":0.16503125429153442,"8":-0.3193072974681854,"9":-0.18354308605194092,"10":-0.015078742057085037,"11":0.20850735902786255,"12":0.2638743221759796,"13":0.32674482464790344,"14":0.015937982127070427,"15":0.054218437522649765,"16":-0.19571553170681,"17":0.4595811367034912,"18":0.5114799737930298,"19":-0.19327330589294434,"20":-0.1998170167207718,"21":-0.3417474031448364,"22":0.18527695536613464,"23":0.22564435005187988,"24":0.18146538734436035,"25":0.18649326264858246,"26":0.15051846206188202,"27":0.08477802574634552,"28":-0.0009735241183079779,"29":-0.3135097324848175,"30":-0.039022769778966904,"31":0.06714452058076859,"32":-0.4587678611278534,"33":0.018639445304870605,"34":0.009816587902605534,"35":-0.1706978976726532,"36":0.08883215487003326,"37":0.1936221867799759,"38":-0.5261918902397156,"39":-0.42319759726524353,"40":-0.09640288352966309,"41":0.0142689673230052,"42":0.06103059649467468,"43":0.30576902627944946,"44":0.38430696725845337,"45":0.4009162485599518,"46":0.11264144629240036,"47":0.1252150535583496,"48":0.398600697517395,"49":0.24674606323242188,"50":0.1696709245443344,"51":0.08864445239305496,"52":0.03181477636098862,"53":0.03006044030189514,"54":0.14362715184688568,"55":-0.35443952679634094,"56":-0.2238144874572754,"57":-0.3651900291442871,"58":-0.45637428760528564,"59":-0.07489928603172302,"60":0.18743473291397095,"61":0.24539926648139954,"62":0.1917596161365509,"63":-0.03824871405959129,"64":-0.32948505878448486,"65":-0.15545892715454102,"66":-0.24211281538009644,"67":-0.1439315378665924,"68":-0.0951346606016159,"69":-0.3436262309551239,"70":-0.11630981415510178,"71":-0.002993545727804303,"72":-0.19838064908981323,"73":-0.1811116337776184,"74":-0.15094733238220215,"75":0.12132029980421066,"76":-0.09437350928783417}},"31":{"bias":-0.1687420904636383,"weights":{"0":0.3309251368045807,"1":-0.3971901535987854,"2":-0.6798639297485352,"3":-0.02534283697605133,"4":0.07693223655223846,"5":-0.1835681051015854,"6":0.305006742477417,"7":0.1469898670911789,"8":-0.4451150894165039,"9":-0.29764363169670105,"10":-0.006716415286064148,"11":1.141858696937561,"12":0.28878918290138245,"13":0.14345556497573853,"14":-0.022757872939109802,"15":0.02219831943511963,"16":1.0114407539367676,"17":0.19935891032218933,"18":0.22626303136348724,"19":-0.40346890687942505,"20":-0.011268895119428635,"21":-0.033804282546043396,"22":-0.1534203141927719,"23":-0.14446617662906647,"24":-0.08082421869039536,"25":-0.23535796999931335,"26":-0.3118760287761688,"27":-0.031222673133015633,"28":-0.30892786383628845,"29":-0.3353636562824249,"30":-0.1699410378932953,"31":0.17765575647354126,"32":0.02972019650042057,"33":0.1718115210533142,"34":-0.19161538779735565,"35":-0.0049102394841611385,"36":-0.12136556953191757,"37":0.10915527492761612,"38":-0.6121708154678345,"39":-0.1299210786819458,"40":-0.16035397350788116,"41":-0.18708249926567078,"42":0.04356181249022484,"43":-0.13839392364025116,"44":0.1622716337442398,"45":0.05325666069984436,"46":-0.11120398342609406,"47":0.1036376878619194,"48":0.1009935587644577,"49":0.02368522249162197,"50":-0.16282130777835846,"51":-0.00976805854588747,"52":0.03064011223614216,"53":0.0360446460545063,"54":0.28844889998435974,"55":-0.4021540582180023,"56":-0.35183262825012207,"57":-0.47879156470298767,"58":-0.4914367198944092,"59":-0.4408382475376129,"60":0.4226284623146057,"61":-0.3176203668117523,"62":-0.17285414040088654,"63":-0.015376649796962738,"64":-0.03448278829455376,"65":0.20170383155345917,"66":-0.4766579866409302,"67":-0.20891736447811127,"68":-0.44670647382736206,"69":-0.19194896519184113,"70":-0.193643718957901,"71":-0.31779128313064575,"72":-0.4881713390350342,"73":-0.22968105971813202,"74":-0.15017461776733398,"75":0.004479398485273123,"76":0.024400945752859116}},"32":{"bias":0.1878519356250763,"weights":{"0":-0.017302963882684708,"1":-0.248687282204628,"2":0.3074531555175781,"3":0.038004178553819656,"4":0.1675906628370285,"5":0.37275430560112,"6":-0.30438902974128723,"7":0.060102641582489014,"8":-0.13747908174991608,"9":0.255271315574646,"10":0.4320438802242279,"11":-1.4831953048706055,"12":-0.3068019449710846,"13":-0.3563818335533142,"14":-0.12238933145999908,"15":-0.15075716376304626,"16":-0.7613958716392517,"17":-0.2934918999671936,"18":-0.3242354094982147,"19":0.13142314553260803,"20":-0.23811383545398712,"21":0.7798494696617126,"22":0.1223674789071083,"23":-0.2650209665298462,"24":0.01852923259139061,"25":-0.26603659987449646,"26":-0.2601885199546814,"27":-0.3243212401866913,"28":-0.39093029499053955,"29":-0.0840032771229744,"30":-0.2772882282733917,"31":0.3575062155723572,"32":0.10690347850322723,"33":-0.062341250479221344,"34":-0.34314095973968506,"35":0.2043893039226532,"36":-0.10635144263505936,"37":0.1947687864303589,"38":0.9664684534072876,"39":0.15350262820720673,"40":-0.19827474653720856,"41":0.07939305901527405,"42":-0.3666073977947235,"43":0.024690307676792145,"44":-0.35602444410324097,"45":-0.5503208041191101,"46":-0.15978048741817474,"47":-0.08861838281154633,"48":-0.39757752418518066,"49":-0.36089351773262024,"50":-0.017067842185497284,"51":0.16472192108631134,"52":-0.26199010014533997,"53":-0.029035722836852074,"54":0.005622250027954578,"55":0.4683639407157898,"56":0.32805606722831726,"57":0.3720661997795105,"58":0.4617406129837036,"59":-0.26009121537208557,"60":-0.12731221318244934,"61":0.3374324142932892,"62":0.01290670782327652,"63":-0.12452419847249985,"64":0.30632802844047546,"65":0.6316428780555725,"66":-0.09696333855390549,"67":-0.30053412914276123,"68":-0.2997245788574219,"69":-0.21222542226314545,"70":-0.3245869278907776,"71":-0.271832138299942,"72":-0.07698289304971695,"73":-0.3133082389831543,"74":-0.2059774398803711,"75":0.016395127400755882,"76":0.05117851868271828}},"33":{"bias":-0.0059244814328849316,"weights":{"0":0.3887823820114136,"1":-0.12798216938972473,"2":-0.15379057824611664,"3":0.0761399120092392,"4":-0.06568598002195358,"5":-0.07075261324644089,"6":0.08157061785459518,"7":0.35323646664619446,"8":-0.27657896280288696,"9":-0.09375350922346115,"10":0.48599129915237427,"11":-0.5211278200149536,"12":0.18947237730026245,"13":0.3983558118343353,"14":0.27460259199142456,"15":-0.29966971278190613,"16":-0.6833896040916443,"17":0.1474454551935196,"18":0.48601558804512024,"19":-0.6197543740272522,"20":0.34807151556015015,"21":0.1912616491317749,"22":-0.058109402656555176,"23":-0.12858468294143677,"24":-0.3005123734474182,"25":-0.1721121221780777,"26":-0.15659108757972717,"27":0.11382008343935013,"28":-0.35274064540863037,"29":-0.10897300392389297,"30":-0.36081910133361816,"31":-0.036267295479774475,"32":-0.052860159426927567,"33":0.0040782056748867035,"34":0.009627007879316807,"35":0.21738207340240479,"36":-0.08508899807929993,"37":-0.05863228812813759,"38":1.0059747695922852,"39":0.1835923194885254,"40":-0.0712546706199646,"41":-0.18059450387954712,"42":-0.3409753739833832,"43":-0.3202856183052063,"44":-0.07037489116191864,"45":0.17476439476013184,"46":-0.13643664121627808,"47":0.04951551929116249,"48":0.2674603760242462,"49":-0.09628168493509293,"50":-0.3392479717731476,"51":0.1797695755958557,"52":-0.22871752083301544,"53":-0.08070278912782669,"54":0.25890371203422546,"55":-0.3187613785266876,"56":-0.5302179455757141,"57":-0.36002132296562195,"58":-0.588461697101593,"59":-0.3538843095302582,"60":0.34787890315055847,"61":-0.38219204545021057,"62":-0.1084151566028595,"63":0.012687881477177143,"64":0.06722632795572281,"65":0.04662971571087837,"66":-0.29691940546035767,"67":-0.3435949981212616,"68":-0.12659019231796265,"69":-0.12171877920627594,"70":-0.26010945439338684,"71":-0.2577289938926697,"72":-0.39189571142196655,"73":-0.10887956619262695,"74":-0.30773892998695374,"75":0.002534485189244151,"76":-0.04870820790529251}},"34":{"bias":0.3077828586101532,"weights":{"0":0.15615999698638916,"1":-0.022345151752233505,"2":-0.5262733697891235,"3":-0.0817151591181755,"4":0.19926121830940247,"5":0.15228788554668427,"6":0.01586069166660309,"7":-0.3168683648109436,"8":-0.09123577177524567,"9":-0.34269246459007263,"10":-0.4485951066017151,"11":-0.3498193919658661,"12":0.21431459486484528,"13":-0.2612520456314087,"14":-0.10793441534042358,"15":-0.15547581017017365,"16":-0.2283870130777359,"17":-0.172795832157135,"18":-0.4187460243701935,"19":-0.49842944741249084,"20":-0.011588401161134243,"21":-0.14610132575035095,"22":-0.07616975158452988,"23":0.08496398478746414,"24":0.09723212569952011,"25":-0.019468490034341812,"26":0.06281941384077072,"27":0.19278573989868164,"28":-0.11625488102436066,"29":0.033109575510025024,"30":-0.09553013741970062,"31":0.019353320822119713,"32":-0.2962326109409332,"33":-0.07796332985162735,"34":0.027642838656902313,"35":-0.2684772312641144,"36":0.1788071244955063,"37":0.1570412814617157,"38":0.784015953540802,"39":-0.1335672289133072,"40":-0.1487795114517212,"41":0.010004237294197083,"42":-0.02908339910209179,"43":-0.23801274597644806,"44":0.02075585164129734,"45":-0.12873601913452148,"46":-0.2556559145450592,"47":0.1220908984541893,"48":0.16608020663261414,"49":-0.13056953251361847,"50":-0.2509160339832306,"51":-0.12756723165512085,"52":-0.06166122853755951,"53":0.016968782991170883,"54":-0.49317342042922974,"55":-0.7996280193328857,"56":-0.3350675106048584,"57":-0.21737994253635406,"58":-0.16361163556575775,"59":-0.32978302240371704,"60":-0.30311107635498047,"61":-0.5815603733062744,"62":-0.028912760317325592,"63":-0.05514071509242058,"64":-0.39313316345214844,"65":0.05919613689184189,"66":0.07795213907957077,"67":-0.0477343387901783,"68":0.10426612943410873,"69":0.04460284858942032,"70":-0.14140503108501434,"71":-0.06286626309156418,"72":-0.08532478660345078,"73":-0.15468305349349976,"74":-0.24611273407936096,"75":-0.15892942249774933,"76":-0.0845116451382637}},"35":{"bias":-0.3626405596733093,"weights":{"0":0.4187156558036804,"1":-0.12948107719421387,"2":-0.08427833020687103,"3":0.09538834542036057,"4":-0.01789402775466442,"5":-0.03105984628200531,"6":0.3438951373100281,"7":0.07925008237361908,"8":-0.31435278058052063,"9":-0.031690701842308044,"10":0.280749648809433,"11":-0.8331406116485596,"12":0.21320098638534546,"13":0.34543853998184204,"14":0.49051767587661743,"15":0.17873401939868927,"16":-1.1243281364440918,"17":0.3824741840362549,"18":0.4043712317943573,"19":0.31043586134910583,"20":0.3033536374568939,"21":-0.06310029327869415,"22":-0.03316487744450569,"23":-0.159460186958313,"24":-0.045376330614089966,"25":-0.13931946456432343,"26":-0.0434829518198967,"27":0.2470608949661255,"28":-0.32976338267326355,"29":-0.44431307911872864,"30":-0.1120646521449089,"31":0.050108712166547775,"32":0.25147390365600586,"33":0.19431297481060028,"34":0.0451473593711853,"35":0.13070181012153625,"36":0.1619662642478943,"37":-0.025263017043471336,"38":0.40034154057502747,"39":-0.08270247280597687,"40":0.1697559952735901,"41":-0.10514107346534729,"42":-0.019073905423283577,"43":-0.02182197757065296,"44":0.35350245237350464,"45":0.22266606986522675,"46":0.005093648098409176,"47":-0.01247832179069519,"48":0.31429415941238403,"49":0.02822052873671055,"50":-0.1052301749587059,"51":-0.04821750149130821,"52":0.025028062984347343,"53":-0.038843508809804916,"54":0.3015769422054291,"55":0.6787111759185791,"56":0.4828803539276123,"57":0.4874565005302429,"58":0.5547782182693481,"59":-0.2640575170516968,"60":0.015515478327870369,"61":0.7490004897117615,"62":-0.16439500451087952,"63":0.07671377062797546,"64":-0.0649724155664444,"65":0.04904104769229889,"66":-0.18645770847797394,"67":-0.1986285299062729,"68":-0.15435732901096344,"69":-0.3295745551586151,"70":-0.23557375371456146,"71":-0.4292949140071869,"72":-0.43882623314857483,"73":-0.3443973958492279,"74":-0.3653903305530548,"75":-0.030078820884227753,"76":-0.1429939717054367}},"36":{"bias":0.41688409447669983,"weights":{"0":0.475119024515152,"1":-0.2982443571090698,"2":-0.19350935518741608,"3":-0.04978269338607788,"4":0.14470811188220978,"5":0.6072930693626404,"6":-0.19448970258235931,"7":-0.2126583456993103,"8":-0.3008505702018738,"9":-0.4349377155303955,"10":-0.07306616008281708,"11":-1.126657247543335,"12":0.32227829098701477,"13":-0.05419820919632912,"14":0.22578544914722443,"15":0.2478112131357193,"16":-0.8895915746688843,"17":-0.0881384089589119,"18":0.14173346757888794,"19":-0.260700523853302,"20":-0.1444905400276184,"21":0.1605076640844345,"22":0.196796253323555,"23":0.23447974026203156,"24":0.1439112275838852,"25":0.06494954973459244,"26":-0.0042734588496387005,"27":0.17018330097198486,"28":-0.264620840549469,"29":-0.08488021045923233,"30":-0.36813271045684814,"31":0.2968384325504303,"32":-0.24884851276874542,"33":0.07151828706264496,"34":0.013424006290733814,"35":-0.37580689787864685,"36":0.12002813816070557,"37":0.1815517097711563,"38":0.9733874201774597,"39":-0.5087392330169678,"40":0.1771237552165985,"41":-0.1942116767168045,"42":0.07147936522960663,"43":0.1536581665277481,"44":0.5298296213150024,"45":0.3936913311481476,"46":0.2945811450481415,"47":-0.08362532407045364,"48":0.2639884352684021,"49":0.15453879535198212,"50":0.3157278001308441,"51":0.10836132615804672,"52":0.11464934051036835,"53":0.09091167151927948,"54":-0.6076831221580505,"55":-0.8329467177391052,"56":-0.22569413483142853,"57":-0.1554279625415802,"58":-0.1742035448551178,"59":-0.16937316954135895,"60":-0.1726006269454956,"61":-0.30903008580207825,"62":-0.07304052263498306,"63":0.19956162571907043,"64":-0.32478833198547363,"65":0.34319913387298584,"66":-0.1079055666923523,"67":-0.4269372224807739,"68":-0.11664944142103195,"69":-0.05926240235567093,"70":-0.08721261471509933,"71":-0.41740715503692627,"72":-0.2027416229248047,"73":-0.283555269241333,"74":-0.08821919560432434,"75":-0.12536393105983734,"76":0.16073885560035706}},"37":{"bias":-0.9429064393043518,"weights":{"0":-0.2336302101612091,"1":-0.0026103996206074953,"2":-0.0692245364189148,"3":-0.06413663178682327,"4":-0.19343963265419006,"5":-0.3620509207248688,"6":0.04705546423792839,"7":0.07175575941801071,"8":-0.006275873631238937,"9":0.22898927330970764,"10":-0.20382487773895264,"11":-0.537558913230896,"12":-0.30370306968688965,"13":-0.12817029654979706,"14":-0.08014243841171265,"15":-0.05642697587609291,"16":-0.6173446178436279,"17":0.06333319842815399,"18":0.12712399661540985,"19":-0.0011306374799460173,"20":0.049233391880989075,"21":-0.23231112957000732,"22":0.023603789508342743,"23":-0.069597527384758,"24":-0.18754009902477264,"25":-0.17078110575675964,"26":-0.057512566447257996,"27":-0.26738277077674866,"28":0.047267425805330276,"29":-0.05568042770028114,"30":0.16445595026016235,"31":-0.5600118637084961,"32":0.3049788773059845,"33":-0.007868443615734577,"34":0.1419057548046112,"35":0.39072418212890625,"36":-0.07647441327571869,"37":0.13221481442451477,"38":-0.09599312394857407,"39":0.15469208359718323,"40":-0.1267555207014084,"41":-0.07507714629173279,"42":-0.17188625037670135,"43":0.014256462454795837,"44":-0.11339528858661652,"45":-0.16515618562698364,"46":0.03998897224664688,"47":0.020944200456142426,"48":-0.1971128135919571,"49":-0.03520245850086212,"50":-0.18251952528953552,"51":0.12341879308223724,"52":0.0445217490196228,"53":-0.07486003637313843,"54":0.27709755301475525,"55":0.3961067795753479,"56":-0.23250322043895721,"57":-0.16699981689453125,"58":-0.25913205742836,"59":-0.008272443898022175,"60":0.2915795147418976,"61":-0.07271849364042282,"62":0.11316877603530884,"63":0.11315207928419113,"64":0.11522502452135086,"65":-0.2244953215122223,"66":-0.031728580594062805,"67":-0.09490688145160675,"68":0.12355437129735947,"69":0.028110891580581665,"70":0.18932834267616272,"71":-0.023092614486813545,"72":0.1692364513874054,"73":0.1250518560409546,"74":0.12115921080112457,"75":0.19609546661376953,"76":-0.029920898377895355}}},{"PDC":{"bias":-2.232930898666382,"weights":{"0":-1.7688521146774292,"1":-0.4431327283382416,"2":1.039986491203308,"3":-0.4634363353252411,"4":-0.9908851981163025,"5":-0.463743656873703,"6":-0.1769631803035736,"7":0.24871696531772614,"8":-1.367218255996704,"9":-1.3720166683197021,"10":0.14945846796035767,"11":1.239130973815918,"12":1.056951642036438,"13":-2.5248019695281982,"14":-0.6764249801635742,"15":-0.5242587924003601,"16":-1.8038407564163208,"17":1.4625109434127808,"18":-2.903637170791626,"19":-0.6416558623313904,"20":1.1317193508148193,"21":1.037001132965088,"22":-1.1619558334350586,"23":0.8326303958892822,"24":-0.39911940693855286,"25":1.8606927394866943,"26":0.9656108021736145,"27":-1.8155982494354248,"28":0.8499722480773926,"29":-1.1640145778656006,"30":-0.7814557552337646,"31":-0.5329928398132324,"32":1.172644853591919,"33":0.8840917944908142,"34":1.3216105699539185,"35":-0.034564126282930374,"36":1.8057790994644165,"37":-1.490108609199524}},"IP":{"bias":-2.5220625400543213,"weights":{"0":-0.09826153516769409,"1":-1.4261776208877563,"2":-0.5804241895675659,"3":0.6902182698249817,"4":1.1209936141967773,"5":-1.5686821937561035,"6":-0.3138726055622101,"7":-1.4096531867980957,"8":-0.9248443841934204,"9":-0.5149950385093689,"10":-1.1828010082244873,"11":0.9751993417739868,"12":-0.8866353034973145,"13":-0.43396392464637756,"14":-1.8430856466293335,"15":0.22486838698387146,"16":-0.08676200360059738,"17":-1.450456976890564,"18":0.052384067326784134,"19":1.9175119400024414,"20":-1.9232317209243774,"21":-1.4745054244995117,"22":-1.3268829584121704,"23":1.1341551542282104,"24":1.304703950881958,"25":0.8583536744117737,"26":-1.51104736328125,"27":-1.5478558540344238,"28":-0.17956723272800446,"29":-0.10887973755598068,"30":0.5758767127990723,"31":1.0073213577270508,"32":-0.3036832809448242,"33":0.5183849334716797,"34":-1.4547054767608643,"35":0.9096886515617371,"36":-0.8600629568099976,"37":-0.7452434301376343}},"IGF":{"bias":-2.5745787620544434,"weights":{"0":-2.7120847702026367,"1":0.2619374394416809,"2":-0.48284414410591125,"3":0.9079976677894592,"4":-0.5402724742889404,"5":-1.8658456802368164,"6":0.99062180519104,"7":-1.4148430824279785,"8":0.0030712804291397333,"9":0.45057111978530884,"10":-0.23112593591213226,"11":0.08939134329557419,"12":0.6828820109367371,"13":-0.371854692697525,"14":-1.7906893491744995,"15":0.9708616733551025,"16":-1.0667654275894165,"17":-0.21868997812271118,"18":-0.4569763243198395,"19":-0.5710543394088745,"20":0.6599761843681335,"21":-1.7775849103927612,"22":0.2546161413192749,"23":1.2990336418151855,"24":0.8038001656532288,"25":-1.3083956241607666,"26":1.1913204193115234,"27":-1.2964805364608765,"28":0.09459440410137177,"29":0.9430862069129944,"30":-1.205206274986267,"31":-1.2980806827545166,"32":1.3540997505187988,"33":-1.7216732501983643,"34":-1.024531602859497,"35":1.3844331502914429,"36":-0.5336287021636963,"37":-1.3320744037628174}},"LSA":{"bias":-2.5142691135406494,"weights":{"0":-0.35298845171928406,"1":-1.6183531284332275,"2":-0.45617052912712097,"3":0.8536549210548401,"4":-1.2133629322052002,"5":1.2591755390167236,"6":-0.53621506690979,"7":1.1277788877487183,"8":0.23912285268306732,"9":-1.5093861818313599,"10":-1.1584484577178955,"11":-0.6083738207817078,"12":-0.26133498549461365,"13":-0.1573786735534668,"14":-2.1431946754455566,"15":-1.2847824096679688,"16":-0.12850405275821686,"17":-0.9455917477607727,"18":-0.3723500967025757,"19":-0.8645233511924744,"20":-1.7090920209884644,"21":0.8620285391807556,"22":-1.265437126159668,"23":0.2555808424949646,"24":-0.5569305419921875,"25":-0.07118077576160431,"26":0.8947826027870178,"27":-2.0746240615844727,"28":1.5068724155426025,"29":0.8131989240646362,"30":-1.6538506746292114,"31":-0.5341556668281555,"32":1.3053467273712158,"33":0.7148853540420532,"34":-1.5458471775054932,"35":0.6098324656486511,"36":-0.7545520663261414,"37":-0.352176308631897}},"IG":{"bias":-2.198586940765381,"weights":{"0":-1.222449779510498,"1":0.012609804980456829,"2":1.1157037019729614,"3":-0.6176323890686035,"4":0.7641562819480896,"5":-0.3020707070827484,"6":0.9142578840255737,"7":0.20791709423065186,"8":-1.0262863636016846,"9":0.1538851410150528,"10":0.35340747237205505,"11":0.7994775772094727,"12":2.3697569370269775,"13":-2.0229809284210205,"14":0.09916272014379501,"15":0.7361646890640259,"16":-1.4513763189315796,"17":-0.8582866191864014,"18":0.011284214444458485,"19":1.789250373840332,"20":-0.43727993965148926,"21":-1.6251109838485718,"22":1.4943013191223145,"23":-0.6299129128456116,"24":-0.9935988187789917,"25":-0.5234877467155457,"26":-1.485926866531372,"27":-2.4164159297943115,"28":1.1019539833068848,"29":0.6369059681892395,"30":-0.46718332171440125,"31":1.8166440725326538,"32":-1.3642246723175049,"33":-0.976618230342865,"34":-0.040340226143598557,"35":-2.0109879970550537,"36":-1.0197954177856445,"37":-2.1476292610168457}},"BI":{"bias":-2.386644124984741,"weights":{"0":-1.8237674236297607,"1":-1.7587387561798096,"2":1.098709225654602,"3":-0.5026113986968994,"4":-0.6649273037910461,"5":1.001787543296814,"6":-1.109915852546692,"7":-1.0383148193359375,"8":0.2549467980861664,"9":-1.8642395734786987,"10":0.6852544546127319,"11":1.1901776790618896,"12":0.4374004304409027,"13":0.02649388648569584,"14":-0.003817017422989011,"15":-1.5967496633529663,"16":-1.9032536745071411,"17":0.2050340622663498,"18":-0.38832715153694153,"19":-0.10824311524629593,"20":-1.490958333015442,"21":-1.4029510021209717,"22":0.7377743124961853,"23":-0.20555974543094635,"24":1.1869791746139526,"25":-0.8647709488868713,"26":0.3826136589050293,"27":0.035192567855119705,"28":-0.09988200664520264,"29":-0.091523177921772,"30":0.7924911379814148,"31":-0.7736631631851196,"32":-1.1333720684051514,"33":-1.1034740209579468,"34":-0.865440309047699,"35":0.5089424252510071,"36":1.1318564414978027,"37":-1.4258171319961548}},"GI":{"bias":-2.3470065593719482,"weights":{"0":-1.5320556163787842,"1":0.07738827168941498,"2":-1.0867748260498047,"3":1.0270065069198608,"4":0.785720944404602,"5":0.5329005122184753,"6":0.755412220954895,"7":1.0541492700576782,"8":-0.9020348787307739,"9":-1.812770128250122,"10":2.4283549785614014,"11":-0.770547091960907,"12":-0.5630089640617371,"13":-2.2761175632476807,"14":0.239521324634552,"15":-1.260571002960205,"16":-0.5419544577598572,"17":-1.3773187398910522,"18":-0.28065258264541626,"19":0.3566907048225403,"20":-2.072458267211914,"21":-0.8585134744644165,"22":-0.6981920599937439,"23":-0.6186778545379639,"24":-0.32336050271987915,"25":-0.6100845336914062,"26":-1.620132565498352,"27":0.703787624835968,"28":-0.7029479742050171,"29":0.4863840341567993,"30":-0.6253070831298828,"31":0.04692810773849487,"32":2.113558292388916,"33":0.18208397924900055,"34":-0.062466513365507126,"35":-0.18668779730796814,"36":1.0603466033935547,"37":-2.040473461151123}},"SIBO":{"bias":-2.2315638065338135,"weights":{"0":-0.7083479762077332,"1":-1.5780986547470093,"2":-0.7797936797142029,"3":-1.3655961751937866,"4":-0.7132458686828613,"5":1.0820082426071167,"6":0.439975768327713,"7":0.8613057732582092,"8":-1.7543261051177979,"9":0.49437403678894043,"10":-0.898258626461029,"11":-0.04704076051712036,"12":-0.7335709929466248,"13":0.0642620101571083,"14":-1.3900792598724365,"15":0.3548407554626465,"16":-2.4111945629119873,"17":0.2853597104549408,"18":-0.6753793954849243,"19":-1.1919286251068115,"20":-1.7123637199401855,"21":0.9597138166427612,"22":0.9007437825202942,"23":0.7660748362541199,"24":-0.6803287863731384,"25":-0.5901424884796143,"26":-1.5319193601608276,"27":-1.4024118185043335,"28":-0.9897346496582031,"29":-0.5053563117980957,"30":0.5046365261077881,"31":1.0236408710479736,"32":-1.2436498403549194,"33":1.148114800453186,"34":-0.006468573585152626,"35":1.1119917631149292,"36":0.8678731322288513,"37":-1.843770146369934}},"MA":{"bias":-0.1516595035791397,"weights":{"0":0.06834337115287781,"1":0.30553895235061646,"2":-0.4751271605491638,"3":-0.7435415983200073,"4":-0.2944600582122803,"5":-0.7721714377403259,"6":-0.5109994411468506,"7":-0.4898548424243927,"8":-0.07979607582092285,"9":-0.09327159076929092,"10":-0.5064312815666199,"11":-0.902753472328186,"12":-0.5901401042938232,"13":0.06588263064622879,"14":0.09326591342687607,"15":-0.183268204331398,"16":0.4264324903488159,"17":-0.12362051755189896,"18":-0.26518988609313965,"19":-0.50107741355896,"20":0.6875898241996765,"21":-0.04666464775800705,"22":-0.4869648516178131,"23":-0.919329822063446,"24":-0.7016693949699402,"25":-0.12692870199680328,"26":-0.2543345093727112,"27":0.33014288544654846,"28":-0.792954683303833,"29":-0.7077991366386414,"30":-0.2789379358291626,"31":-0.7701810598373413,"32":-0.895199716091156,"33":-0.4325006604194641,"34":0.08986230194568634,"35":-0.8946315050125122,"36":-0.8024041652679443,"37":0.3531038463115692}},"NoP":{"bias":-0.11181508004665375,"weights":{"0":0.07521472871303558,"1":0.30998772382736206,"2":-0.4816233813762665,"3":-0.7485622763633728,"4":-0.29293596744537354,"5":-0.7711800336837769,"6":-0.5095383524894714,"7":-0.4897015690803528,"8":-0.07591915875673294,"9":-0.089018814265728,"10":-0.5168507695198059,"11":-0.9783815145492554,"12":-0.6946808099746704,"13":0.0712348222732544,"14":0.09831131994724274,"15":-0.1807471215724945,"16":0.432810515165329,"17":-0.12114731967449188,"18":-0.26160845160484314,"19":-0.5065438151359558,"20":0.692887544631958,"21":-0.043695174157619476,"22":-0.4836307466030121,"23":-0.8763134479522705,"24":-0.676621675491333,"25":-0.1252184510231018,"26":-0.25187933444976807,"27":0.3367253541946411,"28":-0.8629502654075623,"29":-0.748970627784729,"30":-0.2765699625015259,"31":-0.753426194190979,"32":-0.8130513429641724,"33":-0.43234583735466003,"34":0.09254052489995956,"35":-0.9660881757736206,"36":-0.8032819032669067,"37":0.3608165979385376}}}],"outputLookup":true,"inputLookup":false,"activation":"sigmoid","trainOpts":{"iterations":20000,"errorThresh":0.005,"log":false,"logPeriod":10,"learningRate":0.3,"momentum":0.1,"callbackPeriod":10,"beta1":0.9,"beta2":0.999,"epsilon":1e-8}}