{"sizes":[77,38,9],"layers":[{"0":{},"1":{},"2":{},"3":{},"4":{},"5":{},"6":{},"7":{},"8":{},"9":{},"10":{},"11":{},"12":{},"13":{},"14":{},"15":{},"16":{},"17":{},"18":{},"19":{},"20":{},"21":{},"22":{},"23":{},"24":{},"25":{},"26":{},"27":{},"28":{},"29":{},"30":{},"31":{},"32":{},"33":{},"34":{},"35":{},"36":{},"37":{},"38":{},"39":{},"40":{},"41":{},"42":{},"43":{},"44":{},"45":{},"46":{},"47":{},"48":{},"49":{},"50":{},"51":{},"52":{},"53":{},"54":{},"55":{},"56":{},"57":{},"58":{},"59":{},"60":{},"61":{},"62":{},"63":{},"64":{},"65":{},"66":{},"67":{},"68":{},"69":{},"70":{},"71":{},"72":{},"73":{},"74":{},"75":{},"76":{}},{"0":{"bias":-0.0003693653561640531,"weights":{"0":-0.15033528208732605,"1":0.5651760101318359,"2":-0.15615960955619812,"3":-0.03403916582465172,"4":0.07256575673818588,"5":-0.27321693301200867,"6":-0.30373838543891907,"7":-0.34036755561828613,"8":-0.1200602576136589,"9":-0.052642572671175,"10":0.05185545235872269,"11":0.2838252782821655,"12":-0.10234186053276062,"13":-0.08708921819925308,"14":-0.04171512648463249,"15":0.4448455572128296,"16":0.17129552364349365,"17":-0.10133826732635498,"18":0.029681630432605743,"19":-0.1488332450389862,"20":0.023300256580114365,"21":0.05771400034427643,"22":0.2600582540035248,"23":0.07439979165792465,"24":-0.022979894652962685,"25":0.09824377298355103,"26":0.29594507813453674,"27":-0.03914971649646759,"28":0.07490623742341995,"29":0.21137693524360657,"30":-0.08405350893735886,"31":-0.09127964824438095,"32":0.011163493618369102,"33":-0.5464532971382141,"34":-0.14612843096256256,"35":0.04825635254383087,"36":0.0010941793443635106,"37":0.029653526842594147,"38":0.1610693335533142,"39":-0.012075207196176052,"40":0.0016551316948607564,"41":0.09624382853507996,"42":0.03688628226518631,"43":-0.10300451517105103,"44":0.22266031801700592,"45":-0.07125547528266907,"46":0.18860532343387604,"47":-0.05515780299901962,"48":0.2115226686000824,"49":-0.06021970883011818,"50":0.09273063391447067,"51":0.21563605964183807,"52":-0.19981081783771515,"53":-0.14182567596435547,"54":-0.15554404258728027,"55":0.2116987109184265,"56":0.12181413173675537,"57":0.07827100157737732,"58":-0.03919060155749321,"59":0.12653133273124695,"60":-0.03860509768128395,"61":-0.06790085136890411,"62":-0.016077151522040367,"63":-0.0650794729590416,"64":-0.12073855102062225,"65":-0.10368393361568451,"66":0.04885295033454895,"67":-0.07279298454523087,"68":-0.39511311054229736,"69":-0.23631231486797333,"70":-0.3455006182193756,"71":-0.08333828300237656,"72":-0.030523354187607765,"73":-0.10298377275466919,"74":-0.318948894739151,"75":0.13185018301010132,"76":0.18266625702381134}},"1":{"bias":-0.16369850933551788,"weights":{"0":0.21041646599769592,"1":0.07123836129903793,"2":-0.08185447007417679,"3":0.08579201996326447,"4":0.4350739121437073,"5":0.48691868782043457,"6":-0.3271445035934448,"7":0.14644043147563934,"8":-0.11679138988256454,"9":-0.17489519715309143,"10":0.26215308904647827,"11":-0.04469455033540726,"12":0.06211632117629051,"13":0.18463961780071259,"14":0.1115594357252121,"15":-0.22226423025131226,"16":0.011846354231238365,"17":0.03729885444045067,"18":-0.05923636630177498,"19":-0.037456873804330826,"20":0.06971989572048187,"21":-0.19422118365764618,"22":0.06701213866472244,"23":0.03342599421739578,"24":0.0749114602804184,"25":0.09548810124397278,"26":-0.13812904059886932,"27":0.26370179653167725,"28":0.0828799158334732,"29":0.21443551778793335,"30":0.15882356464862823,"31":-0.12596014142036438,"32":-0.0804237350821495,"33":0.13895156979560852,"34":-0.0460977628827095,"35":-0.1963101178407669,"36":0.1374506801366806,"37":-0.19425036013126373,"38":0.06583583354949951,"39":0.17829447984695435,"40":0.2435723841190338,"41":-0.05300907418131828,"42":0.03944961354136467,"43":0.2751939594745636,"44":0.24366243183612823,"45":0.1720477044582367,"46":0.06461799889802933,"47":0.2605849504470825,"48":0.07774489372968674,"49":0.1019391268491745,"50":0.20276707410812378,"51":0.26728010177612305,"52":-0.17050102353096008,"53":0.10784155130386353,"54":0.09116065502166748,"55":0.19143328070640564,"56":0.08219455182552338,"57":0.09334246814250946,"58":0.2306864857673645,"59":-0.016083374619483948,"60":0.01944764517247677,"61":0.1004195511341095,"62":0.14690741896629333,"63":0.19843009114265442,"64":0.18063171207904816,"65":0.07090865075588226,"66":-0.0342659093439579,"67":0.21087390184402466,"68":-0.20377257466316223,"69":-0.21087037026882172,"70":-0.3543148636817932,"71":-0.37131762504577637,"72":0.10465159267187119,"73":0.27622807025909424,"74":-0.002717824187129736,"75":0.03075380250811577,"76":0.04315412789583206}},"2":{"bias":-0.045426931232213974,"weights":{"0":-0.2099461555480957,"1":-0.5704948902130127,"2":-0.21362823247909546,"3":-0.26789477467536926,"4":0.07247398793697357,"5":0.060765862464904785,"6":-0.2311394065618515,"7":-0.073842853307724,"8":0.10935653001070023,"9":-0.08397752046585083,"10":-0.15040834248065948,"11":0.261675626039505,"12":0.24875611066818237,"13":-0.19256503880023956,"14":-0.30468612909317017,"15":-0.3952424228191376,"16":0.0013828568626195192,"17":0.04258168116211891,"18":-0.06709190458059311,"19":-0.05246121063828468,"20":0.023634791374206543,"21":-0.01140379998832941,"22":0.16780520975589752,"23":-0.1025935560464859,"24":0.06179068982601166,"25":0.20554113388061523,"26":0.3593207597732544,"27":-0.005784749519079924,"28":0.10542815923690796,"29":0.018021484836935997,"30":-0.2571974992752075,"31":0.09506210684776306,"32":0.0024992018006742,"33":0.2332828938961029,"34":-0.20611396431922913,"35":-0.19577443599700928,"36":-0.08681144565343857,"37":-0.1258782148361206,"38":0.4609872102737427,"39":-0.09549038112163544,"40":-0.009810305200517178,"41":0.41522088646888733,"42":0.07925599813461304,"43":0.09711550921201706,"44":0.057958122342824936,"45":0.06406906992197037,"46":-0.17018944025039673,"47":0.21112513542175293,"48":-0.05583314597606659,"49":-0.09322969615459442,"50":0.07752889394760132,"51":0.08034955710172653,"52":-0.19132119417190552,"53":-0.05660771206021309,"54":0.19081439077854156,"55":0.23099416494369507,"56":0.0335300974547863,"57":-0.1954026073217392,"58":0.0322471559047699,"59":-0.12990425527095795,"60":0.02887718379497528,"61":0.14911547303199768,"62":0.23709239065647125,"63":-0.14187289774417877,"64":0.023767828941345215,"65":0.23624619841575623,"66":0.07818116247653961,"67":0.10470866411924362,"68":-0.1674952208995819,"69":-0.29428794980049133,"70":-0.04369990527629852,"71":0.04135642573237419,"72":0.14104457199573517,"73":0.2616812586784363,"74":0.14610882103443146,"75":-0.17856526374816895,"76":-0.14275723695755005}},"3":{"bias":-0.004018268547952175,"weights":{"0":-0.15296325087547302,"1":-0.028030946850776672,"2":-0.02708543837070465,"3":0.09956729412078857,"4":-0.4039939045906067,"5":-0.4324936270713806,"6":0.15241849422454834,"7":0.046431753784418106,"8":0.41837748885154724,"9":-0.3013666868209839,"10":-0.3620617985725403,"11":0.5224219560623169,"12":0.016921471804380417,"13":0.15354058146476746,"14":-0.10914682596921921,"15":0.09154030680656433,"16":-0.01279703713953495,"17":-0.006272425875067711,"18":0.029190298169851303,"19":-0.09789538383483887,"20":-0.053510911762714386,"21":-0.13973842561244965,"22":0.3028312027454376,"23":-0.0631064623594284,"24":0.1382046788930893,"25":0.23154737055301666,"26":0.2778780460357666,"27":-0.01475189533084631,"28":-0.15786753594875336,"29":0.06653426587581635,"30":-0.028248552232980728,"31":0.13977622985839844,"32":-0.023057561367750168,"33":-0.14147992432117462,"34":-0.09005149453878403,"35":0.17815877497196198,"36":-0.17484566569328308,"37":-0.07201186567544937,"38":0.3068157434463501,"39":-0.10860660672187805,"40":-0.04669355973601341,"41":0.10701799392700195,"42":-0.029612375423312187,"43":-0.06532703340053558,"44":0.3035214841365814,"45":0.21794994175434113,"46":0.18063007295131683,"47":0.004716016352176666,"48":-0.05045310780405998,"49":0.03730997070670128,"50":0.2757202684879303,"51":0.08362451940774918,"52":-0.09934163838624954,"53":0.061128880828619,"54":-0.08581317216157913,"55":0.0403735525906086,"56":-0.16937795281410217,"57":-0.07295988500118256,"58":0.10373004525899887,"59":0.05845531448721886,"60":-0.026924094185233116,"61":0.006882965099066496,"62":0.015760693699121475,"63":-0.0510283038020134,"64":0.0033734070602804422,"65":-0.175045445561409,"66":0.09399748593568802,"67":-0.17563821375370026,"68":0.032105788588523865,"69":0.06612036377191544,"70":0.13813604414463043,"71":0.028212035074830055,"72":0.10896749794483185,"73":-0.19958069920539856,"74":-0.1758580505847931,"75":0.08818173408508301,"76":-0.07914310693740845}},"4":{"bias":0.013397266156971455,"weights":{"0":-0.21145734190940857,"1":-0.209162637591362,"2":0.23002217710018158,"3":-0.1794586479663849,"4":-0.19272300601005554,"5":0.05734043940901756,"6":0.14210788905620575,"7":0.318740576505661,"8":-0.37994638085365295,"9":0.14885084331035614,"10":0.020390527322888374,"11":-0.34949612617492676,"12":-0.38034647703170776,"13":0.14564117789268494,"14":0.06322798132896423,"15":-0.11727394908666611,"16":0.10949675738811493,"17":0.2596706748008728,"18":0.0377679206430912,"19":0.1870492696762085,"20":-0.09636084735393524,"21":0.3051992952823639,"22":-0.20142628252506256,"23":0.023127835243940353,"24":-0.08469382673501968,"25":-0.12631814181804657,"26":-0.015649745240807533,"27":0.02282056398689747,"28":-0.1989944726228714,"29":-0.04162915423512459,"30":0.044364046305418015,"31":0.18388676643371582,"32":0.12315235286951065,"33":0.4153515696525574,"34":-0.2430557906627655,"35":0.17459851503372192,"36":0.08617112040519714,"37":0.14476029574871063,"38":0.12847845256328583,"39":-0.057278942316770554,"40":0.12894536554813385,"41":-0.26082128286361694,"42":-0.20462022721767426,"43":-0.1026001051068306,"44":-0.18864783644676208,"45":0.08852563053369522,"46":-0.152224600315094,"47":0.034813009202480316,"48":-0.029062924906611443,"49":-0.26789066195487976,"50":0.07154525071382523,"51":-0.09985103458166122,"52":0.07649751752614975,"53":-0.1778227984905243,"54":0.17555342614650726,"55":-0.11379717290401459,"56":0.4222988188266754,"57":0.11137933284044266,"58":0.19145627319812775,"59":0.18644580245018005,"60":0.36420854926109314,"61":0.12958894670009613,"62":-0.1270158588886261,"63":0.2140032947063446,"64":0.12813721597194672,"65":0.22656087577342987,"66":-0.0927560105919838,"67":-0.10699519515037537,"68":-0.17646607756614685,"69":-0.09516339749097824,"70":0.010736252181231976,"71":0.028277283534407616,"72":0.07011865824460983,"73":-0.26434335112571716,"74":-0.3885279893875122,"75":-0.16928118467330933,"76":-0.14227718114852905}},"5":{"bias":-0.23409537971019745,"weights":{"0":0.056875523179769516,"1":-0.10007920116186142,"2":0.07432526350021362,"3":0.199017733335495,"4":-0.15545867383480072,"5":0.23257552087306976,"6":-0.018183207139372826,"7":0.5111525654792786,"8":0.19060596823692322,"9":-0.01671542041003704,"10":0.0956137552857399,"11":0.0666438490152359,"12":0.13688991963863373,"13":0.004931808449327946,"14":0.3956194818019867,"15":-0.03563998267054558,"16":-0.115402452647686,"17":0.010427959263324738,"18":0.0005587046034634113,"19":-0.035371921956539154,"20":-0.2594602108001709,"21":0.004546693991869688,"22":0.008198992349207401,"23":0.11565463989973068,"24":-0.09010477364063263,"25":0.13435064256191254,"26":-0.039279039949178696,"27":0.14126300811767578,"28":0.17284317314624786,"29":-0.232023686170578,"30":0.09089939296245575,"31":0.19155876338481903,"32":0.16706368327140808,"33":-0.2558850646018982,"34":0.053662460297346115,"35":0.17616863548755646,"36":-0.1358703225851059,"37":-0.15115609765052795,"38":-0.29007580876350403,"39":0.14983966946601868,"40":0.3035120964050293,"41":0.1525798887014389,"42":0.1808164417743683,"43":-0.04097853600978851,"44":0.079706571996212,"45":-0.10024481266736984,"46":0.2410239279270172,"47":-0.028568783774971962,"48":-0.07183121144771576,"49":0.1995418220758438,"50":0.127407968044281,"51":0.2022983282804489,"52":0.08670920878648758,"53":0.055229946970939636,"54":-0.28338927030563354,"55":-0.027060138061642647,"56":0.2056148499250412,"57":0.09276693314313889,"58":-0.22758881747722626,"59":-0.17031146585941315,"60":0.03572303056716919,"61":-0.1404215395450592,"62":-0.1503860056400299,"63":-0.034332241863012314,"64":0.1802174150943756,"65":-0.16585980355739594,"66":-0.16042806208133698,"67":-0.08465543389320374,"68":0.31309226155281067,"69":0.3376379907131195,"70":0.15552158653736115,"71":0.16256815195083618,"72":-0.18679678440093994,"73":-0.08694566041231155,"74":-0.19911083579063416,"75":-0.012590951286256313,"76":0.16988496482372284}},"6":{"bias":-0.09490232169628143,"weights":{"0":0.22814826667308807,"1":-0.4099922776222229,"2":0.33599355816841125,"3":0.03362978622317314,"4":-0.3120265007019043,"5":-0.04408042132854462,"6":-0.37032490968704224,"7":0.42659565806388855,"8":-0.07284330576658249,"9":0.3461657762527466,"10":0.1515478789806366,"11":-0.0013337833806872368,"12":0.2962268888950348,"13":0.07594633847475052,"14":0.1770290583372116,"15":-0.6456090211868286,"16":-0.2584567070007324,"17":-0.004306016489863396,"18":0.0010992797324433923,"19":0.0921950712800026,"20":-0.04375654458999634,"21":0.20690906047821045,"22":0.16859817504882812,"23":-0.07708171010017395,"24":0.21650725603103638,"25":0.22791680693626404,"26":-0.2857944071292877,"27":0.17640472948551178,"28":-0.18728983402252197,"29":-0.15785068273544312,"30":0.16864806413650513,"31":-0.1792469620704651,"32":-0.005402569193392992,"33":0.8563451170921326,"34":0.26483339071273804,"35":0.11270837485790253,"36":-0.03506915643811226,"37":-0.17754575610160828,"38":-0.28416258096694946,"39":0.02296055667102337,"40":0.26701176166534424,"41":-0.12044397741556168,"42":0.242140531539917,"43":-0.03501508757472038,"44":0.08494002372026443,"45":0.17465490102767944,"46":0.031517818570137024,"47":-0.09897039830684662,"48":0.11101134121417999,"49":-0.11094463616609573,"50":0.1819804310798645,"51":0.039883002638816833,"52":-0.1844351887702942,"53":0.08202871680259705,"54":-0.1961483210325241,"55":-0.269302099943161,"56":0.12836024165153503,"57":0.06695348769426346,"58":-0.05836915224790573,"59":-0.05173846706748009,"60":-0.035552944988012314,"61":-0.27903062105178833,"62":-0.09964540600776672,"63":-0.10110925137996674,"64":0.1460353136062622,"65":-0.2294212132692337,"66":-0.02974659949541092,"67":-0.13315428793430328,"68":-0.07234824448823929,"69":-0.17975057661533356,"70":-0.1956735998392105,"71":-0.25036168098449707,"72":0.1296505630016327,"73":-0.2901081442832947,"74":-0.5340770483016968,"75":0.12525983154773712,"76":0.13791684806346893}},"7":{"bias":0.06379274278879166,"weights":{"0":0.256509929895401,"1":-0.07659400254487991,"2":-0.12740278244018555,"3":-0.03855346888303757,"4":0.34279292821884155,"5":-0.16329333186149597,"6":-0.13668179512023926,"7":-0.3521026372909546,"8":-0.4362676739692688,"9":0.03487424552440643,"10":0.2420828938484192,"11":-0.3609863221645355,"12":-0.35745319724082947,"13":-0.07070992141962051,"14":-0.059722982347011566,"15":0.20565742254257202,"16":-0.07072566449642181,"17":0.11479981988668442,"18":-0.13243058323860168,"19":0.17759695649147034,"20":0.16786092519760132,"21":-0.12588901817798615,"22":0.009593982249498367,"23":0.09039100259542465,"24":-0.11066453158855438,"25":-0.09011884778738022,"26":-0.2744341194629669,"27":-0.2839391827583313,"28":-0.11020039021968842,"29":0.2093193382024765,"30":-0.15084649622440338,"31":-0.030605360865592957,"32":-0.19155220687389374,"33":0.4558238089084625,"34":-0.27818623185157776,"35":-0.1157413050532341,"36":-0.050715431571006775,"37":-0.1606137603521347,"38":-0.1868615448474884,"39":-0.08692960441112518,"40":-0.006665381602942944,"41":-0.3790031373500824,"42":-0.09277374297380447,"43":0.1124233528971672,"44":0.07586564868688583,"45":-0.06830282509326935,"46":-0.10198161751031876,"47":-0.2042272686958313,"48":-0.05283123254776001,"49":0.016611134633421898,"50":-0.0049979002214968204,"51":-0.1603415310382843,"52":-0.044569000601768494,"53":-0.07557997107505798,"54":0.2168847769498825,"55":-0.05745769292116165,"56":0.09116648882627487,"57":-0.009338237345218658,"58":-0.13922369480133057,"59":-0.10779145359992981,"60":0.22985750436782837,"61":0.04567781090736389,"62":0.1592269390821457,"63":0.09328290820121765,"64":-0.0732387974858284,"65":-0.005310289561748505,"66":-0.025310784578323364,"67":-0.03663063049316406,"68":-0.16952462494373322,"69":-0.09772803634405136,"70":-0.004374759737402201,"71":0.055542655289173126,"72":0.13627126812934875,"73":0.27551189064979553,"74":0.04909815266728401,"75":-0.1911168396472931,"76":-0.08254104852676392}},"8":{"bias":0.19964782893657684,"weights":{"0":-0.40558141469955444,"1":0.16304366290569305,"2":0.07005269825458527,"3":0.12671324610710144,"4":0.019269868731498718,"5":-0.018400786444544792,"6":-0.004128946457058191,"7":0.17528249323368073,"8":-0.312568724155426,"9":-0.0942630022764206,"10":-0.012452950701117516,"11":-0.2564043402671814,"12":-0.3392309844493866,"13":-0.005984419025480747,"14":0.2919846773147583,"15":0.36401620507240295,"16":-0.070939801633358,"17":-0.13867779076099396,"18":0.018272990360856056,"19":-0.046970266848802567,"20":-0.34356483817100525,"21":0.27113208174705505,"22":0.07270804047584534,"23":-0.1209581047296524,"24":-0.0344681441783905,"25":-0.1596444547176361,"26":-0.26037532091140747,"27":-0.1731652021408081,"28":0.09546074271202087,"29":0.0958198606967926,"30":-0.18152257800102234,"31":0.13757187128067017,"32":0.13426858186721802,"33":0.22743844985961914,"34":0.03243447467684746,"35":-0.040281616151332855,"36":-0.0545915812253952,"37":-0.16496147215366364,"38":0.03605826944112778,"39":0.11131998896598816,"40":-0.05904543027281761,"41":-0.2010597586631775,"42":-0.054044004529714584,"43":-0.15500260889530182,"44":-0.2617977559566498,"45":-0.26867949962615967,"46":-0.03388379514217377,"47":-0.09777285158634186,"48":0.11105244606733322,"49":-0.07189452648162842,"50":-0.16550850868225098,"51":-0.18755336105823517,"52":-0.01863112300634384,"53":-0.16733025014400482,"54":0.07400087267160416,"55":0.1909244954586029,"56":0.017520060762763023,"57":0.07329786568880081,"58":0.09318562597036362,"59":-0.0009072942193597555,"60":0.33313170075416565,"61":0.04974793270230293,"62":-0.11065766960382462,"63":0.08970151096582413,"64":0.07305284589529037,"65":-0.03936784341931343,"66":-0.16270852088928223,"67":-0.4485335350036621,"68":-0.396459698677063,"69":-0.13230621814727783,"70":-0.3365314304828644,"71":0.018082134425640106,"72":-0.21804487705230713,"73":-0.07222054898738861,"74":-0.3474644720554352,"75":-0.12862226366996765,"76":0.1574038416147232}},"9":{"bias":0.2112753540277481,"weights":{"0":0.038605473935604095,"1":-0.19067080318927765,"2":-0.3110003173351288,"3":-0.10656137764453888,"4":0.3350446820259094,"5":-0.059753865003585815,"6":0.12745127081871033,"7":-0.4406896233558655,"8":-0.5197033882141113,"9":-0.12051552534103394,"10":-0.14891013503074646,"11":-0.08544327318668365,"12":-0.5067364573478699,"13":0.0012944887857884169,"14":-0.08482299000024796,"15":0.19519290328025818,"16":-0.041754577308893204,"17":0.1952364593744278,"18":-0.06723419576883316,"19":0.2590445876121521,"20":-0.03687898814678192,"21":-0.26686641573905945,"22":0.19291085004806519,"23":-0.11377926170825958,"24":-0.0830458551645279,"25":0.008656822144985199,"26":-0.25191110372543335,"27":-0.251632958650589,"28":0.14573930203914642,"29":0.11281318962574005,"30":-0.15265296399593353,"31":-0.00007579894736409187,"32":-0.17764373123645782,"33":0.12424378097057343,"34":-0.006143822800368071,"35":0.1410515159368515,"36":0.12863001227378845,"37":-0.08915532380342484,"38":-0.027333058416843414,"39":-0.06732241809368134,"40":-0.21106210350990295,"41":-0.2142271250486374,"42":0.22219160199165344,"43":0.1464778631925583,"44":0.04396069794893265,"45":-0.07095715403556824,"46":0.19330675899982452,"47":0.09553738683462143,"48":0.022363854572176933,"49":0.05475303530693054,"50":0.00683955941349268,"51":0.2558475434780121,"52":0.002150207757949829,"53":0.13050030171871185,"54":0.05612434446811676,"55":0.08582606166601181,"56":0.06270939111709595,"57":-0.19137626886367798,"58":0.07111673057079315,"59":-0.1604153960943222,"60":0.039356835186481476,"61":0.29214125871658325,"62":0.20466569066047668,"63":-0.05831301584839821,"64":-0.10355212539434433,"65":0.10125971585512161,"66":-0.023728597909212112,"67":-0.26490625739097595,"68":-0.14342136681079865,"69":0.2820570170879364,"70":-0.027042614296078682,"71":0.17110773921012878,"72":0.35035669803619385,"73":-0.047884438186883926,"74":0.3139764368534088,"75":0.192269429564476,"76":0.06114577129483223}},"10":{"bias":0.11070358008146286,"weights":{"0":0.23839323222637177,"1":0.07102318853139877,"2":0.23753300309181213,"3":-0.24936272203922272,"4":-0.04923402890563011,"5":0.18734057247638702,"6":-0.24602262675762177,"7":0.06929361075162888,"8":-0.4233191907405853,"9":0.08868100494146347,"10":0.3677438199520111,"11":-0.32871413230895996,"12":0.03963453695178032,"13":-0.13182054460048676,"14":-0.20557695627212524,"15":-0.17992591857910156,"16":0.008317096158862114,"17":-0.25421756505966187,"18":-0.268865704536438,"19":-0.27086931467056274,"20":0.1797414869070053,"21":-0.03006896749138832,"22":-0.06018071621656418,"23":-0.06426071375608444,"24":-0.13333970308303833,"25":-0.07137614488601685,"26":-0.15647320449352264,"27":-0.2766142189502716,"28":-0.08196502923965454,"29":-0.2139039933681488,"30":0.01593230478465557,"31":0.1658264845609665,"32":0.09275102615356445,"33":0.08393953740596771,"34":-0.12866194546222687,"35":-0.19524730741977692,"36":0.033476293087005615,"37":-0.07076474279165268,"38":-0.06920026242733002,"39":0.0819879099726677,"40":-0.11497075855731964,"41":-0.017259113490581512,"42":0.07812130451202393,"43":0.15161751210689545,"44":-0.16034157574176788,"45":0.1595972180366516,"46":-0.022356214001774788,"47":0.058365482836961746,"48":-0.1629926711320877,"49":-0.19777126610279083,"50":-0.15285804867744446,"51":-0.13494335114955902,"52":0.02617066539824009,"53":0.0674462839961052,"54":0.12139401584863663,"55":-0.10046815872192383,"56":0.2395119071006775,"57":-0.06121312454342842,"58":-0.18115340173244476,"59":-0.023364143446087837,"60":0.1134253665804863,"61":0.0038414420560002327,"62":0.07986841350793839,"63":0.009656677953898907,"64":-0.06809158623218536,"65":-0.0801880732178688,"66":-0.13957266509532928,"67":-0.02544841170310974,"68":-0.2458111196756363,"69":0.009473508223891258,"70":-0.26373788714408875,"71":0.02469363436102867,"72":-0.2394336313009262,"73":0.08273486793041229,"74":-0.09659429639577866,"75":0.1963900923728943,"76":-0.1672307401895523}},"11":{"bias":-0.13936400413513184,"weights":{"0":0.2337520867586136,"1":-0.1403711587190628,"2":-0.22327359020709991,"3":0.02567160874605179,"4":0.07935679703950882,"5":0.07463677227497101,"6":0.308361679315567,"7":-0.4027884900569916,"8":-0.2093873918056488,"9":0.028267154470086098,"10":0.043493300676345825,"11":-0.4634544551372528,"12":-0.33398497104644775,"13":-0.05548074096441269,"14":-0.4727967381477356,"15":-0.5012708306312561,"16":-0.14313560724258423,"17":-0.21375605463981628,"18":-0.14731065928936005,"19":-0.05987576022744179,"20":0.35230275988578796,"21":-0.06584600359201431,"22":0.08017482608556747,"23":-0.1858879029750824,"24":0.09103178232908249,"25":-0.21525098383426666,"26":-0.24451658129692078,"27":-0.2220981866121292,"28":-0.09870938211679459,"29":-0.23083801567554474,"30":-0.1409263014793396,"31":-0.048318568617105484,"32":-0.11529164016246796,"33":0.048677194863557816,"34":-0.20013827085494995,"35":0.0015357793308794498,"36":-0.04947157949209213,"37":0.17086592316627502,"38":-0.33173298835754395,"39":0.05574962869286537,"40":-0.11437707394361496,"41":-0.09079402685165405,"42":0.10423344373703003,"43":-0.041653621941804886,"44":0.07410075515508652,"45":-0.07505066692829132,"46":0.0754338949918747,"47":-0.07134078443050385,"48":0.14522701501846313,"49":0.013143795542418957,"50":-0.11846312880516052,"51":-0.15292711555957794,"52":-0.025981994345784187,"53":-0.16457074880599976,"54":-0.08277474343776703,"55":0.07066451013088226,"56":-0.3814067244529724,"57":-0.29588091373443604,"58":-0.04694295674562454,"59":-0.0932997465133667,"60":-0.23491157591342926,"61":-0.03609275817871094,"62":-0.045000262558460236,"63":0.009126665070652962,"64":0.13801422715187073,"65":-0.11571481078863144,"66":0.15612603724002838,"67":0.2546984553337097,"68":0.6441144943237305,"69":0.28627240657806396,"70":0.0731084793806076,"71":0.24238699674606323,"72":0.07553769648075104,"73":0.2101839929819107,"74":0.6468225717544556,"75":-0.11968132108449936,"76":-0.16976003348827362}},"12":{"bias":0.03524947538971901,"weights":{"0":-0.32603904604911804,"1":-0.05848139151930809,"2":-0.11698366701602936,"3":-0.011038824915885925,"4":-0.21199430525302887,"5":-0.13696232438087463,"6":0.010945325717329979,"7":-0.2067759931087494,"8":-0.1853727251291275,"9":0.23318015038967133,"10":0.04183689132332802,"11":0.10254912078380585,"12":-0.2857709527015686,"13":-0.00437755836173892,"14":0.13323812186717987,"15":-0.13418151438236237,"16":-0.05195389315485954,"17":0.011857935227453709,"18":-0.04573838412761688,"19":-0.05210809409618378,"20":-0.05872288718819618,"21":-0.10900727659463882,"22":-0.12708494067192078,"23":-0.24080179631710052,"24":0.0454716756939888,"25":-0.0411858931183815,"26":0.03155764192342758,"27":-0.2135394811630249,"28":-0.12936320900917053,"29":-0.01310146413743496,"30":-0.14712360501289368,"31":0.022998133674263954,"32":0.14484144747257233,"33":0.23395881056785583,"34":-0.2997838258743286,"35":-0.1931026130914688,"36":0.03710668534040451,"37":0.11528012156486511,"38":0.11881512403488159,"39":-0.12432859092950821,"40":-0.06206142157316208,"41":0.03667956963181496,"42":-0.06047230586409569,"43":-0.23591136932373047,"44":-0.27256038784980774,"45":-0.21139083802700043,"46":0.08618682622909546,"47":-0.17437434196472168,"48":0.06702938675880432,"49":0.07384611666202545,"50":-0.03431855887174606,"51":-0.2715720236301422,"52":0.13395926356315613,"53":0.17053242027759552,"54":0.14490459859371185,"55":-0.016069110482931137,"56":-0.014743233099579811,"57":0.32976794242858887,"58":0.2488420456647873,"59":0.10575036704540253,"60":0.3022754490375519,"61":0.28094157576560974,"62":0.2691238522529602,"63":0.2932793200016022,"64":-0.047626473009586334,"65":0.011172221042215824,"66":-0.024928458034992218,"67":-0.26037487387657166,"68":-0.3418179452419281,"69":0.08544393628835678,"70":-0.1443997323513031,"71":-0.03988374397158623,"72":-0.08104299008846283,"73":-0.15707232058048248,"74":-0.004842851310968399,"75":-0.1401161253452301,"76":-0.1999879628419876}},"13":{"bias":-0.12284879386425018,"weights":{"0":0.16418646275997162,"1":-0.017153998836874962,"2":0.12706312537193298,"3":-0.16117142140865326,"4":-0.05834846943616867,"5":0.15963712334632874,"6":0.15538781881332397,"7":0.18954448401927948,"8":0.04178675264120102,"9":0.08642473816871643,"10":0.32606810331344604,"11":-0.20263904333114624,"12":0.4432057738304138,"13":-0.13951732218265533,"14":-0.19939610362052917,"15":-0.34690096974372864,"16":-0.03926730901002884,"17":-0.10332692414522171,"18":-0.10303819924592972,"19":-0.11489000171422958,"20":0.2849923074245453,"21":0.1490415632724762,"22":0.2642885744571686,"23":-0.05320324748754501,"24":0.0525490865111351,"25":-0.0021605913061648607,"26":-0.1065395325422287,"27":0.03723527118563652,"28":0.0785907506942749,"29":-0.1830998659133911,"30":0.1082894429564476,"31":0.010077355429530144,"32":0.12451042979955673,"33":-0.13609503209590912,"34":-0.031353749334812164,"35":0.09239529073238373,"36":-0.06785876303911209,"37":0.1420011818408966,"38":-0.14871720969676971,"39":0.11516901850700378,"40":0.12213490158319473,"41":0.16687417030334473,"42":0.2705773115158081,"43":0.2710842788219452,"44":0.0020842503290623426,"45":0.047369133681058884,"46":0.15488383173942566,"47":0.1500532627105713,"48":-0.054077230393886566,"49":0.0021171222906559706,"50":-0.022772906348109245,"51":0.1770976334810257,"52":0.015219117514789104,"53":-0.06810944527387619,"54":-0.17218782007694244,"55":-0.10284532606601715,"56":-0.02855381742119789,"57":-0.27369001507759094,"58":-0.00655616819858551,"59":0.11608492583036423,"60":-0.03170164301991463,"61":-0.2918374240398407,"62":-0.1742667555809021,"63":-0.24059534072875977,"64":0.017498206347227097,"65":-0.24662388861179352,"66":-0.04335237666964531,"67":0.053637512028217316,"68":0.4663667678833008,"69":0.35031580924987793,"70":0.047843076288700104,"71":0.006975418422371149,"72":0.15152503550052643,"73":0.04101786017417908,"74":0.45384424924850464,"75":-0.11930809915065765,"76":-0.11775298416614532}},"14":{"bias":-0.02435692958533764,"weights":{"0":-0.030293112620711327,"1":-0.020415743812918663,"2":-0.11327064037322998,"3":0.09612313657999039,"4":-0.22200171649456024,"5":0.26147839426994324,"6":0.2827478349208832,"7":-0.009852913208305836,"8":0.051053643226623535,"9":-0.1604495644569397,"10":0.12632541358470917,"11":-0.09659712016582489,"12":-0.09527594596147537,"13":0.11718381196260452,"14":0.23958081007003784,"15":0.07972408831119537,"16":-0.07807941734790802,"17":-0.20138677954673767,"18":0.1599029153585434,"19":-0.16709759831428528,"20":-0.09229591488838196,"21":-0.12361135333776474,"22":0.12286742776632309,"23":0.26373398303985596,"24":0.06916213780641556,"25":0.10536717623472214,"26":-0.28049543499946594,"27":0.19008147716522217,"28":-0.17138847708702087,"29":0.08749401569366455,"30":0.24725760519504547,"31":0.11347316950559616,"32":-0.13385595381259918,"33":-0.10629276931285858,"34":0.15380913019180298,"35":-0.19309817254543304,"36":-0.1260504573583603,"37":-0.19967827200889587,"38":-0.21786391735076904,"39":0.16572391986846924,"40":0.19254153966903687,"41":-0.3057435154914856,"42":-0.09896829724311829,"43":0.16044242680072784,"44":0.014872747473418713,"45":0.05528254806995392,"46":0.213108628988266,"47":0.13515275716781616,"48":0.1953706294298172,"49":-0.0010336698032915592,"50":0.22061778604984283,"51":0.07811607420444489,"52":0.07349448651075363,"53":0.013299481943249702,"54":-0.09720764309167862,"55":0.10500643402338028,"56":0.04844515398144722,"57":0.11158319562673569,"58":0.13974159955978394,"59":-0.19098810851573944,"60":-0.1408325433731079,"61":0.07663736492395401,"62":-0.2024756222963333,"63":-0.0013499748893082142,"64":0.08595467358827591,"65":0.1790960431098938,"66":-0.024876680225133896,"67":0.2005099654197693,"68":0.5324520468711853,"69":0.08399701863527298,"70":0.3009780943393707,"71":0.4341983497142792,"72":0.22368526458740234,"73":-0.18837837874889374,"74":0.26602262258529663,"75":0.013357400894165039,"76":-0.04310210049152374}},"15":{"bias":-0.24594569206237793,"weights":{"0":0.43030473589897156,"1":-0.3196048438549042,"2":-0.03849159553647041,"3":-0.3871001601219177,"4":0.27999207377433777,"5":0.2927056849002838,"6":0.43016576766967773,"7":-0.04959801584482193,"8":0.04640966281294823,"9":0.21287620067596436,"10":0.44553500413894653,"11":0.2355421930551529,"12":0.3245871365070343,"13":-0.14768780767917633,"14":0.10818352550268173,"15":-0.27159008383750916,"16":0.25616922974586487,"17":0.210771843791008,"18":0.20824027061462402,"19":-0.07502950727939606,"20":0.09957080334424973,"21":0.23022602498531342,"22":0.09459429234266281,"23":-0.10670556128025055,"24":-0.250396192073822,"25":0.08298864960670471,"26":0.3596075773239136,"27":-0.03165853023529053,"28":0.05655248835682869,"29":0.1162848100066185,"30":-0.19327574968338013,"31":0.11623601615428925,"32":0.08093409240245819,"33":-0.7499722838401794,"34":-0.37154534459114075,"35":-0.12493559718132019,"36":0.19645771384239197,"37":-0.033411089330911636,"38":0.3793613910675049,"39":-0.019758714362978935,"40":-0.30668145418167114,"41":0.3671462833881378,"42":-0.20732370018959045,"43":0.04973514378070831,"44":-0.16710872948169708,"45":0.03930189087986946,"46":0.12152116000652313,"47":-0.032178085297346115,"48":-0.16636429727077484,"49":0.0014066973235458136,"50":-0.012462321668863297,"51":-0.13627293705940247,"52":0.14598022401332855,"53":0.13131457567214966,"54":0.10697472095489502,"55":0.1495378166437149,"56":0.28683197498321533,"57":0.3357381224632263,"58":-0.13435372710227966,"59":0.006748409476131201,"60":0.22733454406261444,"61":-0.12291627377271652,"62":-0.09091240912675858,"63":0.08262588083744049,"64":-0.02736845053732395,"65":0.18190500140190125,"66":-0.15326200425624847,"67":-0.12441886961460114,"68":0.25604984164237976,"69":0.166293665766716,"70":0.4227350056171417,"71":0.09553196281194687,"72":0.06553927809000015,"73":0.2565973103046417,"74":0.5923562049865723,"75":-0.14100846648216248,"76":-0.19380557537078857}},"16":{"bias":-0.24655088782310486,"weights":{"0":-0.05987931415438652,"1":0.3018924295902252,"2":0.04788269102573395,"3":0.28887739777565,"4":-0.10014551877975464,"5":0.35530683398246765,"6":0.1127271056175232,"7":0.10229332000017166,"8":-0.24253930151462555,"9":0.031147373840212822,"10":-0.08595797419548035,"11":-0.07039026916027069,"12":-0.13654589653015137,"13":-0.03990597650408745,"14":0.25345948338508606,"15":0.29766491055488586,"16":-0.019774770364165306,"17":0.13728034496307373,"18":0.2684411406517029,"19":0.028416194021701813,"20":-0.2795492112636566,"21":0.07020923495292664,"22":0.29088273644447327,"23":0.0032728775404393673,"24":0.142550989985466,"25":0.21169014275074005,"26":-0.2581004202365875,"27":0.14057640731334686,"28":0.031085466966032982,"29":0.08154644817113876,"30":0.059944018721580505,"31":0.03568251430988312,"32":0.04938765987753868,"33":0.09405551105737686,"34":0.1583106964826584,"35":0.10732968151569366,"36":0.04143480584025383,"37":-0.09229368716478348,"38":0.005058806389570236,"39":-0.11203267425298691,"40":0.10203071683645248,"41":-0.21190431714057922,"42":0.08316946774721146,"43":0.26584330201148987,"44":0.20091770589351654,"45":0.08170235902070999,"46":0.17164520919322968,"47":0.2727355360984802,"48":0.05542609095573425,"49":-0.042726509273052216,"50":-0.0700652003288269,"51":0.12139252573251724,"52":0.13424894213676453,"53":-0.15700314939022064,"54":0.07073696702718735,"55":-0.01569599285721779,"56":0.2682890295982361,"57":0.20232529938220978,"58":0.31662699580192566,"59":-0.17780441045761108,"60":0.34912604093551636,"61":0.326246440410614,"62":0.17325159907341003,"63":0.1701606661081314,"64":-0.126664400100708,"65":0.08869604021310806,"66":-0.1010555550456047,"67":0.14449413120746613,"68":0.003228797810152173,"69":-0.33676543831825256,"70":0.01728556863963604,"71":-0.11058345437049866,"72":0.24265608191490173,"73":0.0932154431939125,"74":-0.05744481086730957,"75":0.06742668151855469,"76":0.15954308211803436}},"17":{"bias":0.06061364710330963,"weights":{"0":0.19020161032676697,"1":0.0981321930885315,"2":-0.17136962711811066,"3":0.2697485089302063,"4":0.09658954292535782,"5":0.051154252141714096,"6":-0.34155091643333435,"7":-0.13212211430072784,"8":0.3987911641597748,"9":-0.22157815098762512,"10":0.0018622120842337608,"11":0.08243310451507568,"12":0.11742233484983444,"13":-0.12097929418087006,"14":-0.32636144757270813,"15":0.05469769239425659,"16":-0.12167569249868393,"17":-0.01188892126083374,"18":0.025159718468785286,"19":-0.2794550359249115,"20":0.3760916590690613,"21":-0.18278521299362183,"22":-0.035778291523456573,"23":0.08959604054689407,"24":-0.14252348244190216,"25":0.20665189623832703,"26":0.22193865478038788,"27":0.10159794986248016,"28":0.17712518572807312,"29":0.0755176842212677,"30":0.2819902002811432,"31":0.05422132834792137,"32":-0.08356919139623642,"33":-0.0321771577000618,"34":0.2678360044956207,"35":-0.16242548823356628,"36":0.17572923004627228,"37":-0.04746191203594208,"38":0.09676934033632278,"39":0.12747898697853088,"40":-0.0356193482875824,"41":0.26660266518592834,"42":0.12580172717571259,"43":0.20820173621177673,"44":0.10001401603221893,"45":0.20556658506393433,"46":-0.14675047993659973,"47":0.09128254652023315,"48":0.022251537069678307,"49":-0.013929207809269428,"50":0.15798397362232208,"51":0.03839705139398575,"52":-0.0308148805052042,"53":-0.04803716763854027,"54":-0.2098614126443863,"55":-0.22054077684879303,"56":-0.10153749585151672,"57":-0.3495636582374573,"58":-0.028268424794077873,"59":-0.1479523777961731,"60":-0.1533660590648651,"61":-0.11899382621049881,"62":-0.2778109014034271,"63":-0.21406672894954681,"64":0.1955152004957199,"65":-0.21848095953464508,"66":0.1499953269958496,"67":0.23058044910430908,"68":0.2476261854171753,"69":-0.27715548872947693,"70":-0.22106918692588806,"71":-0.33113276958465576,"72":0.10236824303865433,"73":0.33719342947006226,"74":-0.029771776869893074,"75":0.19555342197418213,"76":-0.13076594471931458}},"18":{"bias":0.1426825076341629,"weights":{"0":-0.2485409528017044,"1":-0.2001292109489441,"2":0.13889268040657043,"3":-0.06938217580318451,"4":0.15047065913677216,"5":0.09722908586263657,"6":0.15313561260700226,"7":0.08223861455917358,"8":0.0865236446261406,"9":0.1193496361374855,"10":-0.15421685576438904,"11":-0.09384405612945557,"12":0.07049044221639633,"13":0.05295926332473755,"14":0.1058860495686531,"15":-0.20224758982658386,"16":-0.08272083848714828,"17":-0.14423006772994995,"18":-0.16350652277469635,"19":-0.16048075258731842,"20":-0.046911075711250305,"21":-0.05443641543388367,"22":0.051385194063186646,"23":-0.2267926186323166,"24":-0.11794888228178024,"25":-0.23333995044231415,"26":-0.022779440507292747,"27":0.10747040063142776,"28":-0.1187019869685173,"29":-0.04077203571796417,"30":0.11300988495349884,"31":-0.10074378550052643,"32":-0.1368979662656784,"33":-0.11261910945177078,"34":0.27741172909736633,"35":-0.056461017578840256,"36":0.026428673416376114,"37":-0.053446002304553986,"38":0.01831182651221752,"39":0.004076784010976553,"40":0.011292004026472569,"41":-0.07906688004732132,"42":-0.10896087437868118,"43":-0.03759048879146576,"44":-0.1453550159931183,"45":-0.11765376478433609,"46":-0.29703518748283386,"47":-0.017513375729322433,"48":-0.2750874161720276,"49":-0.19451163709163666,"50":0.039416488260030746,"51":-0.06482719630002975,"52":-0.18898509442806244,"53":-0.16921469569206238,"54":-0.03371727839112282,"55":-0.18914715945720673,"56":-0.2646355926990509,"57":-0.18368615210056305,"58":-0.08451206237077713,"59":0.01874045841395855,"60":0.0043341368436813354,"61":-0.22709712386131287,"62":-0.08304216712713242,"63":-0.12269982695579529,"64":0.03916100412607193,"65":-0.1988125890493393,"66":-0.174394428730011,"67":0.11658276617527008,"68":0.40072980523109436,"69":0.06186505779623985,"70":0.4032333195209503,"71":0.12236859649419785,"72":-0.2123938798904419,"73":0.03707132115960121,"74":0.3399096727371216,"75":0.1610574573278427,"76":0.03546103090047836}},"19":{"bias":-0.10458124428987503,"weights":{"0":-0.1570703089237213,"1":-0.6032849550247192,"2":0.018536094576120377,"3":0.10635431110858917,"4":-0.33150404691696167,"5":-0.008581636473536491,"6":0.3194762170314789,"7":0.2959940731525421,"8":0.22468288242816925,"9":-0.11918435245752335,"10":-0.21127884089946747,"11":0.3250185549259186,"12":0.18021319806575775,"13":0.014662740752100945,"14":0.10740901529788971,"15":-0.32091042399406433,"16":0.13385239243507385,"17":-0.04771874472498894,"18":-0.11125782132148743,"19":0.04099469259381294,"20":-0.19864186644554138,"21":0.05364643782377243,"22":0.22086958587169647,"23":0.32601508498191833,"24":0.1039862111210823,"25":-0.002241638256236911,"26":-0.09438787400722504,"27":0.3411844074726105,"28":0.07536636292934418,"29":0.1385490894317627,"30":0.13809578120708466,"31":0.1173526793718338,"32":-0.1750914752483368,"33":0.4996838867664337,"34":0.3497585952281952,"35":-0.021389517933130264,"36":-0.08348093926906586,"37":-0.06170566752552986,"38":-0.05035915598273277,"39":-0.14898447692394257,"40":0.025653894990682602,"41":0.004514908418059349,"42":0.07410835474729538,"43":0.30324605107307434,"44":0.16618819534778595,"45":0.2938465476036072,"46":0.17170411348342896,"47":0.21402151882648468,"48":0.319654643535614,"49":0.10996007919311523,"50":-0.06087658926844597,"51":0.15645183622837067,"52":0.07020702958106995,"53":0.08150032162666321,"54":0.003195431549102068,"55":0.02106541022658348,"56":-0.1297561079263687,"57":0.09201231598854065,"58":0.11538438498973846,"59":0.015414024703204632,"60":0.10763178765773773,"61":-0.0047192820347845554,"62":0.2188059687614441,"63":0.03345916047692299,"64":0.0740080401301384,"65":0.06731794029474258,"66":0.1768539845943451,"67":-0.22398951649665833,"68":-0.09458872675895691,"69":0.1516321748495102,"70":0.07801520079374313,"71":0.27019432187080383,"72":0.0678679496049881,"73":-0.40580782294273376,"74":-0.13854922354221344,"75":0.11840905994176865,"76":0.1737748235464096}},"20":{"bias":-0.07686403393745422,"weights":{"0":0.3716215193271637,"1":0.8110337257385254,"2":0.05931900441646576,"3":0.26647716760635376,"4":-0.039179928600788116,"5":0.20442338287830353,"6":-0.2604113519191742,"7":-0.05958446487784386,"8":-0.3575800061225891,"9":0.05324484407901764,"10":0.27352118492126465,"11":-0.11238061636686325,"12":-0.17632579803466797,"13":0.021093279123306274,"14":-0.19813008606433868,"15":0.5300994515419006,"16":-0.15006782114505768,"17":0.09256929159164429,"18":0.09824301302433014,"19":0.09020763635635376,"20":0.057957254350185394,"21":-0.0748620331287384,"22":0.25139784812927246,"23":-0.07044811546802521,"24":0.04786217212677002,"25":-0.0020103934220969677,"26":-0.4088801443576813,"27":0.12189856916666031,"28":-0.0164654403924942,"29":0.1037253886461258,"30":0.06840106844902039,"31":-0.0336424894630909,"32":-0.06536158174276352,"33":-0.285677045583725,"34":0.2574757933616638,"35":0.1276198774576187,"36":-0.041827235370874405,"37":0.0014220812590792775,"38":-0.5612807273864746,"39":-0.0219563040882349,"40":0.21296963095664978,"41":-0.33470699191093445,"42":0.03957006707787514,"43":0.05853908136487007,"44":0.22560586035251617,"45":0.265202134847641,"46":0.2739875316619873,"47":0.18634659051895142,"48":0.15623952448368073,"49":0.19347257912158966,"50":0.07413697987794876,"51":0.194857656955719,"52":0.1510183960199356,"53":0.03352130204439163,"54":0.015020584687590599,"55":-0.05787152051925659,"56":-0.3565034568309784,"57":-0.260071337223053,"58":-0.24944619834423065,"59":0.14332935214042664,"60":-0.3406255543231964,"61":-0.07788951694965363,"62":-0.27577367424964905,"63":0.08819659054279327,"64":-0.10237608850002289,"65":-0.06063530594110489,"66":-0.10888373851776123,"67":0.2815306782722473,"68":0.2826981842517853,"69":-0.0800660103559494,"70":0.042041584849357605,"71":-0.11298823356628418,"72":-0.13640889525413513,"73":0.05136784911155701,"74":0.28655046224594116,"75":-0.05946584418416023,"76":-0.04472161456942558}},"21":{"bias":-0.22762612998485565,"weights":{"0":-0.4127797782421112,"1":-0.1104637011885643,"2":-0.16613537073135376,"3":-0.028605643659830093,"4":0.1894722580909729,"5":0.23473741114139557,"6":0.40335988998413086,"7":0.16480764746665955,"8":0.10435226559638977,"9":0.01627994328737259,"10":-0.18066641688346863,"11":0.0006719827651977539,"12":-0.19292926788330078,"13":0.04349526762962341,"14":0.31862080097198486,"15":0.10785233229398727,"16":-0.08349599689245224,"17":0.1783560961484909,"18":0.1522362232208252,"19":0.0782117173075676,"20":-0.0893954336643219,"21":-0.16918471455574036,"22":0.08936601132154465,"23":-0.2895585894584656,"24":-0.11584025621414185,"25":-0.24858902394771576,"26":-0.17215508222579956,"27":0.25399520993232727,"28":-0.11688609421253204,"29":-0.06318061053752899,"30":0.24387909471988678,"31":0.12137790024280548,"32":-0.14778083562850952,"33":-0.5330712795257568,"34":0.16006365418434143,"35":-0.027608685195446014,"36":-0.15608316659927368,"37":-0.17841990292072296,"38":0.16174931824207306,"39":-0.04360004514455795,"40":0.02328541688621044,"41":-0.12576128542423248,"42":-0.10337277501821518,"43":-0.20075346529483795,"44":-0.22127899527549744,"45":0.04946758225560188,"46":-0.05141633003950119,"47":-0.004560288041830063,"48":-0.2614268660545349,"49":0.07603152096271515,"50":-0.15760110318660736,"51":-0.048642199486494064,"52":0.13357959687709808,"53":-0.05031890422105789,"54":0.15791736543178558,"55":-0.0852479338645935,"56":0.06896533071994781,"57":-0.0017816517502069473,"58":0.0018337912624701858,"59":0.16807694733142853,"60":0.21741729974746704,"61":0.22712498903274536,"62":0.29072827100753784,"63":0.08572743088006973,"64":0.0918009877204895,"65":0.005892209243029356,"66":-0.03551442176103592,"67":-0.12798835337162018,"68":0.45424923300743103,"69":0.3706215023994446,"70":0.4108175039291382,"71":0.38857507705688477,"72":-0.09492595493793488,"73":0.06073262542486191,"74":0.3052748739719391,"75":-0.008404487743973732,"76":0.04669415205717087}},"22":{"bias":0.24730177223682404,"weights":{"0":-0.34248247742652893,"1":0.12101104110479355,"2":-0.12419921159744263,"3":0.11790866404771805,"4":-0.36841994524002075,"5":0.09472193568944931,"6":-0.20821717381477356,"7":0.2735886871814728,"8":0.28122952580451965,"9":0.0743168443441391,"10":-0.11982451379299164,"11":0.01601286791265011,"12":0.14351974427700043,"13":-0.044284142553806305,"14":-0.08253151178359985,"15":0.5054370760917664,"16":-0.04245930165052414,"17":0.049451593309640884,"18":-0.13065317273139954,"19":-0.03558708727359772,"20":-0.27303847670555115,"21":0.0567886084318161,"22":-0.09892557561397552,"23":-0.31050923466682434,"24":-0.22465430200099945,"25":-0.32812830805778503,"26":0.04451242461800575,"27":-0.0050727431662380695,"28":-0.1798306256532669,"29":0.004088046029210091,"30":0.06487124413251877,"31":0.14923077821731567,"32":0.1590408980846405,"33":-0.06355151534080505,"34":0.06564785540103912,"35":0.1652948260307312,"36":0.00979738961905241,"37":-0.08853653818368912,"38":0.02118654176592827,"39":-0.006905387155711651,"40":0.2946254014968872,"41":-0.1446637511253357,"42":-0.0294659361243248,"43":-0.1554459184408188,"44":-0.2934202551841736,"45":-0.15770740807056427,"46":-0.32522279024124146,"47":-0.14673162996768951,"48":-0.04447111487388611,"49":-0.2128123790025711,"50":-0.2626104950904846,"51":0.018762988969683647,"52":-0.1312720775604248,"53":0.09353749454021454,"54":-0.04651480168104172,"55":-0.20835158228874207,"56":0.08402234315872192,"57":0.06108468398451805,"58":0.048429619520902634,"59":-0.07480338960886002,"60":0.06551481038331985,"61":-0.17412009835243225,"62":-0.2595595419406891,"63":-0.12463227659463882,"64":0.06341218203306198,"65":0.0314575657248497,"66":-0.19233591854572296,"67":0.01937328651547432,"68":0.17508767545223236,"69":0.10046032071113586,"70":-0.0840815082192421,"71":-0.14008285105228424,"72":-0.3662336766719818,"73":-0.2528770864009857,"74":-0.27560293674468994,"75":0.11710641533136368,"76":-0.10515725612640381}},"23":{"bias":0.16656550765037537,"weights":{"0":-0.5046281218528748,"1":-0.5311921834945679,"2":-0.099454365670681,"3":-0.1276550441980362,"4":0.05231258645653725,"5":-0.06064581871032715,"6":0.16284868121147156,"7":-0.3063793480396271,"8":0.3897605538368225,"9":-0.3978193402290344,"10":-0.38448572158813477,"11":0.22301343083381653,"12":-0.27664342522621155,"13":0.17705875635147095,"14":-0.19407640397548676,"15":-0.13071240484714508,"16":0.11255040764808655,"17":0.18561652302742004,"18":-0.08191512525081635,"19":-0.033322688192129135,"20":0.0001039465278154239,"21":-0.16790224611759186,"22":-0.22591611742973328,"23":0.014699064195156097,"24":-0.04261503741145134,"25":-0.11921697109937668,"26":0.06115259230136871,"27":0.22773028910160065,"28":0.07546792179346085,"29":-0.008680641651153564,"30":0.13729505240917206,"31":0.18555980920791626,"32":-0.14232218265533447,"33":0.5367026925086975,"34":0.262865275144577,"35":-0.07677456736564636,"36":0.07727140188217163,"37":0.06422087550163269,"38":0.28973326086997986,"39":0.07557833194732666,"40":-0.07853857427835464,"41":0.03509864583611488,"42":-0.19813507795333862,"43":-0.2059505581855774,"44":-0.10846629738807678,"45":0.04805200919508934,"46":0.07877638936042786,"47":0.055668532848358154,"48":-0.0985528975725174,"49":0.010783215053379536,"50":-0.21518374979496002,"51":0.058593183755874634,"52":0.08753854781389236,"53":0.13411839306354523,"54":0.15762637555599213,"55":-0.08592388033866882,"56":-0.03669082745909691,"57":0.007073173765093088,"58":0.06795711070299149,"59":0.058779384940862656,"60":-0.059977613389492035,"61":0.03291629999876022,"62":0.06382506340742111,"63":0.27746883034706116,"64":-0.1697757989168167,"65":0.25552088022232056,"66":-0.09484459459781647,"67":0.15286146104335785,"68":-0.012216832488775253,"69":-0.1153569370508194,"70":0.15193749964237213,"71":-0.0665096789598465,"72":-0.13165034353733063,"73":-0.14115509390830994,"74":-0.08223555982112885,"75":-0.1996234655380249,"76":0.1484864205121994}},"24":{"bias":-0.1312161535024643,"weights":{"0":-0.2984578311443329,"1":-0.024614576250314713,"2":-0.0009205915848724544,"3":0.005045223981142044,"4":0.054831601679325104,"5":-0.20629598200321198,"6":-0.013890828005969524,"7":-0.27277055382728577,"8":0.06393476575613022,"9":-0.03349495306611061,"10":-0.30431851744651794,"11":0.04250970482826233,"12":-0.006821182556450367,"13":-0.02298460714519024,"14":-0.06683950126171112,"15":-0.156015083193779,"16":0.19903935492038727,"17":0.026399213820695877,"18":0.0008650311501696706,"19":0.13822223246097565,"20":0.04807695373892784,"21":0.018530348315835,"22":-0.09902313351631165,"23":-0.07614334672689438,"24":0.07733777910470963,"25":0.04621978849172592,"26":0.004436774179339409,"27":0.12628360092639923,"28":0.08522617816925049,"29":0.16758395731449127,"30":-0.08636406809091568,"31":0.07597272098064423,"32":0.04213276132941246,"33":-0.04690167307853699,"34":0.160251647233963,"35":0.17873498797416687,"36":-0.08295901119709015,"37":-0.06448540836572647,"38":0.012969089671969414,"39":-0.10543809086084366,"40":0.016399195417761803,"41":-0.041269343346357346,"42":0.2526567876338959,"43":0.16044463217258453,"44":0.026783106848597527,"45":-0.05644044652581215,"46":0.2689407467842102,"47":-0.061687976121902466,"48":-0.07323724776506424,"49":0.1911148726940155,"50":0.2382746934890747,"51":-0.055919259786605835,"52":-0.1951463371515274,"53":0.09191987663507462,"54":-0.17172932624816895,"55":0.11222219467163086,"56":-0.22364988923072815,"57":0.018266869708895683,"58":0.11430315673351288,"59":-0.11452807486057281,"60":-0.3270300626754761,"61":-0.12665660679340363,"62":-0.06635379791259766,"63":0.005351399537175894,"64":0.0505177304148674,"65":0.14843018352985382,"66":-0.0334046334028244,"67":-0.057105906307697296,"68":0.32161885499954224,"69":0.3455316722393036,"70":0.26079678535461426,"71":0.29065752029418945,"72":0.2135796844959259,"73":-0.000991411623544991,"74":0.05565182864665985,"75":0.09849335998296738,"76":-0.05940195545554161}},"25":{"bias":-0.14557266235351562,"weights":{"0":0.2774609625339508,"1":0.4235302805900574,"2":-0.15876489877700806,"3":-0.11557742953300476,"4":0.3558322787284851,"5":0.02935897372663021,"6":-0.13853588700294495,"7":-0.09390705078840256,"8":-0.010516881011426449,"9":0.09995477646589279,"10":0.20785099267959595,"11":0.1396973878145218,"12":0.4463627338409424,"13":0.03340878710150719,"14":0.11874254047870636,"15":0.208843395113945,"16":0.10058027505874634,"17":0.034435421228408813,"18":0.09070264548063278,"19":0.1930018663406372,"20":0.11547204107046127,"21":-0.16246333718299866,"22":0.19735071063041687,"23":0.20384591817855835,"24":0.11195981502532959,"25":0.13261108100414276,"26":0.3256288766860962,"27":-0.26258838176727295,"28":0.16932450234889984,"29":0.1399967521429062,"30":-0.1420610249042511,"31":0.11851420253515244,"32":0.1565190702676773,"33":-0.5599609017372131,"34":-0.324699342250824,"35":0.07332345098257065,"36":0.018339451402425766,"37":-0.1283894032239914,"38":0.43762052059173584,"39":0.035200804471969604,"40":-0.2529962956905365,"41":0.36800268292427063,"42":-0.1081346794962883,"43":0.0734969824552536,"44":0.18809981644153595,"45":-0.10228517651557922,"46":0.023924432694911957,"47":0.026131954044103622,"48":-0.007439681328833103,"49":0.21495355665683746,"50":0.1690806895494461,"51":0.10228259116411209,"52":-0.059204090386629105,"53":0.08281056582927704,"54":0.23299485445022583,"55":-0.08453097194433212,"56":0.22016416490077972,"57":0.035068318247795105,"58":0.05437694117426872,"59":0.013241461478173733,"60":0.11694343388080597,"61":-0.09224959462881088,"62":0.21399782598018646,"63":0.20396453142166138,"64":0.07312453538179398,"65":0.09630434960126877,"66":0.05764387175440788,"67":-0.14583808183670044,"68":-0.07199910283088684,"69":0.007315383292734623,"70":-0.14200036227703094,"71":0.040893636643886566,"72":0.14909447729587555,"73":0.18611416220664978,"74":-0.05169931426644325,"75":-0.17804428935050964,"76":-0.17857536673545837}},"26":{"bias":-0.1161571592092514,"weights":{"0":-0.038498200476169586,"1":0.1799263209104538,"2":0.15667176246643066,"3":-0.26842445135116577,"4":-0.19244970381259918,"5":0.13056877255439758,"6":0.200661301612854,"7":-0.04539419338107109,"8":-0.24355635046958923,"9":0.23207122087478638,"10":0.1015293225646019,"11":-0.1933498978614807,"12":-0.18613691627979279,"13":0.1257791370153427,"14":0.12992937862873077,"15":0.32089024782180786,"16":0.15419167280197144,"17":0.08992820233106613,"18":0.1015646681189537,"19":-0.02360640838742256,"20":-0.2624232769012451,"21":0.05741254985332489,"22":-0.09236811846494675,"23":0.1902443915605545,"24":0.1304442435503006,"25":-0.057805389165878296,"26":0.08605208992958069,"27":-0.28947874903678894,"28":-0.12945544719696045,"29":-0.1265103667974472,"30":-0.0328969769179821,"31":0.11017409712076187,"32":0.13138043880462646,"33":-0.5564370155334473,"34":-0.11983487010002136,"35":-0.07571380585432053,"36":-0.06834743171930313,"37":-0.013452556915581226,"38":0.1944214552640915,"39":0.11335727572441101,"40":-0.2915521264076233,"41":-0.03204784542322159,"42":-0.025235986337065697,"43":0.0665285736322403,"44":0.19432947039604187,"45":-0.10785967111587524,"46":-0.04192187637090683,"47":-0.13555194437503815,"48":0.05563505366444588,"49":0.1702221781015396,"50":0.10047333687543869,"51":-0.07742691040039062,"52":-0.06487013399600983,"53":0.19031651318073273,"54":-0.0055203624069690704,"55":0.0784277468919754,"56":0.2931649386882782,"57":0.16969504952430725,"58":0.008942058309912682,"59":0.0746617466211319,"60":-0.0028362006414681673,"61":0.15553973615169525,"62":0.10503894090652466,"63":0.1565440595149994,"64":-0.08292502909898758,"65":0.17449288070201874,"66":-0.03705412149429321,"67":-0.20922842621803284,"68":-0.11203932762145996,"69":0.1493692547082901,"70":0.360912024974823,"71":0.387856662273407,"72":-0.02433379366993904,"73":0.026103973388671875,"74":-0.025863002985715866,"75":-0.08211033046245575,"76":-0.14661137759685516}},"27":{"bias":0.24556326866149902,"weights":{"0":-0.21170775592327118,"1":0.013469732366502285,"2":0.2749951183795929,"3":-0.34127429127693176,"4":-0.18847429752349854,"5":-0.3071863651275635,"6":0.1364884227514267,"7":-0.10939890146255493,"8":-0.09573914855718613,"9":0.308199018239975,"10":-0.12895716726779938,"11":-0.06030264124274254,"12":-0.2682149410247803,"13":-0.10784394294023514,"14":-0.18420806527137756,"15":-0.0918407291173935,"16":-0.1969471275806427,"17":-0.31662628054618835,"18":-0.04687223583459854,"19":-0.014843126758933067,"20":-0.07964745908975601,"21":0.1186688169836998,"22":-0.015211022458970547,"23":0.2062765210866928,"24":0.04668455943465233,"25":0.06490416824817657,"26":0.16230343282222748,"27":-0.043817054480314255,"28":0.071718730032444,"29":-0.1940528303384781,"30":-0.3008977174758911,"31":-0.19252194464206696,"32":-0.1727314293384552,"33":0.1914011687040329,"34":-0.11831831932067871,"35":-0.03759302943944931,"36":0.009234731085598469,"37":0.12592794001102448,"38":-0.03683100640773773,"39":-0.014200649224221706,"40":-0.1195807233452797,"41":0.09868238121271133,"42":-0.1350594460964203,"43":0.05277709662914276,"44":0.14618469774723053,"45":-0.0411248505115509,"46":0.22526343166828156,"47":0.09794201701879501,"48":0.20070093870162964,"49":-0.07534730434417725,"50":-0.13006027042865753,"51":0.06143667548894882,"52":-0.1417507380247116,"53":-0.05869770050048828,"54":-0.26465079188346863,"55":0.0681532695889473,"56":0.09722821414470673,"57":0.08693566173315048,"58":-0.08288045227527618,"59":0.0312061607837677,"60":-0.11381114274263382,"61":-0.048577260226011276,"62":-0.06365160644054413,"63":0.028714630752801895,"64":0.1425396203994751,"65":-0.2727937698364258,"66":-0.0835796594619751,"67":-0.5773154497146606,"68":-0.13294394314289093,"69":0.44131916761398315,"70":0.38242048025131226,"71":0.42548489570617676,"72":0.12387039512395859,"73":-0.26047810912132263,"74":-0.2506065368652344,"75":0.07491173595190048,"76":0.06663790345191956}},"28":{"bias":-0.22131504118442535,"weights":{"0":0.15994444489479065,"1":-0.3493594527244568,"2":0.26178178191185,"3":0.055664822459220886,"4":-0.04974886029958725,"5":0.47983506321907043,"6":0.20266319811344147,"7":0.34317341446876526,"8":-0.3397934138774872,"9":0.1740831881761551,"10":-0.07725052535533905,"11":-0.3614391088485718,"12":-0.10568080842494965,"13":0.07279181480407715,"14":0.526404619216919,"15":-0.3053739666938782,"16":0.10356615483760834,"17":-0.09901095926761627,"18":0.05438658595085144,"19":0.02094929665327072,"20":-0.02172400802373886,"21":0.23069259524345398,"22":-0.2577931880950928,"23":0.0431002639234066,"24":-0.2543444037437439,"25":-0.30342721939086914,"26":-0.317732572555542,"27":0.34675663709640503,"28":0.155203178524971,"29":0.16099698841571808,"30":0.2911919951438904,"31":-0.0963127464056015,"32":-0.11113744974136353,"33":0.3309529423713684,"34":0.0997605249285698,"35":-0.062043625861406326,"36":0.044368676841259,"37":-0.06809842586517334,"38":-0.11873748898506165,"39":-0.10298549383878708,"40":0.1895151138305664,"41":-0.42857903242111206,"42":0.042151883244514465,"43":-0.2258211076259613,"44":-0.31441667675971985,"45":0.06013046205043793,"46":-0.05748242884874344,"47":0.030114049091935158,"48":-0.2108691930770874,"49":-0.1988753229379654,"50":0.001159503124654293,"51":-0.005957505665719509,"52":-0.0773242861032486,"53":-0.1891753375530243,"54":-0.07347434014081955,"55":0.01619536429643631,"56":0.2644977569580078,"57":0.10990136861801147,"58":0.24788019061088562,"59":0.12723618745803833,"60":0.30633941292762756,"61":0.21924042701721191,"62":0.10571379959583282,"63":-0.07059644162654877,"64":-0.01726117730140686,"65":0.10973072052001953,"66":-0.04094783216714859,"67":0.37060439586639404,"68":0.6266298294067383,"69":0.0882481262087822,"70":0.35844770073890686,"71":0.40307173132896423,"72":-0.23323401808738708,"73":-0.008141781203448772,"74":0.2788386046886444,"75":0.10389828681945801,"76":-0.08917966485023499}},"29":{"bias":-0.11032582074403763,"weights":{"0":-0.2831379175186157,"1":-0.2765357196331024,"2":-0.33030590415000916,"3":0.32938122749328613,"4":-0.08512835949659348,"5":-0.018131036311388016,"6":0.0977240651845932,"7":-0.17596209049224854,"8":0.07669572532176971,"9":-0.29660773277282715,"10":-0.2006993144750595,"11":0.5110816955566406,"12":-0.09233154356479645,"13":0.05604883283376694,"14":-0.026066549122333527,"15":-0.4113759994506836,"16":0.1208057552576065,"17":-0.04282207414507866,"18":0.0589224211871624,"19":0.26579710841178894,"20":-0.2891657054424286,"21":-0.30440059304237366,"22":0.20891398191452026,"23":0.07207843661308289,"24":0.022643843665719032,"25":0.275545597076416,"26":-0.019700026139616966,"27":0.009560669772326946,"28":-0.13232772052288055,"29":-0.03933338820934296,"30":0.029918521642684937,"31":-0.1861502081155777,"32":-0.03742121160030365,"33":0.48428645730018616,"34":0.1920909285545349,"35":0.052430279552936554,"36":0.01745370402932167,"37":0.07958719879388809,"38":-0.09859758615493774,"39":-0.07031894475221634,"40":0.2599330544471741,"41":-0.2270500510931015,"42":0.058487411588430405,"43":0.1807854026556015,"44":0.2903177738189697,"45":0.23702405393123627,"46":0.157017320394516,"47":0.26664143800735474,"48":0.21558822691440582,"49":0.06367658823728561,"50":0.1870332807302475,"51":0.12377608567476273,"52":0.050563301891088486,"53":-0.06728160381317139,"54":0.2990128993988037,"55":0.04473108425736427,"56":-0.2322545051574707,"57":-0.011453898623585701,"58":0.07570762932300568,"59":-0.16630840301513672,"60":-0.20845109224319458,"61":0.28874242305755615,"62":0.28657054901123047,"63":0.12386276572942734,"64":-0.1731502264738083,"65":0.17248722910881042,"66":-0.043880704790353775,"67":0.05195530131459236,"68":0.044175487011671066,"69":-0.2009727954864502,"70":-0.11160549521446228,"71":-0.27702051401138306,"72":0.3765977621078491,"73":-0.2441960871219635,"74":-0.14246895909309387,"75":-0.016986703500151634,"76":0.027137598022818565}},"30":{"bias":0.1488236039876938,"weights":{"0":-0.08366904407739639,"1":-0.2990032136440277,"2":0.06164891645312309,"3":0.05264050513505936,"4":-0.1143086701631546,"5":-0.4762685298919678,"6":-0.21232272684574127,"7":-0.04964190348982811,"8":0.11854612827301025,"9":0.016787001863121986,"10":-0.31095314025878906,"11":-0.023359566926956177,"12":-0.10217113047838211,"13":-0.09447477757930756,"14":-0.44881558418273926,"15":0.21597887575626373,"16":-0.1575278639793396,"17":-0.24418288469314575,"18":0.00900641642510891,"19":-0.20401160418987274,"20":0.06499301642179489,"21":-0.1098979115486145,"22":-0.27909696102142334,"23":0.08638278394937515,"24":-0.21205797791481018,"25":-0.1367078721523285,"26":0.2635890245437622,"27":-0.15769508481025696,"28":0.17254123091697693,"29":-0.22955389320850372,"30":-0.16543720662593842,"31":0.18520815670490265,"32":0.09723139554262161,"33":0.5456806421279907,"34":-0.15067511796951294,"35":-0.19066235423088074,"36":-0.03210019692778587,"37":0.01855887845158577,"38":0.10088604688644409,"39":0.0965174213051796,"40":-0.22347071766853333,"41":0.4799800515174866,"42":0.001303538796491921,"43":-0.27357468008995056,"44":0.013003427535295486,"45":0.027594076469540596,"46":-0.29753878712654114,"47":-0.2918708324432373,"48":-0.2407156229019165,"49":-0.00389295001514256,"50":-0.0809120163321495,"51":0.10059540718793869,"52":0.027087587863206863,"53":0.16771452128887177,"54":-0.15242600440979004,"55":-0.2341473251581192,"56":-0.2571064531803131,"57":-0.2760941982269287,"58":-0.1884678304195404,"59":-0.04740627110004425,"60":0.01608452759683132,"61":0.10583388060331345,"62":-0.037993647158145905,"63":0.050858281552791595,"64":0.02817510813474655,"65":-0.26255038380622864,"66":0.06349602341651917,"67":-0.2545090317726135,"68":-0.11051727086305618,"69":0.0405280627310276,"70":-0.06295622140169144,"71":-0.19390720129013062,"72":0.001791617483831942,"73":-0.18359597027301788,"74":-0.4407851994037628,"75":0.1204785630106926,"76":0.13802209496498108}},"31":{"bias":-0.05599307641386986,"weights":{"0":-0.2483559250831604,"1":-0.11070255190134048,"2":-0.14370663464069366,"3":-0.2596030831336975,"4":0.14247091114521027,"5":-0.16395072638988495,"6":0.08849667012691498,"7":-0.3288932740688324,"8":-0.03512060269713402,"9":-0.3337014317512512,"10":-0.3136449158191681,"11":0.04478863254189491,"12":-0.055801957845687866,"13":-0.08880988508462906,"14":-0.04251459613442421,"15":0.08194555342197418,"16":-0.05487507954239845,"17":0.11748842149972916,"18":0.036463506519794464,"19":0.3046354055404663,"20":-0.14107777178287506,"21":-0.15585266053676605,"22":0.07654646039009094,"23":0.10206563025712967,"24":-0.1276199221611023,"25":-0.10834003239870071,"26":0.28655898571014404,"27":-0.12543223798274994,"28":0.14067578315734863,"29":0.19843627512454987,"30":-0.045556776225566864,"31":-0.14512667059898376,"32":0.03425661101937294,"33":-0.11468466371297836,"34":-0.2567586302757263,"35":0.13957640528678894,"36":-0.1067073866724968,"37":0.0851048156619072,"38":0.46474194526672363,"39":-0.06421398371458054,"40":0.07925248146057129,"41":0.18230457603931427,"42":-0.036327462643384933,"43":-0.09629340469837189,"44":0.06918244808912277,"45":-0.04720542952418327,"46":0.10371289402246475,"47":-0.27252286672592163,"48":-0.19252058863639832,"49":-0.09444896131753922,"50":-0.23402662575244904,"51":-0.15152209997177124,"52":-0.02632846310734749,"53":0.17492026090621948,"54":-0.02500646933913231,"55":0.22939439117908478,"56":-0.13445700705051422,"57":-0.06392724066972733,"58":0.2568763494491577,"59":-0.16484378278255463,"60":-0.18146267533302307,"61":-0.0823436975479126,"62":0.2178359031677246,"63":0.17913304269313812,"64":0.09802974760532379,"65":0.02897438034415245,"66":-0.029889412224292755,"67":-0.054587241262197495,"68":-0.1240212544798851,"69":0.1950681060552597,"70":-0.11221134662628174,"71":0.06698719412088394,"72":0.06632152199745178,"73":-0.11368599534034729,"74":0.07033036649227142,"75":-0.017512256279587746,"76":-0.0843830406665802}},"32":{"bias":-0.30738022923469543,"weights":{"0":0.3354642391204834,"1":-0.24729302525520325,"2":0.19644016027450562,"3":-0.09278125315904617,"4":0.3674352467060089,"5":0.6108477711677551,"6":-0.1452523022890091,"7":0.09171944856643677,"8":0.38869255781173706,"9":-0.048723410815000534,"10":0.00015213739243336022,"11":0.1418280303478241,"12":0.6659467220306396,"13":-0.019222944974899292,"14":0.3486250042915344,"15":-0.354335218667984,"16":0.0298354122787714,"17":0.20244015753269196,"18":0.15171879529953003,"19":-0.11674143373966217,"20":0.0530335009098053,"21":0.10794737190008163,"22":0.03561820834875107,"23":0.0038446299731731415,"24":-0.3483705520629883,"25":-0.1675538867712021,"26":0.27433502674102783,"27":0.0989152044057846,"28":-0.14770470559597015,"29":0.23001456260681152,"30":0.1221470832824707,"31":0.018159525468945503,"32":-0.1063893735408783,"33":-0.4541696012020111,"34":-0.08769219368696213,"35":0.09907882660627365,"36":0.09199520200490952,"37":0.004978729411959648,"38":0.4417516589164734,"39":0.16113504767417908,"40":0.1048058271408081,"41":0.42031240463256836,"42":-0.017928598448634148,"43":-0.07537758350372314,"44":-0.34774696826934814,"45":-0.30425551533699036,"46":-0.2810134291648865,"47":-0.19565695524215698,"48":-0.3081267476081848,"49":-0.1554413139820099,"50":-0.30210044980049133,"51":0.027478771284222603,"52":0.06601230800151825,"53":0.023082295432686806,"54":-0.13767333328723907,"55":0.001016798778437078,"56":0.340524822473526,"57":0.25829780101776123,"58":-0.03640411049127579,"59":-0.13582397997379303,"60":0.058003515005111694,"61":0.08543381839990616,"62":0.17133444547653198,"63":0.09503736346960068,"64":-0.12446974217891693,"65":0.03246516361832619,"66":0.12924721837043762,"67":0.4125426709651947,"68":0.2106757014989853,"69":-0.37124401330947876,"70":-0.24933116137981415,"71":-0.38648468255996704,"72":0.029521604999899864,"73":0.10123401135206223,"74":-0.06118970736861229,"75":0.06863077729940414,"76":-0.07295437902212143}},"33":{"bias":-0.126850888133049,"weights":{"0":0.19843366742134094,"1":0.3795624077320099,"2":-0.0582759715616703,"3":-0.002458666218444705,"4":0.20275072753429413,"5":0.10836435109376907,"6":-0.33509236574172974,"7":-0.3124612867832184,"8":-0.10994897037744522,"9":-0.0006330364267341793,"10":0.25935253500938416,"11":-0.026256108656525612,"12":-0.1773863434791565,"13":-0.0234718918800354,"14":-0.2611408233642578,"15":-0.09786625951528549,"16":0.0009254787000827491,"17":-0.06733369827270508,"18":-0.01553388312458992,"19":-0.03239735960960388,"20":0.16448508203029633,"21":-0.03764776885509491,"22":0.12844324111938477,"23":0.11489158123731613,"24":-0.010759907774627209,"25":0.21749696135520935,"26":-0.20207320153713226,"27":-0.1546250283718109,"28":-0.1122119352221489,"29":-0.141451895236969,"30":-0.13677699863910675,"31":0.0010611532488837838,"32":0.07336389273405075,"33":0.3589133024215698,"34":-0.26961255073547363,"35":-0.13276319205760956,"36":0.10001672804355621,"37":0.1652882993221283,"38":-0.16944071650505066,"39":-0.1355862319469452,"40":0.05421075224876404,"41":-0.19793027639389038,"42":0.049543291330337524,"43":0.09774326533079147,"44":-0.05467047542333603,"45":-0.10644152760505676,"46":0.19144794344902039,"47":-0.08750627189874649,"48":-0.03423619270324707,"49":0.20240308344364166,"50":0.08411291986703873,"51":0.004768745042383671,"52":0.17987003922462463,"53":0.17968590557575226,"54":-0.017615513876080513,"55":0.052965108305215836,"56":-0.060508500784635544,"57":0.027958381921052933,"58":-0.010752549394965172,"59":0.1334848403930664,"60":-0.18950282037258148,"61":0.24173347651958466,"62":0.21578733623027802,"63":-0.03924131020903587,"64":0.15524761378765106,"65":0.10884712636470795,"66":0.1514124721288681,"67":0.21117742359638214,"68":-0.22770915925502777,"69":-0.4795067012310028,"70":-0.4046997129917145,"71":-0.2437041997909546,"72":-0.032018911093473434,"73":0.043948329985141754,"74":0.06240114942193031,"75":-0.18223167955875397,"76":-0.19223357737064362}},"34":{"bias":-0.0306935366243124,"weights":{"0":-0.0035269635263830423,"1":0.5632946491241455,"2":-0.10225550085306168,"3":-0.059679776430130005,"4":-0.02084089256823063,"5":-0.03776637837290764,"6":-0.35535988211631775,"7":-0.1334959715604782,"8":0.1334102302789688,"9":-0.07106370478868484,"10":-0.0366322323679924,"11":0.2976435422897339,"12":0.30578142404556274,"13":0.1535542756319046,"14":-0.23452337086200714,"15":0.16780556738376617,"16":-0.11114109307527542,"17":0.08245144039392471,"18":-0.18859297037124634,"19":-0.17155258357524872,"20":0.06900189071893692,"21":0.07171861082315445,"22":0.2357037365436554,"23":0.09512468427419662,"24":-0.03550039604306221,"25":0.07274338603019714,"26":-0.019022561609745026,"27":-0.04194654896855354,"28":0.02626694180071354,"29":-0.15341617166996002,"30":0.2419702261686325,"31":-0.08069802075624466,"32":-0.0015729485312476754,"33":-0.39008447527885437,"34":-0.026481738314032555,"35":0.071085624396801,"36":-0.019068527966737747,"37":-0.08727037161588669,"38":0.11577150225639343,"39":-0.12737628817558289,"40":0.10300670564174652,"41":-0.03079063817858696,"42":0.2412722110748291,"43":0.016084708273410797,"44":-0.02793199196457863,"45":0.23408463597297668,"46":0.07659594714641571,"47":0.22827285528182983,"48":0.21391887962818146,"49":-0.10786186903715134,"50":0.2179877907037735,"51":0.15176109969615936,"52":-0.09930037707090378,"53":-0.03327247500419617,"54":-0.24033857882022858,"55":-0.1264595240354538,"56":-0.22815586626529694,"57":-0.3079785108566284,"58":-0.15573789179325104,"59":-0.15108826756477356,"60":-0.25616031885147095,"61":0.03512376919388771,"62":-0.08207762241363525,"63":-0.15969273447990417,"64":-0.013115419074892998,"65":-0.07386655360460281,"66":-0.10985279828310013,"67":0.3179711699485779,"68":0.10141006112098694,"69":-0.3218754827976227,"70":-0.30836525559425354,"71":-0.3408515453338623,"72":0.15765659511089325,"73":0.029479658231139183,"74":-0.1621340662240982,"75":-0.05414091795682907,"76":0.11652036011219025}},"35":{"bias":-0.19213975965976715,"weights":{"0":0.034481313079595566,"1":-0.5571520328521729,"2":0.18302614986896515,"3":0.07409403473138809,"4":-0.3682119846343994,"5":0.06838932633399963,"6":-0.10986730456352234,"7":0.14746499061584473,"8":0.5112868547439575,"9":0.2886686325073242,"10":0.14876525104045868,"11":0.3861805200576782,"12":0.41410866379737854,"13":0.08573129773139954,"14":0.4032576382160187,"15":-0.6055467128753662,"16":-0.01076541654765606,"17":-0.11070408672094345,"18":-0.009487388655543327,"19":-0.01674894243478775,"20":-0.1421644389629364,"21":0.35124102234840393,"22":0.12708117067813873,"23":0.1319032907485962,"24":0.07289424538612366,"25":-0.09753969311714172,"26":0.4100295603275299,"27":-0.08254190534353256,"28":0.12310076504945755,"29":0.08625345677137375,"30":-0.030150195583701134,"31":0.04942204803228378,"32":0.03937536105513573,"33":0.3874041736125946,"34":0.06345117837190628,"35":-0.08359929919242859,"36":-0.10356902331113815,"37":-0.10084699094295502,"38":0.06727740913629532,"39":-0.023492079228162766,"40":0.23395107686519623,"41":0.29945245385169983,"42":0.04749537631869316,"43":0.2473536878824234,"44":0.26488134264945984,"45":0.13126644492149353,"46":0.07459883391857147,"47":-0.03427249938249588,"48":0.2210664302110672,"49":0.03482254594564438,"50":-0.10221672058105469,"51":0.222051203250885,"52":0.01835118979215622,"53":0.0039351871237158775,"54":0.016405513510107994,"55":-0.15427285432815552,"56":0.22865204513072968,"57":0.17170947790145874,"58":0.01610121689736843,"59":0.12632088363170624,"60":0.0791420191526413,"61":-0.09588269144296646,"62":-0.11331617832183838,"63":-0.02204621024429798,"64":-0.11893339455127716,"65":0.11481133103370667,"66":0.07859193533658981,"67":0.021000118926167488,"68":-0.30915898084640503,"69":-0.04760785773396492,"70":-0.013335920870304108,"71":-0.25663062930107117,"72":0.19611944258213043,"73":-0.39598774909973145,"74":-0.546266496181488,"75":0.14695227146148682,"76":0.13932296633720398}},"36":{"bias":0.21345224976539612,"weights":{"0":-0.24869795143604279,"1":0.3656371533870697,"2":-0.371656596660614,"3":-0.154616117477417,"4":-0.07569339126348495,"5":-0.37007835507392883,"6":-0.2543487548828125,"7":-0.19669656455516815,"8":-0.00956348329782486,"9":-0.07952435314655304,"10":-0.2928612232208252,"11":-0.3621363341808319,"12":-0.28451505303382874,"13":-0.13557212054729462,"14":-0.4262408912181854,"15":0.5969421863555908,"16":0.03360002860426903,"17":-0.16093288362026215,"18":-0.20166127383708954,"19":0.01925828866660595,"20":0.2388065904378891,"21":-0.12936824560165405,"22":-0.06347831338644028,"23":-0.21138900518417358,"24":0.028132062405347824,"25":-0.13111066818237305,"26":-0.030264347791671753,"27":-0.2890787124633789,"28":-0.09427288919687271,"29":-0.1352240890264511,"30":-0.003924335353076458,"31":-0.009963726624846458,"32":0.06698944419622421,"33":0.1750316023826599,"34":-0.22343583405017853,"35":-0.07911964505910873,"36":0.12657465040683746,"37":0.07766114175319672,"38":-0.14608246088027954,"39":0.12662369012832642,"40":0.05778215080499649,"41":0.1645844280719757,"42":-0.03637615591287613,"43":0.043047308921813965,"44":-0.06923218816518784,"45":-0.2159808725118637,"46":-0.2789197266101837,"47":-0.020929666236042976,"48":-0.05396769940853119,"49":-0.2059250921010971,"50":0.07014121115207672,"51":-0.1835228055715561,"52":-0.1452885866165161,"53":0.07286323606967926,"54":-0.0011361201759427786,"55":-0.1342582255601883,"56":-0.26573383808135986,"57":-0.2129306048154831,"58":0.07504801452159882,"59":0.013303994201123714,"60":-0.33464932441711426,"61":-0.01879941113293171,"62":-0.21895301342010498,"63":0.04801284894347191,"64":0.02689872868359089,"65":-0.16988258063793182,"66":0.018546493723988533,"67":0.19629156589508057,"68":0.16559195518493652,"69":0.044261738657951355,"70":0.07925677299499512,"71":-0.00810747966170311,"72":-0.2535577118396759,"73":-0.055930208414793015,"74":0.1419283151626587,"75":0.07526952773332596,"76":0.14202998578548431}},"37":{"bias":-0.05950665846467018,"weights":{"0":0.22361545264720917,"1":0.8236416578292847,"2":0.18526628613471985,"3":-0.07507316023111343,"4":-0.115396648645401,"5":-0.0792141705751419,"6":-0.061589669436216354,"7":0.1355563849210739,"8":-0.07818884402513504,"9":0.328357994556427,"10":-0.0016679948894307017,"11":-0.22156986594200134,"12":-0.04492660611867905,"13":0.17253988981246948,"14":-0.1720724105834961,"15":0.40155139565467834,"16":-0.163625568151474,"17":-0.07653024792671204,"18":-0.16818638145923615,"19":-0.21287627518177032,"20":-0.31066325306892395,"21":0.3803284168243408,"22":-0.09084340184926987,"23":-0.08961840718984604,"24":0.10152802616357803,"25":0.08588194847106934,"26":0.14310488104820251,"27":-0.191578671336174,"28":-0.17898394167423248,"29":-0.2522658407688141,"30":-0.2604299783706665,"31":0.031493037939071655,"32":0.07315275818109512,"33":-0.7750824093818665,"34":-0.2989719808101654,"35":-0.09135831147432327,"36":0.11072415113449097,"37":0.17408058047294617,"38":0.12967626750469208,"39":0.09524691849946976,"40":-0.3527395725250244,"41":-0.054440125823020935,"42":0.1873990148305893,"43":0.18785923719406128,"44":-0.03215331956744194,"45":-0.10102174431085587,"46":-0.029316389933228493,"47":0.18561647832393646,"48":0.21831516921520233,"49":-0.08550870418548584,"50":0.1383180469274521,"51":0.19188375771045685,"52":0.09712671488523483,"53":0.15144284069538116,"54":0.1175990104675293,"55":0.035162027925252914,"56":0.1440284103155136,"57":0.29825910925865173,"58":-0.2491542100906372,"59":-0.1393602043390274,"60":0.29664427042007446,"61":0.02348368987441063,"62":-0.007616544608026743,"63":-0.040638361126184464,"64":0.055848151445388794,"65":-0.23352636396884918,"66":-0.009256994351744652,"67":-0.5450868010520935,"68":-0.4007345736026764,"69":0.16871844232082367,"70":0.1796998530626297,"71":0.07813635468482971,"72":0.05175943672657013,"73":-0.2982098460197449,"74":-0.15848082304000854,"75":-0.11809054762125015,"76":0.1215042695403099}}},{"Poor dietary choices":{"bias":-0.10728897154331207,"weights":{"0":-0.3270763158798218,"1":-0.17944683134555817,"2":0.2291489988565445,"3":-0.30173489451408386,"4":0.5659116506576538,"5":-0.5496899485588074,"6":0.8373562693595886,"7":0.6858963966369629,"8":0.5227327346801758,"9":0.2575424313545227,"10":0.3854435980319977,"11":0.26810669898986816,"12":0.38205915689468384,"13":-0.4555613398551941,"14":-0.6410394310951233,"15":-1.160132884979248,"16":-0.4777621626853943,"17":-0.21601560711860657,"18":-0.18280364573001862,"19":0.20009200274944305,"20":-0.5913152694702148,"21":-0.8348371982574463,"22":-0.11528369784355164,"23":0.5690019726753235,"24":-0.16941677033901215,"25":-0.9066506624221802,"26":-0.5245121121406555,"27":0.4508216977119446,"28":-0.12857572734355927,"29":0.34431034326553345,"30":0.9151157140731812,"31":0.004729895852506161,"32":-0.8708871006965637,"33":0.4404732584953308,"34":-0.4844811260700226,"35":0.1631091833114624,"36":0.44824713468551636,"37":-0.6854731440544128}},"Intestinal Permeability / Leaky Gut Syndrome 5":{"bias":-0.19781486690044403,"weights":{"0":-0.1950996071100235,"1":0.32278531789779663,"2":-0.047162678092718124,"3":-0.948243260383606,"4":-0.7141173481941223,"5":-0.4645967483520508,"6":-0.530680239200592,"7":0.37667563557624817,"8":-0.6762716174125671,"9":-0.2374563366174698,"10":0.3781549334526062,"11":0.9466244578361511,"12":-0.6175127029418945,"13":0.470177561044693,"14":-0.2570142447948456,"15":0.46465036273002625,"16":-0.5362050533294678,"17":0.6137018203735352,"18":0.02795647270977497,"19":-1.1990939378738403,"20":0.6241470575332642,"21":-0.2955799996852875,"22":-0.4696696698665619,"23":-0.47026246786117554,"24":-0.3129107356071472,"25":0.1962851732969284,"26":-0.35170719027519226,"27":-0.9256510734558105,"28":0.06897217035293579,"29":-0.6101922392845154,"30":-0.40736111998558044,"31":-0.256761759519577,"32":0.5539718866348267,"33":0.5092247128486633,"34":0.21541732549667358,"35":-0.8994610905647278,"36":0.27773451805114746,"37":-0.5359050035476685}},"Impaired Gut Function":{"bias":-0.4321216642856598,"weights":{"0":-0.7215823531150818,"1":-1.1879243850708008,"2":-0.43334758281707764,"3":0.03456956893205643,"4":-0.1760391891002655,"5":0.05232758820056915,"6":-0.684178352355957,"7":-0.05988382175564766,"8":-0.29951414465904236,"9":0.27495262026786804,"10":-0.2973405122756958,"11":0.998382031917572,"12":-0.1831752061843872,"13":0.26603055000305176,"14":0.43342477083206177,"15":0.34746888279914856,"16":-0.7085222601890564,"17":-0.6406852006912231,"18":0.5680938363075256,"19":0.03953573852777481,"20":-0.17251329123973846,"21":0.8452029228210449,"22":-0.14524376392364502,"23":0.07280371338129044,"24":0.38329437375068665,"25":-0.6769737601280212,"26":0.3860805034637451,"27":0.6965139508247375,"28":0.45981889963150024,"29":-0.3916477859020233,"30":-0.08210363239049911,"31":0.10632536560297012,"32":-1.0356080532073975,"33":-0.8833771347999573,"34":-0.7668694853782654,"35":-0.7642760872840881,"36":0.31701162457466125,"37":-0.10796882957220078}},"Low stomach acid 5":{"bias":-0.22378498315811157,"weights":{"0":-0.6558225154876709,"1":0.03274835646152496,"2":-0.3503209054470062,"3":-0.07885560393333435,"4":-0.20943039655685425,"5":0.5408946871757507,"6":0.6328355073928833,"7":-0.7269861698150635,"8":-0.16216860711574554,"9":-0.8809878826141357,"10":-0.4891917109489441,"11":-0.5286750793457031,"12":-0.6116336584091187,"13":-0.18207263946533203,"14":0.37385544180870056,"15":-1.029615044593811,"16":-0.037255559116601944,"17":0.2714507281780243,"18":0.22530269622802734,"19":0.5513618588447571,"20":-0.06029285863041878,"21":0.1016787514090538,"22":0.48118671774864197,"23":0.24547649919986725,"24":-0.13215230405330658,"25":-0.9610985517501831,"26":-0.7870530486106873,"27":-0.8216360211372375,"28":0.7366833090782166,"29":0.4311273396015167,"30":-0.23007895052433014,"31":-0.4807601869106293,"32":0.16010551154613495,"33":-0.41189199686050415,"34":0.017385225743055344,"35":0.38023412227630615,"36":-0.2914600968360901,"37":-1.2989801168441772}},"Inflamed Gut 1":{"bias":-0.15493044257164001,"weights":{"0":0.7703613638877869,"1":-0.45595332980155945,"2":-0.7406929731369019,"3":-0.020367667078971863,"4":-0.05487596616148949,"5":-0.3500937223434448,"6":-0.7926948070526123,"7":0.24617452919483185,"8":0.7467342615127563,"9":0.09027718752622604,"10":0.0412929467856884,"11":-0.42580628395080566,"12":0.02138686180114746,"13":-0.6849746108055115,"14":-0.37497198581695557,"15":-1.0081299543380737,"16":-0.07146310806274414,"17":-0.02115270309150219,"18":-0.26735711097717285,"19":-0.835161566734314,"20":0.7583156824111938,"21":-0.09444133937358856,"22":0.6139019727706909,"23":-0.19936439394950867,"24":-0.18358224630355835,"25":-0.0990525409579277,"26":0.33653852343559265,"27":0.110588937997818,"28":-0.7395524382591248,"29":-0.4986274540424347,"30":0.39014366269111633,"31":0.2176714539527893,"32":-0.8471713066101074,"33":0.16622336208820343,"34":0.39496615529060364,"35":-1.0512527227401733,"36":1.0629087686538696,"37":0.820389449596405}},"Bacterial Imbalance 7":{"bias":-0.41107118129730225,"weights":{"0":-0.12996220588684082,"1":0.11616916954517365,"2":0.1761627048254013,"3":-0.26451656222343445,"4":0.3699784278869629,"5":-0.7519586086273193,"6":-0.941986083984375,"7":0.22319696843624115,"8":0.21547405421733856,"9":0.5493009090423584,"10":-0.5131078958511353,"11":-0.5601052641868591,"12":0.3518260717391968,"13":-1.0212113857269287,"14":-0.35819581151008606,"15":0.49438926577568054,"16":0.547366201877594,"17":-0.7988582253456116,"18":-0.4961613118648529,"19":0.011608228087425232,"20":-0.8101498484611511,"21":0.47087419033050537,"22":-0.5501405596733093,"23":0.35011252760887146,"24":-0.18785236775875092,"25":0.15104271471500397,"26":0.20766061544418335,"27":-0.5190691947937012,"28":0.1322614550590515,"29":0.3797132074832916,"30":-0.8756394386291504,"31":0.4850555658340454,"32":0.21850243210792542,"33":-0.13052350282669067,"34":-0.8113424777984619,"35":-0.23479165136814117,"36":-0.6242724061012268,"37":-0.48132964968681335}},"Gut Infection -5":{"bias":-0.32693564891815186,"weights":{"0":0.33658602833747864,"1":-0.6053275465965271,"2":0.7875934839248657,"3":0.6252790689468384,"4":-0.47991999983787537,"5":-0.2101082056760788,"6":-0.32720690965652466,"7":-0.7553902864456177,"8":-0.34349489212036133,"9":-0.732302725315094,"10":-0.29300442337989807,"11":-0.6618180871009827,"12":-0.028200004249811172,"13":-0.29644775390625,"14":-0.8966360092163086,"15":0.31798359751701355,"16":-1.0245590209960938,"17":0.3203539550304413,"18":-0.05305683612823486,"19":-0.0898083969950676,"20":-1.246724009513855,"21":-0.3321343660354614,"22":0.1540401428937912,"23":0.3894892930984497,"24":-0.08113255351781845,"25":0.34804990887641907,"26":-0.1740090698003769,"27":0.16862602531909943,"28":-1.2234588861465454,"29":-0.1721201092004776,"30":0.8163591623306274,"31":0.5156493186950684,"32":0.6503880023956299,"33":-0.4234797954559326,"34":0.17136220633983612,"35":0.6671818494796753,"36":0.12192992866039276,"37":-0.1111287847161293}},"Small Intestine Bacterial Overgrowth (SIBO)6":{"bias":-0.26420995593070984,"weights":{"0":-0.1568378210067749,"1":-0.24244381487369537,"2":-0.6046540141105652,"3":-0.659717857837677,"4":0.535939633846283,"5":0.36975792050361633,"6":0.6428380012512207,"7":-0.0914798155426979,"8":0.34996235370635986,"9":-0.8318433165550232,"10":0.5029910206794739,"11":-0.7922990322113037,"12":-0.023484697565436363,"13":-0.05515001714229584,"14":-0.40498825907707214,"15":0.45979374647140503,"16":-0.06364816427230835,"17":-0.6794947981834412,"18":-0.21589916944503784,"19":-0.28385815024375916,"20":-0.30920958518981934,"21":-0.26709842681884766,"22":0.08510050177574158,"23":-1.100091576576233,"24":-0.7381253838539124,"25":-0.040733736008405685,"26":0.3603896200656891,"27":0.1543896496295929,"28":0.47223466634750366,"29":-1.1504616737365723,"30":-0.3892670273780823,"31":-0.8014804124832153,"32":0.3875960409641266,"33":-0.2249012142419815,"34":-0.4353938102722168,"35":0.5491302609443665,"36":-0.8927406072616577,"37":0.9576317071914673}},"Mal-absorption":{"bias":-0.48038578033447266,"weights":{"0":0.37608712911605835,"1":0.2982496917247772,"2":-0.08381091803312302,"3":0.32398876547813416,"4":-0.6518863439559937,"5":-0.044963862746953964,"6":0.28063806891441345,"7":-0.1718771755695343,"8":-0.5826250910758972,"9":0.0033843598794192076,"10":-0.16395075619220734,"11":-0.3225570619106293,"12":-0.6234557628631592,"13":0.18425731360912323,"14":0.03518636152148247,"15":-0.4332292973995209,"16":0.024447796866297722,"17":0.11164587736129761,"18":-0.9220005869865417,"19":0.37605050206184387,"20":0.560940146446228,"21":-0.9296537637710571,"22":-1.185634970664978,"23":-0.7136082649230957,"24":-0.031620725989341736,"25":0.19073358178138733,"26":-0.0033203931525349617,"27":0.10359145700931549,"28":-1.1127737760543823,"29":0.653438925743103,"30":-0.49374252557754517,"31":-0.4414118528366089,"32":-1.0198085308074951,"33":0.19997438788414001,"34":0.5318074822425842,"35":0.2818930745124817,"36":-0.5175120234489441,"37":0.3018435537815094}}}],"outputLookup":true,"inputLookup":false,"activation":"sigmoid","trainOpts":{"iterations":20000,"errorThresh":0.005,"log":false,"logPeriod":10,"learningRate":0.3,"momentum":0.1,"callbackPeriod":10,"beta1":0.9,"beta2":0.999,"epsilon":1e-8}}